{"learner":{"attributes":{"scikit_learn":"{\"_estimator_type\": \"classifier\"}"},"feature_names":[],"feature_types":[],"gradient_booster":{"model":{"gbtree_model_param":{"num_parallel_tree":"1","num_trees":"400"},"iteration_indptr":[0,1,2,3,4,5,6,7,8,9,10,11,12,13,14,15,16,17,18,19,20,21,22,23,24,25,26,27,28,29,30,31,32,33,34,35,36,37,38,39,40,41,42,43,44,45,46,47,48,49,50,51,52,53,54,55,56,57,58,59,60,61,62,63,64,65,66,67,68,69,70,71,72,73,74,75,76,77,78,79,80,81,82,83,84,85,86,87,88,89,90,91,92,93,94,95,96,97,98,99,100,101,102,103,104,105,106,107,108,109,110,111,112,113,114,115,116,117,118,119,120,121,122,123,124,125,126,127,128,129,130,131,132,133,134,135,136,137,138,139,140,141,142,143,144,145,146,147,148,149,150,151,152,153,154,155,156,157,158,159,160,161,162,163,164,165,166,167,168,169,170,171,172,173,174,175,176,177,178,179,180,181,182,183,184,185,186,187,188,189,190,191,192,193,194,195,196,197,198,199,200,201,202,203,204,205,206,207,208,209,210,211,212,213,214,215,216,217,218,219,220,221,222,223,224,225,226,227,228,229,230,231,232,233,234,235,236,237,238,239,240,241,242,243,244,245,246,247,248,249,250,251,252,253,254,255,256,257,258,259,260,261,262,263,264,265,266,267,268,269,270,271,272,273,274,275,276,277,278,279,280,281,282,283,284,285,286,287,288,289,290,291,292,293,294,295,296,297,298,299,300,301,302,303,304,305,306,307,308,309,310,311,312,313,314,315,316,317,318,319,320,321,322,323,324,325,326,327,328,329,330,331,332,333,334,335,336,337,338,339,340,341,342,343,344,345,346,347,348,349,350,351,352,353,354,355,356,357,358,359,360,361,362,363,364,365,366,367,368,369,370,371,372,373,374,375,376,377,378,379,380,381,382,383,384,385,386,387,388,389,390,391,392,393,394,395,396,397,398,399,400],"tree_info":[0,0,0,0,0,0,0,0,0,0,0,0,0,0,0,0,0,0,0,0,0,0,0,0,0,0,0,0,0,0,0,0,0,0,0,0,0,0,0,0,0,0,0,0,0,0,0,0,0,0,0,0,0,0,0,0,0,0,0,0,0,0,0,0,0,0,0,0,0,0,0,0,0,0,0,0,0,0,0,0,0,0,0,0,0,0,0,0,0,0,0,0,0,0,0,0,0,0,0,0,0,0,0,0,0,0,0,0,0,0,0,0,0,0,0,0,0,0,0,0,0,0,0,0,0,0,0,0,0,0,0,0,0,0,0,0,0,0,0,0,0,0,0,0,0,0,0,0,0,0,0,0,0,0,0,0,0,0,0,0,0,0,0,0,0,0,0,0,0,0,0,0,0,0,0,0,0,0,0,0,0,0,0,0,0,0,0,0,0,0,0,0,0,0,0,0,0,0,0,0,0,0,0,0,0,0,0,0,0,0,0,0,0,0,0,0,0,0,0,0,0,0,0,0,0,0,0,0,0,0,0,0,0,0,0,0,0,0,0,0,0,0,0,0,0,0,0,0,0,0,0,0,0,0,0,0,0,0,0,0,0,0,0,0,0,0,0,0,0,0,0,0,0,0,0,0,0,0,0,0,0,0,0,0,0,0,0,0,0,0,0,0,0,0,0,0,0,0,0,0,0,0,0,0,0,0,0,0,0,0,0,0,0,0,0,0,0,0,0,0,0,0,0,0,0,0,0,0,0,0,0,0,0,0,0,0,0,0,0,0,0,0,0,0,0,0,0,0,0,0,0,0,0,0,0,0,0,0,0,0,0,0,0,0,0,0,0,0,0,0,0,0,0,0,0,0,0,0,0,0,0,0,0,0,0,0,0,0,0,0,0,0,0,0,0,0,0,0,0,0],"trees":[{"base_weights":[4.0785875E-2,-2.298931E-1,1.4628001E0,-4.0890574E-1,9.7664975E-2,1.5515561E0,-1.4474933E-2,-4.5515487E-1,8.271493E-2,9.080543E-1,1.7731085E0,-5.0010973E-1,8.162563E-2,-3.151722E-2,1.1253985E0,1.8588517E0,1.1200849E-2,-5.4353714E-1,8.041534E-2,5.5556184E-1,7.325247E-2,9.594358E-2,2.9395303E-2,-2.9097334E-2,7.7541016E-2,-4.247575E-3,5.617556E-2],"categories":[],"categories_nodes":[],"categories_segments":[],"categories_sizes":[],"default_left":[0,0,0,0,0,0,0,0,0,0,0,0,0,0,0,0,0,0,0,0,0,0,0,0,0,0,0],"id":0,"left_children":[1,3,5,7,-1,9,-1,11,-1,13,15,17,-1,-1,19,21,-1,23,-1,25,-1,-1,-1,-1,-1,-1,-1],"loss_changes":[1.0760924E2,9.263901E1,7.4015656E0,2.1556053E1,0E0,4.4782715E0,0E0,2.090213E1,0E0,5.051715E0,3.66362E0,2.012727E1,0E0,0E0,1.4579649E0,1.0817261E0,0E0,1.7536171E1,0E0,2.2761335E0,0E0,0E0,0E0,0E0,0E0,0E0,0E0],"parents":[2147483647,0,0,1,1,2,2,3,3,5,5,7,7,9,9,10,10,11,11,14,14,15,15,17,17,19,19],"right_children":[2,4,6,8,-1,10,-1,12,-1,14,16,18,-1,-1,20,22,-1,24,-1,26,-1,-1,-1,-1,-1,-1,-1],"split_conditions":[1E0,1E0,1E0,1E0,9.7664975E-2,1E0,-1.4474933E-2,1E0,8.271493E-2,1E0,1E0,1E0,8.162563E-2,-3.151722E-2,1E0,1E0,1.1200849E-2,1E0,8.041534E-2,1E0,7.325247E-2,9.594358E-2,2.9395303E-2,-2.9097334E-2,7.7541016E-2,-4.247575E-3,5.617556E-2],"split_indices":[44,43,587,54,0,452,0,53,0,231,660,56,0,0,758,345,0,0,0,318,0,0,0,0,0,0,0],"split_type":[0,0,0,0,0,0,0,0,0,0,0,0,0,0,0,0,0,0,0,0,0,0,0,0,0,0,0],"sum_hessian":[2.7769662E2,2.3399437E2,4.370226E1,2.1701292E2,1.698145E1,4.170444E1,1.9978175E0,2.1301729E2,3.995635E0,1.1986905E1,2.9717535E1,2.0927138E2,3.7459078E0,1.248636E0,1.0738269E1,2.7969444E1,1.7480903E0,2.057752E2,3.4961805E0,4.994544E0,5.7437253E0,2.6221355E1,1.7480903E0,2.0277847E2,2.9967263E0,2.746999E0,2.2475448E0],"tree_param":{"num_deleted":"0","num_feature":"813","num_nodes":"27","size_leaf_vector":"1"}},{"base_weights":[-3.6143225E-2,-1.6056822E-1,9.265371E-2,-2.7926087E-1,6.4367884E-1,-3.600647E-1,9.00466E-1,8.441733E-1,-5.966521E-1,-4.258269E-1,6.790165E-1,7.035264E-2,7.305449E-2,9.737299E-1,-3.0724553E-2,-4.8873047E-3,-4.6900135E-2,-4.602592E-1,7.485839E-2,9.070172E-1,-2.5025148E-2,-3.7054378E-1,5.827093E-2,1.0661979E0,-1.8413622E-2,-2.4585215E-2,7.087687E-2,6.0914684E-2,-2.4910413E-2,-4.685534E-2,2.9399691E-2,5.9984148E-2,2.0072048E-3],"categories":[],"categories_nodes":[],"categories_segments":[],"categories_sizes":[],"default_left":[0,0,0,0,0,0,0,0,0,0,0,0,0,0,0,0,0,0,0,0,0,0,0,0,0,0,0,0,0,0,0,0,0],"id":1,"left_children":[1,3,-1,5,7,9,11,13,15,17,19,21,-1,23,-1,-1,-1,25,-1,27,-1,29,-1,31,-1,-1,-1,-1,-1,-1,-1,-1,-1],"loss_changes":[6.4650566E1,2.4786009E1,0E0,2.180293E1,8.822631E0,1.4747452E1,6.751891E0,6.1187477E0,8.0084884E-1,1.39058E1,3.9445639E0,3.8057687E0,0E0,3.7698994E0,0E0,0E0,0E0,1.2321228E1,0E0,5.520253E0,0E0,3.6687508E0,0E0,3.4742508E0,0E0,0E0,0E0,0E0,0E0,0E0,0E0,0E0,0E0],"parents":[2147483647,0,0,1,1,3,3,4,4,5,5,6,6,7,7,8,8,9,9,10,10,11,11,13,13,17,17,19,19,21,21,23,23],"right_children":[2,4,-1,6,8,10,12,14,16,18,20,22,-1,24,-1,-1,-1,26,-1,28,-1,30,-1,32,-1,-1,-1,-1,-1,-1,-1,-1,-1],"split_conditions":[1E0,1E0,9.265371E-2,1E0,1E0,1E0,1E0,1E0,1E0,1E0,1E0,1E0,7.305449E-2,1E0,-3.0724553E-2,-4.8873047E-3,-4.6900135E-2,1E0,7.485839E-2,1E0,-2.5025148E-2,1E0,5.827093E-2,1E0,-1.8413622E-2,-2.4585215E-2,7.087687E-2,6.0914684E-2,-2.4910413E-2,-4.685534E-2,2.9399691E-2,5.9984148E-2,2.0072048E-3],"split_indices":[43,411,0,115,223,614,467,619,728,590,669,248,0,589,0,0,0,53,0,190,0,697,0,664,0,0,0,0,0,0,0,0,0],"split_type":[0,0,0,0,0,0,0,0,0,0,0,0,0,0,0,0,0,0,0,0,0,0,0,0,0,0,0,0,0,0,0,0,0],"sum_hessian":[2.7276593E2,2.567699E2,1.5996014E1,2.243174E2,3.245251E1,2.1058823E2,1.372917E1,2.8211615E1,4.240897E0,1.986087E2,1.1979524E1,5.988102E0,7.7410684E0,2.621563E1,1.9959861E0,2.2454207E0,1.9954764E0,1.9586234E2,2.7463694E0,1.02325945E1,1.7469288E0,4.740929E0,1.2471727E0,2.4718002E1,1.4976268E0,1.9336249E2,2.4998493E0,8.485883E0,1.7467119E0,2.9937627E0,1.7471663E0,2.172275E1,2.9952536E0],"tree_param":{"num_deleted":"0","num_feature":"813","num_nodes":"33","size_leaf_vector":"1"}},{"base_weights":[-4.8920035E-4,-2.5022927E-1,1.3380181E0,-3.0706772E-1,8.4678546E-2,7.1744287E-1,1.5955079E0,-3.5125008E-1,8.100504E-2,-1.2899171E-1,1.1764469E0,1.7011762E0,5.612724E-1,-4.159456E-1,8.4256864E-1,2.1751957E-2,-3.7008982E-2,5.549122E-1,7.4254885E-2,1.7586519E0,3.32175E-2,-3.2000523E-4,4.3664217E-2,-4.5386797E-1,7.689407E-2,4.3884677E-1,7.5714804E-2,3.0592997E-2,5.617782E-2,9.142521E-2,3.693618E-2,-2.4254113E-2,7.547255E-2,4.6452906E-2,-1.4951489E-2,-9.715749E-3,1.2095786E-2],"categories":[],"categories_nodes":[],"categories_segments":[],"categories_sizes":[],"default_left":[0,0,0,0,0,0,0,0,0,0,0,0,0,0,0,0,0,0,0,0,0,0,0,0,0,0,0,0,0,0,0,0,0,0,0,0,0],"id":2,"left_children":[1,3,5,7,-1,9,11,13,-1,15,17,19,21,23,25,-1,-1,27,-1,29,-1,-1,-1,31,-1,33,-1,35,-1,-1,-1,-1,-1,-1,-1,-1,-1],"loss_changes":[9.184051E1,2.6101116E1,5.7585144E0,1.9795881E1,0E0,5.7796893E0,2.2926636E0,1.7463263E1,0E0,2.3884814E0,9.9666786E-1,4.0896606E-1,7.578192E-1,1.6320526E1,2.51396E0,0E0,0E0,1.3806212E0,0E0,3.9266968E-1,0E0,0E0,0E0,1.3455059E1,0E0,3.4351292E0,0E0,2.1322209E-1,0E0,0E0,0E0,0E0,0E0,0E0,0E0,0E0,0E0],"parents":[2147483647,0,0,1,1,2,2,3,3,5,5,6,6,7,7,9,9,10,10,11,11,12,12,13,13,14,14,17,17,19,19,23,23,25,25,27,27],"right_children":[2,4,6,8,-1,10,12,14,-1,16,18,20,22,24,26,-1,-1,28,-1,30,-1,-1,-1,32,-1,34,-1,36,-1,-1,-1,-1,-1,-1,-1,-1,-1],"split_conditions":[1E0,1E0,1E0,1E0,8.4678546E-2,1E0,1E0,1E0,8.100504E-2,1E0,1E0,1E0,1E0,1E0,1E0,2.1751957E-2,-3.7008982E-2,1E0,7.4254885E-2,1E0,3.32175E-2,-3.2000523E-4,4.3664217E-2,1E0,7.689407E-2,1E0,7.5714804E-2,1E0,5.617782E-2,9.142521E-2,3.693618E-2,-2.4254113E-2,7.547255E-2,4.6452906E-2,-1.4951489E-2,-9.715749E-3,1.2095786E-2],"split_indices":[44,144,452,127,0,544,304,136,0,591,318,191,411,169,697,0,0,422,0,616,0,0,0,5,0,591,0,357,0,0,0,0,0,0,0,0,0],"split_type":[0,0,0,0,0,0,0,0,0,0,0,0,0,0,0,0,0,0,0,0,0,0,0,0,0,0,0,0,0,0,0,0,0,0,0,0,0],"sum_hessian":[2.7274057E2,2.3053937E2,4.2201218E1,2.2480782E2,5.731556E0,1.3485694E1,2.8715525E1,2.2056877E2,4.239032E0,4.9944906E0,8.491203E0,2.5468533E1,3.2469933E0,2.0984825E2,1.0720529E1,2.7473364E0,2.2471542E0,3.7458966E0,4.7453065E0,2.3471231E1,1.9972996E0,1.4990747E0,1.7479185E0,2.0660588E2,3.2423675E0,7.7287207E0,2.9918077E0,2.4971738E0,1.2487228E0,2.1224821E1,2.246412E0,2.0411366E2,2.4922247E0,4.4880013E0,3.240719E0,1.248691E0,1.2484828E0],"tree_param":{"num_deleted":"0","num_feature":"813","num_nodes":"37","size_leaf_vector":"1"}},{"base_weights":[4.029714E-2,-5.646197E-2,1.0693761E0,1.5605285E-2,-1.1144106E0,1.2668873E0,-3.4598514E-1,6.9032356E-2,-1.3422728E0,-1.2765949E0,7.986881E-3,1.3653791E0,-9.032953E-3,-3.7027936E-2,1.2280616E-2,1.1142383E-1,-7.180382E-2,-1.2672952E-2,-8.038177E-2,-1.4159589E0,-1.292809E-2,1.4649284E0,1.5222122E-2,-5.26756E-2,5.0747526E-1,-7.634886E-2,-1.7494576E-2,1.5762211E0,1.868569E-2,-4.909586E-3,7.830599E-2,-3.393371E-2,3.1206315E-2,8.3448425E-2,1.29078E-2],"categories":[],"categories_nodes":[],"categories_segments":[],"categories_sizes":[],"default_left":[0,0,0,0,0,0,0,0,0,0,0,0,0,0,0,0,0,0,0,0,0,0,0,0,0,0,0,0,0,0,0,0,0,0,0],"id":3,"left_children":[1,3,5,7,9,11,13,15,17,19,-1,21,-1,-1,-1,23,-1,-1,-1,25,-1,27,-1,29,31,-1,-1,33,-1,-1,-1,-1,-1,-1,-1],"loss_changes":[2.7998941E1,1.9643953E1,7.1935673E0,1.7648329E1,3.599306E0,3.3005486E0,1.0560058E0,1.5076001E1,2.2535114E0,1.7176056E0,0E0,1.6845245E0,0E0,0E0,0E0,1.4864557E1,0E0,0E0,0E0,9.682026E-1,0E0,1.6187477E0,0E0,1.211419E1,9.690849E0,0E0,0E0,1.5478592E0,0E0,0E0,0E0,0E0,0E0,0E0,0E0],"parents":[2147483647,0,0,1,1,2,2,3,3,4,4,5,5,6,6,7,7,8,8,9,9,11,11,15,15,19,19,21,21,23,23,24,24,27,27],"right_children":[2,4,6,8,10,12,14,16,18,20,-1,22,-1,-1,-1,24,-1,-1,-1,26,-1,28,-1,30,32,-1,-1,34,-1,-1,-1,-1,-1,-1,-1],"split_conditions":[1E0,1E0,1E0,1E0,1E0,1E0,1E0,1E0,1E0,1E0,7.986881E-3,1E0,-9.032953E-3,-3.7027936E-2,1.2280616E-2,1E0,-7.180382E-2,-1.2672952E-2,-8.038177E-2,1E0,-1.292809E-2,1E0,1.5222122E-2,1E0,1E0,-7.634886E-2,-1.7494576E-2,1E0,1.868569E-2,-4.909586E-3,7.830599E-2,-3.393371E-2,3.1206315E-2,8.3448425E-2,1.29078E-2],"split_indices":[614,168,741,49,411,581,199,2,786,560,0,379,0,0,0,432,0,0,0,647,0,249,0,56,203,0,0,246,0,0,0,0,0,0,0],"split_type":[0,0,0,0,0,0,0,0,0,0,0,0,0,0,0,0,0,0,0,0,0,0,0,0,0,0,0,0,0,0,0,0,0,0,0],"sum_hessian":[2.7958435E2,2.5641965E2,2.3164715E1,2.4098878E2,1.54308605E1,2.0420036E1,2.744679E0,2.3277902E2,8.209763E0,1.3686772E1,1.744088E0,1.9172306E1,1.2477304E0,1.4954646E0,1.2492144E0,2.27303E2,5.4760323E0,1.9919026E0,6.2178597E0,1.1694916E1,1.9918566E0,1.7179537E1,1.992768E0,1.6132628E2,6.5976715E1,1.0200327E1,1.4945893E0,1.5186232E1,1.9933058E0,1.5782793E2,3.4983492E0,5.476072E0,6.0500645E1,1.3939158E1,1.2470734E0],"tree_param":{"num_deleted":"0","num_feature":"813","num_nodes":"35","size_leaf_vector":"1"}},{"base_weights":[-1.5784333E-2,-2.702049E-1,1.3379928E0,-4.1508174E-1,8.6716674E-2,1.4763385E0,3.9773488E-1,-4.5365438E-1,7.584048E-2,1.5391473E0,-1.0192288E-2,-2.531888E-2,7.963585E-1,-4.8821816E-1,7.4441224E-2,1.5812767E0,9.5671965E-3,5.3528596E-2,7.850939E-3,-5.232063E-1,7.3088825E-2,1.6463434E0,2.1551585E-2,-2.7760008E-2,7.571955E-2,8.4476165E-2,3.2505527E-2],"categories":[],"categories_nodes":[],"categories_segments":[],"categories_sizes":[],"default_left":[0,0,0,0,0,0,0,0,0,0,0,0,0,0,0,0,0,0,0,0,0,0,0,0,0,0,0],"id":4,"left_children":[1,3,5,7,-1,9,11,13,-1,15,-1,-1,17,19,-1,21,-1,-1,-1,23,-1,25,-1,-1,-1,-1,-1],"loss_changes":[9.5277115E1,6.833037E1,5.1057053E0,1.6927422E1,0E0,4.300926E0,2.9196248E0,1.5123451E1,0E0,1.7721329E0,0E0,0E0,7.4956846E-1,1.5190144E1,0E0,1.9317703E0,0E0,0E0,0E0,1.4429264E1,0E0,3.232727E-1,0E0,0E0,0E0,0E0,0E0],"parents":[2147483647,0,0,1,1,2,2,3,3,5,5,6,6,7,7,9,9,12,12,13,13,15,15,19,19,21,21],"right_children":[2,4,6,8,-1,10,12,14,-1,16,-1,-1,18,20,-1,22,-1,-1,-1,24,-1,26,-1,-1,-1,-1,-1],"split_conditions":[1E0,1E0,1E0,1E0,8.6716674E-2,1E0,1E0,1E0,7.584048E-2,1E0,-1.0192288E-2,-2.531888E-2,1E0,1E0,7.4441224E-2,1E0,9.5671965E-3,5.3528596E-2,7.850939E-3,1E0,7.3088825E-2,1E0,2.1551585E-2,-2.7760008E-2,7.571955E-2,8.4476165E-2,3.2505527E-2],"split_indices":[44,43,304,56,0,564,432,144,0,133,0,0,746,127,0,347,0,0,0,135,0,660,0,0,0,0,0],"split_type":[0,0,0,0,0,0,0,0,0,0,0,0,0,0,0,0,0,0,0,0,0,0,0,0,0,0,0],"sum_hessian":[2.745739E2,2.3180946E2,4.276444E1,2.1692432E2,1.488515E1,3.6782303E1,5.9821377E0,2.1342813E2,3.4961839E0,3.553777E1,1.2445333E0,1.7477579E0,4.23438E0,2.1043243E2,2.995698E0,3.429263E1,1.2451406E0,2.4913437E0,1.7430358E0,2.0744206E2,2.9903798E0,3.2048424E1,2.2442033E0,2.0495148E2,2.490578E0,3.005005E1,1.9983753E0],"tree_param":{"num_deleted":"0","num_feature":"813","num_nodes":"27","size_leaf_vector":"1"}},{"base_weights":[2.9403474E-2,-8.8273585E-2,7.553488E-1,-1.2349538E-2,-1.2771783E0,8.986538E-1,-4.8566008E-1,-8.523896E-2,9.594389E-1,-2.702531E-3,-1.4376764E0,-2.4069557E-1,1.0393813E0,1.0660455E-2,-7.937265E-1,-1.2172425E-1,7.801952E-2,1.1291693E0,-2.9652184E-2,-7.764364E-2,-1.6750328E-2,9.87907E-3,-3.570278E-2,1.1876123E0,2.7029926E-1,-5.1680166E-2,-1.0060712E-2,-1.6021943E-1,7.519243E-2,1.2367857E0,1.4248322E-2,1.293018E0,-1.712532E-2,-4.5410338E-1,5.12002E-2,-9.856532E-3,7.325991E-2,7.084215E-2,2.375774E-2,6.867589E-2,6.854494E-3,-3.0288009E-2,-8.1907585E-3],"categories":[],"categories_nodes":[],"categories_segments":[],"categories_sizes":[],"default_left":[0,0,0,0,0,0,0,0,0,0,0,0,0,0,0,0,0,0,0,0,0,0,0,0,0,0,0,0,0,0,0,0,0,0,0,0,0,0,0,0,0,0,0],"id":5,"left_children":[1,3,5,7,9,11,13,15,17,-1,19,21,23,-1,25,27,-1,29,-1,-1,-1,-1,-1,31,33,-1,-1,35,-1,37,-1,39,-1,41,-1,-1,-1,-1,-1,-1,-1,-1,-1],"loss_changes":[2.4113886E1,2.1930134E1,7.438158E0,1.6340765E1,2.785326E0,5.9654903E0,1.1864709E0,1.3065325E1,4.911274E0,0E0,1.1124649E0,1.1225315E0,3.3173294E0,0E0,2.8820252E-1,1.3427023E1,0E0,9.9713326E-1,0E0,0E0,0E0,0E0,0E0,4.710884E0,3.9876235E0,0E0,0E0,1.2692902E1,0E0,1.0925636E0,0E0,2.1349182E0,0E0,7.610059E-2,0E0,0E0,0E0,0E0,0E0,0E0,0E0,0E0,0E0],"parents":[2147483647,0,0,1,1,2,2,3,3,4,4,5,5,6,6,7,7,8,8,10,10,11,11,12,12,14,14,15,15,17,17,23,23,24,24,27,27,29,29,31,31,33,33],"right_children":[2,4,6,8,10,12,14,16,18,-1,20,22,24,-1,26,28,-1,30,-1,-1,-1,-1,-1,32,34,-1,-1,36,-1,38,-1,40,-1,42,-1,-1,-1,-1,-1,-1,-1,-1,-1],"split_conditions":[1E0,1E0,1E0,1E0,1E0,1E0,1E0,1E0,1E0,-2.702531E-3,1E0,1E0,1E0,1.0660455E-2,1E0,1E0,7.801952E-2,1E0,-2.9652184E-2,-7.764364E-2,-1.6750328E-2,9.87907E-3,-3.570278E-2,1E0,1E0,-5.1680166E-2,-1.0060712E-2,1E0,7.519243E-2,1E0,1.4248322E-2,1E0,-1.712532E-2,1E0,5.12002E-2,-9.856532E-3,7.325991E-2,7.084215E-2,2.375774E-2,6.867589E-2,6.854494E-3,-3.0288009E-2,-8.1907585E-3],"split_indices":[411,168,600,115,786,203,375,181,372,0,647,231,697,0,774,172,0,621,0,0,0,0,0,293,231,0,0,144,0,249,0,552,0,321,0,0,0,0,0,0,0,0,0],"split_type":[0,0,0,0,0,0,0,0,0,0,0,0,0,0,0,0,0,0,0,0,0,0,0,0,0,0,0,0,0,0,0,0,0,0,0,0,0,0,0,0,0,0,0],"sum_hessian":[2.8049387E2,2.421236E2,3.8370274E1,2.2853934E2,1.35842495E1,3.4645473E1,3.7248037E0,2.1344229E2,1.5097047E1,1.7308121E0,1.1853437E1,3.7307158E0,3.0914757E1,1.2337873E0,2.4910164E0,2.0971864E2,3.7236457E0,1.3854974E1,1.242073E0,1.0362572E1,1.4908663E0,2.2396529E0,1.491063E0,2.5462902E1,5.451854E0,1.2432489E0,1.2477673E0,2.0574777E2,3.9708729E0,1.1876023E1,1.9789507E0,2.3966848E1,1.4960535E0,2.9826586E0,2.4691956E0,2.0203845E2,3.7093213E0,8.90946E0,2.9665632E0,2.2230463E1,1.7363857E0,1.2453104E0,1.7373482E0],"tree_param":{"num_deleted":"0","num_feature":"813","num_nodes":"43","size_leaf_vector":"1"}},{"base_weights":[1.7990513E-2,-7.808998E-2,8.2891546E-2,8.996581E-2,-6.591202E-1,1.6643369E-1,-9.8137385E-1,-8.662861E-1,2.0227945E-1,2.2601308E-1,-1.3243748E0,-1.2140427E0,3.7097182E-2,-1.0565629E0,-2.7706984E-1,7.176701E-1,-1.607394E-1,2.8952134E-1,-9.816646E-1,-7.700838E-2,-6.8001794E-3,-7.717531E-2,-3.6904097E-2,-1.3108298E0,-4.4372264E-1,-5.4816246E-1,3.0671407E-2,6.881269E-2,-1.1814145E-2,-4.2359987E-1,2.0882497E-2,1.6883047E-2,-5.9804052E-2,-6.1919283E-2,-1.2836649E-2,2.354531E-2,-2.9253943E-2,-6.8440415E-2,-6.1117667E-3,-3.280476E-2,3.8233113E-2,-1.2707487E-2,-5.309118E-2,-2.4239651E-3,-5.1250894E-2],"categories":[],"categories_nodes":[],"categories_segments":[],"categories_sizes":[],"default_left":[0,0,0,0,0,0,0,0,0,0,0,0,0,0,0,0,0,0,0,0,0,0,0,0,0,0,0,0,0,0,0,0,0,0,0,0,0,0,0,0,0,0,0,0,0],"id":6,"left_children":[1,3,-1,5,7,9,11,13,15,17,19,21,-1,23,25,27,29,31,33,-1,-1,-1,35,37,39,41,-1,-1,-1,43,-1,-1,-1,-1,-1,-1,-1,-1,-1,-1,-1,-1,-1,-1,-1],"loss_changes":[4.3362385E1,2.5463108E1,0E0,1.676721E1,1.06124325E1,1.7177973E1,6.3728724E0,5.0144577E0,2.3885417E0,1.4364387E1,1.7005997E0,4.753376E0,0E0,4.938736E0,3.4529917E0,3.5947108E0,1.3849432E0,1.2932182E1,1.4313469E0,0E0,0E0,0E0,1.3157444E0,1.5228844E0,3.5555952E0,1.3046527E0,0E0,0E0,0E0,1.2947738E0,0E0,0E0,0E0,0E0,0E0,0E0,0E0,0E0,0E0,0E0,0E0,0E0,0E0,0E0,0E0],"parents":[2147483647,0,0,1,1,3,3,4,4,5,5,6,6,7,7,8,8,9,9,10,10,11,11,13,13,14,14,15,15,16,16,17,17,18,18,22,22,23,23,24,24,25,25,29,29],"right_children":[2,4,-1,6,8,10,12,14,16,18,20,22,-1,24,26,28,30,32,34,-1,-1,-1,36,38,40,42,-1,-1,-1,44,-1,-1,-1,-1,-1,-1,-1,-1,-1,-1,-1,-1,-1,-1,-1],"split_conditions":[1E0,1E0,8.2891546E-2,1E0,1E0,1E0,1E0,1E0,1E0,1E0,1E0,1E0,3.7097182E-2,1E0,1E0,1E0,1E0,1E0,1E0,-7.700838E-2,-6.8001794E-3,-7.717531E-2,1E0,1E0,1E0,1E0,3.0671407E-2,6.881269E-2,-1.1814145E-2,1E0,2.0882497E-2,1.6883047E-2,-5.9804052E-2,-6.1919283E-2,-1.2836649E-2,2.354531E-2,-2.9253943E-2,-6.8440415E-2,-6.1117667E-3,-3.280476E-2,3.8233113E-2,-1.2707487E-2,-5.309118E-2,-2.4239651E-3,-5.1250894E-2],"split_indices":[43,437,0,62,277,46,667,572,758,206,697,396,0,420,287,610,357,59,572,0,0,0,610,281,191,298,0,0,0,688,0,0,0,0,0,0,0,0,0,0,0,0,0,0,0],"split_type":[0,0,0,0,0,0,0,0,0,0,0,0,0,0,0,0,0,0,0,0,0,0,0,0,0,0,0,0,0,0,0,0,0,0,0,0,0,0,0,0,0,0,0,0,0],"sum_hessian":[2.7339606E2,2.5916367E2,1.4232376E1,2.0167642E2,5.7487244E1,1.8902895E2,1.2647472E1,4.6337452E1,1.1149793E1,1.8258061E2,6.4483433E0,1.1403396E1,1.2440773E0,3.4426777E1,1.1910677E1,4.204114E0,6.945678E0,1.741812E2,8.399416E0,5.20682E0,1.2415235E0,8.666528E0,2.7368674E0,2.352665E1,1.0900126E1,9.425669E0,2.4850073E0,2.2252061E0,1.978908E0,4.9594016E0,1.9862766E0,1.6946262E2,4.7185726E0,5.6797566E0,2.7196596E0,1.4939134E0,1.2429541E0,2.2287851E1,1.238799E0,9.659522E0,1.2406048E0,6.9451427E0,2.4805262E0,3.7198436E0,1.2395581E0],"tree_param":{"num_deleted":"0","num_feature":"813","num_nodes":"45","size_leaf_vector":"1"}},{"base_weights":[-3.5651784E-2,-2.6218617E-1,1.1991037E0,-3.999518E-1,8.004883E-2,7.678697E-1,1.5460309E0,-4.370903E-1,7.338285E-2,9.4512105E-1,-2.3278621E-1,8.070203E-2,2.7648846E-2,-4.6917057E-1,7.455508E-2,1.0479939E0,-1.2281157E-2,1.9993648E-2,-3.8676918E-2,-5.022395E-1,6.926069E-2,1.1587288E0,-9.325056E-3,-2.668038E-2,6.811716E-2,6.691905E-2,2.7628785E-3],"categories":[],"categories_nodes":[],"categories_segments":[],"categories_sizes":[],"default_left":[0,0,0,0,0,0,0,0,0,0,0,0,0,0,0,0,0,0,0,0,0,0,0,0,0,0,0],"id":7,"left_children":[1,3,5,7,-1,9,11,13,-1,15,17,-1,-1,19,-1,21,-1,-1,-1,23,-1,25,-1,-1,-1,-1,-1],"loss_changes":[7.718328E1,6.0454445E1,5.2132835E0,1.5747166E1,0E0,3.9553976E0,6.42025E-1,1.3956154E1,0E0,2.4731846E0,1.6680136E0,0E0,0E0,1.3669319E1,0E0,2.5181675E0,0E0,0E0,0E0,1.2927082E1,0E0,3.0171108E0,0E0,0E0,0E0,0E0,0E0],"parents":[2147483647,0,0,1,1,2,2,3,3,5,5,6,6,7,7,9,9,10,10,13,13,15,15,19,19,21,21],"right_children":[2,4,6,8,-1,10,12,14,-1,16,18,-1,-1,20,-1,22,-1,-1,-1,24,-1,26,-1,-1,-1,-1,-1],"split_conditions":[1E0,1E0,1E0,1E0,8.004883E-2,1E0,1E0,1E0,7.338285E-2,1E0,1E0,8.070203E-2,2.7648846E-2,1E0,7.455508E-2,1E0,-1.2281157E-2,1.9993648E-2,-3.8676918E-2,1E0,6.926069E-2,1E0,-9.325056E-3,-2.668038E-2,6.811716E-2,6.691905E-2,2.7628785E-3],"split_indices":[44,43,432,127,0,543,551,135,0,616,591,0,0,144,0,304,0,0,0,56,0,198,0,0,0,0,0],"split_type":[0,0,0,0,0,0,0,0,0,0,0,0,0,0,0,0,0,0,0,0,0,0,0,0,0,0,0],"sum_hessian":[2.738119E2,2.3203014E2,4.1781742E1,2.1678592E2,1.5244207E1,2.0060137E1,2.1721605E1,2.1331009E2,3.4758337E0,1.7088636E1,2.971499E0,1.9744095E1,1.9775115E0,2.1056352E2,2.7465718E0,1.5840039E1,1.248598E0,1.489438E0,1.4820608E0,2.0759074E2,2.972773E0,1.4592461E1,1.247578E0,2.0485822E2,2.7325296E0,1.236627E1,2.226191E0],"tree_param":{"num_deleted":"0","num_feature":"813","num_nodes":"27","size_leaf_vector":"1"}},{"base_weights":[2.7781034E-2,-1.7550203E-1,1.1073452E0,-2.8752485E-1,7.682248E-2,3.839065E-1,1.3837116E0,-3.2657623E-1,7.678188E-2,-3.9335632E-1,8.5182136E-1,7.657666E-2,4.055993E-1,-3.642119E-1,7.1170405E-2,-4.851471E-2,2.547619E-1,1.0508485E0,-3.2846057E-3,-3.4351584E-2,8.9348286E-1,-3.9773497E-1,6.8649605E-2,-9.331812E-3,2.9179526E-2,6.7551814E-2,-2.7899642E-3,8.792516E-3,5.6872427E-2,-1.74445E-2,-7.9084E-2],"categories":[],"categories_nodes":[],"categories_segments":[],"categories_sizes":[],"default_left":[0,0,0,0,0,0,0,0,0,0,0,0,0,0,0,0,0,0,0,0,0,0,0,0,0,0,0,0,0,0,0],"id":8,"left_children":[1,3,5,7,-1,9,11,13,-1,15,17,-1,19,21,-1,-1,23,25,-1,-1,27,29,-1,-1,-1,-1,-1,-1,-1,-1,-1],"loss_changes":[6.0168106E1,4.4711834E1,8.154278E0,1.598724E1,0E0,5.2057056E0,3.8681564E0,1.4597624E1,0E0,2.3847778E0,1.6532731E0,0E0,3.5120156E0,1.2779503E1,0E0,0E0,6.14642E-1,2.4632344E0,0E0,0E0,5.3410363E-1,1.1411003E1,0E0,0E0,0E0,0E0,0E0,0E0,0E0,0E0,0E0],"parents":[2147483647,0,0,1,1,2,2,3,3,5,5,6,6,7,7,9,9,10,10,12,12,13,13,16,16,17,17,20,20,21,21],"right_children":[2,4,6,8,-1,10,12,14,-1,16,18,-1,20,22,-1,-1,24,26,-1,-1,28,30,-1,-1,-1,-1,-1,-1,-1,-1,-1],"split_conditions":[1E0,1E0,1E0,1E0,7.682248E-2,1E0,1E0,1E0,7.678188E-2,1E0,1E0,7.657666E-2,1E0,1E0,7.1170405E-2,-4.851471E-2,1E0,1E0,-3.2846057E-3,-3.4351584E-2,1E0,1E0,6.8649605E-2,-9.331812E-3,2.9179526E-2,6.7551814E-2,-2.7899642E-3,8.792516E-3,5.6872427E-2,-1.74445E-2,-7.9084E-2],"split_indices":[44,43,452,53,0,544,304,56,0,245,677,0,525,144,0,0,525,667,0,0,375,161,0,0,0,0,0,0,0,0,0],"split_type":[0,0,0,0,0,0,0,0,0,0,0,0,0,0,0,0,0,0,0,0,0,0,0,0,0,0,0,0,0,0,0],"sum_hessian":[2.7228238E2,2.2984059E2,4.244179E1,2.1650545E2,1.3335146E1,1.239217E1,3.0049622E1,2.127689E2,3.7365487E0,4.716627E0,7.675543E0,2.5612946E1,4.436675E0,2.0906458E2,3.7043223E0,2.2323515E0,2.4842756E0,6.187934E0,1.487609E0,1.2435399E0,3.1931353E0,2.0586305E2,3.2015219E0,1.245209E0,1.2390666E0,4.6938496E0,1.4940844E0,1.2467072E0,1.9464281E0,1.9894984E2,6.91321E0],"tree_param":{"num_deleted":"0","num_feature":"813","num_nodes":"31","size_leaf_vector":"1"}},{"base_weights":[2.6583055E-2,-1.806755E-1,1.1290315E0,-2.1732838E-1,7.2199E-2,4.8527724E-1,1.3036126E0,-2.551746E-1,6.705358E-2,-2.3264108E-2,6.2381364E-2,1.3920349E0,7.178364E-3,-2.8865457E-1,7.206502E-2,-4.874065E-1,4.2031717E-2,1.4707029E0,1.4546566E-3,-3.2316884E-1,7.072165E-2,-3.6533292E-2,-2.0277312E-3,1.5273054E0,2.2391198E-2,-1.7888634E-2,7.286652E-2,7.9222076E-2,3.6700238E-2],"categories":[],"categories_nodes":[],"categories_segments":[],"categories_sizes":[],"default_left":[0,0,0,0,0,0,0,0,0,0,0,0,0,0,0,0,0,0,0,0,0,0,0,0,0,0,0,0,0],"id":9,"left_children":[1,3,5,7,-1,9,11,13,-1,15,-1,17,-1,19,-1,21,-1,23,-1,25,-1,-1,-1,27,-1,-1,-1,-1,-1],"loss_changes":[6.1757732E1,1.386837E1,4.174034E0,1.3522364E1,0E0,4.183908E0,3.1903648E0,1.2855445E1,0E0,3.381096E0,0E0,3.2376747E0,0E0,1.31306305E1,0E0,5.6316876E-1,0E0,9.896164E-1,0E0,1.3591635E1,0E0,0E0,0E0,5.9696198E-2,0E0,0E0,0E0,0E0,0E0],"parents":[2147483647,0,0,1,1,2,2,3,3,5,5,6,6,7,7,9,9,11,11,13,13,15,15,17,17,19,19,23,23],"right_children":[2,4,6,8,-1,10,12,14,-1,16,-1,18,-1,20,-1,22,-1,24,-1,26,-1,-1,-1,28,-1,-1,-1,-1,-1],"split_conditions":[1E0,1E0,1E0,1E0,7.2199E-2,1E0,1E0,1E0,6.705358E-2,1E0,6.2381364E-2,1E0,7.178364E-3,1E0,7.206502E-2,1E0,4.2031717E-2,1E0,1.4546566E-3,1E0,7.072165E-2,-3.6533292E-2,-2.0277312E-3,1E0,2.2391198E-2,-1.7888634E-2,7.286652E-2,7.9222076E-2,3.6700238E-2],"split_indices":[44,127,544,144,0,432,551,169,0,298,0,193,0,172,0,245,0,292,0,53,0,0,0,616,0,0,0,0,0],"split_type":[0,0,0,0,0,0,0,0,0,0,0,0,0,0,0,0,0,0,0,0,0,0,0,0,0,0,0,0,0],"sum_hessian":[2.6839136E2,2.2662276E2,4.17686E1,2.2246997E2,4.152782E0,9.71712E0,3.205148E1,2.1801175E2,4.4582224E0,6.4104085E0,3.306712E0,2.9595627E1,2.4558537E0,2.1460634E2,3.4054084E0,4.453503E0,1.9569055E0,2.7905855E1,1.6897721E0,2.1113773E2,3.468614E0,2.4724164E0,1.9810867E0,2.5975328E1,1.9305257E0,2.0789635E2,3.2413826E0,2.3299917E1,2.675412E0],"tree_param":{"num_deleted":"0","num_feature":"813","num_nodes":"29","size_leaf_vector":"1"}},{"base_weights":[-7.457436E-3,-2.1051824E-1,1.0936755E0,-3.3211637E-1,7.47649E-2,1.1740702E0,-1.2469244E-2,-3.7486437E-1,7.334486E-2,1.2449023E0,-1.3224584E-2,-4.1644937E-1,7.709651E-2,1.2969508E0,1.3156339E-2,-4.5309535E-1,7.856134E-2,1.3366926E0,3.7873834E-3,-2.4404678E-2,6.686153E-2,6.89427E-2,4.768209E-3],"categories":[],"categories_nodes":[],"categories_segments":[],"categories_sizes":[],"default_left":[0,0,0,0,0,0,0,0,0,0,0,0,0,0,0,0,0,0,0,0,0,0,0],"id":10,"left_children":[1,3,5,7,-1,9,-1,11,-1,13,-1,15,-1,17,-1,19,-1,21,-1,-1,-1,-1,-1],"loss_changes":[6.0783726E1,4.809803E1,4.863041E0,1.7087086E1,0E0,4.416481E0,0E0,1.7448303E1,0E0,1.6212006E0,0E0,1.580093E1,0E0,1.6564369E0,0E0,1.3446133E1,0E0,1.7010536E0,0E0,0E0,0E0,0E0,0E0],"parents":[2147483647,0,0,1,1,2,2,3,3,5,5,7,7,9,9,11,11,13,13,15,15,17,17],"right_children":[2,4,6,8,-1,10,-1,12,-1,14,-1,16,-1,18,-1,20,-1,22,-1,-1,-1,-1,-1],"split_conditions":[1E0,1E0,1E0,1E0,7.47649E-2,1E0,-1.2469244E-2,1E0,7.334486E-2,1E0,-1.3224584E-2,1E0,7.709651E-2,1E0,1.3156339E-2,1E0,7.856134E-2,1E0,3.7873834E-3,-2.4404678E-2,6.686153E-2,6.89427E-2,4.768209E-3],"split_indices":[44,43,587,53,0,292,0,54,0,345,0,0,0,263,0,56,0,133,0,0,0,0,0],"split_type":[0,0,0,0,0,0,0,0,0,0,0,0,0,0,0,0,0,0,0,0,0,0,0],"sum_hessian":[2.6981534E2,2.2848842E2,4.1326916E1,2.1403627E2,1.4452148E1,3.911155E1,2.2153666E0,2.0984166E2,4.194611E0,3.7404446E1,1.7071007E0,2.0615192E2,3.689745E0,3.521643E1,2.1880174E0,2.0317805E2,2.9738631E0,3.4014908E1,1.2015226E0,1.999958E2,3.1822498E0,3.27904E1,1.2245064E0],"tree_param":{"num_deleted":"0","num_feature":"813","num_nodes":"23","size_leaf_vector":"1"}},{"base_weights":[-4.900116E-2,-1.5667824E-1,6.5826124E-1,-3.2028657E-1,3.6361337E-1,7.705152E-1,-2.0099089E-1,-3.561042E-1,7.238035E-2,4.4298413E-1,-6.0575336E-2,8.678322E-1,-1.8425845E-2,-4.935305E-2,3.3025184E-1,-3.9001045E-1,7.160761E-2,5.1443833E-1,-5.5366434E-2,9.5332074E-1,-2.9822225E-2,3.1693358E-2,-7.3331855E-3,-4.234723E-1,6.448736E-2,5.7709056E-1,-5.0206203E-2,1.0206206E0,-1.5127859E-2,-1.37168495E-2,-4.114371E-2,3.1572383E-2,-3.7698906E-2,5.555414E-2,-5.82533E-3],"categories":[],"categories_nodes":[],"categories_segments":[],"categories_sizes":[],"default_left":[0,0,0,0,0,0,0,0,0,0,0,0,0,0,0,0,0,0,0,0,0,0,0,0,0,0,0,0,0,0,0,0,0,0,0],"id":11,"left_children":[1,3,5,7,9,11,13,15,-1,17,-1,19,-1,-1,21,23,-1,25,-1,27,-1,-1,-1,29,-1,31,-1,33,-1,-1,-1,-1,-1,-1,-1],"loss_changes":[2.0527754E1,1.9998552E1,3.5913973E0,1.1800844E1,7.5807185E0,3.8357372E0,2.3763072E0,1.1198778E1,0E0,6.592923E0,0E0,4.2638893E0,0E0,0E0,6.256982E-1,1.0270472E1,0E0,5.58965E0,0E0,2.698742E0,0E0,0E0,0E0,9.922928E0,0E0,4.1812134E0,0E0,2.9137497E0,0E0,0E0,0E0,0E0,0E0,0E0,0E0],"parents":[2147483647,0,0,1,1,2,2,3,3,4,4,5,5,6,6,7,7,9,9,11,11,14,14,15,15,17,17,19,19,23,23,25,25,27,27],"right_children":[2,4,6,8,10,12,14,16,-1,18,-1,20,-1,-1,22,24,-1,26,-1,28,-1,-1,-1,30,-1,32,-1,34,-1,-1,-1,-1,-1,-1,-1],"split_conditions":[1E0,1E0,1E0,1E0,1E0,1E0,1E0,1E0,7.238035E-2,1E0,-6.0575336E-2,1E0,-1.8425845E-2,-4.935305E-2,1E0,1E0,7.160761E-2,1E0,-5.5366434E-2,1E0,-2.9822225E-2,3.1693358E-2,-7.3331855E-3,1E0,6.448736E-2,1E0,-5.0206203E-2,1E0,-1.5127859E-2,-1.37168495E-2,-4.114371E-2,3.1572383E-2,-3.7698906E-2,5.555414E-2,-5.82533E-3],"split_indices":[411,277,660,135,133,293,544,0,0,2,0,555,0,0,704,181,0,49,0,576,0,0,0,437,0,162,0,742,0,0,0,0,0,0,0],"split_type":[0,0,0,0,0,0,0,0,0,0,0,0,0,0,0,0,0,0,0,0,0,0,0,0,0,0,0,0,0,0,0,0,0,0,0],"sum_hessian":[2.6719467E2,2.3256615E2,3.4628532E1,1.7722215E2,5.534399E1,3.0718672E1,3.9098608E0,1.7448563E2,2.7365189E0,5.3373257E1,1.9707321E0,2.8520061E1,2.1986096E0,1.2307379E0,2.679123E0,1.7200621E2,2.479419E0,5.1660393E1,1.7128664E0,2.7276531E1,1.243532E0,1.4358994E0,1.2432234E0,1.6937996E2,2.6262612E0,5.020887E1,1.4515212E0,2.606698E1,1.2095498E0,1.2455749E2,4.4822468E1,4.8743916E1,1.464956E0,2.4167295E1,1.8996842E0],"tree_param":{"num_deleted":"0","num_feature":"813","num_nodes":"35","size_leaf_vector":"1"}},{"base_weights":[9.531593E-3,-7.007782E-2,8.685794E-1,-1.0992402E-1,7.1974985E-2,-1.0476265E-2,9.658187E-1,2.403418E-2,-5.4270977E-1,1.0438255E0,-8.41033E-3,7.1869E-2,-6.1901875E-2,-6.100371E-1,5.8891702E-2,1.1372923E0,-5.4386463E-3,1.385146E-1,-8.1366366E-1,-6.698779E-1,5.6796003E-2,1.2885114E0,3.5339203E-1,8.986316E-3,-6.73364E-2,-5.2805256E-2,3.0815052E-3,-3.6856104E-2,3.168987E-2,6.822903E-2,1.1680684E-2,-1.2987233E-2,4.7795426E-2],"categories":[],"categories_nodes":[],"categories_segments":[],"categories_sizes":[],"default_left":[0,0,0,0,0,0,0,0,0,0,0,0,0,0,0,0,0,0,0,0,0,0,0,0,0,0,0,0,0,0,0,0,0],"id":12,"left_children":[1,3,5,7,-1,-1,9,11,13,15,-1,17,-1,19,-1,21,-1,23,25,27,-1,29,31,-1,-1,-1,-1,-1,-1,-1,-1,-1,-1],"loss_changes":[1.8420355E1,1.4992433E1,2.5971165E0,1.3996841E1,0E0,0E0,2.04492E0,1.1266592E1,7.327673E0,2.2686462E0,0E0,1.069636E1,0E0,6.5662804E0,0E0,1.7381516E0,0E0,1.0502896E1,2.7595873E0,5.2319565E0,0E0,8.956413E-1,1.8627695E0,0E0,0E0,0E0,0E0,0E0,0E0,0E0,0E0,0E0,0E0],"parents":[2147483647,0,0,1,1,2,2,3,3,6,6,7,7,8,8,9,9,11,11,13,13,15,15,17,17,18,18,19,19,21,21,22,22],"right_children":[2,4,6,8,-1,-1,10,12,14,16,-1,18,-1,20,-1,22,-1,24,26,28,-1,30,32,-1,-1,-1,-1,-1,-1,-1,-1,-1,-1],"split_conditions":[1E0,1E0,1E0,1E0,7.1974985E-2,-1.0476265E-2,1E0,1E0,1E0,1E0,-8.41033E-3,1E0,-6.1901875E-2,1E0,5.8891702E-2,1E0,-5.4386463E-3,1E0,1E0,1E0,5.6796003E-2,1E0,1E0,8.986316E-3,-6.73364E-2,-5.2805256E-2,3.0815052E-3,-3.6856104E-2,3.168987E-2,6.822903E-2,1.1680684E-2,-1.2987233E-2,4.7795426E-2],"split_indices":[614,181,479,437,0,0,399,161,0,333,0,62,0,253,0,401,0,2,700,633,0,700,697,0,0,0,0,0,0,0,0,0,0],"split_type":[0,0,0,0,0,0,0,0,0,0,0,0,0,0,0,0,0,0,0,0,0,0,0,0,0,0,0,0,0,0,0,0,0],"sum_hessian":[2.6745953E2,2.4561627E2,2.1843252E1,2.4020316E2,5.4131227E0,1.7116151E0,2.0131638E1,1.8414885E2,5.6054295E1,1.8910378E1,1.2212588E0,1.7833278E2,5.816083E0,5.4564545E1,1.4897497E0,1.7504202E1,1.406176E0,1.666353E2,1.169747E1,5.335228E1,1.2122651E0,1.4133957E1,3.3702452E0,1.6299168E2,3.6436129E0,8.998472E0,2.6989968E0,5.1148594E1,2.2036855E0,1.2909483E1,1.2244742E0,1.9523661E0,1.4178791E0],"tree_param":{"num_deleted":"0","num_feature":"813","num_nodes":"33","size_leaf_vector":"1"}},{"base_weights":[-7.8835216E-4,-7.800711E-2,7.208457E-2,-2.9852333E-2,-1.3278342E0,-1.3146068E-1,6.1720216E-1,-7.423978E-2,-2.3841796E-2,-1.9796184E-1,8.070439E-1,7.157176E-1,-3.3410627E-2,-2.2633258E-1,7.413518E-2,1.0423151E0,-3.8373847E-2,8.3468014E-1,-2.186438E-1,-1.2673934E-2,7.530728E-2,5.948468E-2,-4.260226E-3,4.6026614E-2,-2.9196525E-2,1.2495658E-2,-3.4267526E-2],"categories":[],"categories_nodes":[],"categories_segments":[],"categories_sizes":[],"default_left":[0,0,0,0,0,0,0,0,0,0,0,0,0,0,0,0,0,0,0,0,0,0,0,0,0,0,0],"id":13,"left_children":[1,3,-1,5,7,9,11,-1,-1,13,15,17,-1,19,-1,21,-1,23,25,-1,-1,-1,-1,-1,-1,-1,-1],"loss_changes":[3.0133926E1,1.5414629E1,0E0,1.6404284E1,5.614071E-1,1.3603474E1,4.7675066E0,0E0,0E0,9.96508E0,6.1528893E0,3.7331047E0,0E0,9.7628E0,0E0,2.2609072E0,0E0,4.013813E0,1.1334834E0,0E0,0E0,0E0,0E0,0E0,0E0,0E0,0E0],"parents":[2147483647,0,0,1,1,3,3,4,4,5,5,6,6,9,9,10,10,11,11,13,13,15,15,17,17,18,18],"right_children":[2,4,-1,6,8,10,12,-1,-1,14,16,18,-1,20,-1,22,-1,24,26,-1,-1,-1,-1,-1,-1,-1,-1],"split_conditions":[1E0,1E0,7.208457E-2,1E0,1E0,1E0,1E0,-7.423978E-2,-2.3841796E-2,1E0,1E0,1E0,-3.3410627E-2,1E0,7.413518E-2,1E0,-3.8373847E-2,1E0,1E0,-1.2673934E-2,7.530728E-2,5.948468E-2,-4.260226E-3,4.6026614E-2,-2.9196525E-2,1.2495658E-2,-3.4267526E-2],"split_indices":[43,46,0,411,728,115,581,0,0,5,621,600,0,164,0,625,0,237,341,0,0,0,0,0,0,0,0],"split_type":[0,0,0,0,0,0,0,0,0,0,0,0,0,0,0,0,0,0,0,0,0,0,0,0,0,0,0],"sum_hessian":[2.685252E2,2.557788E2,1.2746417E1,2.4727536E2,8.503424E0,2.144039E2,3.287147E1,6.5504622E0,1.9529617E0,2.0095366E2,1.3450234E1,3.0943157E1,1.9283135E0,1.984687E2,2.4849503E0,1.1995788E1,1.4544475E0,2.754307E1,3.400088E0,1.962474E2,2.2213008E0,1.0560304E1,1.4354833E0,2.6302391E1,1.2406782E0,1.92848E0,1.4716079E0],"tree_param":{"num_deleted":"0","num_feature":"813","num_nodes":"27","size_leaf_vector":"1"}},{"base_weights":[2.6033603E-2,-5.838453E-2,7.067852E-2,-1.6603146E-1,6.8956137E-1,-1.9687362E-1,7.2849154E-2,8.152305E-1,-5.895964E-1,-2.2605154E-1,6.696927E-2,8.874001E-1,-1.674786E-2,5.593527E-3,-5.0457306E-2,-2.570972E-1,6.3951336E-2,1.1725595E0,4.0909883E-1,-1.5358724E-2,3.2481883E-2,6.439794E-2,-3.8303257E-4,2.8885705E-2,-1.1747838E-2],"categories":[],"categories_nodes":[],"categories_segments":[],"categories_sizes":[],"default_left":[0,0,0,0,0,0,0,0,0,0,0,0,0,0,0,0,0,0,0,0,0,0,0,0,0],"id":14,"left_children":[1,3,-1,5,7,9,-1,11,13,15,-1,17,-1,-1,-1,19,-1,21,23,-1,-1,-1,-1,-1,-1],"loss_changes":[3.106483E1,2.0266796E1,0E0,1.1279937E1,5.5740604E0,1.000268E1,0E0,2.7269382E0,1.1178429E0,1.0291701E1,0E0,3.314228E0,0E0,0E0,0E0,9.72324E0,0E0,2.310337E0,1.4308162E0,0E0,0E0,0E0,0E0,0E0,0E0],"parents":[2147483647,0,0,1,1,3,3,4,4,5,5,7,7,8,8,9,9,11,11,15,15,17,17,18,18],"right_children":[2,4,-1,6,8,10,-1,12,14,16,-1,18,-1,-1,-1,20,-1,22,24,-1,-1,-1,-1,-1,-1],"split_conditions":[1E0,1E0,7.067852E-2,1E0,1E0,1E0,7.2849154E-2,1E0,1E0,1E0,6.696927E-2,1E0,-1.674786E-2,5.593527E-3,-5.0457306E-2,1E0,6.3951336E-2,1E0,1E0,-1.5358724E-2,3.2481883E-2,6.439794E-2,-3.8303257E-4,2.8885705E-2,-1.1747838E-2],"split_indices":[43,411,0,0,581,53,0,619,341,181,0,591,0,0,0,315,0,14,249,0,0,0,0,0,0],"split_type":[0,0,0,0,0,0,0,0,0,0,0,0,0,0,0,0,0,0,0,0,0,0,0,0,0],"sum_hessian":[2.6350473E2,2.4929544E2,1.4209284E1,2.186103E2,3.0685127E1,2.1539584E2,3.2144706E0,2.827042E1,2.4147074E0,2.1221808E2,3.1777675E0,2.681628E1,1.4541398E0,1.1781886E0,1.2365189E0,2.0874149E2,3.4765906E0,1.5890801E1,1.0925478E1,1.9844307E2,1.0298405E1,1.4392272E1,1.4985294E0,8.740262E0,2.1852157E0],"tree_param":{"num_deleted":"0","num_feature":"813","num_nodes":"25","size_leaf_vector":"1"}},{"base_weights":[-6.772059E-3,-1.8063729E-1,1.0022976E0,-2.7472994E-1,6.806788E-2,1.1415114E0,3.2731626E-2,-3.1652534E-1,7.145794E-2,1.2024693E0,-1.4220873E-2,-4.7695333E-1,3.440645E-2,-3.763124E-1,6.080186E-1,1.28519E0,2.4156919E-1,-8.993383E-3,-3.1218583E-2,-4.1130883E-1,1.2400655E0,1.1792095E0,-1.924366E-1,1.330429E0,1.8840488E-2,-1.403713E-3,2.3206156E-2,-2.2021273E-2,7.329688E-2,7.4616246E-2,1.6077057E-2,7.310809E-2,-9.81038E-3,-1.8515194E-2,1.5300705E-2,7.049593E-2,2.7293837E-2],"categories":[],"categories_nodes":[],"categories_segments":[],"categories_sizes":[],"default_left":[0,0,0,0,0,0,0,0,0,0,0,0,0,0,0,0,0,0,0,0,0,0,0,0,0,0,0,0,0,0,0,0,0,0,0,0,0],"id":15,"left_children":[1,3,5,7,-1,9,11,13,-1,15,-1,17,-1,19,21,23,25,-1,-1,27,29,31,33,35,-1,-1,-1,-1,-1,-1,-1,-1,-1,-1,-1,-1,-1],"loss_changes":[4.6938225E1,3.3481697E1,5.270447E0,1.5827303E1,0E0,3.3283653E0,2.3214123E0,1.1922125E1,0E0,2.3236961E0,0E0,6.0566068E-2,0E0,1.1784725E1,6.2764416E0,7.430687E-1,2.4456325E-1,0E0,0E0,1.1350128E1,5.565767E-1,3.3464918E0,6.780327E-1,1.0046005E0,0E0,0E0,0E0,0E0,0E0,0E0,0E0,0E0,0E0,0E0,0E0,0E0,0E0],"parents":[2147483647,0,0,1,1,2,2,3,3,5,5,6,6,7,7,9,9,11,11,13,13,14,14,15,15,16,16,19,19,20,20,21,21,22,22,23,23],"right_children":[2,4,6,8,-1,10,12,14,-1,16,-1,18,-1,20,22,24,26,-1,-1,28,30,32,34,36,-1,-1,-1,-1,-1,-1,-1,-1,-1,-1,-1,-1,-1],"split_conditions":[1E0,1E0,1E0,1E0,6.806788E-2,1E0,1E0,1E0,7.145794E-2,1E0,-1.4220873E-2,1E0,3.440645E-2,1E0,1E0,1E0,1E0,-8.993383E-3,-3.1218583E-2,1E0,1E0,1E0,1E0,1E0,1.8840488E-2,-1.403713E-3,2.3206156E-2,-2.2021273E-2,7.329688E-2,7.4616246E-2,1.6077057E-2,7.310809E-2,-9.81038E-3,-1.8515194E-2,1.5300705E-2,7.049593E-2,2.7293837E-2],"split_indices":[44,43,304,127,0,564,375,224,0,343,0,746,0,172,467,193,709,0,0,177,298,688,328,640,0,0,0,0,0,0,0,0,0,0,0,0,0],"split_type":[0,0,0,0,0,0,0,0,0,0,0,0,0,0,0,0,0,0,0,0,0,0,0,0,0,0,0,0,0,0,0,0,0,0,0,0,0],"sum_hessian":[2.655105E2,2.2718666E2,3.832384E1,2.1489555E2,1.2291109E1,3.3356983E1,4.966861E0,2.1054523E2,4.350318E0,3.2139732E1,1.2172476E0,2.9471836E0,2.0196772E0,1.9831393E2,1.22313E1,2.92815E1,2.8582332E0,1.7137189E0,1.2334648E0,1.9484094E2,3.4729908E0,6.8617215E0,5.3695784E0,2.7449835E1,1.8316662E0,1.6875154E0,1.1707178E0,1.9261876E2,2.222186E0,2.234594E0,1.2383969E0,5.638662E0,1.2230597E0,4.146891E0,1.2226874E0,2.420075E1,3.2490833E0],"tree_param":{"num_deleted":"0","num_feature":"813","num_nodes":"37","size_leaf_vector":"1"}},{"base_weights":[-2.8580813E-2,-2.0999815E-1,9.601948E-1,-1.4001966E-1,-1.3489207E0,1.0695456E0,-3.2679573E-1,-1.784651E-1,6.769534E-2,-7.391446E-2,-1.9949336E-2,1.1793454E0,1.616105E-1,1.7855221E-2,-4.3999035E-2,-2.1253994E-1,6.755673E-2,1.2595698E0,1.7968641E-1,-1.3159923E-1,2.6193738E-2,-2.476363E-1,6.282973E-2,1.3290993E0,6.4037517E-3,-9.046554E-3,2.4917118E-2,-2.2380969E-2,1.40236635E-2,-1.3803268E-2,7.886767E-2,6.888934E-2,1.509752E-2],"categories":[],"categories_nodes":[],"categories_segments":[],"categories_sizes":[],"default_left":[0,0,0,0,0,0,0,0,0,0,0,0,0,0,0,0,0,0,0,0,0,0,0,0,0,0,0,0,0,0,0,0,0],"id":16,"left_children":[1,3,5,7,9,11,13,15,-1,-1,-1,17,19,-1,-1,21,-1,23,25,27,-1,29,-1,31,-1,-1,-1,-1,-1,-1,-1,-1,-1],"loss_changes":[4.7359547E1,1.758075E1,6.110607E0,1.2369873E1,9.819946E-1,3.59412E0,1.8168584E0,1.106324E1,0E0,0E0,0E0,2.4770927E0,6.270863E-1,0E0,0E0,1.07838E1,0E0,2.2716904E0,5.119748E-1,6.078061E-1,0E0,1.0770837E1,0E0,1.0410309E0,0E0,0E0,0E0,0E0,0E0,0E0,0E0,0E0,0E0],"parents":[2147483647,0,0,1,1,2,2,3,3,4,4,5,5,6,6,7,7,11,11,12,12,15,15,17,17,18,18,19,19,21,21,23,23],"right_children":[2,4,6,8,10,12,14,16,-1,-1,-1,18,20,-1,-1,22,-1,24,26,28,-1,30,-1,32,-1,-1,-1,-1,-1,-1,-1,-1,-1],"split_conditions":[1E0,1E0,1E0,1E0,1E0,1E0,1E0,1E0,6.769534E-2,-7.391446E-2,-1.9949336E-2,1E0,1E0,1.7855221E-2,-4.3999035E-2,1E0,6.755673E-2,1E0,1E0,1E0,2.6193738E-2,1E0,6.282973E-2,1E0,6.4037517E-3,-9.046554E-3,2.4917118E-2,-2.2380969E-2,1.40236635E-2,-1.3803268E-2,7.886767E-2,6.888934E-2,1.509752E-2],"split_indices":[44,168,329,127,190,304,774,56,0,0,0,660,411,0,0,144,0,347,635,338,0,50,0,309,0,0,0,0,0,0,0,0,0],"split_type":[0,0,0,0,0,0,0,0,0,0,0,0,0,0,0,0,0,0,0,0,0,0,0,0,0,0,0,0,0,0,0,0,0],"sum_hessian":[2.6189236E2,2.2195618E2,3.993618E1,2.1016595E2,1.1790226E1,3.696441E1,2.971771E0,2.0575159E2,4.4143734E0,9.887479E0,1.9027474E0,3.270977E1,4.2546396E0,1.4873832E0,1.4843879E0,2.0211023E2,3.6413546E0,3.0039083E1,2.6706858E0,2.7033398E0,1.5512998E0,1.9820668E2,3.9035451E0,2.8135534E1,1.9035492E0,1.4556065E0,1.2150793E0,1.4811647E0,1.2221752E0,1.9600217E2,2.2045224E0,2.6536324E1,1.5992094E0],"tree_param":{"num_deleted":"0","num_feature":"813","num_nodes":"33","size_leaf_vector":"1"}},{"base_weights":[6.1494015E-2,-1.3302555E-2,6.735685E-2,3.742772E-2,-1.1982318E0,7.5349644E-2,-6.0392823E-2,-1.3246217E0,-2.448313E-2,1.08903095E-1,-6.271632E-2,-7.0971474E-2,-2.0640127E-2,1.6583762E-1,-7.3885983E-1,-1.8431699E-2,1.297717E-2,-4.9766667E-2,3.8021926E-2],"categories":[],"categories_nodes":[],"categories_segments":[],"categories_sizes":[],"default_left":[0,0,0,0,0,0,0,0,0,0,0,0,0,0,0,0,0,0,0],"id":17,"left_children":[1,3,-1,5,7,9,-1,11,-1,13,-1,-1,-1,15,17,-1,-1,-1,-1],"loss_changes":[2.532639E1,1.5055178E1,0E0,1.1444731E1,2.722025E-1,1.0588207E1,0E0,1.17669106E-1,0E0,1.1195709E1,0E0,0E0,0E0,1.09033165E1,6.379063E0,0E0,0E0,0E0,0E0],"parents":[2147483647,0,0,1,1,3,3,4,4,5,5,7,7,9,9,13,13,14,14],"right_children":[2,4,-1,6,8,10,-1,12,-1,14,-1,-1,-1,16,18,-1,-1,-1,-1],"split_conditions":[1E0,1E0,6.735685E-2,1E0,1E0,1E0,-6.0392823E-2,1E0,-2.448313E-2,1E0,-6.271632E-2,-7.0971474E-2,-2.0640127E-2,1E0,1E0,-1.8431699E-2,1.297717E-2,-4.9766667E-2,3.8021926E-2],"split_indices":[43,46,0,161,591,140,0,401,0,62,0,0,0,203,277,0,0,0,0],"split_type":[0,0,0,0,0,0,0,0,0,0,0,0,0,0,0,0,0,0,0],"sum_hessian":[2.6218665E2,2.4870694E2,1.3479705E1,2.3942487E2,9.2820635E0,2.33261E2,6.1638713E0,7.1391907E0,2.1428723E0,2.2841519E2,4.845802E0,5.962527E0,1.1766639E0,2.1479431E2,1.3620891E1,3.1603392E1,1.8319092E2,1.191826E1,1.7026309E0],"tree_param":{"num_deleted":"0","num_feature":"813","num_nodes":"19","size_leaf_vector":"1"}},{"base_weights":[2.528094E-2,-1.428125E-1,9.6174276E-1,-2.3630066E-1,6.579306E-2,1.0649707E0,-1.20076455E-1,-2.6809147E-1,7.164344E-2,1.1444076E0,6.297744E-2,1.6430346E-2,-2.2889795E-2,-3.2869515E-1,6.094722E-1,1.1970602E0,3.924667E-3,-1.568102E-2,2.4906015E-2,-3.565398E-1,6.639E-2,6.592738E-2,7.045908E-2,1.2369251E0,1.3457969E-2,-1.9142395E-2,6.1021414E-2,-2.8613238E-2,7.268482E-2,6.503848E-2,2.1437014E-2],"categories":[],"categories_nodes":[],"categories_segments":[],"categories_sizes":[],"default_left":[0,0,0,0,0,0,0,0,0,0,0,0,0,0,0,0,0,0,0,0,0,0,0,0,0,0,0,0,0,0,0],"id":18,"left_children":[1,3,5,7,-1,9,11,13,-1,15,17,-1,-1,19,21,23,-1,-1,-1,25,-1,27,-1,29,-1,-1,-1,-1,-1,-1,-1],"loss_changes":[4.187164E1,3.1082434E1,4.6480675E0,1.1681836E1,0E0,2.8771095E0,8.208824E-1,1.1356605E1,0E0,1.8294983E0,7.756506E-1,0E0,0E0,9.553856E0,5.9495583E0,8.7255096E-1,0E0,0E0,0E0,8.532406E0,0E0,9.090776E0,0E0,1.0402107E0,0E0,0E0,0E0,0E0,0E0,0E0,0E0],"parents":[2147483647,0,0,1,1,2,2,3,3,5,5,6,6,7,7,9,9,10,10,13,13,14,14,15,15,19,19,21,21,23,23],"right_children":[2,4,6,8,-1,10,12,14,-1,16,18,-1,-1,20,22,24,-1,-1,-1,26,-1,28,-1,30,-1,-1,-1,-1,-1,-1,-1],"split_conditions":[1E0,1E0,1E0,1E0,6.579306E-2,1E0,1E0,1E0,7.164344E-2,1E0,1E0,1.6430346E-2,-2.2889795E-2,1E0,1E0,1E0,3.924667E-3,-1.568102E-2,2.4906015E-2,1E0,6.639E-2,1E0,7.045908E-2,1E0,1.3457969E-2,-1.9142395E-2,6.1021414E-2,-2.8613238E-2,7.268482E-2,6.503848E-2,2.1437014E-2],"split_indices":[44,43,329,54,0,168,774,224,0,382,629,0,0,0,248,267,0,0,0,127,0,287,0,684,0,0,0,0,0,0,0],"split_type":[0,0,0,0,0,0,0,0,0,0,0,0,0,0,0,0,0,0,0,0,0,0,0,0,0,0,0,0,0,0,0],"sum_hessian":[2.6412592E2,2.2464923E2,3.947669E1,2.1190593E2,1.2743305E1,3.6052143E1,3.424546E0,2.0876912E2,3.136807E0,3.3272224E1,2.7799184E0,1.4822534E0,1.9422926E0,1.9586812E2,1.2901009E1,3.1588808E1,1.6834173E0,1.639913E0,1.1400055E0,1.9340192E2,2.4662008E0,8.325076E0,4.5759325E0,2.9968264E1,1.6205456E0,1.9097319E2,2.4287286E0,6.1051455E0,2.2199311E0,2.7209309E1,2.7589545E0],"tree_param":{"num_deleted":"0","num_feature":"813","num_nodes":"31","size_leaf_vector":"1"}},{"base_weights":[-1.9620588E-2,-1.665011E-1,8.4780025E-1,-2.576918E-1,6.45934E-2,9.5105225E-1,-2.351664E-1,-1.988396E-1,-1.2129394E0,1.0284576E0,-2.5961105E-2,-3.5821922E-2,2.592541E-2,-2.3722279E-1,1.1894968E0,-6.317542E-2,-1.956764E-2,1.1088567E0,-1.1018894E-2,-2.68862E-1,6.710038E-2,7.0148654E-2,1.1329461E-2,1.2224792E0,3.1522575E-1,-1.6099332E-2,3.1879727E-2,6.3654356E-2,2.767E-3,-9.545618E-4,4.161232E-2],"categories":[],"categories_nodes":[],"categories_segments":[],"categories_sizes":[],"default_left":[0,0,0,0,0,0,0,0,0,0,0,0,0,0,0,0,0,0,0,0,0,0,0,0,0,0,0,0,0,0,0],"id":19,"left_children":[1,3,5,7,-1,9,11,13,15,17,-1,-1,-1,19,21,-1,-1,23,-1,25,-1,-1,-1,27,29,-1,-1,-1,-1,-1,-1],"loss_changes":[3.398491E1,3.0655064E1,4.5432625E0,1.1869374E1,0E0,4.57032E0,1.8819532E0,1.1159168E1,1.6777039E-2,3.660946E0,0E0,0E0,0E0,1.0326779E1,8.450613E-1,0E0,0E0,2.5124474E0,0E0,9.66163E0,0E0,0E0,0E0,1.5694427E0,9.444402E-1,0E0,0E0,0E0,0E0,0E0,0E0],"parents":[2147483647,0,0,1,1,2,2,3,3,5,5,6,6,7,7,8,8,9,9,13,13,14,14,17,17,19,19,23,23,24,24],"right_children":[2,4,6,8,-1,10,12,14,16,18,-1,-1,-1,20,22,-1,-1,24,-1,26,-1,-1,-1,28,30,-1,-1,-1,-1,-1,-1],"split_conditions":[1E0,1E0,1E0,1E0,6.45934E-2,1E0,1E0,1E0,1E0,1E0,-2.5961105E-2,-3.5821922E-2,2.592541E-2,1E0,1E0,-6.317542E-2,-1.956764E-2,1E0,-1.1018894E-2,1E0,6.710038E-2,7.0148654E-2,1.1329461E-2,1E0,1E0,-1.6099332E-2,3.1879727E-2,6.3654356E-2,2.767E-3,-9.545618E-4,4.161232E-2],"split_indices":[44,43,329,168,0,420,452,516,560,587,0,0,0,54,359,0,0,304,0,224,0,0,0,386,283,0,0,0,0,0,0],"split_type":[0,0,0,0,0,0,0,0,0,0,0,0,0,0,0,0,0,0,0,0,0,0,0,0,0,0,0,0,0,0,0],"sum_hessian":[2.6463446E2,2.2700389E2,3.7630554E1,2.144197E2,1.2584198E1,3.4466286E1,3.164269E0,2.0311412E2,1.1305574E1,3.3027966E1,1.4383206E0,1.9612713E0,1.2029977E0,1.9845654E2,4.657576E0,1.0143359E1,1.1622154E0,3.113557E1,1.8923954E0,1.953721E2,3.0844448E0,3.4382906E0,1.2192855E0,2.6763527E1,4.372045E0,1.8516495E2,1.0207164E1,2.556427E1,1.1992558E0,3.2400389E0,1.1320063E0],"tree_param":{"num_deleted":"0","num_feature":"813","num_nodes":"31","size_leaf_vector":"1"}},{"base_weights":[1.4563117E-2,-1.4109132E-1,9.665705E-1,-2.2205347E-1,6.312587E-2,1.0710078E0,-3.0267978E-1,-2.542288E-1,6.761079E-2,1.1212234E0,2.3068653E-3,-2.6177287E-2,3.931829E-3,-2.8629273E-1,6.423753E-2,1.1637247E0,1.400129E-2,-3.1547216E-1,7.0924684E-2,1.2081963E0,1.3285446E-2,-1.7004073E-2,7.484235E-2,6.248648E-2,2.1793561E-2],"categories":[],"categories_nodes":[],"categories_segments":[],"categories_sizes":[],"default_left":[0,0,0,0,0,0,0,0,0,0,0,0,0,0,0,0,0,0,0,0,0,0,0,0,0],"id":20,"left_children":[1,3,5,7,-1,9,11,13,-1,15,-1,-1,-1,17,-1,19,-1,21,-1,23,-1,-1,-1,-1,-1],"loss_changes":[3.956613E1,2.636815E1,5.297611E0,1.1380867E1,0E0,1.7437134E0,3.4706727E-1,1.09463215E1,0E0,8.6161804E-1,0E0,0E0,0E0,1.0934568E1,0E0,9.289894E-1,0E0,9.789757E0,0E0,4.0288544E-1,0E0,0E0,0E0,0E0,0E0],"parents":[2147483647,0,0,1,1,2,2,3,3,5,5,6,6,7,7,9,9,13,13,15,15,17,17,19,19],"right_children":[2,4,6,8,-1,10,12,14,-1,16,-1,-1,-1,18,-1,20,-1,22,-1,24,-1,-1,-1,-1,-1],"split_conditions":[1E0,1E0,1E0,1E0,6.312587E-2,1E0,1E0,1E0,6.761079E-2,1E0,2.3068653E-3,-2.6177287E-2,3.931829E-3,1E0,6.423753E-2,1E0,1.400129E-2,1E0,7.0924684E-2,1E0,1.3285446E-2,-1.7004073E-2,7.484235E-2,6.248648E-2,2.1793561E-2],"split_indices":[44,43,587,54,0,420,298,53,0,286,0,0,0,135,0,346,0,164,0,292,0,0,0,0,0],"split_type":[0,0,0,0,0,0,0,0,0,0,0,0,0,0,0,0,0,0,0,0,0,0,0,0,0],"sum_hessian":[2.6508618E2,2.2856699E2,3.6519203E1,2.1689781E2,1.1669175E1,3.388707E1,2.632132E0,2.133753E2,3.522509E0,3.2214638E1,1.6724328E0,1.4305394E0,1.2015926E0,2.0981783E2,3.557487E0,3.030031E1,1.9143274E0,2.0708821E2,2.7296116E0,2.8541468E1,1.7588412E0,2.0511533E2,1.972889E0,2.6498327E1,2.0431418E0],"tree_param":{"num_deleted":"0","num_feature":"813","num_nodes":"25","size_leaf_vector":"1"}},{"base_weights":[2.2084381E-2,-1.2350364E-1,8.4925234E-1,-2.0384678E-1,6.21382E-2,9.438532E-1,-4.298282E-1,-2.3697437E-1,7.027903E-2,1.0026354E0,-2.4048543E-2,-3.498244E-2,2.0153248E-3,-2.7209383E-1,6.696668E-2,1.1037562E0,3.7413605E-2,-3.0757087E-1,6.664603E-2,1.1461715E0,-3.4437855E-3,-2.2249976E-2,2.9140953E-2,-1.720679E-2,6.44454E-2,5.970305E-2,8.9955935E-3],"categories":[],"categories_nodes":[],"categories_segments":[],"categories_sizes":[],"default_left":[0,0,0,0,0,0,0,0,0,0,0,0,0,0,0,0,0,0,0,0,0,0,0,0,0,0,0],"id":21,"left_children":[1,3,5,7,-1,9,11,13,-1,15,-1,-1,-1,17,-1,19,21,23,-1,25,-1,-1,-1,-1,-1,-1,-1],"loss_changes":[3.165146E1,2.4800768E1,5.1650925E0,1.163963E1,0E0,3.5758934E0,4.5896977E-1,1.1914735E1,0E0,3.452732E0,0E0,0E0,0E0,1.2078778E1,0E0,1.688858E0,1.4248811E0,1.2194952E1,0E0,1.2333031E0,0E0,0E0,0E0,0E0,0E0,0E0,0E0],"parents":[2147483647,0,0,1,1,2,2,3,3,5,5,6,6,7,7,9,9,13,13,15,15,16,16,17,17,19,19],"right_children":[2,4,6,8,-1,10,12,14,-1,16,-1,-1,-1,18,-1,20,22,24,-1,26,-1,-1,-1,-1,-1,-1,-1],"split_conditions":[1E0,1E0,1E0,1E0,6.21382E-2,1E0,1E0,1E0,7.027903E-2,1E0,-2.4048543E-2,-3.498244E-2,2.0153248E-3,1E0,6.696668E-2,1E0,1E0,1E0,6.664603E-2,1E0,-3.4437855E-3,-2.2249976E-2,2.9140953E-2,-1.720679E-2,6.44454E-2,5.970305E-2,8.9955935E-3],"split_indices":[44,43,587,0,0,65,452,54,0,543,0,0,0,56,0,607,245,172,0,659,0,0,0,0,0,0,0],"split_type":[0,0,0,0,0,0,0,0,0,0,0,0,0,0,0,0,0,0,0,0,0,0,0,0,0,0,0],"sum_hessian":[2.6095874E2,2.226256E2,3.8333153E1,2.1106476E2,1.1560828E1,3.593731E1,2.395842E0,2.076435E2,3.4212646E0,3.4798004E1,1.139307E0,1.2120389E0,1.1838033E0,2.0392746E2,3.716029E0,3.1368208E1,3.4297957E0,2.0030824E2,3.6192205E0,3.0294971E1,1.0732355E0,1.9176879E0,1.5121078E0,1.9659009E2,3.718157E0,2.8639782E1,1.6551899E0],"tree_param":{"num_deleted":"0","num_feature":"813","num_nodes":"27","size_leaf_vector":"1"}},{"base_weights":[-8.120556E-3,-1.4835694E-1,8.409247E-1,-2.3559469E-1,6.118211E-2,3.0548462E-1,1.0986489E0,-2.6869678E-1,6.4209834E-2,4.75212E-1,-3.832877E-2,1.1686099E0,-5.2700695E-3,-3.006785E-1,6.659838E-2,2.118307E-2,7.985901E-1,1.2314417E0,4.612083E-1,-3.298989E-1,7.1863815E-2,4.9255913E-1,-2.76596E-2,4.570161E-2,1.3141739E-2,6.32407E-2,1.54176345E-2,2.3078872E-4,3.656855E-2,-1.9530227E-2,2.7011538E-2,-4.871001E-3,4.4963077E-2],"categories":[],"categories_nodes":[],"categories_segments":[],"categories_sizes":[],"default_left":[0,0,0,0,0,0,0,0,0,0,0,0,0,0,0,0,0,0,0,0,0,0,0,0,0,0,0,0,0,0,0,0,0],"id":22,"left_children":[1,3,5,7,-1,9,11,13,-1,15,-1,17,-1,19,-1,21,23,25,27,29,-1,31,-1,-1,-1,-1,-1,-1,-1,-1,-1,-1,-1],"loss_changes":[3.0229866E1,2.636277E1,4.6310863E0,1.0691703E1,0E0,2.744296E0,2.1374187E0,1.0746782E1,0E0,1.7316792E0,0E0,4.4017792E-1,0E0,1.057831E1,0E0,1.8918868E0,1.882658E-1,2.332592E-1,4.2207628E-1,1.0589857E1,0E0,1.0028023E0,0E0,0E0,0E0,0E0,0E0,0E0,0E0,0E0,0E0,0E0,0E0],"parents":[2147483647,0,0,1,1,2,2,3,3,5,5,6,6,7,7,9,9,11,11,13,13,15,15,16,16,17,17,18,18,19,19,21,21],"right_children":[2,4,6,8,-1,10,12,14,-1,16,-1,18,-1,20,-1,22,24,26,28,30,-1,32,-1,-1,-1,-1,-1,-1,-1,-1,-1,-1,-1],"split_conditions":[1E0,1E0,1E0,1E0,6.118211E-2,1E0,1E0,1E0,6.4209834E-2,1E0,-3.832877E-2,1E0,-5.2700695E-3,1E0,6.659838E-2,1E0,1E0,1E0,1E0,1E0,7.1863815E-2,1E0,-2.76596E-2,4.570161E-2,1.3141739E-2,6.32407E-2,1.54176345E-2,2.3078872E-4,3.656855E-2,-1.9530227E-2,2.7011538E-2,-4.871001E-3,4.4963077E-2],"split_indices":[44,43,452,56,0,353,286,0,0,758,0,684,0,5,0,629,379,517,411,614,0,544,0,0,0,0,0,0,0,0,0,0,0],"split_type":[0,0,0,0,0,0,0,0,0,0,0,0,0,0,0,0,0,0,0,0,0,0,0,0,0,0,0,0,0,0,0,0,0],"sum_hessian":[2.5184169E2,2.1684995E2,3.4991734E1,2.0466475E2,1.2185202E1,1.2080002E1,2.2911734E1,2.0110768E2,3.5570638E0,1.0909544E1,1.1704571E0,2.1681376E1,1.2303566E0,1.9796446E2,3.1432292E0,4.9812627E0,5.9282813E0,1.923235E1,2.449026E0,1.9548788E2,2.4765754E0,2.8141773E0,2.1670854E0,4.296441E0,1.6318405E0,1.8204027E1,1.0283233E0,1.288486E0,1.1605402E0,1.8325404E2,1.2233844E1,1.4586554E0,1.3555219E0],"tree_param":{"num_deleted":"0","num_feature":"813","num_nodes":"33","size_leaf_vector":"1"}},{"base_weights":[-7.663153E-3,3.479099E-2,-1.1737763E0,-2.9885199E-2,7.890251E-1,-1.4959988E-2,-6.74471E-2,1.8164555E-2,-8.52075E-1,9.134291E-1,-3.43094E-2,5.5278786E-2,-1.0357298E0,-1.7981264E-1,-1.1551597E0,1.0580465E0,-3.26965E-2,1.3544106E-1,-4.6675807E-1,-6.081275E-2,-7.413819E-3,-6.539065E-1,3.201541E-2,-1.3478987E-2,-6.612435E-2,1.1587799E0,-4.4842954E-3,9.992077E-3,-2.5419379E-2,-2.8715542E-2,4.418779E-2,-4.6678483E-2,-5.1010917E-3,6.285039E-2,9.385041E-3],"categories":[],"categories_nodes":[],"categories_segments":[],"categories_sizes":[],"default_left":[0,0,0,0,0,0,0,0,0,0,0,0,0,0,0,0,0,0,0,0,0,0,0,0,0,0,0,0,0,0,0,0,0,0,0],"id":23,"left_children":[1,3,5,7,9,-1,-1,11,13,15,-1,17,19,21,23,25,-1,27,29,-1,-1,31,-1,-1,-1,33,-1,-1,-1,-1,-1,-1,-1,-1,-1],"loss_changes":[1.3037642E1,1.2427482E1,1.0135803E0,9.305651E0,4.31905E0,0E0,0E0,8.785786E0,2.442089E0,4.9947643E0,0E0,9.123718E0,1.0439596E0,2.4504907E0,9.444313E-1,2.1574306E0,0E0,7.9159174E0,4.7265315E0,0E0,0E0,4.9219894E-1,0E0,0E0,0E0,1.3284397E0,0E0,0E0,0E0,0E0,0E0,0E0,0E0,0E0,0E0],"parents":[2147483647,0,0,1,1,2,2,3,3,4,4,7,7,8,8,9,9,11,11,12,12,13,13,14,14,15,15,17,17,18,18,21,21,25,25],"right_children":[2,4,6,8,10,-1,-1,12,14,16,-1,18,20,22,24,26,-1,28,30,-1,-1,32,-1,-1,-1,34,-1,-1,-1,-1,-1,-1,-1,-1,-1],"split_conditions":[1E0,1E0,1E0,1E0,1E0,-1.4959988E-2,-6.74471E-2,1E0,1E0,1E0,-3.43094E-2,1E0,1E0,1E0,1E0,1E0,-3.26965E-2,1E0,1E0,-6.081275E-2,-7.413819E-3,1E0,3.201541E-2,-1.3478987E-2,-6.612435E-2,1E0,-4.4842954E-3,9.992077E-3,-2.5419379E-2,-2.8715542E-2,4.418779E-2,-4.6678483E-2,-5.1010917E-3,6.285039E-2,9.385041E-3],"split_indices":[46,614,544,206,601,0,0,57,231,442,0,343,668,557,786,352,0,333,314,0,0,456,0,0,0,248,0,0,0,0,0,0,0,0,0],"split_type":[0,0,0,0,0,0,0,0,0,0,0,0,0,0,0,0,0,0,0,0,0,0,0,0,0,0,0,0,0,0,0,0,0,0,0],"sum_hessian":[2.6152814E2,2.5327734E2,8.250787E0,2.3415845E2,1.91189E1,1.8286592E0,6.4221277E0,2.2215344E2,1.2005005E1,1.7983202E1,1.1356986E0,2.1551147E2,6.641963E0,4.225604E0,7.779401E0,1.676159E1,1.2216121E0,1.8746545E2,2.8046032E1,5.21137E0,1.4305933E0,2.8061187E0,1.4194853E0,1.6512506E0,6.1281505E0,1.540032E1,1.3612702E0,1.7104579E2,1.6419657E1,2.6509596E1,1.5364356E0,1.4033694E0,1.4027493E0,1.3718228E1,1.6820908E0],"tree_param":{"num_deleted":"0","num_feature":"813","num_nodes":"35","size_leaf_vector":"1"}},{"base_weights":[-1.7376354E-2,-1.4470378E-1,7.7350473E-1,-1.7689018E-1,6.618946E-2,4.1472772E-1,1.0942912E0,-1.3666119E-1,-6.714051E-2,-2.6909393E-1,7.3067194E-1,6.0779463E-2,1.6298269E-1,-1.5184233E-2,-5.2064246E-1,-4.4334677E-1,1.6118702E-2,8.4276575E-1,2.9461791E-3,3.6479853E-2,-2.4680812E-2,6.8242565E-2,-8.292213E-1,-6.0967445E-1,5.9372466E-2,-3.9917525E-2,3.3985395E-3,9.600272E-1,-1.1955511E-3,1.2805956E-4,5.1633734E-2,-5.073407E-2,-2.3702E-3,9.434013E-3,-3.6133602E-2,5.5017408E-2,-1.8165524E-3],"categories":[],"categories_nodes":[],"categories_segments":[],"categories_sizes":[],"default_left":[0,0,0,0,0,0,0,0,0,0,0,0,0,0,0,0,0,0,0,0,0,0,0,0,0,0,0,0,0,0,0,0,0,0,0,0,0],"id":24,"left_children":[1,3,5,7,-1,9,11,13,-1,15,17,-1,19,21,23,25,-1,27,-1,-1,-1,29,31,33,-1,-1,-1,35,-1,-1,-1,-1,-1,-1,-1,-1,-1],"loss_changes":[2.6049515E1,1.0760002E1,3.675024E0,1.0079115E1,0E0,4.203233E0,1.8725319E0,9.9096E0,0E0,8.222625E-1,9.257269E-1,0E0,1.5756259E0,1.1095692E1,8.490165E0,1.0548724E0,0E0,1.1434965E0,0E0,0E0,0E0,9.395416E0,2.1538553E0,4.574711E0,0E0,0E0,0E0,1.4011936E0,0E0,0E0,0E0,0E0,0E0,0E0,0E0,0E0,0E0],"parents":[2147483647,0,0,1,1,2,2,3,3,5,5,6,6,7,7,9,9,10,10,12,12,13,13,14,14,15,15,17,17,21,21,22,22,23,23,27,27],"right_children":[2,4,6,8,-1,10,12,14,-1,16,18,-1,20,22,24,26,-1,28,-1,-1,-1,30,32,34,-1,-1,-1,36,-1,-1,-1,-1,-1,-1,-1,-1,-1],"split_conditions":[1E0,1E0,1E0,1E0,6.618946E-2,1E0,1E0,1E0,-6.714051E-2,1E0,1E0,6.0779463E-2,1E0,1E0,1E0,1E0,1.6118702E-2,1E0,2.9461791E-3,3.6479853E-2,-2.4680812E-2,1E0,1E0,1E0,5.9372466E-2,-3.9917525E-2,3.3985395E-3,1E0,-1.1955511E-3,1.2805956E-4,5.1633734E-2,-5.073407E-2,-2.3702E-3,9.434013E-3,-3.6133602E-2,5.5017408E-2,-1.8165524E-3],"split_indices":[44,54,432,161,0,544,684,437,0,357,677,0,360,600,703,437,0,665,0,0,0,224,746,786,0,0,0,198,0,0,0,0,0,0,0,0,0],"split_type":[0,0,0,0,0,0,0,0,0,0,0,0,0,0,0,0,0,0,0,0,0,0,0,0,0,0,0,0,0,0,0,0,0,0,0,0,0],"sum_hessian":[2.5657068E2,2.2169592E2,3.4874763E1,2.1780168E2,3.8942304E0,1.754489E1,1.7329874E1,2.1161725E2,6.184443E0,5.591366E0,1.1953525E1,1.50627775E1,2.267096E0,1.615489E2,5.0068336E1,4.512395E0,1.0789704E0,1.0025925E1,1.9275994E0,1.1572592E0,1.1098369E0,1.4736258E2,1.4186324E1,4.8199093E1,1.8692461E0,2.3319688E0,2.1804264E0,8.736205E0,1.2897202E0,1.3890527E2,8.457305E0,1.122558E1,2.9607434E0,5.8931103E0,4.230598E1,7.5662513E0,1.1699535E0],"tree_param":{"num_deleted":"0","num_feature":"813","num_nodes":"37","size_leaf_vector":"1"}},{"base_weights":[2.9971502E-3,-1.2096603E-1,7.5206256E-1,-1.9539753E-1,5.99077E-2,8.453472E-1,-4.284873E-1,-2.294719E-1,6.499978E-2,9.437859E-1,-2.4367052E-1,1.9937593E-3,-3.4585748E-2,-2.5815016E-1,7.092469E-2,1.0223392E0,-1.0293732E-2,-1.7508604E-2,-1.3795918E-3,-2.8436992E-1,7.453995E-2,1.0848291E0,5.1276213E-3,-1.5700394E-2,6.273567E-2,5.669978E-2,2.8331873E-3],"categories":[],"categories_nodes":[],"categories_segments":[],"categories_sizes":[],"default_left":[0,0,0,0,0,0,0,0,0,0,0,0,0,0,0,0,0,0,0,0,0,0,0,0,0,0,0],"id":25,"left_children":[1,3,5,7,-1,9,11,13,-1,15,17,-1,-1,19,-1,21,-1,-1,-1,23,-1,25,-1,-1,-1,-1,-1],"loss_changes":[2.421049E1,2.2200771E1,4.439247E0,1.11332655E1,0E0,3.9441109E0,4.4363904E-1,1.0231968E1,0E0,3.098524E0,7.472421E-2,0E0,0E0,9.871743E0,0E0,1.6189079E0,0E0,0E0,0E0,9.691492E0,0E0,1.3553429E0,0E0,0E0,0E0,0E0,0E0],"parents":[2147483647,0,0,1,1,2,2,3,3,5,5,6,6,7,7,9,9,10,10,13,13,15,15,19,19,21,21],"right_children":[2,4,6,8,-1,10,12,14,-1,16,18,-1,-1,20,-1,22,-1,-1,-1,24,-1,26,-1,-1,-1,-1,-1],"split_conditions":[1E0,1E0,1E0,1E0,5.99077E-2,1E0,1E0,1E0,6.499978E-2,1E0,1E0,1.9937593E-3,-3.4585748E-2,1E0,7.092469E-2,1E0,-1.0293732E-2,-1.7508604E-2,-1.3795918E-3,1E0,7.453995E-2,1E0,5.1276213E-3,-1.5700394E-2,6.273567E-2,5.669978E-2,2.8331873E-3],"split_indices":[44,43,587,54,0,660,709,135,0,420,709,0,0,177,0,736,0,0,0,127,0,347,0,0,0,0,0],"split_type":[0,0,0,0,0,0,0,0,0,0,0,0,0,0,0,0,0,0,0,0,0,0,0,0,0,0,0],"sum_hessian":[2.5875034E2,2.2272928E2,3.602106E1,2.1163937E2,1.1089903E1,3.364633E1,2.3747292E0,2.0775203E2,3.8873384E0,3.0979399E1,2.666934E0,1.1597298E0,1.2149992E0,2.0502745E2,2.7245793E0,2.9101702E1,1.8776972E0,1.3707418E0,1.2961923E0,2.0282417E2,2.2032776E0,2.708231E1,2.0193918E0,1.9977315E2,3.0510352E0,2.5748114E1,1.3341966E0],"tree_param":{"num_deleted":"0","num_feature":"813","num_nodes":"27","size_leaf_vector":"1"}},{"base_weights":[1.4744315E-2,-9.3538195E-2,7.237415E-1,-1.6971028E-1,5.9194215E-2,7.835714E-1,-2.6436022E-2,-1.9737285E-1,7.580127E-2,8.702182E-1,-1.5070942E-1,-1.4753167E-1,-1.0315768E0,9.255016E-1,-2.1260877E-3,1.0367013E-2,-2.504397E-2,-1.9246487E-1,1.3245116E0,-1.0871621E0,-1.2565999E-2,9.694551E-1,-5.3224633E-3,-1.2099308E-2,3.314289E-2,7.789779E-2,1.16629135E-2,-5.721989E-2,-1.6251564E-2,5.0814487E-2,-5.0926534E-3],"categories":[],"categories_nodes":[],"categories_segments":[],"categories_sizes":[],"default_left":[0,0,0,0,0,0,0,0,0,0,0,0,0,0,0,0,0,0,0,0,0,0,0,0,0,0,0,0,0,0,0],"id":26,"left_children":[1,3,5,7,-1,9,-1,11,-1,13,15,17,19,21,-1,-1,-1,23,25,27,-1,29,-1,-1,-1,-1,-1,-1,-1,-1,-1],"loss_changes":[1.9281126E1,2.1412548E1,2.9075603E0,9.933386E0,0E0,2.734459E0,0E0,8.335903E0,0E0,1.5317802E0,5.5291885E-1,1.3074039E1,2.1872139E-1,1.3701153E0,0E0,0E0,0E0,8.163263E0,1.1313181E0,7.679939E-2,0E0,1.452673E0,0E0,0E0,0E0,0E0,0E0,0E0,0E0,0E0,0E0],"parents":[2147483647,0,0,1,1,2,2,3,3,5,5,7,7,9,9,10,10,11,11,12,12,13,13,17,17,18,18,19,19,21,21],"right_children":[2,4,6,8,-1,10,-1,12,-1,14,16,18,20,22,-1,-1,-1,24,26,28,-1,30,-1,-1,-1,-1,-1,-1,-1,-1,-1],"split_conditions":[1E0,1E0,1E0,1E0,5.9194215E-2,1E0,-2.6436022E-2,1E0,7.580127E-2,1E0,1E0,1E0,1E0,1E0,-2.1260877E-3,1.0367013E-2,-2.504397E-2,1E0,1E0,1E0,-1.2565999E-2,1E0,-5.3224633E-3,-1.2099308E-2,3.314289E-2,7.789779E-2,1.16629135E-2,-5.721989E-2,-1.6251564E-2,5.0814487E-2,-5.0926534E-3],"split_indices":[44,43,65,164,0,543,0,168,0,420,591,516,429,168,0,0,0,136,700,660,0,353,0,0,0,0,0,0,0,0,0],"split_type":[0,0,0,0,0,0,0,0,0,0,0,0,0,0,0,0,0,0,0,0,0,0,0,0,0,0,0,0,0,0,0],"sum_hessian":[2.4926611E2,2.1699356E2,3.2272552E1,2.0560083E2,1.1392733E1,3.1158493E1,1.1140615E0,2.031501E2,2.4507346E0,2.85768E1,2.5816932E0,1.928073E2,1.0342804E1,2.6931608E1,1.6451912E0,1.478159E0,1.1035342E0,1.879398E2,4.8674917E0,9.287803E0,1.0550017E0,2.5889467E1,1.0421408E0,1.7833186E2,9.607936E0,3.657412E0,1.2100797E0,8.172479E0,1.1153243E0,2.4854265E1,1.035202E0],"tree_param":{"num_deleted":"0","num_feature":"813","num_nodes":"31","size_leaf_vector":"1"}},{"base_weights":[-7.268897E-3,-1.153454E-1,6.952419E-1,-1.4928973E-1,6.359689E-2,3.3619314E-1,1.1009712E0,-1.7815405E-1,7.1950905E-2,5.401756E-1,-4.474641E-2,1.1485556E0,1.255666E-2,-2.0396541E-1,6.3766845E-2,-8.3620116E-2,7.821631E-1,6.003334E-2,2.038428E-2,-1.6856353E-1,-6.410115E-2,-3.1889886E-2,4.1153157E-1,9.207694E-1,7.246269E-4,-1.2104825E-2,1.8731833E-2,3.0925035E-2,-1.9942399E-3,5.215277E-2,1.7811194E-3],"categories":[],"categories_nodes":[],"categories_segments":[],"categories_sizes":[],"default_left":[0,0,0,0,0,0,0,0,0,0,0,0,0,0,0,0,0,0,0,0,0,0,0,0,0,0,0,0,0,0,0],"id":27,"left_children":[1,3,5,7,-1,9,11,13,-1,15,-1,17,-1,19,-1,21,23,-1,-1,25,-1,-1,27,29,-1,-1,-1,-1,-1,-1,-1],"loss_changes":[1.9451626E1,1.0642966E1,4.6062202E0,1.0231061E1,0E0,5.396042E0,3.4232903E-1,8.310387E0,0E0,2.6927543E0,0E0,6.9971085E-2,0E0,7.863364E0,0E0,1.8452882E0,1.3312945E0,0E0,0E0,8.323672E0,0E0,0E0,3.6607462E-1,1.1197691E0,0E0,0E0,0E0,0E0,0E0,0E0,0E0],"parents":[2147483647,0,0,1,1,2,2,3,3,5,5,6,6,7,7,9,9,11,11,13,13,15,15,16,16,19,19,22,22,23,23],"right_children":[2,4,6,8,-1,10,12,14,-1,16,-1,18,-1,20,-1,22,24,-1,-1,26,-1,-1,28,30,-1,-1,-1,-1,-1,-1,-1],"split_conditions":[1E0,1E0,1E0,1E0,6.359689E-2,1E0,1E0,1E0,7.1950905E-2,1E0,-4.474641E-2,1E0,1.255666E-2,1E0,6.3766845E-2,1E0,1E0,6.003334E-2,2.038428E-2,1E0,-6.410115E-2,-3.1889886E-2,1E0,1E0,7.246269E-4,-1.2104825E-2,1.8731833E-2,3.0925035E-2,-1.9942399E-3,5.215277E-2,1.7811194E-3],"split_indices":[44,144,432,164,0,329,684,590,0,544,0,635,0,161,0,758,287,0,0,677,0,0,591,569,0,0,0,0,0,0,0],"split_type":[0,0,0,0,0,0,0,0,0,0,0,0,0,0,0,0,0,0,0,0,0,0,0,0,0,0,0,0,0,0,0],"sum_hessian":[2.5413934E2,2.2097903E2,3.3160313E1,2.165723E2,4.406747E0,1.856229E1,1.45980215E1,2.1357875E2,2.9935334E0,1.6405348E1,2.1569428E0,1.3491122E1,1.106899E0,2.1069684E2,2.8819225E0,4.7682323E0,1.16371155E1,1.20247135E1,1.4664088E0,2.0511743E2,5.5794063E0,2.114067E0,2.6541653E0,9.688399E0,1.9487165E0,1.8114954E2,2.3967886E1,1.5660269E0,1.0881385E0,8.355641E0,1.332758E0],"tree_param":{"num_deleted":"0","num_feature":"813","num_nodes":"31","size_leaf_vector":"1"}},{"base_weights":[-3.6740676E-5,-5.5230234E-2,5.781966E-2,-1.1709818E-2,-1.1248187E0,2.5994623E-2,-1.1272061E0,-1.198413E0,-1.5265149E-2,9.070987E-2,-6.06339E-1,-6.1888468E-2,-1.6391484E-2,-6.460869E-2,-1.5929522E-2,5.7315804E-2,6.282926E-2,-7.605503E-1,2.5622046E-1,1.5926244E-3,7.970704E-2,-4.5083325E-2,1.9115316E-2,-6.120345E-3,2.5973028E-2],"categories":[],"categories_nodes":[],"categories_segments":[],"categories_sizes":[],"default_left":[0,0,0,0,0,0,0,0,0,0,0,0,0,0,0,0,0,0,0,0,0,0,0,0,0],"id":28,"left_children":[1,3,-1,5,7,9,11,13,-1,15,17,-1,-1,-1,-1,19,-1,21,23,-1,-1,-1,-1,-1,-1],"loss_changes":[1.57813635E1,1.0971765E1,0E0,9.609149E0,1.8995953E-1,9.111002E0,2.543993E-1,2.5774288E-1,0E0,7.7779083E0,2.9451332E0,0E0,0E0,0E0,0E0,7.6606455E0,0E0,3.2141628E0,4.5069417E-1,0E0,0E0,0E0,0E0,0E0,0E0],"parents":[2147483647,0,0,1,1,3,3,4,4,5,5,6,6,7,7,9,9,10,10,15,15,17,17,18,18],"right_children":[2,4,-1,6,8,10,12,14,-1,16,18,-1,-1,-1,-1,20,-1,22,24,-1,-1,-1,-1,-1,-1],"split_conditions":[1E0,1E0,5.781966E-2,1E0,1E0,1E0,1E0,1E0,-1.5265149E-2,1E0,1E0,-6.1888468E-2,-1.6391484E-2,-6.460869E-2,-1.5929522E-2,1E0,6.282926E-2,1E0,1E0,1.5926244E-3,7.970704E-2,-4.5083325E-2,1.9115316E-2,-6.120345E-3,2.5973028E-2],"split_indices":[43,46,0,161,607,600,432,397,0,181,258,0,0,0,0,50,0,324,610,0,0,0,0,0,0],"split_type":[0,0,0,0,0,0,0,0,0,0,0,0,0,0,0,0,0,0,0,0,0,0,0,0,0],"sum_hessian":[2.4524994E2,2.3498686E2,1.0263091E1,2.2677074E2,8.216112E0,2.2030113E2,6.469613E0,7.1148405E0,1.1012717E0,2.00625E2,1.9676123E1,5.2017326E0,1.2678801E0,6.0061064E0,1.1087341E0,1.9605849E2,4.5665245E0,1.6792215E1,2.883907E0,1.9386707E2,2.191415E0,1.51345E1,1.6577163E0,1.402148E0,1.4817591E0],"tree_param":{"num_deleted":"0","num_feature":"813","num_nodes":"25","size_leaf_vector":"1"}},{"base_weights":[-2.392868E-2,-1.3104463E-1,6.7090297E-1,-1.9055294E-1,5.640034E-2,7.7999127E-1,-2.698358E-1,-2.2470379E-1,6.862109E-2,8.686711E-1,-1.516368E-2,-1.925499E-2,-2.3442458E-3,-2.5477156E-1,6.811906E-2,9.5955235E-1,-2.4632478E-2,-2.8064802E-1,8.030709E-2,1.0343893E0,-1.3870077E-3,-3.7741598E-3,1.5145427E-3,-1.5581752E-2,6.1224587E-2,5.566301E-2,-1.8804249E-3],"categories":[],"categories_nodes":[],"categories_segments":[],"categories_sizes":[],"default_left":[0,0,0,0,0,0,0,0,0,0,0,0,0,0,0,0,0,0,0,0,0,0,0,0,0,0,0],"id":29,"left_children":[1,3,5,7,-1,9,11,13,-1,15,-1,-1,-1,17,-1,19,21,23,-1,25,-1,-1,-1,-1,-1,-1,-1],"loss_changes":[1.872672E1,1.6534573E1,3.6599712E0,1.1455673E1,0E0,3.1816082E0,9.079549E-2,1.0140917E1,0E0,2.3242073E0,0E0,0E0,0E0,1.0190409E1,0E0,1.9309502E0,1.23176975E-2,9.725336E0,0E0,2.0674992E0,0E0,0E0,0E0,0E0,0E0,0E0,0E0],"parents":[2147483647,0,0,1,1,2,2,3,3,5,5,6,6,7,7,9,9,13,13,15,15,16,16,17,17,19,19],"right_children":[2,4,6,8,-1,10,12,14,-1,16,-1,-1,-1,18,-1,20,22,24,-1,26,-1,-1,-1,-1,-1,-1,-1],"split_conditions":[1E0,1E0,1E0,1E0,5.640034E-2,1E0,1E0,1E0,6.862109E-2,1E0,-1.516368E-2,-1.925499E-2,-2.3442458E-3,1E0,6.811906E-2,1E0,1E0,1E0,8.030709E-2,1E0,-1.3870077E-3,-3.7741598E-3,1.5145427E-3,-1.5581752E-2,6.1224587E-2,5.566301E-2,-1.8804249E-3],"split_indices":[44,43,329,0,0,168,709,172,0,660,0,0,0,128,0,347,709,53,0,382,0,0,0,0,0,0,0],"split_type":[0,0,0,0,0,0,0,0,0,0,0,0,0,0,0,0,0,0,0,0,0,0,0,0,0,0,0],"sum_hessian":[2.4942882E2,2.168157E2,3.2613125E1,2.0784088E2,8.974821E0,2.9377388E1,3.2357364E0,2.042346E2,3.6062744E0,2.7337542E1,2.0398467E0,1.6535683E0,1.5821681E0,2.0126112E2,2.9734786E0,2.4745834E1,2.5917077E0,1.9933846E2,1.9226614E0,2.2957918E1,1.7879156E0,1.1513728E0,1.4403349E0,1.9609433E2,3.2441325E0,2.134872E1,1.6091965E0],"tree_param":{"num_deleted":"0","num_feature":"813","num_nodes":"27","size_leaf_vector":"1"}},{"base_weights":[-2.9756874E-2,-9.530005E-2,7.66576E-1,-4.4503707E-2,-8.510555E-1,8.876038E-1,-2.6281705E-2,-6.1124912E-3,-5.8768418E-2,8.708738E-3,-9.892429E-1,1.0277011E0,-1.164772E-2,3.5974976E-2,-1.0544562E0,-1.1143233E0,-1.1433854E-2,1.1377903E0,-7.248313E-3,6.8899274E-2,-6.281408E-2,-6.291406E-2,5.5503245E-3,-1.2179066E0,-1.3324695E-2,1.3368111E0,9.020682E-2,9.043951E-3,-1.5548939E-2,-6.488506E-2,-1.586397E-2,7.189722E-2,1.4436125E-2,2.6865095E-2,-2.3317253E-2],"categories":[],"categories_nodes":[],"categories_segments":[],"categories_sizes":[],"default_left":[0,0,0,0,0,0,0,0,0,0,0,0,0,0,0,0,0,0,0,0,0,0,0,0,0,0,0,0,0,0,0,0,0,0,0],"id":30,"left_children":[1,3,5,7,9,11,-1,13,-1,-1,15,17,-1,19,21,23,-1,25,-1,27,-1,-1,-1,29,-1,31,33,-1,-1,-1,-1,-1,-1,-1,-1],"loss_changes":[1.3080685E1,8.836011E0,3.4478426E0,9.442174E0,2.2269678E0,3.0341206E0,0E0,9.370183E0,0E0,0E0,9.752245E-1,2.231615E0,0E0,8.779382E0,2.086793E0,6.279049E-1,0E0,2.954174E0,0E0,8.571834E0,0E0,0E0,0E0,2.6269817E-1,0E0,8.908062E-1,1.1032734E0,0E0,0E0,0E0,0E0,0E0,0E0,0E0,0E0],"parents":[2147483647,0,0,1,1,2,2,3,3,4,4,5,5,7,7,10,10,11,11,13,13,14,14,15,15,17,17,19,19,23,23,25,25,26,26],"right_children":[2,4,6,8,10,12,-1,14,-1,-1,16,18,-1,20,22,24,-1,26,-1,28,-1,-1,-1,30,-1,32,34,-1,-1,-1,-1,-1,-1,-1,-1],"split_conditions":[1E0,1E0,1E0,1E0,1E0,1E0,-2.6281705E-2,1E0,-5.8768418E-2,8.708738E-3,1E0,1E0,-1.164772E-2,1E0,1E0,1E0,-1.1433854E-2,1E0,-7.248313E-3,1E0,-6.281408E-2,-6.291406E-2,5.5503245E-3,1E0,-1.3324695E-2,1E0,1E0,9.043951E-3,-1.5548939E-2,-6.488506E-2,-1.586397E-2,7.189722E-2,1.4436125E-2,2.6865095E-2,-2.3317253E-2],"split_indices":[614,168,601,161,786,223,0,46,0,0,647,333,0,2,697,298,0,357,0,437,0,0,0,689,0,268,338,0,0,0,0,0,0,0,0],"split_type":[0,0,0,0,0,0,0,0,0,0,0,0,0,0,0,0,0,0,0,0,0,0,0,0,0,0,0,0,0,0,0,0,0,0,0],"sum_hessian":[2.4821608E2,2.3015335E2,1.8062735E1,2.1665057E2,1.3502777E1,1.6802162E1,1.2605717E0,2.1050948E2,6.141087E0,1.5728887E0,1.1929888E1,1.5008587E1,1.7935755E0,2.0331284E2,7.1966414E0,9.845589E0,2.0842996E0,1.3747704E1,1.2608831E0,1.9918466E2,4.1281734E0,6.0576015E0,1.1390398E0,8.384691E0,1.4608971E0,1.1320867E1,2.426837E0,1.542415E2,4.4943172E1,7.2972755E0,1.0874159E0,9.985377E0,1.3354894E0,1.3649328E0,1.0619042E0],"tree_param":{"num_deleted":"0","num_feature":"813","num_nodes":"35","size_leaf_vector":"1"}},{"base_weights":[-4.123966E-2,-1.0839925E-1,7.852867E-1,-1.3511501E-1,7.361915E-2,9.099509E-1,-2.4370834E-2,-1.6228685E-1,5.8998104E-2,1.0130746E0,-1.9250082E-2,-1.8779439E-1,6.487516E-2,1.1624743E0,1.3805413E-1,-2.0899838E-1,7.7383906E-2,1.2473383E0,1.7621106E-2,1.5716571E-2,-5.4905266E-3,-1.17071215E-2,6.550581E-2,6.684497E-2,1.9585084E-2],"categories":[],"categories_nodes":[],"categories_segments":[],"categories_sizes":[],"default_left":[0,0,0,0,0,0,0,0,0,0,0,0,0,0,0,0,0,0,0,0,0,0,0,0,0],"id":31,"left_children":[1,3,5,7,-1,9,-1,11,-1,13,-1,15,-1,17,19,21,-1,23,-1,-1,-1,-1,-1,-1,-1],"loss_changes":[1.398902E1,1.0019303E1,3.449277E0,8.3953E0,0E0,2.7407799E0,0E0,8.652124E0,0E0,2.0070057E0,0E0,8.522748E0,0E0,5.247154E-1,1.8974862E-1,8.748394E0,0E0,4.1916466E-1,0E0,0E0,0E0,0E0,0E0,0E0,0E0],"parents":[2147483647,0,0,1,1,2,2,3,3,5,5,7,7,9,9,11,11,13,13,14,14,15,15,17,17],"right_children":[2,4,6,8,-1,10,-1,12,-1,14,-1,16,-1,18,20,22,-1,24,-1,-1,-1,-1,-1,-1,-1],"split_conditions":[1E0,1E0,1E0,1E0,7.361915E-2,1E0,-2.4370834E-2,1E0,5.8998104E-2,1E0,-1.9250082E-2,1E0,6.487516E-2,1E0,1E0,1E0,7.7383906E-2,1E0,1.7621106E-2,1.5716571E-2,-5.4905266E-3,-1.17071215E-2,6.550581E-2,6.684497E-2,1.9585084E-2],"split_indices":[614,5,553,181,0,429,0,169,0,249,0,121,0,669,649,177,0,379,0,0,0,0,0,0,0],"split_type":[0,0,0,0,0,0,0,0,0,0,0,0,0,0,0,0,0,0,0,0,0,0,0,0,0],"sum_hessian":[2.4947925E2,2.3153468E2,1.7944553E1,2.2858603E2,2.9486573E0,1.6603252E1,1.3413008E0,2.248175E2,3.7685335E0,1.5580196E1,1.0230563E0,2.2181302E2,3.0044782E0,1.3027407E1,2.55279E0,2.2000458E2,1.8084427E0,1.1303395E1,1.7240112E0,1.3351182E0,1.2176718E0,2.172545E2,2.7500782E0,9.72319E0,1.580205E0],"tree_param":{"num_deleted":"0","num_feature":"813","num_nodes":"25","size_leaf_vector":"1"}},{"base_weights":[3.5297073E-2,-5.7125133E-2,5.982895E-1,-1.16836935E-1,5.5749267E-2,7.176831E-1,-3.675541E-1,-1.5016998E-1,6.940702E-2,7.951476E-1,-1.6043743E-2,-3.4628693E-2,1.0782548E-2,-1.0982673E-1,-6.6600434E-2,8.757182E-1,-1.6368514E-2,-4.150526E-2,-8.5101193E-1,9.909965E-1,-1.3884214E-1,-3.3837222E-3,7.709088E-2,-5.7390798E-2,2.6302984E-2,5.3733718E-2,3.2732436E-3,2.0833684E-2,-3.0400444E-2],"categories":[],"categories_nodes":[],"categories_segments":[],"categories_sizes":[],"default_left":[0,0,0,0,0,0,0,0,0,0,0,0,0,0,0,0,0,0,0,0,0,0,0,0,0,0,0,0,0],"id":32,"left_children":[1,3,5,7,-1,9,11,13,-1,15,-1,-1,-1,17,-1,19,-1,21,23,25,27,-1,-1,-1,-1,-1,-1,-1,-1],"loss_changes":[1.2808961E1,1.4954279E1,4.266135E0,1.0364126E1,0E0,2.7674828E0,9.985013E-1,9.339925E0,0E0,2.9409733E0,0E0,0E0,0E0,9.762358E0,0E0,3.371994E0,0E0,7.488055E0,7.2571125E0,1.8623943E0,1.2173425E0,0E0,0E0,0E0,0E0,0E0,0E0,0E0,0E0],"parents":[2147483647,0,0,1,1,2,2,3,3,5,5,6,6,7,7,9,9,13,13,15,15,17,17,18,18,19,19,20,20],"right_children":[2,4,6,8,-1,10,12,14,-1,16,-1,-1,-1,18,-1,20,-1,22,24,26,28,-1,-1,-1,-1,-1,-1,-1,-1],"split_conditions":[1E0,1E0,1E0,1E0,5.5749267E-2,1E0,1E0,1E0,6.940702E-2,1E0,-1.6043743E-2,-3.4628693E-2,1.0782548E-2,1E0,-6.6600434E-2,1E0,-1.6368514E-2,1E0,1E0,1E0,1E0,-3.3837222E-3,7.709088E-2,-5.7390798E-2,2.6302984E-2,5.3733718E-2,3.2732436E-3,2.0833684E-2,-3.0400444E-2],"split_indices":[44,43,329,172,0,345,277,673,0,292,0,0,0,254,0,616,0,128,664,660,190,0,0,0,0,0,0,0,0],"split_type":[0,0,0,0,0,0,0,0,0,0,0,0,0,0,0,0,0,0,0,0,0,0,0,0,0,0,0,0,0],"sum_hessian":[2.4451309E2,2.1080531E2,3.3707783E1,2.0144334E2,9.361977E0,3.0228052E1,3.4797308E0,1.9795905E2,3.4842863E0,2.834799E1,1.880062E0,2.114045E0,1.365686E0,1.9248143E2,5.4776196E0,2.6654669E1,1.6933206E0,1.7720308E2,1.5278347E1,2.3955929E1,2.6987412E0,1.7526358E2,1.9395009E0,1.2706221E1,2.5721266E0,2.182186E1,2.134069E0,1.2868891E0,1.4118522E0],"tree_param":{"num_deleted":"0","num_feature":"813","num_nodes":"29","size_leaf_vector":"1"}},{"base_weights":[1.4573429E-2,-2.9791195E-2,5.4954063E-2,-1.2284152E-1,5.726109E-1,-1.5521933E-1,1.2202365E0,7.363574E-1,-3.9186528E-1,-1.8452375E-1,6.514295E-2,7.310255E-2,1.3572621E-2,4.1994712E-1,1.0814604E0,-4.514688E-2,1.6849017E-1,-2.1533576E-1,6.0972985E-2,5.6184417E-1,-2.5264267E-2,1.1489639E-2,5.7195254E-2,-1.2634479E-3,1.4959261E-2,-1.1989149E-2,6.660961E-2,3.724168E-2,-1.1649538E-2],"categories":[],"categories_nodes":[],"categories_segments":[],"categories_sizes":[],"default_left":[0,0,0,0,0,0,0,0,0,0,0,0,0,0,0,0,0,0,0,0,0,0,0,0,0,0,0,0,0],"id":33,"left_children":[1,3,-1,5,7,9,11,13,15,17,-1,-1,-1,19,21,-1,23,25,-1,27,-1,-1,-1,-1,-1,-1,-1,-1,-1],"loss_changes":[1.1895959E1,1.3402686E1,0E0,9.184423E0,5.3423758E0,8.908539E0,7.461438E-1,2.5708885E0,1.6691346E0,8.903512E0,0E0,0E0,0E0,2.3959599E0,4.0808678E-1,0E0,9.288642E-2,7.746257E0,0E0,2.2711196E0,0E0,0E0,0E0,0E0,0E0,0E0,0E0,0E0,0E0],"parents":[2147483647,0,0,1,1,3,3,4,4,5,5,6,6,7,7,8,8,9,9,13,13,14,14,16,16,17,17,19,19],"right_children":[2,4,-1,6,8,10,12,14,16,18,-1,-1,-1,20,22,-1,24,26,-1,28,-1,-1,-1,-1,-1,-1,-1,-1,-1],"split_conditions":[1E0,1E0,5.4954063E-2,1E0,1E0,1E0,1E0,1E0,1E0,1E0,6.514295E-2,7.310255E-2,1.3572621E-2,1E0,1E0,-4.514688E-2,1E0,1E0,6.0972985E-2,1E0,-2.5264267E-2,1.1489639E-2,5.7195254E-2,-1.2634479E-3,1.4959261E-2,-1.1989149E-2,6.660961E-2,3.724168E-2,-1.1649538E-2],"split_indices":[43,44,0,172,304,0,746,432,432,53,0,0,0,667,786,0,396,5,0,677,0,0,0,0,0,0,0,0,0],"split_type":[0,0,0,0,0,0,0,0,0,0,0,0,0,0,0,0,0,0,0,0,0,0,0,0,0,0,0,0,0],"sum_hessian":[2.4556589E2,2.3684947E2,8.716415E0,2.0584898E2,3.100048E1,2.0186697E2,3.9820108E0,2.6703367E1,4.297113E0,1.9874603E2,3.1209462E0,2.7421517E0,1.2398591E0,1.508732E1,1.1616047E1,1.9276415E0,2.3694713E0,1.9530644E2,3.4395945E0,1.3421677E1,1.6656443E0,1.1132085E0,1.0502839E1,1.2793926E0,1.0900788E0,1.9310095E2,2.2054782E0,1.0961088E1,2.4605877E0],"tree_param":{"num_deleted":"0","num_feature":"813","num_nodes":"29","size_leaf_vector":"1"}},{"base_weights":[7.530795E-3,-9.0509154E-2,6.21067E-1,-1.4481251E-1,6.975775E-1,7.4462754E-1,-3.5445026E-1,-1.757573E-1,5.9971303E-2,8.805422E-1,-1.54536655E-2,8.2344496E-1,-2.0294957E-2,-3.399556E-2,1.1168133E-2,-2.0263907E-1,6.5475665E-2,1.09348E0,-7.630692E-3,8.9369696E-1,-2.4518996E-2,-2.3169984E-1,6.0257215E-2,6.338915E-2,1.6109316E-3,9.694845E-1,-2.2921229E-2,-1.2948397E-2,6.616514E-2,5.300492E-2,1.16760435E-4],"categories":[],"categories_nodes":[],"categories_segments":[],"categories_sizes":[],"default_left":[0,0,0,0,0,0,0,0,0,0,0,0,0,0,0,0,0,0,0,0,0,0,0,0,0,0,0,0,0,0,0],"id":34,"left_children":[1,3,5,7,9,11,13,15,-1,17,-1,19,-1,-1,-1,21,-1,23,-1,25,-1,27,-1,-1,-1,29,-1,-1,-1,-1,-1],"loss_changes":[1.4747889E1,9.150918E0,4.335516E0,8.474645E0,2.814561E0,3.0822544E0,9.934189E-1,8.053671E0,0E0,2.7937822E0,0E0,3.0864334E0,0E0,0E0,0E0,8.153159E0,0E0,1.8131447E0,0E0,3.2716312E0,0E0,8.374029E0,0E0,0E0,0E0,2.3151836E0,0E0,0E0,0E0,0E0,0E0],"parents":[2147483647,0,0,1,1,2,2,3,3,4,4,5,5,6,6,7,7,9,9,11,11,15,15,17,17,19,19,21,21,25,25],"right_children":[2,4,6,8,10,12,14,16,-1,18,-1,20,-1,-1,-1,22,-1,24,-1,26,-1,28,-1,-1,-1,30,-1,-1,-1,-1,-1],"split_conditions":[1E0,1E0,1E0,1E0,1E0,1E0,1E0,1E0,5.9971303E-2,1E0,-1.54536655E-2,1E0,-2.0294957E-2,-3.399556E-2,1.1168133E-2,1E0,6.5475665E-2,1E0,-7.630692E-3,1E0,-2.4518996E-2,1E0,6.0257215E-2,6.338915E-2,1.6109316E-3,1E0,-2.2921229E-2,-1.2948397E-2,6.616514E-2,5.300492E-2,1.16760435E-4],"split_indices":[44,614,329,53,401,587,277,135,0,249,0,695,0,0,0,144,0,387,0,386,0,164,0,0,0,543,0,0,0,0,0],"split_type":[0,0,0,0,0,0,0,0,0,0,0,0,0,0,0,0,0,0,0,0,0,0,0,0,0,0,0,0,0,0,0],"sum_hessian":[2.4324637E2,2.1046725E2,3.2779114E1,1.9766344E2,1.2803815E1,2.9304094E1,3.475019E0,1.9406525E2,3.5981905E0,1.0940576E1,1.8632393E0,2.7691372E1,1.6127225E0,2.1098945E0,1.3651245E0,1.9146353E2,2.6017125E0,9.0225935E0,1.917982E0,2.6589376E1,1.1019955E0,1.8840962E2,3.0539117E0,7.582614E0,1.4399797E0,2.544609E1,1.143285E0,1.8598177E2,2.427862E0,2.3178364E1,2.2677271E0],"tree_param":{"num_deleted":"0","num_feature":"813","num_nodes":"31","size_leaf_vector":"1"}},{"base_weights":[4.468426E-2,9.8776616E-2,-8.225429E-1,1.4130145E-1,-7.572948E-1,-9.2015404E-1,1.1254341E-2,1.7432836E-1,-8.171948E-1,-9.60561E-1,2.764277E-2,4.075978E-3,-1.0148643E0,2.5085068E-1,-2.9787222E-1,-1.9935794E-1,-5.878491E-2,-1.0689197E0,-3.8315922E-3,-1.1313415E0,-1.1881253E-2,3.343689E-1,-2.6603568E-1,-4.027549E-1,5.753714E-1,-2.7444387E-2,1.7002856E-2,-1.7139375E-2,-5.7249885E-2,-6.1915535E-2,-9.882074E-3,1.8374043E-2,-4.7793675E-2,-9.312102E-4,-4.9372733E-2,-2.7677372E-2,1.5918953E-2,3.6932867E-2,1.0377151E-2],"categories":[],"categories_nodes":[],"categories_segments":[],"categories_sizes":[],"default_left":[0,0,0,0,0,0,0,0,0,0,0,0,0,0,0,0,0,0,0,0,0,0,0,0,0,0,0,0,0,0,0,0,0,0,0,0,0,0,0],"id":35,"left_children":[1,3,5,7,9,11,-1,13,15,17,-1,-1,19,21,23,25,-1,27,-1,29,-1,31,33,35,37,-1,-1,-1,-1,-1,-1,-1,-1,-1,-1,-1,-1,-1,-1],"loss_changes":[1.1771957E1,8.6793E0,1.7143297E0,7.270608E0,3.5405512E0,1.3804722E0,0E0,7.9698973E0,1.465867E0,8.9010143E-1,0E0,0E0,8.693142E-1,8.229411E0,3.0643563E0,9.4512224E-1,0E0,1.02641106E-1,0E0,8.2071114E-1,0E0,7.305725E0,4.762857E0,3.242723E0,7.061076E-2,0E0,0E0,0E0,0E0,0E0,0E0,0E0,0E0,0E0,0E0,0E0,0E0,0E0,0E0],"parents":[2147483647,0,0,1,1,2,2,3,3,4,4,5,5,7,7,8,8,9,9,12,12,13,13,14,14,15,15,17,17,19,19,21,21,22,22,23,23,24,24],"right_children":[2,4,6,8,10,12,-1,14,16,18,-1,-1,20,22,24,26,-1,28,-1,30,-1,32,34,36,38,-1,-1,-1,-1,-1,-1,-1,-1,-1,-1,-1,-1,-1,-1],"split_conditions":[1E0,1E0,1E0,1E0,1E0,1E0,1.1254341E-2,1E0,1E0,1E0,2.764277E-2,4.075978E-3,1E0,1E0,1E0,1E0,-5.878491E-2,1E0,-3.8315922E-3,1E0,-1.1881253E-2,1E0,1E0,1E0,1E0,-2.7444387E-2,1.7002856E-2,-1.7139375E-2,-5.7249885E-2,-6.1915535E-2,-9.882074E-3,1.8374043E-2,-4.7793675E-2,-9.312102E-4,-4.9372733E-2,-2.7677372E-2,1.5918953E-2,3.6932867E-2,1.0377151E-2],"split_indices":[168,562,685,180,602,795,0,223,231,601,0,0,258,190,397,560,0,525,0,245,0,2,437,328,442,0,0,0,0,0,0,0,0,0,0,0,0,0,0],"split_type":[0,0,0,0,0,0,0,0,0,0,0,0,0,0,0,0,0,0,0,0,0,0,0,0,0,0,0,0,0,0,0,0,0,0,0,0,0,0,0],"sum_hessian":[2.4821379E2,2.3447478E2,1.373901E1,2.2417401E2,1.0300768E1,1.26793165E1,1.0596938E0,2.1749782E2,6.6762E0,9.148271E0,1.1524979E0,1.1073252E0,1.1571991E1,1.8756998E2,2.9927837E1,3.0228205E0,3.6533797E0,7.9628434E0,1.185427E0,9.667613E0,1.9043783E0,1.6178238E2,2.57876E1,2.7199741E1,2.7280967E0,1.8236027E0,1.1992178E0,1.2773005E0,6.685543E0,8.381183E0,1.2864298E0,1.5843167E2,3.3507032E0,1.996604E1,5.82156E0,2.2687971E1,4.5117702E0,1.1911603E0,1.5369364E0],"tree_param":{"num_deleted":"0","num_feature":"813","num_nodes":"39","size_leaf_vector":"1"}},{"base_weights":[9.111877E-3,-8.3627306E-2,6.2612224E-1,-2.9987639E-2,-9.1601795E-1,7.323478E-1,-3.041639E-1,-5.569447E-2,7.738881E-2,-1.0821706E0,2.1986717E-3,8.324408E-1,-1.37940915E-2,-2.2922762E-2,9.82976E-6,-8.579957E-2,6.1772376E-2,-1.1687789E0,-1.1773295E-2,9.04377E-1,-1.1255012E-2,-1.1419946E-1,6.2988184E-2,-6.403977E-2,-2.0890586E-2,9.8382974E-1,9.621623E-2,-7.12557E-3,6.0884506E-2,-5.367396E-3,5.3414643E-2,3.552874E-2,-3.1651482E-2],"categories":[],"categories_nodes":[],"categories_segments":[],"categories_sizes":[],"default_left":[0,0,0,0,0,0,0,0,0,0,0,0,0,0,0,0,0,0,0,0,0,0,0,0,0,0,0,0,0,0,0,0,0],"id":36,"left_children":[1,3,5,7,9,11,13,15,-1,17,-1,19,-1,-1,-1,21,-1,23,-1,25,-1,27,-1,-1,-1,29,31,-1,-1,-1,-1,-1,-1],"loss_changes":[1.3761463E1,9.311296E0,3.3279476E0,8.097898E0,2.0618973E0,3.105359E0,1.8449631E-1,7.6984234E0,0E0,5.170889E-1,0E0,2.1945667E0,0E0,0E0,0E0,7.473788E0,0E0,2.6817322E-1,0E0,1.491579E0,0E0,7.2915688E0,0E0,0E0,0E0,2.1776848E0,1.9370998E0,0E0,0E0,0E0,0E0,0E0,0E0],"parents":[2147483647,0,0,1,1,2,2,3,3,4,4,5,5,6,6,7,7,9,9,11,11,15,15,17,17,19,19,21,21,25,25,26,26],"right_children":[2,4,6,8,10,12,14,16,-1,18,-1,20,-1,-1,-1,22,-1,24,-1,26,-1,28,-1,-1,-1,30,32,-1,-1,-1,-1,-1,-1],"split_conditions":[1E0,1E0,1E0,1E0,1E0,1E0,1E0,1E0,7.738881E-2,1E0,2.1986717E-3,1E0,-1.37940915E-2,-2.2922762E-2,9.82976E-6,1E0,6.1772376E-2,1E0,-1.1773295E-2,1E0,-1.1255012E-2,1E0,6.2988184E-2,-6.403977E-2,-2.0890586E-2,1E0,1E0,-7.12557E-3,6.0884506E-2,-5.367396E-3,5.3414643E-2,3.552874E-2,-3.1651482E-2],"split_indices":[44,562,660,50,639,329,635,54,0,196,0,348,0,0,0,0,0,197,0,667,0,56,0,0,0,479,610,0,0,0,0,0,0],"split_type":[0,0,0,0,0,0,0,0,0,0,0,0,0,0,0,0,0,0,0,0,0,0,0,0,0,0,0,0,0,0,0,0,0],"sum_hessian":[2.3858153E2,2.0815886E2,3.0422667E1,1.9653036E2,1.16284895E1,2.7495804E1,2.926862E0,1.9432883E2,2.2015393E0,9.804314E0,1.824175E0,2.5171255E1,2.3245478E0,1.6062869E0,1.3205752E0,1.9081325E2,3.515577E0,8.54942E0,1.2548938E0,2.3703709E1,1.4675469E0,1.8776534E2,3.0479078E0,6.825744E0,1.7236761E0,2.1384014E1,2.3196955E0,1.847315E2,3.0338316E0,1.516855E0,1.9867159E1,1.2729188E0,1.0467765E0],"tree_param":{"num_deleted":"0","num_feature":"813","num_nodes":"33","size_leaf_vector":"1"}},{"base_weights":[5.410772E-2,1.0721847E-1,-8.2163703E-1,1.4898422E-1,-1.0130348E0,-9.706482E-1,2.6032424E-2,1.8725418E-1,-5.5897873E-2,-1.0887911E0,-1.2048109E-2,-1.0693034E0,-1.0565041E-3,2.2468549E-1,-9.991036E-1,-5.967762E-2,-1.1139353E-2,-1.2055557E0,-1.1726368E-2,2.662081E-1,-7.460528E-1,-5.7191998E-2,-1.3010159E-2,-6.353735E-2,-1.83276E-2,1.5109676E-2,-4.2293135E-2,-6.320974E-2,-7.0385034E-3],"categories":[],"categories_nodes":[],"categories_segments":[],"categories_sizes":[],"default_left":[0,0,0,0,0,0,0,0,0,0,0,0,0,0,0,0,0,0,0,0,0,0,0,0,0,0,0,0,0],"id":37,"left_children":[1,3,5,7,9,11,-1,13,-1,15,-1,17,-1,19,21,-1,-1,23,-1,25,27,-1,-1,-1,-1,-1,-1,-1,-1],"loss_changes":[1.1440168E1,1.0958981E1,3.3197975E0,1.1049236E1,2.3075867E-1,1.1965094E0,0E0,9.899415E0,0E0,4.0484333E-1,0E0,1.0558863E0,0E0,8.744719E0,4.3467522E-1,0E0,0E0,7.4391365E-2,0E0,8.421843E0,2.6321192E0,0E0,0E0,0E0,0E0,0E0,0E0,0E0,0E0],"parents":[2147483647,0,0,1,1,2,2,3,3,4,4,5,5,7,7,9,9,11,11,13,13,14,14,17,17,19,19,20,20],"right_children":[2,4,6,8,10,12,-1,14,-1,16,-1,18,-1,20,22,-1,-1,24,-1,26,28,-1,-1,-1,-1,-1,-1,-1,-1],"split_conditions":[1E0,1E0,1E0,1E0,1E0,1E0,2.6032424E-2,1E0,-5.5897873E-2,1E0,-1.2048109E-2,1E0,-1.0565041E-3,1E0,1E0,-5.967762E-2,-1.1139353E-2,1E0,-1.1726368E-2,1E0,1E0,-5.7191998E-2,-1.3010159E-2,-6.353735E-2,-1.83276E-2,1.5109676E-2,-4.2293135E-2,-6.320974E-2,-7.0385034E-3],"split_indices":[168,46,293,161,456,602,0,59,0,688,0,258,0,126,583,0,0,356,0,140,231,0,0,0,0,0,0,0,0],"split_type":[0,0,0,0,0,0,0,0,0,0,0,0,0,0,0,0,0,0,0,0,0,0,0,0,0,0,0,0,0],"sum_hessian":[2.4307047E2,2.299994E2,1.3071063E1,2.2256851E2,7.430886E0,1.2014199E1,1.0568637E0,2.1686983E2,5.6986914E0,6.3933477E0,1.0375382E0,1.076913E1,1.2450695E0,2.1102237E2,5.847453E0,5.3659897E0,1.0273578E0,8.87619E0,1.8929399E0,2.030623E2,7.960074E0,4.4313984E0,1.4160548E0,7.75874E0,1.11745E0,1.9740282E2,5.6594796E0,3.7022357E0,4.2578382E0],"tree_param":{"num_deleted":"0","num_feature":"813","num_nodes":"29","size_leaf_vector":"1"}},{"base_weights":[3.767013E-2,-4.928897E-2,6.058312E-1,-9.756915E-2,5.3647317E-2,7.072364E-1,-2.1981058E-1,-5.4154105E-2,-6.5145314E-2,7.9122984E-1,-1.3697492E-2,2.4770174E-2,-3.2175433E-2,8.904278E-4,-1.001511E0,8.5919476E-1,-8.536342E-3,1.1191833E0,-3.810582E-2,-1.156607E0,1.1160725E-2,9.4809496E-1,1.2403237E-2,2.635548E-2,6.988617E-2,-3.6631208E-3,6.336825E-2,-6.1178543E-2,-1.4967171E-2,4.9774706E-2,1.4325099E-2,3.5244144E-2,-3.0351777E-2],"categories":[],"categories_nodes":[],"categories_segments":[],"categories_sizes":[],"default_left":[0,0,0,0,0,0,0,0,0,0,0,0,0,0,0,0,0,0,0,0,0,0,0,0,0,0,0,0,0,0,0,0,0],"id":38,"left_children":[1,3,5,7,-1,9,11,13,-1,15,-1,-1,-1,17,19,21,-1,23,25,27,-1,29,31,-1,-1,-1,-1,-1,-1,-1,-1,-1,-1],"loss_changes":[1.192389E1,1.1466959E1,2.8371563E0,1.0498674E1,0E0,2.5872526E0,1.6116964E0,1.0221408E1,0E0,1.8957558E0,0E0,0E0,0E0,8.16406E0,2.3026981E0,1.8817558E0,0E0,3.0357456E-1,8.39649E0,1.9145298E-1,0E0,4.2820358E-1,1.8876202E0,0E0,0E0,0E0,0E0,0E0,0E0,0E0,0E0,0E0,0E0],"parents":[2147483647,0,0,1,1,2,2,3,3,5,5,6,6,7,7,9,9,13,13,14,14,15,15,17,17,18,18,19,19,21,21,22,22],"right_children":[2,4,6,8,-1,10,12,14,-1,16,-1,-1,-1,18,20,22,-1,24,26,28,-1,30,32,-1,-1,-1,-1,-1,-1,-1,-1,-1,-1],"split_conditions":[1E0,1E0,1E0,1E0,5.3647317E-2,1E0,1E0,1E0,-6.5145314E-2,1E0,-1.3697492E-2,2.4770174E-2,-3.2175433E-2,1E0,1E0,1E0,-8.536342E-3,1E0,1E0,1E0,1.1160725E-2,1E0,1E0,2.635548E-2,6.988617E-2,-3.6631208E-3,6.336825E-2,-6.1178543E-2,-1.4967171E-2,4.9774706E-2,1.4325099E-2,3.5244144E-2,-3.0351777E-2],"split_indices":[44,43,329,673,0,250,774,168,0,345,0,0,0,513,561,543,0,517,127,549,0,742,591,0,0,0,0,0,0,0,0,0,0],"split_type":[0,0,0,0,0,0,0,0,0,0,0,0,0,0,0,0,0,0,0,0,0,0,0,0,0,0,0,0,0,0,0,0,0],"sum_hessian":[2.3973679E2,2.0870673E2,3.1030067E1,2.009736E2,7.7331166E0,2.7763561E1,3.2665064E0,1.9499501E2,5.9785986E0,2.5752634E1,2.0109277E0,1.1522461E0,2.1142604E0,1.852315E2,9.763497E0,2.4152985E1,1.5996498E0,5.308221E0,1.799233E2,8.715419E0,1.0480788E0,2.1749939E1,2.403044E0,2.6236687E0,2.6845522E0,1.7612411E2,3.799178E0,7.6876144E0,1.0278039E0,1.9824911E1,1.9250293E0,1.0694984E0,1.3335457E0],"tree_param":{"num_deleted":"0","num_feature":"813","num_nodes":"33","size_leaf_vector":"1"}},{"base_weights":[2.7358564E-2,-3.1100405E-2,7.5722027E-1,6.0862815E-3,-6.1654028E-2,1.0181503E0,-2.4970995E-1,4.186659E-2,-1.0417534E0,1.2004845E0,-2.030399E-2,2.6161447E-3,-2.533151E-2,-3.1222431E-2,5.3353876E-1,-5.7627674E-2,-9.997403E-3,1.327222E0,-7.581284E-5,-5.8558784E-2,6.757709E-2,6.537501E-1,-3.380181E-2,1.4822717E0,1.4473694E-2,-4.4971397E-3,6.0582858E-2,3.7398417E-2,-3.126329E-2,7.932266E-2,2.0418672E-2],"categories":[],"categories_nodes":[],"categories_segments":[],"categories_sizes":[],"default_left":[0,0,0,0,0,0,0,0,0,0,0,0,0,0,0,0,0,0,0,0,0,0,0,0,0,0,0,0,0,0,0],"id":39,"left_children":[1,3,5,7,-1,9,11,13,15,17,-1,-1,-1,19,21,-1,-1,23,-1,25,-1,27,-1,29,-1,-1,-1,-1,-1,-1,-1],"loss_changes":[9.701279E0,9.436949E0,4.6839075E0,7.752908E0,0E0,4.015792E0,3.5807142E-1,7.196519E0,4.0643024E-1,1.8754025E0,0E0,0E0,0E0,6.6897326E0,4.209702E0,0E0,0E0,1.3610783E0,0E0,6.9837136E0,0E0,3.3692446E0,0E0,4.0793037E-1,0E0,0E0,0E0,0E0,0E0,0E0,0E0],"parents":[2147483647,0,0,1,1,2,2,3,3,5,5,6,6,7,7,8,8,9,9,13,13,14,14,17,17,19,19,21,21,23,23],"right_children":[2,4,6,8,-1,10,12,14,16,18,-1,-1,-1,20,22,-1,-1,24,-1,26,-1,28,-1,30,-1,-1,-1,-1,-1,-1,-1],"split_conditions":[1E0,1E0,1E0,1E0,-6.1654028E-2,1E0,1E0,1E0,1E0,1E0,-2.030399E-2,2.6161447E-3,-2.533151E-2,1E0,1E0,-5.7627674E-2,-9.997403E-3,1E0,-7.581284E-5,1E0,6.757709E-2,1E0,-3.380181E-2,1E0,1.4473694E-2,-4.4971397E-3,6.0582858E-2,3.7398417E-2,-3.126329E-2,7.932266E-2,2.0418672E-2],"split_indices":[191,49,688,46,0,345,298,411,380,555,0,0,0,5,619,0,0,258,0,144,0,589,0,620,0,0,0,0,0,0,0],"split_type":[0,0,0,0,0,0,0,0,0,0,0,0,0,0,0,0,0,0,0,0,0,0,0,0,0,0,0,0,0,0,0],"sum_hessian":[2.2582019E2,2.0996059E2,1.5859605E1,2.0462488E2,5.3357186E0,1.2586793E1,3.2728112E0,1.9879666E2,5.8282127E0,1.1297546E1,1.2892468E0,1.8703693E0,1.4024419E0,1.7388454E2,2.4912128E1,4.8241096E0,1.0041032E0,1.0125726E1,1.1718205E0,1.7145267E2,2.4318573E0,2.3078077E1,1.8340513E0,8.436828E0,1.6888987E0,1.6822542E2,3.2272584E0,2.1881393E1,1.1966834E0,7.2556543E0,1.1811727E0],"tree_param":{"num_deleted":"0","num_feature":"813","num_nodes":"31","size_leaf_vector":"1"}},{"base_weights":[-2.2128694E-2,-6.679937E-2,5.340239E-2,-1.4661774E-1,4.5178503E-1,-1.7221996E-1,8.136938E-2,7.7728406E-2,6.6945523E-1,-1.9991097E-1,5.9322048E-2,-8.74652E-2,3.8615026E-2,7.7059907E-1,-2.1360667E-2,-2.2392309E-1,6.4758345E-2,-2.465437E-1,2.7192695E-2,8.911937E-1,-1.7313788E-2,-1.2466886E-2,5.8925625E-2,-3.1170234E-2,5.3388653E-3,5.0419427E-2,2.2340026E-3],"categories":[],"categories_nodes":[],"categories_segments":[],"categories_sizes":[],"default_left":[0,0,0,0,0,0,0,0,0,0,0,0,0,0,0,0,0,0,0,0,0,0,0,0,0,0,0],"id":40,"left_children":[1,3,-1,5,7,9,-1,11,13,15,-1,17,-1,19,-1,21,-1,23,-1,25,-1,-1,-1,-1,-1,-1,-1],"loss_changes":[1.1485877E1,9.425295E0,0E0,9.214106E0,2.423501E0,7.566331E0,0E0,1.4806397E0,2.4465246E0,7.174602E0,0E0,1.2235067E0,0E0,2.7105474E0,0E0,7.0513783E0,0E0,1.3118773E0,0E0,1.5794792E0,0E0,0E0,0E0,0E0,0E0,0E0,0E0],"parents":[2147483647,0,0,1,1,3,3,4,4,5,5,7,7,8,8,9,9,11,11,13,13,15,15,17,17,19,19],"right_children":[2,4,-1,6,8,10,-1,12,14,16,-1,18,-1,20,-1,22,-1,24,-1,26,-1,-1,-1,-1,-1,-1,-1],"split_conditions":[1E0,1E0,5.340239E-2,1E0,1E0,1E0,8.136938E-2,1E0,1E0,1E0,5.9322048E-2,1E0,3.8615026E-2,1E0,-2.1360667E-2,1E0,6.4758345E-2,1E0,2.7192695E-2,1E0,-1.7313788E-2,-1.2466886E-2,5.8925625E-2,-3.1170234E-2,5.3388653E-3,5.0419427E-2,2.2340026E-3],"split_indices":[43,44,0,27,452,54,0,115,287,164,0,85,0,660,0,144,0,758,0,359,0,0,0,0,0,0,0],"split_type":[0,0,0,0,0,0,0,0,0,0,0,0,0,0,0,0,0,0,0,0,0,0,0,0,0,0,0],"sum_hessian":[2.3338983E2,2.2510475E2,8.285086E0,1.9570059E2,2.9404156E1,1.9380653E2,1.8940704E0,1.1315707E1,1.8088448E1,1.9077126E2,3.0352683E0,9.847661E0,1.468046E0,1.6833273E1,1.2551761E0,1.8859254E2,2.1787162E0,8.352494E0,1.4951664E0,1.5375199E1,1.4580729E0,1.8604332E2,2.5492256E0,3.671726E0,4.6807685E0,1.3337479E1,2.037721E0],"tree_param":{"num_deleted":"0","num_feature":"813","num_nodes":"27","size_leaf_vector":"1"}},{"base_weights":[1.5222769E-2,-5.865472E-2,5.1587003E-1,-8.1997745E-2,7.650808E-2,6.698247E-1,-3.0519632E-1,-1.10117845E-1,6.427099E-2,7.5020003E-1,-1.1698015E-2,-5.992661E-1,9.718486E-3,-1.3670515E-1,6.216922E-2,8.174853E-1,-4.7448035E-3,-3.644088E-2,-7.0744418E-3,-9.7325034E-2,-1.1156116E0,8.698393E-1,6.4302434E-4,-6.2923743E-3,5.832007E-2,-6.054457E-2,-1.2899408E-2,-3.2964677E-3,4.6496954E-2],"categories":[],"categories_nodes":[],"categories_segments":[],"categories_sizes":[],"default_left":[0,0,0,0,0,0,0,0,0,0,0,0,0,0,0,0,0,0,0,0,0,0,0,0,0,0,0,0,0],"id":41,"left_children":[1,3,5,7,-1,9,11,13,-1,15,-1,17,-1,19,-1,21,-1,-1,-1,23,25,27,-1,-1,-1,-1,-1,-1,-1],"loss_changes":[8.76955E0,7.795126E0,4.0580015E0,8.014666E0,0E0,2.0631094E0,9.2455757E-1,7.422864E0,0E0,1.4479856E0,0E0,1.1674726E-1,0E0,7.5460234E0,0E0,9.335623E-1,0E0,0E0,0E0,7.0667076E0,3.0728722E-1,1.2446995E0,0E0,0E0,0E0,0E0,0E0,0E0,0E0],"parents":[2147483647,0,0,1,1,2,2,3,3,5,5,6,6,7,7,9,9,11,11,13,13,15,15,19,19,20,20,21,21],"right_children":[2,4,6,8,-1,10,12,14,-1,16,-1,18,-1,20,-1,22,-1,-1,-1,24,26,28,-1,-1,-1,-1,-1,-1,-1],"split_conditions":[1E0,1E0,1E0,1E0,7.650808E-2,1E0,1E0,1E0,6.427099E-2,1E0,-1.1698015E-2,1E0,9.718486E-3,1E0,6.216922E-2,1E0,-4.7448035E-3,-3.644088E-2,-7.0744418E-3,1E0,1E0,1E0,6.4302434E-4,-6.2923743E-3,5.832007E-2,-6.054457E-2,-1.2899408E-2,-3.2964677E-3,4.6496954E-2],"split_indices":[44,121,304,590,0,329,629,172,0,367,0,396,0,49,0,193,0,0,0,54,429,479,0,0,0,0,0,0,0],"split_type":[0,0,0,0,0,0,0,0,0,0,0,0,0,0,0,0,0,0,0,0,0,0,0,0,0,0,0,0,0],"sum_hessian":[2.352829E2,2.0579744E2,2.9485445E1,2.0375229E2,2.045155E0,2.4984844E1,4.500601E0,2.0054762E2,3.2046685E0,2.3100414E1,1.8844291E0,2.7073467E0,1.7932544E0,1.9756577E2,2.981852E0,2.1427094E1,1.673321E0,1.6486874E0,1.0586593E0,1.9098222E2,6.5835404E0,2.0041986E1,1.3851084E0,1.8764742E2,3.3348088E0,5.554531E0,1.0290096E0,1.2036628E0,1.8838324E1],"tree_param":{"num_deleted":"0","num_feature":"813","num_nodes":"29","size_leaf_vector":"1"}},{"base_weights":[3.844853E-2,-9.734574E-3,7.998032E-1,3.7310038E-2,-8.6789507E-1,9.665269E-1,-3.173436E-2,-3.347301E-2,5.458372E-1,1.9839082E-2,-1.0632061E0,1.1260026E0,-1.9342674E-2,-6.9758676E-2,1.0842826E0,7.23317E-1,-2.9753342E-1,-6.0181417E-2,-2.726284E-3,1.297126E0,6.471259E-3,2.2711696E-1,-2.1567133E-1,6.7503825E-2,1.272695E-2,8.375357E-1,-2.2247273E-2,-4.004066E-2,1.5571184E-1,1.4124058E0,8.883796E-3,3.9591757E-3,5.1148456E-2,-1.2633549E-2,6.8753056E-2,4.6540406E-2,-1.3819508E-2,-2.696849E-3,1.4555111E-2,7.609122E-2,1.8647475E-2],"categories":[],"categories_nodes":[],"categories_segments":[],"categories_sizes":[],"default_left":[0,0,0,0,0,0,0,0,0,0,0,0,0,0,0,0,0,0,0,0,0,0,0,0,0,0,0,0,0,0,0,0,0,0,0,0,0,0,0,0,0],"id":42,"left_children":[1,3,5,7,9,11,-1,13,15,-1,17,19,-1,21,23,25,27,-1,-1,29,-1,31,33,-1,-1,35,-1,-1,37,39,-1,-1,-1,-1,-1,-1,-1,-1,-1,-1,-1],"loss_changes":[8.769794E0,9.141074E0,4.016284E0,7.75193E0,3.3283634E0,3.2722673E0,0E0,7.763238E0,4.153266E0,0E0,1.4165897E0,1.8808336E0,0E0,8.04215E0,9.840355E-1,3.3118858E0,1.3297049E0,0E0,0E0,1.0578632E0,0E0,7.135253E0,7.6591864E0,0E0,0E0,2.378066E0,0E0,0E0,1.1835836E-1,4.618721E-1,0E0,0E0,0E0,0E0,0E0,0E0,0E0,0E0,0E0,0E0,0E0],"parents":[2147483647,0,0,1,1,2,2,3,3,4,4,5,5,7,7,8,8,10,10,11,11,13,13,14,14,15,15,16,16,19,19,21,21,22,22,25,25,28,28,29,29],"right_children":[2,4,6,8,10,12,-1,14,16,-1,18,20,-1,22,24,26,28,-1,-1,30,-1,32,34,-1,-1,36,-1,-1,38,40,-1,-1,-1,-1,-1,-1,-1,-1,-1,-1,-1],"split_conditions":[1E0,1E0,1E0,1E0,1E0,1E0,-3.173436E-2,1E0,1E0,1.9839082E-2,1E0,1E0,-1.9342674E-2,1E0,1E0,1E0,1E0,-6.0181417E-2,-2.726284E-3,1E0,6.471259E-3,1E0,1E0,6.7503825E-2,1.272695E-2,1E0,-2.2247273E-2,-4.004066E-2,1E0,1E0,8.883796E-3,3.9591757E-3,5.1148456E-2,-1.2633549E-2,6.8753056E-2,4.6540406E-2,-1.3819508E-2,-2.696849E-3,1.4555111E-2,7.609122E-2,1.8647475E-2],"split_indices":[595,168,274,44,786,192,0,516,304,0,44,687,0,467,231,587,432,0,0,215,0,724,128,0,0,329,0,0,231,287,0,0,0,0,0,0,0,0,0,0,0],"split_type":[0,0,0,0,0,0,0,0,0,0,0,0,0,0,0,0,0,0,0,0,0,0,0,0,0,0,0,0,0,0,0,0,0,0,0,0,0,0,0,0,0],"sum_hessian":[2.3784814E2,2.2462006E2,1.3228094E1,2.1385309E2,1.0766966E1,1.2142997E1,1.085098E0,1.8854347E2,2.5309614E1,1.3023645E0,9.4646015E0,1.1013256E1,1.1297402E0,1.8352335E2,5.020122E0,2.1027018E1,4.282597E0,8.138359E0,1.3262421E0,9.141908E0,1.8713483E0,6.029332E1,1.23230034E2,3.327208E0,1.6929138E0,1.9412216E1,1.6148007E0,1.6659248E0,2.6166723E0,8.051116E0,1.0907915E0,5.1769814E1,8.523506E0,1.2125095E2,1.9790759E0,1.8064049E1,1.3481681E0,1.2628292E0,1.353843E0,6.864468E0,1.1866485E0],"tree_param":{"num_deleted":"0","num_feature":"813","num_nodes":"41","size_leaf_vector":"1"}},{"base_weights":[1.0954302E-3,3.7577037E-2,-5.4370165E-2,8.209223E-2,-8.322689E-1,1.4160424E-1,-6.0440165E-1,-9.944554E-1,-1.3972563E-1,1.7326081E-1,-5.112472E-2,-2.3320095E-1,-6.514574E-2,-5.769294E-2,-4.453037E-3,2.799263E-2,-3.770924E-2,2.2325742E-1,-6.0030013E-1,7.224596E-2,-5.6180775E-2,1.53861195E-2,-1.4443991E-2,-3.811154E-2,2.5739932E-2,1.7941946E-2,-4.0722933E-2],"categories":[],"categories_nodes":[],"categories_segments":[],"categories_sizes":[],"default_left":[0,0,0,0,0,0,0,0,0,0,0,0,0,0,0,0,0,0,0,0,0,0,0,0,0,0,0],"id":43,"left_children":[1,3,-1,5,7,9,11,13,15,17,-1,19,-1,-1,-1,-1,-1,21,23,25,-1,-1,-1,-1,-1,-1,-1],"loss_changes":[9.437575E0,8.971343E0,0E0,9.058967E0,1.1284337E0,7.655411E0,4.288563E0,1.1931171E0,1.8427343E0,7.807725E0,0E0,3.5579562E0,0E0,0E0,0E0,0E0,0E0,8.182251E0,2.616345E0,2.9498587E0,0E0,0E0,0E0,0E0,0E0,0E0,0E0],"parents":[2147483647,0,0,1,1,3,3,4,4,5,5,6,6,7,7,8,8,9,9,11,11,17,17,18,18,19,19],"right_children":[2,4,-1,6,8,10,12,14,16,18,-1,20,-1,-1,-1,-1,-1,22,24,26,-1,-1,-1,-1,-1,-1,-1],"split_conditions":[1E0,1E0,-5.4370165E-2,1E0,1E0,1E0,1E0,1E0,1E0,1E0,-5.112472E-2,1E0,-6.514574E-2,-5.769294E-2,-4.453037E-3,2.799263E-2,-3.770924E-2,1E0,1E0,1E0,-5.6180775E-2,1.53861195E-2,-1.4443991E-2,-3.811154E-2,2.5739932E-2,1.7941946E-2,-4.0722933E-2],"split_indices":[57,206,0,254,741,2,318,629,709,62,0,347,0,0,0,0,0,704,568,591,0,0,0,0,0,0,0],"split_type":[0,0,0,0,0,0,0,0,0,0,0,0,0,0,0,0,0,0,0,0,0,0,0,0,0,0,0],"sum_hessian":[2.3563235E2,2.289253E2,6.7070727E0,2.1864171E2,1.0283574E1,2.0193016E2,1.6711554E1,7.979022E0,2.304552E0,1.9741287E2,4.5172935E0,1.1783482E1,4.928072E0,6.551195E0,1.4278269E0,1.1191916E0,1.1853604E0,1.8609651E2,1.1316359E1,9.4579115E0,2.3255699E0,1.6009221E2,2.60043E1,1.0157734E1,1.158625E0,7.5975947E0,1.8603168E0],"tree_param":{"num_deleted":"0","num_feature":"813","num_nodes":"27","size_leaf_vector":"1"}},{"base_weights":[4.4700682E-2,6.1401282E-3,5.2319717E-2,-2.1668104E-2,6.2675364E-2,-6.6633016E-2,7.9506624E-1,-3.0228253E-2,-1.0127854E0,1.0129156E0,-8.8239685E-3,-5.5558637E-2,6.038552E-2,-1.197284E0,1.8559987E-4,-2.1877564E-2,1.2874861E0,-5.592029E-4,-4.002623E-2,-6.549507E-2,-1.7689254E-2,7.555184E-2,-1.1532584E-3],"categories":[],"categories_nodes":[],"categories_segments":[],"categories_sizes":[],"default_left":[0,0,0,0,0,0,0,0,0,0,0,0,0,0,0,0,0,0,0,0,0,0,0],"id":44,"left_children":[1,3,-1,5,-1,7,9,11,13,15,-1,17,-1,19,-1,-1,21,-1,-1,-1,-1,-1,-1],"loss_changes":[8.891222E0,7.756193E0,0E0,8.0936165E0,0E0,7.149099E0,2.6132226E0,6.3934975E0,1.4470696E0,4.3642473E0,0E0,6.558312E0,0E0,1.5532684E-1,0E0,0E0,2.4602299E0,0E0,0E0,0E0,0E0,0E0,0E0],"parents":[2147483647,0,0,1,1,3,3,5,5,6,6,7,7,8,8,9,9,11,11,13,13,16,16],"right_children":[2,4,-1,6,-1,8,10,12,14,16,-1,18,-1,20,-1,-1,22,-1,-1,-1,-1,-1,-1],"split_conditions":[1E0,1E0,5.2319717E-2,1E0,6.2675364E-2,1E0,1E0,1E0,1E0,1E0,-8.8239685E-3,1E0,6.038552E-2,1E0,1.8559987E-4,-2.1877564E-2,1E0,-5.592029E-4,-4.002623E-2,-6.549507E-2,-1.7689254E-2,7.555184E-2,-1.1532584E-3],"split_indices":[43,56,0,136,0,180,746,127,688,479,0,284,0,635,0,0,338,0,0,0,0,0,0],"split_type":[0,0,0,0,0,0,0,0,0,0,0,0,0,0,0,0,0,0,0,0,0,0,0],"sum_hessian":[2.2935464E2,2.2182167E2,7.5329742E0,2.1794553E2,3.876149E0,2.0744325E2,1.0502272E1,2.0075098E2,6.6922727E0,8.543894E0,1.9583771E0,1.9766159E2,3.089381E0,5.5136666E0,1.1786059E0,1.2654332E0,7.278461E0,1.8750755E2,1.0154047E1,4.3764243E0,1.1372424E0,6.087151E0,1.1913096E0],"tree_param":{"num_deleted":"0","num_feature":"813","num_nodes":"23","size_leaf_vector":"1"}},{"base_weights":[4.732845E-2,9.4468534E-2,-8.0660444E-1,1.2933588E-1,-8.3621556E-1,-9.457695E-1,9.458163E-3,1.7154084E-1,-6.590305E-1,-1.0024831E0,-5.2411947E-3,-1.0468733E0,-9.539614E-3,2.1760903E-1,-6.750398E-1,-8.5043746E-1,3.014547E-2,-5.568101E-2,-1.0033405E-2,-1.1233852E0,-1.71214E-2,2.509046E-1,-7.953405E-1,-8.5552347E-1,2.5969317E-2,-9.8486215E-1,-4.331473E-3,-6.151116E-2,-9.6104555E-3,1.5100424E-2,-2.2247158E-2,-5.3421207E-2,7.305879E-3,-4.907223E-2,-3.8710881E-3,-6.0878363E-2,-1.173443E-2],"categories":[],"categories_nodes":[],"categories_segments":[],"categories_sizes":[],"default_left":[0,0,0,0,0,0,0,0,0,0,0,0,0,0,0,0,0,0,0,0,0,0,0,0,0,0,0,0,0,0,0,0,0,0,0,0,0],"id":45,"left_children":[1,3,5,7,9,11,-1,13,15,17,-1,19,-1,21,23,25,-1,-1,-1,27,-1,29,31,33,-1,35,-1,-1,-1,-1,-1,-1,-1,-1,-1,-1,-1],"loss_changes":[9.386811E0,7.250139E0,1.8702383E0,7.200433E0,8.776989E-1,6.303787E-1,0E0,8.063078E0,3.177054E0,3.529005E-1,0E0,1.2024021E-1,0E0,6.7175035E0,2.7551079E0,9.4065857E-1,0E0,0E0,0E0,5.605812E-1,0E0,6.81505E0,1.7989683E0,8.7341213E-1,0E0,1.1807404E0,0E0,0E0,0E0,0E0,0E0,0E0,0E0,0E0,0E0,0E0,0E0],"parents":[2147483647,0,0,1,1,2,2,3,3,4,4,5,5,7,7,8,8,9,9,11,11,13,13,14,14,15,15,19,19,21,21,22,22,23,23,25,25],"right_children":[2,4,6,8,10,12,-1,14,16,18,-1,20,-1,22,24,26,-1,-1,-1,28,-1,30,32,34,-1,36,-1,-1,-1,-1,-1,-1,-1,-1,-1,-1,-1],"split_conditions":[1E0,1E0,1E0,1E0,1E0,1E0,9.458163E-3,1E0,1E0,1E0,-5.2411947E-3,1E0,-9.539614E-3,1E0,1E0,1E0,3.014547E-2,-5.568101E-2,-1.0033405E-2,1E0,-1.71214E-2,1E0,1E0,1E0,2.5969317E-2,1E0,-4.331473E-3,-6.151116E-2,-9.6104555E-3,1.5100424E-2,-2.2247158E-2,-5.3421207E-2,7.305879E-3,-4.907223E-2,-3.8710881E-3,-6.0878363E-2,-1.173443E-2],"split_indices":[562,46,196,284,591,304,0,168,561,190,0,198,0,180,293,196,0,0,0,606,0,581,277,660,0,248,0,0,0,0,0,0,0,0,0,0,0],"split_type":[0,0,0,0,0,0,0,0,0,0,0,0,0,0,0,0,0,0,0,0,0,0,0,0,0,0,0,0,0,0,0,0,0,0,0,0,0],"sum_hessian":[2.3029387E2,2.1908878E2,1.1205094E1,2.1200713E2,7.081648E0,9.875184E0,1.3299108E0,2.0197678E2,1.0030359E1,5.467962E0,1.6136858E0,8.3679495E0,1.5072343E0,1.9225769E2,9.719089E0,8.992494E0,1.0378652E0,4.460791E0,1.0071704E0,7.011681E0,1.3562686E0,1.8686766E2,5.3900204E0,8.68976E0,1.0293285E0,7.4006267E0,1.5918673E0,6.0019064E0,1.0097747E0,1.7461008E2,1.2257587E1,4.0735636E0,1.3164572E0,7.2544346E0,1.4353253E0,5.172928E0,2.2276986E0],"tree_param":{"num_deleted":"0","num_feature":"813","num_nodes":"37","size_leaf_vector":"1"}},{"base_weights":[2.6803304E-2,7.0658654E-2,-7.819189E-1,9.960348E-2,-5.2764487E-2,-9.740846E-1,2.4171509E-2,1.4076976E-1,-7.290933E-1,-5.1657725E-2,-1.4345345E-2,1.9628964E-1,-5.80684E-1,-8.2304515E-3,-8.0985284E-1,2.3393442E-1,-8.359628E-1,-7.7527374E-1,4.8361637E-2,-4.9292285E-2,-3.8226917E-1,1.2970367E-2,-5.361991E-2,-4.5781117E-2,-1.0304431E-2,-4.824105E-2,-7.772693E-4,3.2705243E-4,-2.6378462E-2],"categories":[],"categories_nodes":[],"categories_segments":[],"categories_sizes":[],"default_left":[0,0,0,0,0,0,0,0,0,0,0,0,0,0,0,0,0,0,0,0,0,0,0,0,0,0,0,0,0],"id":46,"left_children":[1,3,5,7,-1,9,-1,11,13,