{"learner":{"attributes":{"scikit_learn":"{\"_estimator_type\": \"classifier\"}"},"feature_names":[],"feature_types":[],"gradient_booster":{"model":{"gbtree_model_param":{"num_parallel_tree":"1","num_trees":"400"},"iteration_indptr":[0,1,2,3,4,5,6,7,8,9,10,11,12,13,14,15,16,17,18,19,20,21,22,23,24,25,26,27,28,29,30,31,32,33,34,35,36,37,38,39,40,41,42,43,44,45,46,47,48,49,50,51,52,53,54,55,56,57,58,59,60,61,62,63,64,65,66,67,68,69,70,71,72,73,74,75,76,77,78,79,80,81,82,83,84,85,86,87,88,89,90,91,92,93,94,95,96,97,98,99,100,101,102,103,104,105,106,107,108,109,110,111,112,113,114,115,116,117,118,119,120,121,122,123,124,125,126,127,128,129,130,131,132,133,134,135,136,137,138,139,140,141,142,143,144,145,146,147,148,149,150,151,152,153,154,155,156,157,158,159,160,161,162,163,164,165,166,167,168,169,170,171,172,173,174,175,176,177,178,179,180,181,182,183,184,185,186,187,188,189,190,191,192,193,194,195,196,197,198,199,200,201,202,203,204,205,206,207,208,209,210,211,212,213,214,215,216,217,218,219,220,221,222,223,224,225,226,227,228,229,230,231,232,233,234,235,236,237,238,239,240,241,242,243,244,245,246,247,248,249,250,251,252,253,254,255,256,257,258,259,260,261,262,263,264,265,266,267,268,269,270,271,272,273,274,275,276,277,278,279,280,281,282,283,284,285,286,287,288,289,290,291,292,293,294,295,296,297,298,299,300,301,302,303,304,305,306,307,308,309,310,311,312,313,314,315,316,317,318,319,320,321,322,323,324,325,326,327,328,329,330,331,332,333,334,335,336,337,338,339,340,341,342,343,344,345,346,347,348,349,350,351,352,353,354,355,356,357,358,359,360,361,362,363,364,365,366,367,368,369,370,371,372,373,374,375,376,377,378,379,380,381,382,383,384,385,386,387,388,389,390,391,392,393,394,395,396,397,398,399,400],"tree_info":[0,0,0,0,0,0,0,0,0,0,0,0,0,0,0,0,0,0,0,0,0,0,0,0,0,0,0,0,0,0,0,0,0,0,0,0,0,0,0,0,0,0,0,0,0,0,0,0,0,0,0,0,0,0,0,0,0,0,0,0,0,0,0,0,0,0,0,0,0,0,0,0,0,0,0,0,0,0,0,0,0,0,0,0,0,0,0,0,0,0,0,0,0,0,0,0,0,0,0,0,0,0,0,0,0,0,0,0,0,0,0,0,0,0,0,0,0,0,0,0,0,0,0,0,0,0,0,0,0,0,0,0,0,0,0,0,0,0,0,0,0,0,0,0,0,0,0,0,0,0,0,0,0,0,0,0,0,0,0,0,0,0,0,0,0,0,0,0,0,0,0,0,0,0,0,0,0,0,0,0,0,0,0,0,0,0,0,0,0,0,0,0,0,0,0,0,0,0,0,0,0,0,0,0,0,0,0,0,0,0,0,0,0,0,0,0,0,0,0,0,0,0,0,0,0,0,0,0,0,0,0,0,0,0,0,0,0,0,0,0,0,0,0,0,0,0,0,0,0,0,0,0,0,0,0,0,0,0,0,0,0,0,0,0,0,0,0,0,0,0,0,0,0,0,0,0,0,0,0,0,0,0,0,0,0,0,0,0,0,0,0,0,0,0,0,0,0,0,0,0,0,0,0,0,0,0,0,0,0,0,0,0,0,0,0,0,0,0,0,0,0,0,0,0,0,0,0,0,0,0,0,0,0,0,0,0,0,0,0,0,0,0,0,0,0,0,0,0,0,0,0,0,0,0,0,0,0,0,0,0,0,0,0,0,0,0,0,0,0,0,0,0,0,0,0,0,0,0,0,0,0,0,0,0,0,0,0,0,0,0,0,0,0,0,0,0,0,0,0,0],"trees":[{"base_weights":[2.284522E-2,-2.717292E-1,1.5916963E0,-4.335689E-1,9.704565E-2,1.66391E0,2.2038678E-3,-4.8273882E-1,8.37005E-2,1.7227222E0,1.9833366E-3,-3.9469096E-1,-1.4755107E0,1.7585514E0,2.9395303E-2,6.800759E-2,-4.4435593E-1,1.2954185E-2,-1.627226E0,1.797747E0,2.9395303E-2,-2.44166E-2,7.1090244E-2,-8.683941E-2,-9.281518E-3,9.3010634E-2,4.37391E-2],"categories":[],"categories_nodes":[],"categories_segments":[],"categories_sizes":[],"default_left":[0,0,0,0,0,0,0,0,0,0,0,0,0,0,0,0,0,0,0,0,0,0,0,0,0,0,0],"id":0,"left_children":[1,3,5,7,-1,9,-1,11,-1,13,-1,15,17,19,-1,-1,21,-1,23,25,-1,-1,-1,-1,-1,-1,-1],"loss_changes":[1.2923032E2,8.517029E1,4.8667526E0,2.363359E1,0E0,3.963295E0,0E0,1.829982E1,0E0,6.212387E-1,0E0,1.801631E1,4.9565125E0,7.306824E-1,0E0,0E0,1.6700375E1,0E0,2.2021217E0,5.180359E-1,0E0,0E0,0E0,0E0,0E0,0E0,0E0],"parents":[2147483647,0,0,1,1,2,2,3,3,5,5,7,7,9,9,11,11,12,12,13,13,16,16,18,18,19,19],"right_children":[2,4,6,8,-1,10,-1,12,-1,14,-1,16,18,20,-1,-1,22,-1,24,26,-1,-1,-1,-1,-1,-1,-1],"split_conditions":[1E0,1E0,1E0,1E0,9.704565E-2,1E0,2.2038678E-3,1E0,8.37005E-2,1E0,1.9833366E-3,1E0,1E0,1E0,2.9395303E-2,6.800759E-2,1E0,1.2954185E-2,1E0,1E0,2.9395303E-2,-2.44166E-2,7.1090244E-2,-8.683941E-2,-9.281518E-3,9.3010634E-2,4.37391E-2],"split_indices":[44,43,345,127,0,353,0,168,0,250,0,513,795,565,0,0,172,0,328,192,0,0,0,0,0,0,0],"split_type":[0,0,0,0,0,0,0,0,0,0,0,0,0,0,0,0,0,0,0,0,0,0,0,0,0,0,0],"sum_hessian":[2.7769662E2,2.3449384E2,4.3202805E1,2.1926047E2,1.5233358E1,4.1204987E1,1.9978175E0,2.150151E2,4.2453623E0,3.9706623E1,1.4983631E0,1.9878284E2,1.6232267E1,3.7958534E1,1.7480903E0,4.744817E0,1.9403802E2,1.248636E0,1.4983631E1,3.621044E1,1.7480903E0,1.9029211E2,3.7459078E0,1.3734996E1,1.248636E0,3.296399E1,3.2464535E0],"tree_param":{"num_deleted":"0","num_feature":"813","num_nodes":"27","size_leaf_vector":"1"}},{"base_weights":[1.5283431E-2,-9.198599E-2,9.2017144E-2,-1.985683E-1,7.7145576E-1,-8.777087E-2,-8.89244E-1,1.053823E0,-6.9742106E-2,-2.5257403E-2,-1.3826615E0,-1.035109E0,6.223726E-2,1.317495E0,-4.32187E-2,-1.3766822E-1,7.181521E-1,-8.247801E-2,-1.38111785E-2,-1.2709693E0,-4.24424E-1,1.3916012E0,1.7657248E-2,-9.581636E-3,8.3228625E-2,4.98186E-2,6.064742E-3,-7.0413366E-2,2.2346503E-3,-3.715049E-2,9.072997E-3,7.407712E-2,1.7515857E-2],"categories":[],"categories_nodes":[],"categories_segments":[],"categories_sizes":[],"default_left":[0,0,0,0,0,0,0,0,0,0,0,0,0,0,0,0,0,0,0,0,0,0,0,0,0,0,0,0,0,0,0,0,0],"id":1,"left_children":[1,3,-1,5,7,9,11,13,-1,15,17,19,-1,21,-1,23,25,-1,-1,27,29,31,-1,-1,-1,-1,-1,-1,-1,-1,-1,-1,-1],"loss_changes":[5.3770252E1,2.4038467E1,0E0,1.766217E1,1.9039183E1,1.622627E1,1.1229961E1,1.4278805E1,0E0,1.619821E1,2.270876E0,3.8451347E0,0E0,1.1691437E0,0E0,1.6676245E1,4.1078615E0,0E0,0E0,3.939083E0,2.061727E0,1.4700394E0,0E0,0E0,0E0,0E0,0E0,0E0,0E0,0E0,0E0,0E0,0E0],"parents":[2147483647,0,0,1,1,3,3,4,4,5,5,6,6,7,7,9,9,10,10,11,11,13,13,15,15,16,16,19,19,20,20,21,21],"right_children":[2,4,-1,6,8,10,12,14,-1,16,18,20,-1,22,-1,24,26,-1,-1,28,30,32,-1,-1,-1,-1,-1,-1,-1,-1,-1,-1,-1],"split_conditions":[1E0,1E0,9.2017144E-2,1E0,1E0,1E0,1E0,1E0,-6.9742106E-2,1E0,1E0,1E0,6.223726E-2,1E0,-4.32187E-2,1E0,1E0,-8.247801E-2,-1.38111785E-2,1E0,1E0,1E0,1.7657248E-2,-9.581636E-3,8.3228625E-2,4.98186E-2,6.064742E-3,-7.0413366E-2,2.2346503E-3,-3.715049E-2,9.072997E-3,7.407712E-2,1.7515857E-2],"split_indices":[43,245,0,223,20,49,47,217,0,411,401,39,0,308,0,53,341,0,0,644,557,456,0,0,0,0,0,0,0,0,0,0,0],"split_type":[0,0,0,0,0,0,0,0,0,0,0,0,0,0,0,0,0,0,0,0,0,0,0,0,0,0,0,0,0,0,0,0,0],"sum_hessian":[2.727913E2,2.585447E2,1.4246587E1,2.3082228E2,2.7722424E1,1.9988416E2,3.0938116E1,2.4979937E1,2.7424865E0,1.916513E2,8.232849E0,2.9440693E1,1.4974242E0,2.2236506E1,2.743431E0,1.6718596E2,2.4465345E1,6.237375E0,1.9954747E0,2.0458097E1,8.982595E0,2.0238237E1,1.9982679E0,1.6319315E2,3.9928212E0,1.6230345E1,8.235E0,1.8461166E1,1.9969306E0,5.738733E0,3.243863E0,1.8239954E1,1.9982829E0],"tree_param":{"num_deleted":"0","num_feature":"813","num_nodes":"33","size_leaf_vector":"1"}},{"base_weights":[-7.2104344E-3,-2.9717636E-1,1.4753159E0,-3.4293666E-1,8.180069E-2,1.5999997E0,6.384126E-1,-3.8964212E-1,7.983934E-2,1.6612945E0,1.6046243E-2,1.068662E-3,5.981762E-2,-4.5754814E-1,6.6899264E-1,1.7046009E0,1.2227413E-2,-1.7067097E-2,2.0575276E-2,-4.9464497E-1,7.809975E-2,9.250497E-1,-5.2537102E-2,8.7457255E-2,3.212526E-2,-2.630723E-2,7.37286E-2,5.918134E-2,-1.4419145E-2],"categories":[],"categories_nodes":[],"categories_segments":[],"categories_sizes":[],"default_left":[0,0,0,0,0,0,0,0,0,0,0,0,0,0,0,0,0,0,0,0,0,0,0,0,0,0,0,0,0],"id":2,"left_children":[1,3,5,7,-1,9,11,13,-1,15,-1,17,-1,19,21,23,-1,-1,-1,25,-1,27,-1,-1,-1,-1,-1,-1,-1],"loss_changes":[1.1812203E2,2.089042E1,3.6692352E0,2.103504E1,0E0,2.4821014E0,2.6630998E0,1.6180656E1,0E0,1.820221E0,0E0,7.7265143E-1,0E0,1.6363743E1,7.012311E0,5.4208374E-1,0E0,0E0,0E0,1.3498947E1,0E0,4.2543755E0,0E0,0E0,0E0,0E0,0E0,0E0,0E0],"parents":[2147483647,0,0,1,1,2,2,3,3,5,5,6,6,7,7,9,9,11,11,13,13,14,14,15,15,19,19,21,21],"right_children":[2,4,6,8,-1,10,12,14,-1,16,-1,18,-1,20,22,24,-1,-1,-1,26,-1,28,-1,-1,-1,-1,-1,-1,-1],"split_conditions":[1E0,1E0,1E0,1E0,8.180069E-2,1E0,1E0,1E0,7.983934E-2,1E0,1.6046243E-2,1E0,5.981762E-2,1E0,1E0,1E0,1.2227413E-2,-1.7067097E-2,2.0575276E-2,1E0,7.809975E-2,1E0,-5.2537102E-2,8.7457255E-2,3.212526E-2,-2.630723E-2,7.37286E-2,5.918134E-2,-1.4419145E-2],"split_indices":[44,144,304,127,0,268,411,136,0,345,0,746,0,56,255,664,0,0,0,128,0,249,0,0,0,0,0,0,0],"split_type":[0,0,0,0,0,0,0,0,0,0,0,0,0,0,0,0,0,0,0,0,0,0,0,0,0,0,0,0,0],"sum_hessian":[2.7275784E2,2.2880553E2,4.395231E1,2.2431833E2,4.4872046E0,3.745967E1,6.4926353E0,2.1982443E2,4.4938974E0,3.5461494E1,1.9981791E0,3.4983392E0,2.9942958E0,2.0710735E2,1.271709E1,3.4212517E1,1.2489759E0,1.9990002E0,1.499339E0,2.0411308E2,2.9942634E0,1.1471202E1,1.2458882E0,3.2214565E1,1.997951E0,2.0162076E2,2.4923208E0,9.476389E0,1.9948126E0],"tree_param":{"num_deleted":"0","num_feature":"813","num_nodes":"29","size_leaf_vector":"1"}},{"base_weights":[1.674883E-2,-1.8036522E-1,4.8090252E-1,-2.332841E-1,8.158793E-2,6.730716E-1,-5.7654214E-1,-1.4454368E-1,-1.2667E0,-6.2732685E-1,8.3464897E-1,-6.9169454E-2,-2.1457581E-1,-1.8461168E-1,7.724397E-2,1.4359306E-2,-1.4267658E0,-9.5074034E-1,3.4598626E-2,8.913359E-1,-3.0836005E-2,-4.7852892E-1,2.6036585E-2,-2.3034202E-1,1.2721794E0,-1.5351795E0,-8.935076E-3,-7.4081205E-2,2.0343165E-3,9.5022017E-1,-2.9372875E-2,1.6333131E-1,-8.2891923E-1,-1.5458748E-2,3.485243E-2,7.624382E-2,1.1477913E-2,-8.297346E-2,-1.820497E-2,5.291581E-2,4.059712E-3,1.1051567E-3,1.2371553E-2,-5.9427183E-2,3.934211E-3],"categories":[],"categories_nodes":[],"categories_segments":[],"categories_sizes":[],"default_left":[0,0,0,0,0,0,0,0,0,0,0,0,0,0,0,0,0,0,0,0,0,0,0,0,0,0,0,0,0,0,0,0,0,0,0,0,0,0,0,0,0,0,0,0,0],"id":3,"left_children":[1,3,5,7,-1,9,11,13,15,17,19,-1,21,23,-1,-1,25,27,-1,29,-1,31,-1,33,35,37,-1,-1,-1,39,-1,41,43,-1,-1,-1,-1,-1,-1,-1,-1,-1,-1,-1,-1],"loss_changes":[2.5754425E1,1.9334244E1,1.743721E1,1.7508324E1,0E0,1.5538189E1,3.6286192E0,1.2387686E1,4.172184E0,4.271235E0,5.814438E0,0E0,2.2797348E0,1.1987376E1,0E0,0E0,1.6039715E0,3.861722E0,0E0,5.956501E0,0E0,1.9840013E0,0E0,1.2720297E1,1.0979586E0,1.2356663E0,0E0,0E0,0E0,5.55056E0,0E0,3.8927853E-2,1.8827205E0,0E0,0E0,0E0,0E0,0E0,0E0,0E0,0E0,0E0,0E0,0E0,0E0],"parents":[2147483647,0,0,1,1,2,2,3,3,5,5,6,6,7,7,8,8,9,9,10,10,12,12,13,13,16,16,17,17,19,19,21,21,23,23,24,24,25,25,29,29,31,31,32,32],"right_children":[2,4,6,8,-1,10,12,14,16,18,20,-1,22,24,-1,-1,26,28,-1,30,-1,32,-1,34,36,38,-1,-1,-1,40,-1,42,44,-1,-1,-1,-1,-1,-1,-1,-1,-1,-1,-1,-1],"split_conditions":[1E0,1E0,1E0,1E0,8.158793E-2,1E0,1E0,1E0,1E0,1E0,1E0,-6.9169454E-2,1E0,1E0,7.724397E-2,1.4359306E-2,1E0,1E0,3.4598626E-2,1E0,-3.0836005E-2,1E0,2.6036585E-2,1E0,1E0,1E0,-8.935076E-3,-7.4081205E-2,2.0343165E-3,1E0,-2.9372875E-2,1E0,1E0,-1.5458748E-2,3.485243E-2,7.624382E-2,1.1477913E-2,-8.297346E-2,-1.820497E-2,5.291581E-2,4.059712E-3,1.1051567E-3,1.2371553E-2,-5.9427183E-2,3.934211E-3],"split_indices":[432,181,333,168,0,203,544,53,786,258,565,0,709,516,0,0,362,390,0,59,0,378,0,136,359,328,0,0,0,358,0,728,700,0,0,0,0,0,0,0,0,0,0,0,0],"split_type":[0,0,0,0,0,0,0,0,0,0,0,0,0,0,0,0,0,0,0,0,0,0,0,0,0,0,0,0,0,0,0,0,0,0,0,0,0,0,0,0,0,0,0,0,0],"sum_hessian":[2.795481E2,1.9664813E2,8.2899956E1,1.9191496E2,4.733167E0,7.045896E1,1.2440992E1,1.7778801E2,1.4126958E1,7.4685383E0,6.2990425E1,2.9789164E0,9.462076E0,1.7453918E2,3.2488167E0,1.2451464E0,1.2881811E1,6.2225103E0,1.2460283E0,6.099401E1,1.996413E0,7.219652E0,2.2424238E0,1.7004323E2,4.495967E0,1.1640597E1,1.241214E0,3.7304907E0,2.4920194E0,5.900204E1,1.9919728E0,2.737973E0,4.4816794E0,1.5733553E2,1.2707705E1,3.2465653E0,1.2494017E0,1.0146665E1,1.493933E0,5.2281097E1,6.720942E0,1.4932269E0,1.2447462E0,2.9881344E0,1.4935448E0],"tree_param":{"num_deleted":"0","num_feature":"813","num_nodes":"45","size_leaf_vector":"1"}},{"base_weights":[-3.723078E-2,-2.9316616E-1,1.3163229E0,-4.3284443E-1,8.691188E-2,1.4432384E0,2.6758787E-1,-3.499705E-1,-7.382261E-2,1.5236033E0,-1.594862E-3,-3.9326993E-1,4.759012E-2,-3.8935602E-1,7.96573E-2,1.6014552E0,6.545081E-1,-3.891843E-2,1.0468778E-2,-4.3070266E-1,7.541665E-2,5.72153E-1,8.374582E-2,4.9596775E-2,-2.2754993E-3,-2.3339393E-2,7.1502246E-2,7.0890053E-3,3.6484808E-2],"categories":[],"categories_nodes":[],"categories_segments":[],"categories_sizes":[],"default_left":[0,0,0,0,0,0,0,0,0,0,0,0,0,0,0,0,0,0,0,0,0,0,0,0,0,0,0,0,0],"id":4,"left_children":[1,3,5,7,-1,9,11,13,-1,15,-1,17,-1,19,-1,21,23,-1,-1,25,-1,27,-1,-1,-1,-1,-1,-1,-1],"loss_changes":[9.580495E1,6.6711136E1,5.467827E0,1.8363998E1,0E0,4.6727448E0,3.0762935E0,1.6198505E1,0E0,1.45607E0,0E0,1.0326381E0,0E0,1.6366936E1,0E0,1.5579224E0,1.1633456E0,0E0,0E0,1.3883163E1,0E0,1.498282E-1,0E0,0E0,0E0,0E0,0E0,0E0,0E0],"parents":[2147483647,0,0,1,1,2,2,3,3,5,5,6,6,7,7,9,9,11,11,13,13,15,15,16,16,19,19,21,21],"right_children":[2,4,6,8,-1,10,12,14,-1,16,-1,18,-1,20,-1,22,24,-1,-1,26,-1,28,-1,-1,-1,-1,-1,-1,-1],"split_conditions":[1E0,1E0,1E0,1E0,8.691188E-2,1E0,1E0,1E0,-7.382261E-2,1E0,-1.594862E-3,1E0,4.759012E-2,1E0,7.96573E-2,1E0,1E0,-3.891843E-2,1.0468778E-2,1E0,7.541665E-2,1E0,8.374582E-2,4.9596775E-2,-2.2754993E-3,-2.3339393E-2,7.1502246E-2,7.0890053E-3,3.6484808E-2],"split_indices":[44,43,304,168,0,400,411,233,0,362,0,396,0,53,0,479,610,0,0,127,0,464,0,0,0,0,0,0,0],"split_type":[0,0,0,0,0,0,0,0,0,0,0,0,0,0,0,0,0,0,0,0,0,0,0,0,0,0,0,0,0],"sum_hessian":[2.744414E2,2.3145952E2,4.2981884E1,2.1730469E2,1.4154834E1,3.8006283E1,4.9756007E0,2.0255495E2,1.4749744E1,3.601153E1,1.9947518E0,2.7473044E0,2.2282965E0,1.993146E2,3.240338E0,3.2277504E1,3.73403E0,1.4982903E0,1.2490141E0,1.9582112E2,3.4934905E0,2.7356343E0,2.9541868E1,2.238162E0,1.4958678E0,1.9283072E2,2.9903955E0,1.2421906E0,1.4934437E0],"tree_param":{"num_deleted":"0","num_feature":"813","num_nodes":"29","size_leaf_vector":"1"}},{"base_weights":[1.4430389E-2,-1.5943561E-1,4.5227072E-1,-2.1049099E-1,7.805293E-2,5.936499E-1,-5.53715E-1,-2.525365E-1,7.768091E-2,7.2794276E-1,-6.925825E-1,-8.3964133E-1,2.7657656E-2,-2.8816706E-1,7.0600525E-2,3.164818E-1,1.0605649E0,-9.524835E-1,-3.8081367E-4,-1.0238171E0,1.3876783E-3,-3.524958E-1,5.682811E-1,6.4935553E-1,-2.7076277E-1,-6.361736E-1,1.2356874E0,-1.4821467E-2,-5.6704737E-2,-5.9144676E-2,-7.2518424E-3,-1.48365935E-2,-6.880489E-2,4.4808157E-2,-1.2184627E-2,3.879464E-2,-3.391695E-2,-2.8460115E-2,4.5477528E-2,-5.4430217E-2,3.6658675E-3,6.597734E-2,-1.6899223E-3],"categories":[],"categories_nodes":[],"categories_segments":[],"categories_sizes":[],"default_left":[0,0,0,0,0,0,0,0,0,0,0,0,0,0,0,0,0,0,0,0,0,0,0,0,0,0,0,0,0,0,0,0,0,0,0,0,0,0,0,0,0,0,0],"id":5,"left_children":[1,3,5,7,-1,9,11,13,-1,15,17,19,-1,21,-1,23,25,27,-1,29,-1,31,33,35,37,39,41,-1,-1,-1,-1,-1,-1,-1,-1,-1,-1,-1,-1,-1,-1,-1,-1],"loss_changes":[2.1486795E1,1.8080309E1,1.1737612E1,1.5015337E1,0E0,1.2736191E1,3.756442E0,1.1878294E1,0E0,8.506676E0,1.2757838E0,1.412447E0,0E0,1.0678978E1,0E0,6.100105E0,1.1275482E1,2.8536654E-1,0E0,8.3111715E-1,0E0,9.724798E0,3.8579178E0,3.8253508E0,4.6284423E0,1.3518472E0,3.48732E0,0E0,0E0,0E0,0E0,0E0,0E0,0E0,0E0,0E0,0E0,0E0,0E0,0E0,0E0,0E0,0E0],"parents":[2147483647,0,0,1,1,2,2,3,3,5,5,6,6,7,7,9,9,10,10,11,11,13,13,15,15,16,16,17,17,19,19,21,21,22,22,23,23,24,24,25,25,26,26],"right_children":[2,4,6,8,-1,10,12,14,-1,16,18,20,-1,22,-1,24,26,28,-1,30,-1,32,34,36,38,40,42,-1,-1,-1,-1,-1,-1,-1,-1,-1,-1,-1,-1,-1,-1,-1,-1],"split_conditions":[1E0,1E0,1E0,1E0,7.805293E-2,1E0,1E0,1E0,7.768091E-2,1E0,1E0,1E0,2.7657656E-2,1E0,7.0600525E-2,1E0,1E0,1E0,-3.8081367E-4,1E0,1.3876783E-3,1E0,1E0,1E0,1E0,1E0,1E0,-1.4821467E-2,-5.6704737E-2,-5.9144676E-2,-7.2518424E-3,-1.48365935E-2,-6.880489E-2,4.4808157E-2,-1.2184627E-2,3.879464E-2,-3.391695E-2,-2.8460115E-2,4.5477528E-2,-5.4430217E-2,3.6658675E-3,6.597734E-2,-1.6899223E-3],"split_indices":[432,181,287,144,0,600,239,53,0,231,258,557,0,191,0,728,203,203,0,709,0,49,688,269,614,572,551,0,0,0,0,0,0,0,0,0,0,0,0,0,0,0,0],"split_type":[0,0,0,0,0,0,0,0,0,0,0,0,0,0,0,0,0,0,0,0,0,0,0,0,0,0,0,0,0,0,0,0,0,0,0,0,0,0,0,0,0,0,0],"sum_hessian":[2.8030746E2,2.0109047E2,7.921699E1,1.9614749E2,4.9429865E0,6.9815186E1,9.401804E0,1.9241827E2,3.72922E0,6.3608055E1,6.2071323E0,7.663574E0,1.7382298E0,1.8919531E2,3.2229543E0,2.9306602E1,3.430145E1,4.2166333E0,1.9904988E0,6.172599E0,1.4909757E0,1.7652478E2,1.267054E1,1.8636768E1,1.0669834E1,2.962777E0,3.1338675E1,1.4848752E0,2.7317584E0,4.9334793E0,1.2391194E0,1.6862811E2,7.8966565E0,8.951971E0,3.7185688E0,1.7394571E1,1.242198E0,8.929727E0,1.7401078E0,1.4828453E0,1.4799316E0,2.9359797E1,1.9788775E0],"tree_param":{"num_deleted":"0","num_feature":"813","num_nodes":"43","size_leaf_vector":"1"}},{"base_weights":[3.7222237E-3,-9.160426E-2,8.2877755E-2,-2.6425502E-1,3.42756E-1,-3.0587986E-1,7.071649E-2,5.5496526E-1,-6.713704E-1,-2.5053394E-1,-1.3625242E0,6.6931653E-1,-4.4919273E-1,2.0005485E-1,-1.1326339E0,-8.837868E-2,-5.9417087E-1,-7.758232E-2,-5.284412E-3,7.539619E-1,-5.5272424E-1,2.9966095E-2,-4.9296305E-2,6.3985634E-1,-2.34839E-2,-6.403227E-2,-6.0879095E-3,-1.989449E-3,-5.3461667E-2,-3.791117E-2,2.9390897E-3,4.126299E-2,-5.1942557E-2,-6.086216E-2,2.039118E-2,3.769755E-2,1.1469854E-2],"categories":[],"categories_nodes":[],"categories_segments":[],"categories_sizes":[],"default_left":[0,0,0,0,0,0,0,0,0,0,0,0,0,0,0,0,0,0,0,0,0,0,0,0,0,0,0,0,0,0,0,0,0,0,0,0,0],"id":6,"left_children":[1,3,-1,5,7,9,-1,11,13,15,17,19,21,23,25,27,29,-1,-1,31,33,-1,-1,35,-1,-1,-1,-1,-1,-1,-1,-1,-1,-1,-1,-1,-1],"loss_changes":[4.337032E1,1.9599346E1,0E0,1.3478586E1,1.6389816E1,1.0361805E1,0E0,7.43087E0,5.585336E0,9.706491E0,1.9476814E0,6.224758E0,4.500332E0,1.9099953E0,1.1708345E0,5.684334E0,6.040329E0,0E0,0E0,7.623602E0,3.186378E0,0E0,0E0,1.3314486E-3,0E0,0E0,0E0,0E0,0E0,0E0,0E0,0E0,0E0,0E0,0E0,0E0,0E0],"parents":[2147483647,0,0,1,1,3,3,4,4,5,5,7,7,8,8,9,9,10,10,11,11,12,12,13,13,14,14,15,15,16,16,19,19,20,20,23,23],"right_children":[2,4,-1,6,8,10,-1,12,14,16,18,20,22,24,26,28,30,-1,-1,32,34,-1,-1,36,-1,-1,-1,-1,-1,-1,-1,-1,-1,-1,-1,-1,-1],"split_conditions":[1E0,1E0,8.2877755E-2,1E0,1E0,1E0,7.071649E-2,1E0,1E0,1E0,1E0,1E0,1E0,1E0,1E0,1E0,1E0,-7.758232E-2,-5.284412E-3,1E0,1E0,2.9966095E-2,-4.9296305E-2,1E0,-2.34839E-2,-6.403227E-2,-6.0879095E-3,-1.989449E-3,-5.3461667E-2,-3.791117E-2,2.9390897E-3,4.126299E-2,-5.1942557E-2,-6.086216E-2,2.039118E-2,3.769755E-2,1.1469854E-2],"split_indices":[43,432,0,53,333,46,0,660,378,437,401,659,709,283,709,49,277,0,0,206,356,0,0,610,0,0,0,0,0,0,0,0,0,0,0,0,0],"split_type":[0,0,0,0,0,0,0,0,0,0,0,0,0,0,0,0,0,0,0,0,0,0,0,0,0,0,0,0,0,0,0,0,0,0,0,0,0],"sum_hessian":[2.7313486E2,2.5914258E2,1.3992298E1,1.8571548E2,7.3427086E1,1.820196E2,3.6958723E0,6.1095436E1,1.2331655E1,1.7413567E2,7.8839417E0,5.514868E1,5.9467554E0,4.4641714E0,7.8674827E0,1.19162506E2,5.497316E1,6.648886E0,1.2350556E0,5.193444E1,3.2142386E0,1.9739709E0,3.9727843E0,2.7215729E0,1.7425983E0,6.629875E0,1.237608E0,1.14529495E2,4.6330113E0,4.3805847E1,1.1167314E1,5.0467113E1,1.467329E0,1.741919E0,1.4723197E0,1.4747832E0,1.2467898E0],"tree_param":{"num_deleted":"0","num_feature":"813","num_nodes":"37","size_leaf_vector":"1"}},{"base_weights":[2.03719E-2,-2.4394087E-1,1.367481E0,-3.57293E-1,7.94005E-2,1.4636102E0,-4.3609142E-2,-3.920858E-1,7.0086464E-2,1.5128351E0,1.4511253E-2,-4.2902118E-1,6.2289733E-2,1.5652592E0,9.780334E-3,-4.5696428E-1,7.506402E-2,1.6041338E0,2.237046E-2,-2.4326054E-2,7.0510775E-2,8.2195066E-2,2.9062843E-2],"categories":[],"categories_nodes":[],"categories_segments":[],"categories_sizes":[],"default_left":[0,0,0,0,0,0,0,0,0,0,0,0,0,0,0,0,0,0,0,0,0,0,0],"id":7,"left_children":[1,3,5,7,-1,9,-1,11,-1,13,-1,15,-1,17,-1,19,-1,21,-1,-1,-1,-1,-1],"loss_changes":[9.807133E1,4.8395306E1,1.10028E1,1.3874264E1,0E0,2.0844803E0,0E0,1.3497345E1,0E0,2.57296E0,0E0,1.2029091E1,0E0,1.0185928E0,0E0,1.2168568E1,0E0,5.993805E-1,0E0,0E0,0E0,0E0,0E0],"parents":[2147483647,0,0,1,1,2,2,3,3,5,5,7,7,9,9,11,11,13,13,15,15,17,17],"right_children":[2,4,6,8,-1,10,-1,12,-1,14,-1,16,-1,18,-1,20,-1,22,-1,-1,-1,-1,-1],"split_conditions":[1E0,1E0,1E0,1E0,7.94005E-2,1E0,-4.3609142E-2,1E0,7.0086464E-2,1E0,1.4511253E-2,1E0,6.2289733E-2,1E0,9.780334E-3,1E0,7.506402E-2,1E0,2.237046E-2,-2.4326054E-2,7.0510775E-2,8.2195066E-2,2.9062843E-2],"split_indices":[44,43,581,127,0,420,0,172,0,345,0,135,0,126,0,144,0,292,0,0,0,0,0],"split_type":[0,0,0,0,0,0,0,0,0,0,0,0,0,0,0,0,0,0,0,0,0,0,0],"sum_hessian":[2.734994E2,2.2932335E2,4.417602E1,2.1671883E2,1.2604532E1,4.269021E1,1.4858127E0,2.1327737E2,3.4414434E0,4.0693764E1,1.9964443E0,2.0929567E2,3.9817066E0,3.8955105E1,1.7386616E0,2.0706151E2,2.2341611E0,3.722552E1,1.729583E0,2.0456279E2,2.4987216E0,3.5248016E1,1.9775033E0],"tree_param":{"num_deleted":"0","num_feature":"813","num_nodes":"23","size_leaf_vector":"1"}},{"base_weights":[-3.338349E-2,-2.7312276E-1,1.2022302E0,-3.9922324E-1,7.729172E-2,1.2904302E0,-3.100737E-2,-4.4703767E-1,7.266604E-2,1.3441536E0,-1.4121625E-2,-4.8878014E-1,7.879488E-2,1.4003192E0,-5.092378E-3,-5.260512E-1,7.708739E-2,1.4521751E0,8.290216E-3,-2.7784932E-2,7.432603E-2,7.663288E-2,3.1534243E-2],"categories":[],"categories_nodes":[],"categories_segments":[],"categories_sizes":[],"default_left":[0,0,0,0,0,0,0,0,0,0,0,0,0,0,0,0,0,0,0,0,0,0,0],"id":8,"left_children":[1,3,5,7,-1,9,-1,11,-1,13,-1,15,-1,17,-1,19,-1,21,-1,-1,-1,-1,-1],"loss_changes":[8.1146095E1,5.321364E1,7.9558334E0,1.9714916E1,0E0,3.9951782E0,0E0,1.8552555E1,0E0,3.516983E0,0E0,1.6483646E1,0E0,2.3238907E0,0E0,1.3004417E1,0E0,1.5668182E0,0E0,0E0,0E0,0E0,0E0],"parents":[2147483647,0,0,1,1,2,2,3,3,5,5,7,7,9,9,11,11,13,13,15,15,17,17],"right_children":[2,4,6,8,-1,10,-1,12,-1,14,-1,16,-1,18,-1,20,-1,22,-1,-1,-1,-1,-1],"split_conditions":[1E0,1E0,1E0,1E0,7.729172E-2,1E0,-3.100737E-2,1E0,7.266604E-2,1E0,-1.4121625E-2,1E0,7.879488E-2,1E0,-5.092378E-3,1E0,7.708739E-2,1E0,8.290216E-3,-2.7784932E-2,7.432603E-2,7.663288E-2,3.1534243E-2],"split_indices":[44,43,581,53,0,353,0,56,0,551,0,0,0,345,0,50,0,704,0,0,0,0,0],"split_type":[0,0,0,0,0,0,0,0,0,0,0,0,0,0,0,0,0,0,0,0,0,0,0],"sum_hessian":[2.7182544E2,2.283072E2,4.3518223E1,2.1423569E2,1.4071519E1,4.1787666E1,1.7305555E0,2.0958496E2,4.6507297E0,4.0548096E1,1.2395711E0,2.0609073E2,3.4942203E0,3.9062424E1,1.4856712E0,2.0310362E2,2.9871109E0,3.7318542E1,1.7438798E0,2.008685E2,2.235129E0,3.320018E1,4.1183653E0],"tree_param":{"num_deleted":"0","num_feature":"813","num_nodes":"23","size_leaf_vector":"1"}},{"base_weights":[4.3884348E-2,-1.7753741E-1,1.1997726E0,-2.2184528E-1,7.385052E-2,1.2667111E0,-1.3168834E-2,-2.637983E-1,7.19605E-2,1.3028527E0,1.0475701E-3,-3.0258286E-1,7.680177E-2,8.474077E-1,1.4716976E0,-2.4305175E-1,-1.3800678E0,9.825233E-1,-1.2725609E-2,7.773718E-2,4.901074E-1,-1.4151252E-2,7.0196815E-2,-7.692147E-2,-3.3417668E-3,5.7301957E-2,-5.6448285E-3,-1.4372162E-2,4.9808748E-2],"categories":[],"categories_nodes":[],"categories_segments":[],"categories_sizes":[],"default_left":[0,0,0,0,0,0,0,0,0,0,0,0,0,0,0,0,0,0,0,0,0,0,0,0,0,0,0,0,0],"id":9,"left_children":[1,3,5,7,-1,9,-1,11,-1,13,-1,15,-1,17,19,21,23,25,-1,-1,27,-1,-1,-1,-1,-1,-1,-1,-1],"loss_changes":[6.906117E1,1.6941622E1,4.5817986E0,1.5821197E1,0E0,1.847908E0,0E0,1.5610725E1,0E0,1.8641281E0,0E0,1.3342051E1,0E0,2.2302322E0,1.5334473E0,1.3780447E1,2.1744957E0,2.2882814E0,0E0,0E0,1.7252955E0,0E0,0E0,0E0,0E0,0E0,0E0,0E0,0E0],"parents":[2147483647,0,0,1,1,2,2,3,3,5,5,7,7,9,9,11,11,13,13,14,14,15,15,16,16,17,17,20,20],"right_children":[2,4,6,8,-1,10,-1,12,-1,14,-1,16,-1,18,20,22,24,26,-1,-1,28,-1,-1,-1,-1,-1,-1,-1,-1],"split_conditions":[1E0,1E0,1E0,1E0,7.385052E-2,1E0,-1.3168834E-2,1E0,7.19605E-2,1E0,1.0475701E-3,1E0,7.680177E-2,1E0,1E0,1E0,1E0,1E0,-1.2725609E-2,7.773718E-2,1E0,-1.4151252E-2,7.0196815E-2,-7.692147E-2,-3.3417668E-3,5.7301957E-2,-5.6448285E-3,-1.4372162E-2,4.9808748E-2],"split_indices":[44,144,241,127,0,286,0,56,0,452,0,46,0,664,684,172,607,677,0,0,741,0,0,0,0,0,0,0,0],"split_type":[0,0,0,0,0,0,0,0,0,0,0,0,0,0,0,0,0,0,0,0,0,0,0,0,0,0,0,0,0],"sum_hessian":[2.680024E2,2.2562764E2,4.2374786E1,2.2058638E2,5.0412617E0,4.064935E1,1.725435E0,2.1597276E2,4.6136065E0,3.9458755E1,1.1905946E0,2.1223128E2,3.7414813E0,1.2299831E1,2.7158924E1,2.0228082E2,9.950456E0,1.1052896E1,1.2469354E0,2.4502058E1,2.6568663E0,1.9829623E2,3.9845994E0,8.726635E0,1.2238201E0,9.577091E0,1.4758043E0,1.2177906E0,1.4390757E0],"tree_param":{"num_deleted":"0","num_feature":"813","num_nodes":"29","size_leaf_vector":"1"}},{"base_weights":[-2.1102902E-2,-2.5488338E-1,1.2029161E0,-3.7982473E-1,7.526401E-2,1.3289024E0,2.5382516E-1,-4.1958547E-1,7.900336E-2,1.3906244E0,-1.4617303E-2,-1.894025E-2,6.3156945E-1,-4.553502E-1,7.139153E-2,1.4547898E0,7.881306E-3,3.6065392E-3,4.1126035E-2,-4.9364156E-1,6.654245E-2,7.465467E-2,3.0325193E-2,-2.6378805E-2,7.2911024E-2],"categories":[],"categories_nodes":[],"categories_segments":[],"categories_sizes":[],"default_left":[0,0,0,0,0,0,0,0,0,0,0,0,0,0,0,0,0,0,0,0,0,0,0,0,0],"id":10,"left_children":[1,3,5,7,-1,9,11,13,-1,15,-1,-1,17,19,-1,21,-1,-1,-1,23,-1,-1,-1,-1,-1],"loss_changes":[7.7617874E1,5.0641205E1,4.864296E0,1.7291191E1,0E0,4.225853E0,1.752887E0,1.4520733E1,0E0,2.693344E0,0E0,0E0,4.043827E-1,1.479451E1,0E0,2.3144531E-1,0E0,0E0,0E0,1.4221287E1,0E0,0E0,0E0,0E0,0E0],"parents":[2147483647,0,0,1,1,2,2,3,3,5,5,6,6,7,7,9,9,12,12,13,13,15,15,19,19],"right_children":[2,4,6,8,-1,10,12,14,-1,16,-1,-1,18,20,-1,22,-1,-1,-1,24,-1,-1,-1,-1,-1],"split_conditions":[1E0,1E0,1E0,1E0,7.526401E-2,1E0,1E0,1E0,7.900336E-2,1E0,-1.4617303E-2,-1.894025E-2,1E0,1E0,7.139153E-2,1E0,7.881306E-3,3.6065392E-3,4.1126035E-2,1E0,6.654245E-2,7.465467E-2,3.0325193E-2,-2.6378805E-2,7.2911024E-2],"split_indices":[44,43,304,54,0,581,432,56,0,268,0,0,277,53,0,362,0,0,0,0,0,0,0,0,0],"split_type":[0,0,0,0,0,0,0,0,0,0,0,0,0,0,0,0,0,0,0,0,0,0,0,0,0],"sum_hessian":[2.6917578E2,2.2667412E2,4.2501663E1,2.123828E2,1.4291321E1,3.7167686E1,5.3339753E0,2.089301E2,3.4526925E0,3.5941616E1,1.2260702E0,1.9931405E0,3.340835E0,2.0570139E2,3.228719E0,3.3992752E1,1.9488671E0,1.2007339E0,2.1401012E0,2.020927E2,3.6086957E0,3.1796862E1,2.1958888E0,1.9935645E2,2.736252E0],"tree_param":{"num_deleted":"0","num_feature":"813","num_nodes":"25","size_leaf_vector":"1"}},{"base_weights":[-1.9795714E-2,2.527378E-2,-1.2671864E0,-7.183509E-2,6.4117193E-1,-7.2145745E-2,-2.6469817E-3,-2.2636676E-1,3.7728143E-1,7.669167E-1,-7.5216097E-1,-2.6222092E-1,7.092991E-2,4.704583E-1,-6.1723597E-2,8.8792264E-1,-2.5387874E-2,-4.7582712E-2,-1.065884E-2,-2.9537883E-1,7.449748E-2,5.42538E-1,-5.6308117E-2,9.692462E-1,-2.8501255E-2,-1.2054931E-2,-6.07828E-2,3.3224445E-2,-1.9151485E-2,5.320834E-2,-2.5057644E-2],"categories":[],"categories_nodes":[],"categories_segments":[],"categories_sizes":[],"default_left":[0,0,0,0,0,0,0,0,0,0,0,0,0,0,0,0,0,0,0,0,0,0,0,0,0,0,0,0,0,0,0],"id":11,"left_children":[1,3,5,7,9,-1,-1,11,13,15,17,19,-1,21,-1,23,-1,-1,-1,25,-1,27,-1,29,-1,-1,-1,-1,-1,-1,-1],"loss_changes":[1.506551E1,1.5540441E1,1.9174929E0,1.5678768E1,6.7763195E0,0E0,0E0,1.0267886E1,9.27489E0,5.533222E0,1.6635084E-1,1.0029356E1,0E0,6.99265E0,0E0,4.1636906E0,0E0,0E0,0E0,7.840293E0,0E0,6.319438E0,0E0,4.6113777E0,0E0,0E0,0E0,0E0,0E0,0E0,0E0],"parents":[2147483647,0,0,1,1,2,2,3,3,4,4,7,7,8,8,9,9,10,10,11,11,13,13,15,15,19,19,21,21,23,23],"right_children":[2,4,6,8,10,-1,-1,12,14,16,18,20,-1,22,-1,24,-1,-1,-1,26,-1,28,-1,30,-1,-1,-1,-1,-1,-1,-1],"split_conditions":[1E0,1E0,1E0,1E0,1E0,-7.2145745E-2,-2.6469817E-3,1E0,1E0,1E0,1E0,1E0,7.092991E-2,1E0,-6.1723597E-2,1E0,-2.5387874E-2,-4.7582712E-2,-1.065884E-2,1E0,7.449748E-2,1E0,-5.6308117E-2,1E0,-2.8501255E-2,-1.2054931E-2,-6.07828E-2,3.3224445E-2,-1.9151485E-2,5.320834E-2,-2.5057644E-2],"split_indices":[46,411,607,277,619,0,0,0,562,14,763,135,0,133,0,32,0,0,0,31,0,379,0,315,0,0,0,0,0,0,0],"split_type":[0,0,0,0,0,0,0,0,0,0,0,0,0,0,0,0,0,0,0,0,0,0,0,0,0,0,0,0,0,0,0],"sum_hessian":[2.6640802E2,2.5806366E2,8.344364E0,2.2367941E2,3.4384247E1,7.124911E0,1.2194535E0,1.6678734E2,5.6892082E1,3.1950386E1,2.433861E0,1.640522E2,2.7351398E0,5.445226E1,2.4398243E0,2.9457382E1,2.4930024E0,1.2175626E0,1.2162985E0,1.6182132E2,2.2308702E0,5.2731865E1,1.7203922E0,2.8218565E1,1.2388189E0,1.5400002E2,7.8213115E0,4.6842117E1,5.889748E0,2.6766918E1,1.4516461E0],"tree_param":{"num_deleted":"0","num_feature":"813","num_nodes":"31","size_leaf_vector":"1"}},{"base_weights":[6.8263966E-3,1.3601267E-1,-4.4010994E-1,1.8292862E-1,-6.381083E-2,-3.1144392E-1,-1.1860187E0,1.1229383E-1,1.0058914E0,-4.3712986E-1,4.3874827E-1,-6.703227E-2,-1.27621265E-2,1.967058E-1,-5.0867313E-1,1.1629778E0,-1.687829E-2,-5.167577E-1,5.435716E-1,7.7708536E-1,-3.2357495E-2,2.4681927E-1,-5.9438657E-2,-6.70591E-1,3.4852024E-2,1.2908666E0,-5.6935246E-3,-6.29026E-1,2.9678053E-1,2.0352455E-3,4.1216094E-2,4.210507E-3,9.558981E-1,6.110046E-3,4.147805E-2,-4.500911E-2,1.2604127E-2,7.214644E-2,-5.369621E-3,-3.6939245E-2,1.06258765E-2,-2.3711607E-2,2.9802117E-2,6.348213E-2,4.8633157E-3],"categories":[],"categories_nodes":[],"categories_segments":[],"categories_sizes":[],"default_left":[0,0,0,0,0,0,0,0,0,0,0,0,0,0,0,0,0,0,0,0,0,0,0,0,0,0,0,0,0,0,0,0,0,0,0,0,0,0,0,0,0,0,0,0,0],"id":12,"left_children":[1,3,5,7,-1,9,11,13,15,17,19,-1,-1,21,23,25,-1,27,29,31,-1,33,-1,35,-1,37,-1,39,41,-1,-1,-1,43,-1,-1,-1,-1,-1,-1,-1,-1,-1,-1,-1,-1],"loss_changes":[1.5525223E1,1.4051555E1,5.417611E0,1.1671398E1,0E0,5.168644E0,8.8329124E-1,9.945344E0,3.7478447E0,3.8504324E0,3.4690218E0,0E0,0E0,1.1823862E1,4.9099684E0,2.508131E0,0E0,4.0948744E0,5.1987755E-1,7.384269E-1,0E0,1.1597841E1,0E0,4.584708E0,0E0,2.9666805E0,0E0,3.6596928E0,1.6366975E0,0E0,0E0,0E0,1.2658415E0,0E0,0E0,0E0,0E0,0E0,0E0,0E0,0E0,0E0,0E0,0E0,0E0],"parents":[2147483647,0,0,1,1,2,2,3,3,5,5,6,6,7,7,8,8,9,9,10,10,13,13,14,14,15,15,17,17,18,18,19,19,21,21,23,23,25,25,27,27,28,28,32,32],"right_children":[2,4,6,8,-1,10,12,14,16,18,20,-1,-1,22,24,26,-1,28,30,32,-1,34,-1,36,-1,38,-1,40,42,-1,-1,-1,44,-1,-1,-1,-1,-1,-1,-1,-1,-1,-1,-1,-1],"split_conditions":[1E0,1E0,1E0,1E0,-6.381083E-2,1E0,1E0,1E0,1E0,1E0,1E0,-6.703227E-2,-1.27621265E-2,1E0,1E0,1E0,-1.687829E-2,1E0,1E0,1E0,-3.2357495E-2,1E0,-5.9438657E-2,1E0,3.4852024E-2,1E0,-5.6935246E-3,1E0,1E0,2.0352455E-3,4.1216094E-2,4.210507E-3,1E0,6.110046E-3,4.147805E-2,-4.500911E-2,1.2604127E-2,7.214644E-2,-5.369621E-3,-3.6939245E-2,1.06258765E-2,-2.3711607E-2,2.9802117E-2,6.348213E-2,4.8633157E-3],"split_indices":[437,161,192,614,0,258,724,223,700,175,199,0,0,49,677,581,0,287,379,379,0,258,0,273,0,741,0,660,544,0,0,0,348,0,0,0,0,0,0,0,0,0,0,0,0],"split_type":[0,0,0,0,0,0,0,0,0,0,0,0,0,0,0,0,0,0,0,0,0,0,0,0,0,0,0,0,0,0,0,0,0,0,0,0,0,0,0,0,0,0,0,0,0],"sum_hessian":[2.6685394E2,2.0755591E2,5.929804E1,2.0172484E2,5.831073E0,5.17832E1,7.514841E0,1.8682603E2,1.4898801E1,4.470989E1,7.073309E0,6.0666556E0,1.4481854E0,1.6507022E2,2.1755812E1,1.3459377E1,1.4394239E0,4.1789845E1,2.9200444E0,5.609822E0,1.4634873E0,1.6010114E2,4.969086E0,1.9571354E1,2.1844575E0,1.2224041E1,1.2353363E0,3.6921482E1,4.868364E0,1.4563984E0,1.463646E0,1.4525044E0,4.1573176E0,1.3289207E2,2.7209053E1,1.569124E1,3.8801143E0,1.0996243E1,1.2277982E0,3.2769592E1,4.151888E0,1.1977724E0,3.6705914E0,2.6941812E0,1.4631363E0],"tree_param":{"num_deleted":"0","num_feature":"813","num_nodes":"45","size_leaf_vector":"1"}},{"base_weights":[-1.4503298E-2,-9.2529446E-2,7.198381E-2,-1.9321968E-1,5.106094E-1,-1.4659528E-1,-7.036057E-2,5.974647E-1,-3.9837386E-2,-7.267417E-2,-9.524121E-1,6.652439E-1,-3.537242E-2,-2.3865854E-2,-1.2039636E0,-1.054969E0,6.7501673E-3,7.4546164E-1,-2.6676763E-2,-4.7011524E-3,4.2030588E-2,-7.563532E-2,1.4144967E-2,-5.6297105E-2,-4.4631287E-3,4.3732043E-2,-1.656051E-2],"categories":[],"categories_nodes":[],"categories_segments":[],"categories_sizes":[],"default_left":[0,0,0,0,0,0,0,0,0,0,0,0,0,0,0,0,0,0,0,0,0,0,0,0,0,0,0],"id":13,"left_children":[1,3,-1,5,7,9,-1,11,-1,13,15,17,-1,19,21,23,-1,25,-1,-1,-1,-1,-1,-1,-1,-1,-1],"loss_changes":[3.0614775E1,1.5639774E1,0E0,1.2247198E1,4.66428E0,1.2618452E1,0E0,3.5802135E0,0E0,1.0803817E1,2.1291733E0,3.6612663E0,0E0,1.1547215E1,4.143491E0,1.0230598E0,0E0,4.771805E0,0E0,0E0,0E0,0E0,0E0,0E0,0E0,0E0,0E0],"parents":[2147483647,0,0,1,1,3,3,4,4,5,5,7,7,9,9,10,10,11,11,13,13,14,14,15,15,17,17],"right_children":[2,4,-1,6,8,10,-1,12,-1,14,16,18,-1,20,22,24,-1,26,-1,-1,-1,-1,-1,-1,-1,-1,-1],"split_conditions":[1E0,1E0,7.198381E-2,1E0,1E0,1E0,-7.036057E-2,1E0,-3.9837386E-2,1E0,1E0,1E0,-3.537242E-2,1E0,1E0,1E0,6.7501673E-3,1E0,-2.6676763E-2,-4.7011524E-3,4.2030588E-2,-7.563532E-2,1.4144967E-2,-5.6297105E-2,-4.4631287E-3,4.3732043E-2,-1.656051E-2],"split_indices":[43,411,0,161,581,517,0,315,0,123,595,665,0,625,442,250,0,600,0,0,0,0,0,0,0,0,0],"split_type":[0,0,0,0,0,0,0,0,0,0,0,0,0,0,0,0,0,0,0,0,0,0,0,0,0,0,0],"sum_hessian":[2.676452E2,2.549043E2,1.2740896E1,2.1901994E2,3.5884357E1,2.119987E2,7.0212374E0,3.415804E1,1.7263174E0,1.9518382E2,1.6814882E1,3.293742E1,1.2206211E0,1.8808997E2,7.09385E0,1.5392971E1,1.4219109E0,3.122604E1,1.7113777E0,1.7479556E2,1.32944E1,5.8597164E0,1.234134E0,1.418457E1,1.2083999E0,2.804843E1,3.1776104E0],"tree_param":{"num_deleted":"0","num_feature":"813","num_nodes":"27","size_leaf_vector":"1"}},{"base_weights":[3.627153E-2,-4.1091714E-2,7.034367E-2,-1.3791017E-1,6.091055E-1,-1.7740598E-1,7.162021E-2,7.548068E-1,-6.5374905E-1,-2.1290915E-1,6.682485E-2,8.6867654E-1,-2.9157264E-2,-5.0001245E-2,-6.314209E-3,-2.452009E-1,7.126112E-2,9.957749E-1,-3.1296957E-2,-1.5312798E-2,2.8863588E-2,5.3579777E-2,-6.584124E-3,3.0433377E-2,-3.9395057E-2],"categories":[],"categories_nodes":[],"categories_segments":[],"categories_sizes":[],"default_left":[0,0,0,0,0,0,0,0,0,0,0,0,0,0,0,0,0,0,0,0,0,0,0,0,0],"id":14,"left_children":[1,3,-1,5,7,9,-1,11,13,15,-1,17,-1,-1,-1,19,-1,21,23,-1,-1,-1,-1,-1,-1],"loss_changes":[2.8046274E1,1.5873746E1,0E0,1.3844877E1,6.509018E0,1.1821405E1,0E0,5.042959E0,5.892706E-1,1.1489277E1,0E0,3.21587E0,0E0,0E0,0E0,1.0590218E1,0E0,2.229248E0,2.617275E0,0E0,0E0,0E0,0E0,0E0,0E0],"parents":[2147483647,0,0,1,1,3,3,4,4,5,5,7,7,8,8,9,9,11,11,15,15,17,17,18,18],"right_children":[2,4,-1,6,8,10,-1,12,14,16,-1,18,-1,-1,-1,20,-1,22,24,-1,-1,-1,-1,-1,-1],"split_conditions":[1E0,1E0,7.034367E-2,1E0,1E0,1E0,7.162021E-2,1E0,1E0,1E0,6.682485E-2,1E0,-2.9157264E-2,-5.0001245E-2,-6.314209E-3,1E0,7.126112E-2,1E0,1E0,-1.5312798E-2,2.8863588E-2,5.3579777E-2,-6.584124E-3,3.0433377E-2,-3.9395057E-2],"split_indices":[43,411,0,181,223,53,0,619,341,0,0,358,0,0,0,191,0,576,709,0,0,0,0,0,0],"split_type":[0,0,0,0,0,0,0,0,0,0,0,0,0,0,0,0,0,0,0,0,0,0,0,0,0],"sum_hessian":[2.6295688E2,2.4982556E2,1.3131315E1,2.181322E2,3.1693363E1,2.136457E2,4.486491E0,2.8775682E1,2.917681E0,2.0958989E2,4.0558157E0,2.684197E1,1.933711E0,1.2205154E0,1.6971656E0,2.0637209E2,3.2178035E0,2.3427048E1,3.4149237E0,1.9269527E2,1.3676818E1,2.1997293E1,1.4297545E0,1.9559954E0,1.4589281E0],"tree_param":{"num_deleted":"0","num_feature":"813","num_nodes":"25","size_leaf_vector":"1"}},{"base_weights":[4.3130316E-2,-1.595755E-1,1.1141169E0,-2.61841E-1,6.856086E-2,1.1833907E0,-2.488481E-2,-2.9865214E-1,6.8601646E-2,1.2417866E0,3.625283E-1,-3.3029935E-1,7.572413E-2,1.2945169E0,1.249792E-2,-6.889721E-3,4.3761835E-2,-3.5877547E-1,7.8221016E-2,1.3563157E0,3.379292E-1,-1.95884E-2,6.446333E-2,6.9981046E-2,2.071204E-2,-1.033994E-2,3.988112E-2],"categories":[],"categories_nodes":[],"categories_segments":[],"categories_sizes":[],"default_left":[0,0,0,0,0,0,0,0,0,0,0,0,0,0,0,0,0,0,0,0,0,0,0,0,0,0,0],"id":15,"left_children":[1,3,5,7,-1,9,-1,11,-1,13,15,17,-1,19,-1,-1,-1,21,-1,23,25,-1,-1,-1,-1,-1,-1],"loss_changes":[5.7824696E1,3.5449482E1,5.321537E0,1.3097605E1,0E0,1.5120125E0,0E0,1.2385382E1,0E0,1.6535263E0,1.1802799E0,1.1589306E1,0E0,1.6494942E0,0E0,0E0,0E0,1.1498398E1,0E0,7.7305603E-1,1.0402572E0,0E0,0E0,0E0,0E0,0E0,0E0],"parents":[2147483647,0,0,1,1,2,2,3,3,5,5,7,7,9,9,10,10,11,11,13,13,17,17,19,19,20,20],"right_children":[2,4,6,8,-1,10,-1,12,-1,14,16,18,-1,20,-1,-1,-1,22,-1,24,26,-1,-1,-1,-1,-1,-1],"split_conditions":[1E0,1E0,1E0,1E0,6.856086E-2,1E0,-2.488481E-2,1E0,6.8601646E-2,1E0,1E0,1E0,7.572413E-2,1E0,1.249792E-2,-6.889721E-3,4.3761835E-2,1E0,7.8221016E-2,1E0,1E0,-1.95884E-2,6.446333E-2,6.9981046E-2,2.071204E-2,-1.033994E-2,3.988112E-2],"split_indices":[44,43,241,127,0,329,0,135,0,551,298,27,0,517,0,0,0,172,0,659,688,0,0,0,0,0,0],"split_type":[0,0,0,0,0,0,0,0,0,0,0,0,0,0,0,0,0,0,0,0,0,0,0,0,0,0,0],"sum_hessian":[2.645374E2,2.2315234E2,4.1385082E1,2.0995511E2,1.3197223E1,3.9934544E1,1.4505355E0,2.0612827E2,3.8268526E0,3.6803566E1,3.1309783E0,2.0339594E2,2.7323256E0,3.465591E1,2.1476557E0,1.9547206E0,1.1762577E0,2.0118297E2,2.2129745E0,3.2160374E1,2.4955382E0,1.9798181E2,3.201158E0,3.0282665E1,1.8777076E0,1.3939136E0,1.1016247E0],"tree_param":{"num_deleted":"0","num_feature":"813","num_nodes":"27","size_leaf_vector":"1"}},{"base_weights":[3.2397326E-2,-1.5647703E-1,1.0656464E0,-1.1004119E-1,-7.219554E-2,1.1370702E0,-2.5195677E-2,-4.384228E-2,-1.0495837E0,1.2218326E0,-7.443263E-3,5.559081E-3,-1.2555635E0,2.1657208E-2,-1.2828965E0,1.3283719E0,5.3504014E-1,-4.255741E-2,4.7149174E-2,1.0970303E-1,-6.0432166E-1,-6.738877E-2,-1.9169E-2,-7.0891164E-2,-6.824977E-3,1.4093596E0,-2.8288858E-3,7.5503576E-1,-7.2060586E-3,1.1211663E-2,-2.536589E-2,-3.5025697E-2,2.9743845E-2,7.213732E-2,1.3271578E-2,9.618927E-3,5.168422E-2],"categories":[],"categories_nodes":[],"categories_segments":[],"categories_sizes":[],"default_left":[0,0,0,0,0,0,0,0,0,0,0,0,0,0,0,0,0,0,0,0,0,0,0,0,0,0,0,0,0,0,0,0,0,0,0,0,0],"id":16,"left_children":[1,3,5,7,-1,9,-1,11,13,15,17,19,21,-1,23,25,27,-1,-1,29,31,-1,-1,-1,-1,33,-1,35,-1,-1,-1,-1,-1,-1,-1,-1,-1],"loss_changes":[5.1359653E1,1.3151907E1,5.1320953E0,1.338741E1,0E0,3.8124924E0,0E0,1.21473465E1,5.4585495E0,1.9605904E0,3.7674015E0,1.2506504E1,1.2259197E-1,0E0,1.7396736E0,3.54908E0,1.0915393E0,0E0,0E0,1.1995825E1,3.7297869E0,0E0,0E0,0E0,0E0,7.345848E-1,0E0,6.051724E-1,0E0,0E0,0E0,0E0,0E0,0E0,0E0,0E0,0E0],"parents":[2147483647,0,0,1,1,2,2,3,3,5,5,7,7,8,8,9,9,10,10,11,11,12,12,14,14,15,15,16,16,19,19,20,20,25,25,27,27],"right_children":[2,4,6,8,-1,10,-1,12,14,16,18,20,22,-1,24,26,28,-1,-1,30,32,-1,-1,-1,-1,34,-1,36,-1,-1,-1,-1,-1,-1,-1,-1,-1],"split_conditions":[1E0,1E0,1E0,1E0,-7.219554E-2,1E0,-2.5195677E-2,1E0,1E0,1E0,1E0,1E0,1E0,2.1657208E-2,1E0,1E0,1E0,-4.255741E-2,4.7149174E-2,1E0,1E0,-6.738877E-2,-1.9169E-2,-7.0891164E-2,-6.824977E-3,1E0,-2.8288858E-3,1E0,-7.2060586E-3,1.1211663E-2,-2.536589E-2,-3.5025697E-2,2.9743845E-2,7.213732E-2,1.3271578E-2,9.618927E-3,5.168422E-2],"split_indices":[44,161,581,168,0,420,0,46,786,304,684,379,328,0,328,400,551,0,0,190,676,0,0,0,0,219,0,758,0,0,0,0,0,0,0,0,0],"split_type":[0,0,0,0,0,0,0,0,0,0,0,0,0,0,0,0,0,0,0,0,0,0,0,0,0,0,0,0,0,0,0,0,0,0,0,0,0],"sum_hessian":[2.6132022E2,2.2165161E2,3.966859E1,2.1498297E2,6.668647E0,3.820557E1,1.4630187E0,2.0181035E2,1.3172625E1,3.5508278E1,2.6972911E0,1.9486134E2,6.949002E0,1.6745006E0,1.1498124E1,2.9931034E1,5.5772457E0,1.4842033E0,1.2130878E0,1.6714038E2,2.7720963E1,5.791414E0,1.1575884E0,1.0075509E1,1.4226143E0,2.8260803E1,1.670231E0,4.128284E0,1.4489619E0,1.4151013E2,2.5630255E1,2.6047445E1,1.6735159E0,2.7205557E1,1.0552468E0,1.9272035E0,2.2010806E0],"tree_param":{"num_deleted":"0","num_feature":"813","num_nodes":"37","size_leaf_vector":"1"}},{"base_weights":[6.090606E-2,-6.5612956E-3,6.668886E-2,3.8738914E-2,-6.344391E-2,7.876175E-2,-1.1100266E0,2.0104766E-1,-3.048269E-1,-6.536808E-2,2.0409029E-3,2.7574337E-1,-5.0723994E-1,6.618494E-1,-4.172442E-1,1.621408E-2,-3.474623E-2,-3.466422E-2,5.4582436E-2,5.133286E-2,-2.4375655E-2,-2.4971958E-2,5.0336927E-2],"categories":[],"categories_nodes":[],"categories_segments":[],"categories_sizes":[],"default_left":[0,0,0,0,0,0,0,0,0,0,0,0,0,0,0,0,0,0,0,0,0,0,0],"id":17,"left_children":[1,3,-1,5,-1,7,9,11,13,-1,-1,15,17,19,21,-1,-1,-1,-1,-1,-1,-1,-1],"loss_changes":[2.2554094E1,1.4362701E1,0E0,1.1241829E1,0E0,1.110213E1,1.923356E0,9.614276E0,6.502466E0,0E0,0E0,7.888232E0,5.943466E0,3.165353E0,6.58202E0,0E0,0E0,0E0,0E0,0E0,0E0,0E0,0E0],"parents":[2147483647,0,0,1,1,3,3,5,5,6,6,7,7,8,8,11,11,12,12,13,13,14,14],"right_children":[2,4,-1,6,-1,8,10,12,14,-1,-1,16,18,20,22,-1,-1,-1,-1,-1,-1,-1,-1],"split_conditions":[1E0,1E0,6.668886E-2,1E0,-6.344391E-2,1E0,1E0,1E0,1E0,-6.536808E-2,2.0409029E-3,1E0,1E0,1E0,1E0,1.621408E-2,-3.474623E-2,-3.466422E-2,5.4582436E-2,5.133286E-2,-2.4375655E-2,-2.4971958E-2,5.0336927E-2],"split_indices":[43,161,0,46,0,437,328,347,786,0,0,206,708,198,115,0,0,0,0,0,0,0,0],"split_type":[0,0,0,0,0,0,0,0,0,0,0,0,0,0,0,0,0,0,0,0,0,0,0],"sum_hessian":[2.6152988E2,2.4931026E2,1.2219616E1,2.4160905E2,7.701207E0,2.3437491E2,7.2341523E0,1.7807991E2,5.6295E1,6.0591846E0,1.174968E0,1.6164372E2,1.6436186E1,5.355513E0,5.0939484E1,1.5457988E2,7.0638475E0,1.5230393E1,1.2057912E0,4.1462517E0,1.2092619E0,4.8773457E1,2.1660292E0],"tree_param":{"num_deleted":"0","num_feature":"813","num_nodes":"23","size_leaf_vector":"1"}},{"base_weights":[-9.989921E-3,-1.8748656E-1,9.908162E-1,-2.856348E-1,6.588317E-2,1.0596813E0,-2.4459427E-2,-3.2384658E-1,7.477906E-2,1.0994319E0,-8.482626E-3,-3.6046273E-1,1.1873194E0,1.1723913E0,2.4177445E-1,-3.9085525E-1,6.927421E-2,7.0406936E-2,1.3331828E-2,1.2127262E0,4.716754E-3,-4.2200424E-3,2.8337017E-2,-2.082935E-2,7.391836E-2,6.283761E-2,6.2226006E-3],"categories":[],"categories_nodes":[],"categories_segments":[],"categories_sizes":[],"default_left":[0,0,0,0,0,0,0,0,0,0,0,0,0,0,0,0,0,0,0,0,0,0,0,0,0,0,0],"id":18,"left_children":[1,3,5,7,-1,9,-1,11,-1,13,-1,15,17,19,21,23,-1,-1,-1,25,-1,-1,-1,-1,-1,-1,-1],"loss_changes":[4.71857E1,3.3698624E1,4.5967216E0,1.49531975E1,0E0,2.0704079E0,0E0,1.1989065E1,0E0,2.0616798E0,0E0,1.1406883E1,6.7678785E-1,1.3761902E0,4.9280536E-1,1.0333515E1,0E0,0E0,0E0,1.4227409E0,0E0,0E0,0E0,0E0,0E0,0E0,0E0],"parents":[2147483647,0,0,1,1,2,2,3,3,5,5,7,7,9,9,11,11,12,12,13,13,14,14,15,15,19,19],"right_children":[2,4,6,8,-1,10,-1,12,-1,14,-1,16,18,20,22,24,-1,-1,-1,26,-1,-1,-1,-1,-1,-1,-1],"split_conditions":[1E0,1E0,1E0,1E0,6.588317E-2,1E0,-2.4459427E-2,1E0,7.477906E-2,1E0,-8.482626E-3,1E0,1E0,1E0,1E0,1E0,6.927421E-2,7.0406936E-2,1.3331828E-2,1E0,4.716754E-3,-4.2200424E-3,2.8337017E-2,-2.082935E-2,7.391836E-2,6.283761E-2,6.2226006E-3],"split_indices":[44,43,581,54,0,109,0,172,0,420,0,144,364,788,639,164,0,0,0,183,0,0,0,0,0,0,0],"split_type":[0,0,0,0,0,0,0,0,0,0,0,0,0,0,0,0,0,0,0,0,0,0,0,0,0,0,0],"sum_hessian":[2.6358008E2,2.2456526E2,3.901481E1,2.115788E2,1.2986459E1,3.7551525E1,1.4632844E0,2.079362E2,3.6425955E0,3.6477688E1,1.0738395E0,2.0376048E2,4.1757293E0,3.3279675E1,3.1980128E0,2.0103706E2,2.7234128E0,2.9409199E0,1.2348093E0,3.1959024E1,1.3206482E0,1.965488E0,1.2325249E0,1.9907375E2,1.9633168E0,3.0567606E1,1.3914189E0],"tree_param":{"num_deleted":"0","num_feature":"813","num_nodes":"27","size_leaf_vector":"1"}},{"base_weights":[2.8701102E-2,-1.441205E-1,1.0046626E0,-2.203094E-1,6.337445E-2,1.0911686E0,-2.9451719E-2,-1.5335204E-1,-1.1533178E0,1.1711413E0,2.6510412E-2,6.9127284E-2,-1.9899265E-1,-1.3243115E0,-2.3397706E-1,1.2384088E0,-1.5490787E-2,-4.802126E-3,7.502896E-3,-2.3174216E-1,7.884306E-2,-6.95235E-2,-1.9061333E-2,2.5463521E-2,-4.1411437E-2,1.2828772E0,9.819777E-3,-1.3422734E-2,7.126274E-2,2.83351E-2,6.6318326E-2],"categories":[],"categories_nodes":[],"categories_segments":[],"categories_sizes":[],"default_left":[0,0,0,0,0,0,0,0,0,0,0,0,0,0,0,0,0,0,0,0,0,0,0,0,0,0,0,0,0,0,0],"id":19,"left_children":[1,3,5,7,-1,9,-1,11,13,15,17,-1,19,21,23,25,-1,-1,-1,27,-1,-1,-1,-1,-1,29,-1,-1,-1,-1,-1],"loss_changes":[4.4877083E1,2.4605413E1,6.1605415E0,1.3283059E1,0E0,3.2310867E0,0E0,1.4447972E1,1.933958E0,3.9314842E0,7.043437E-2,0E0,1.1835527E1,2.0742798E-1,1.9469266E0,1.3358307E0,0E0,0E0,0E0,1.2215915E1,0E0,0E0,0E0,0E0,0E0,2.6628113E-1,0E0,0E0,0E0,0E0,0E0],"parents":[2147483647,0,0,1,1,2,2,3,3,5,5,7,7,8,8,9,9,10,10,12,12,13,13,14,14,15,15,19,19,25,25],"right_children":[2,4,6,8,-1,10,-1,12,14,16,18,-1,20,22,24,26,-1,-1,-1,28,-1,-1,-1,-1,-1,30,-1,-1,-1,-1,-1],"split_conditions":[1E0,1E0,1E0,1E0,6.337445E-2,1E0,-2.9451719E-2,1E0,1E0,1E0,1E0,6.9127284E-2,1E0,1E0,1E0,1E0,-1.5490787E-2,-4.802126E-3,7.502896E-3,1E0,7.884306E-2,-6.95235E-2,-1.9061333E-2,2.5463521E-2,-4.1411437E-2,1E0,9.819777E-3,-1.3422734E-2,7.126274E-2,2.83351E-2,6.6318326E-2],"split_indices":[44,43,581,168,0,420,0,513,420,587,362,0,5,200,338,565,0,0,0,54,0,0,0,0,0,786,0,0,0,0,0],"split_type":[0,0,0,0,0,0,0,0,0,0,0,0,0,0,0,0,0,0,0,0,0,0,0,0,0,0,0,0,0,0,0],"sum_hessian":[2.642103E2,2.2518692E2,3.9023388E1,2.1445601E2,1.073092E1,3.731334E1,1.7100502E0,2.011825E2,1.3273504E1,3.4613316E1,2.7000217E0,4.9604797E0,1.9622202E2,1.0820444E1,2.4530606E0,3.3266094E1,1.3472236E0,1.46723E0,1.2327918E0,1.9352266E2,2.6993544E0,9.66785E0,1.1525944E0,1.1534337E0,1.299627E0,3.168286E1,1.5832326E0,1.9014774E2,3.3749356E0,2.617014E0,2.9065845E1],"tree_param":{"num_deleted":"0","num_feature":"813","num_nodes":"31","size_leaf_vector":"1"}},{"base_weights":[-2.859622E-2,-1.8256687E-1,8.8711613E-1,-2.6517692E-1,6.2636524E-2,3.1976262E-1,1.1248897E0,-2.997898E-1,6.980556E-2,5.4243183E-1,-3.5577916E-2,1.1858592E0,-8.24313E-3,-2.3522715E-1,-1.184682E0,1.7595476E-1,9.2443246E-1,1.2437184E0,8.276606E-3,6.4872175E-2,-2.8095487E-1,-1.2371082E0,-1.3950403E-2,4.5901752E-1,-2.6048768E-2,5.728401E-2,5.7829E-3,1.2744263E0,1.45042045E-2,-1.5833773E-2,6.411677E-2,-6.467984E-2,-1.664696E-2,3.31419E-2,-1.3904029E-4,6.525965E-2,2.027735E-2],"categories":[],"categories_nodes":[],"categories_segments":[],"categories_sizes":[],"default_left":[0,0,0,0,0,0,0,0,0,0,0,0,0,0,0,0,0,0,0,0,0,0,0,0,0,0,0,0,0,0,0,0,0,0,0,0,0],"id":20,"left_children":[1,3,5,7,-1,9,11,13,-1,15,-1,17,-1,19,21,23,25,27,-1,-1,29,31,-1,33,-1,-1,-1,35,-1,-1,-1,-1,-1,-1,-1,-1,-1],"loss_changes":[3.7523876E1,2.7327967E1,4.8088837E0,1.2845414E1,0E0,3.3052263E0,2.2873306E0,1.186307E1,0E0,1.3804004E0,0E0,1.3008728E0,0E0,1.43340225E1,3.2925034E-1,1.5925468E0,7.9113483E-1,3.3312607E-1,0E0,0E0,1.1259932E1,2.4020576E-1,0E0,5.1110387E-1,0E0,0E0,0E0,8.436203E-2,0E0,0E0,0E0,0E0,0E0,0E0,0E0,0E0,0E0],"parents":[2147483647,0,0,1,1,2,2,3,3,5,5,6,6,7,7,9,9,11,11,13,13,14,14,15,15,16,16,17,17,20,20,21,21,23,23,27,27],"right_children":[2,4,6,8,-1,10,12,14,-1,16,-1,18,-1,20,22,24,26,28,-1,-1,30,32,-1,34,-1,-1,-1,36,-1,-1,-1,-1,-1,-1,-1,-1,-1],"split_conditions":[1E0,1E0,1E0,1E0,6.2636524E-2,1E0,1E0,1E0,6.980556E-2,1E0,-3.5577916E-2,1E0,-8.24313E-3,1E0,1E0,1E0,1E0,1E0,8.276606E-3,6.4872175E-2,1E0,1E0,-1.3950403E-2,1E0,-2.6048768E-2,5.728401E-2,5.7829E-3,1E0,1.45042045E-2,-1.5833773E-2,6.411677E-2,-6.467984E-2,-1.664696E-2,3.31419E-2,-1.3904029E-4,6.525965E-2,2.027735E-2],"split_indices":[44,43,452,54,0,543,286,168,0,298,0,587,0,513,357,400,420,266,0,0,53,606,0,338,0,0,0,255,0,0,0,0,0,0,0,0,0],"split_type":[0,0,0,0,0,0,0,0,0,0,0,0,0,0,0,0,0,0,0,0,0,0,0,0,0,0,0,0,0,0,0,0,0,0,0,0,0],"sum_hessian":[2.639916E2,2.2667793E2,3.7313683E1,2.1511217E2,1.1565762E1,1.1712119E1,2.5601564E1,2.115246E2,3.5875633E0,1.0022282E1,1.6898375E0,2.4522867E1,1.0786973E0,1.9832074E2,1.3203859E1,5.860526E0,4.161755E0,2.2999695E1,1.5231726E0,4.952512E0,1.9336823E2,1.213543E1,1.068429E0,4.410532E0,1.4499943E0,2.9407287E0,1.2210267E0,2.195629E1,1.043405E0,1.8982816E2,3.5400732E0,1.1016467E1,1.1189637E0,2.75794E0,1.6525918E0,2.0720432E1,1.2358572E0],"tree_param":{"num_deleted":"0","num_feature":"813","num_nodes":"37","size_leaf_vector":"1"}},{"base_weights":[1.7150842E-2,-1.3488352E-1,8.7132776E-1,-2.082105E-1,6.129265E-2,9.4095874E-1,-3.7060864E-2,-2.4108957E-1,7.940082E-2,1.008667E0,-8.294765E-3,-2.7306926E-1,6.9174394E-2,1.0988952E0,-9.646827E-3,-3.060024E-1,6.6931315E-2,1.1633235E0,-5.321102E-3,-2.7511701E-2,3.766875E-2,-1.6700499E-2,7.656315E-2,6.0190547E-2,3.949562E-3],"categories":[],"categories_nodes":[],"categories_segments":[],"categories_sizes":[],"default_left":[0,0,0,0,0,0,0,0,0,0,0,0,0,0,0,0,0,0,0,0,0,0,0,0,0],"id":21,"left_children":[1,3,5,7,-1,9,-1,11,-1,13,-1,15,-1,17,19,21,-1,23,-1,-1,-1,-1,-1,-1,-1],"loss_changes":[3.4024147E1,2.2456867E1,5.1420784E0,1.290239E1,0E0,3.044117E0,0E0,1.1238339E1,0E0,3.34721E0,0E0,1.1335418E1,0E0,2.7150192E0,2.0426216E0,1.09333935E1,0E0,1.2991524E0,0E0,0E0,0E0,0E0,0E0,0E0,0E0],"parents":[2147483647,0,0,1,1,2,2,3,3,5,5,7,7,9,9,11,11,13,13,14,14,15,15,17,17],"right_children":[2,4,6,8,-1,10,-1,12,-1,14,-1,16,-1,18,20,22,-1,24,-1,-1,-1,-1,-1,-1,-1],"split_conditions":[1E0,1E0,1E0,1E0,6.129265E-2,1E0,-3.7060864E-2,1E0,7.940082E-2,1E0,-8.294765E-3,1E0,6.9174394E-2,1E0,1E0,1E0,6.6931315E-2,1E0,-5.321102E-3,-2.7511701E-2,3.766875E-2,-1.6700499E-2,7.656315E-2,6.0190547E-2,3.949562E-3],"split_indices":[44,43,241,164,0,551,0,56,0,543,0,54,0,587,245,128,0,72,0,0,0,0,0,0,0],"split_type":[0,0,0,0,0,0,0,0,0,0,0,0,0,0,0,0,0,0,0,0,0,0,0,0,0],"sum_hessian":[2.6009283E2,2.2150873E2,3.8584095E1,2.1098615E2,1.0522574E1,3.7386204E1,1.1978905E0,2.080438E2,2.9423618E0,3.531465E1,2.071554E0,2.0484337E2,3.200413E0,3.2367577E1,2.9470758E0,2.0153537E2,3.3080068E0,3.075828E1,1.6092952E0,1.8881973E0,1.0588787E0,1.9931517E2,2.2201915E0,2.954493E1,1.2133505E0],"tree_param":{"num_deleted":"0","num_feature":"813","num_nodes":"25","size_leaf_vector":"1"}},{"base_weights":[-3.207545E-2,-1.924621E-1,9.3935484E-1,-2.699648E-1,6.043599E-2,9.946469E-1,-1.2853168E-2,-3.034125E-1,7.631822E-2,1.0525143E0,-8.412892E-3,-3.3643645E-1,6.2254447E-2,1.1098868E0,-1.5155387E-3,-3.6735392E-1,6.5288134E-2,1.1733477E0,8.112743E-3,-1.9742541E-2,7.083007E-2,6.1147965E-2,4.919719E-3],"categories":[],"categories_nodes":[],"categories_segments":[],"categories_sizes":[],"default_left":[0,0,0,0,0,0,0,0,0,0,0,0,0,0,0,0,0,0,0,0,0,0,0],"id":22,"left_children":[1,3,5,7,-1,9,-1,11,-1,13,-1,15,-1,17,-1,19,-1,21,-1,-1,-1,-1,-1],"loss_changes":[3.951405E1,2.3946712E1,2.633501E0,1.2895832E1,0E0,2.5029182E0,0E0,1.08498E1,0E0,2.0875664E0,0E0,1.0659843E1,0E0,1.6994133E0,0E0,1.025131E1,0E0,1.4417953E0,0E0,0E0,0E0,0E0,0E0],"parents":[2147483647,0,0,1,1,2,2,3,3,5,5,7,7,9,9,11,11,13,13,15,15,17,17],"right_children":[2,4,6,8,-1,10,-1,12,-1,14,-1,16,-1,18,-1,20,-1,22,-1,-1,-1,-1,-1],"split_conditions":[1E0,1E0,1E0,1E0,6.043599E-2,1E0,-1.2853168E-2,1E0,7.631822E-2,1E0,-8.412892E-3,1E0,6.2254447E-2,1E0,-1.5155387E-3,1E0,6.5288134E-2,1E0,8.112743E-3,-1.9742541E-2,7.083007E-2,6.1147965E-2,4.919719E-3],"split_indices":[44,43,353,164,0,664,0,53,0,345,0,56,0,516,0,5,0,551,0,0,0,0,0],"split_type":[0,0,0,0,0,0,0,0,0,0,0,0,0,0,0,0,0,0,0,0,0,0,0],"sum_hessian":[2.5145274E2,2.1650832E2,3.4944427E1,2.0592542E2,1.0582894E1,3.3562016E1,1.3824117E0,2.0297707E2,2.9483454E0,3.2061523E1,1.5004908E0,1.9950508E2,3.4719906E0,3.042452E1,1.6370047E0,1.965804E2,2.9246883E0,2.8291695E1,2.1328254E0,1.9436325E2,2.2171435E0,2.691196E1,1.3797345E0],"tree_param":{"num_deleted":"0","num_feature":"813","num_nodes":"23","size_leaf_vector":"1"}},{"base_weights":[1.1062974E-2,-5.183052E-2,7.9061264E-1,-1.0324226E-2,-1.1024431E0,9.647477E-1,-3.225486E-1,3.285486E-2,-1.09029E0,-6.352913E-2,-9.101856E-3,1.097486E0,-1.5242393E-2,-2.2780294E-2,-2.157474E-3,8.081515E-2,-7.330512E-1,-6.383793E-2,-1.3179977E-2,1.090631E-1,1.2811171E0,1.21777676E-1,-9.076218E-1,-8.8908446E-1,2.4164565E-2,-2.2647647E-2,3.8722575E-2,1.4229692E0,3.3182015E-3,2.9670503E-3,4.4687774E-2,-5.2853864E-2,7.3938514E-4,-5.720967E-2,1.9232708E-3,7.4659795E-2,1.7729292E-2],"categories":[],"categories_nodes":[],"categories_segments":[],"categories_sizes":[],"default_left":[0,0,0,0,0,0,0,0,0,0,0,0,0,0,0,0,0,0,0,0,0,0,0,0,0,0,0,0,0,0,0,0,0,0,0,0,0],"id":23,"left_children":[1,3,5,7,9,11,13,15,17,-1,-1,19,-1,-1,-1,21,23,-1,-1,25,27,29,31,33,-1,-1,-1,35,-1,-1,-1,-1,-1,-1,-1,-1,-1],"loss_changes":[1.286276E1,1.0582123E1,4.107602E0,1.0980701E1,1.1960573E0,3.2309084E0,1.0669416E-1,8.384989E0,1.0589142E0,0E0,0E0,2.7239056E0,0E0,0E0,0E0,8.783221E0,2.9834738E0,0E0,0E0,1.6839256E0,2.182228E0,9.902983E0,1.2069921E0,2.9493418E0,0E0,0E0,0E0,3.5450935E-1,0E0,0E0,0E0,0E0,0E0,0E0,0E0,0E0,0E0],"parents":[2147483647,0,0,1,1,2,2,3,3,4,4,5,5,6,6,7,7,8,8,11,11,15,15,16,16,19,19,20,20,21,21,22,22,23,23,27,27],"right_children":[2,4,6,8,10,12,14,16,18,-1,-1,20,-1,-1,-1,22,24,-1,-1,26,28,30,32,34,-1,-1,-1,36,-1,-1,-1,-1,-1,-1,-1,-1,-1],"split_conditions":[1E0,1E0,1E0,1E0,1E0,1E0,1E0,1E0,1E0,-6.352913E-2,-9.101856E-3,1E0,-1.5242393E-2,-2.2780294E-2,-2.157474E-3,1E0,1E0,-6.383793E-2,-1.3179977E-2,1E0,1E0,1E0,1E0,1E0,2.4164565E-2,-2.2647647E-2,3.8722575E-2,1E0,3.3182015E-3,2.9670503E-3,4.4687774E-2,-5.2853864E-2,7.3938514E-4,-5.720967E-2,1.9232708E-3,7.4659795E-2,1.7729292E-2],"split_indices":[614,46,741,123,328,308,231,213,746,0,0,544,0,0,0,57,696,0,0,136,664,191,664,277,0,0,0,143,0,0,0,0,0,0,0,0,0],"split_type":[0,0,0,0,0,0,0,0,0,0,0,0,0,0,0,0,0,0,0,0,0,0,0,0,0,0,0,0,0,0,0,0,0,0,0,0,0],"sum_hessian":[2.605164E2,2.4193106E2,1.8585308E1,2.3370786E2,8.223211E0,1.618653E1,2.3987799E0,2.256553E2,8.05255E0,6.6313424E0,1.5918694E0,1.4777119E1,1.4094102E0,1.1977271E0,1.2010528E0,2.1319945E2,1.2455858E1,6.1262817E0,1.9262683E0,2.5649252E0,1.22121935E1,2.0555759E2,7.6418614E0,1.1278141E1,1.1777171E0,1.5635489E0,1.0013763E0,1.0781754E1,1.43044E0,1.9117262E2,1.4384953E1,6.45068E0,1.1911819E0,8.662173E0,2.6159687E0,9.743663E0,1.0380902E0],"tree_param":{"num_deleted":"0","num_feature":"813","num_nodes":"37","size_leaf_vector":"1"}},{"base_weights":[2.4532843E-2,-1.1918799E-1,8.697728E-1,-7.750681E-2,-6.619351E-2,9.475446E-1,-2.009196E-1,-1.09216794E-1,6.7119434E-2,1.0341249E0,3.6671247E-2,1.8874804E-2,-3.335722E-2,-1.3933922E-1,6.6728204E-2,1.0758709E0,-5.2084676E-3,-2.6080957E-2,4.0506404E-2,-1.720599E-1,6.236873E-2,1.1235809E0,-1.2160443E-3,-9.936667E-3,7.7420354E-2,5.973179E-2,2.5223115E-2],"categories":[],"categories_nodes":[],"categories_segments":[],"categories_sizes":[],"default_left":[0,0,0,0,0,0,0,0,0,0,0,0,0,0,0,0,0,0,0,0,0,0,0,0,0,0,0],"id":24,"left_children":[1,3,5,7,-1,9,11,13,-1,15,17,-1,-1,19,-1,21,-1,-1,-1,23,-1,25,-1,-1,-1,-1,-1],"loss_changes":[3.1320597E1,1.0969733E1,3.310112E0,9.790811E0,0E0,2.7304497E0,1.1585182E0,9.338158E0,0E0,1.6336174E0,2.1860068E0,0E0,0E0,9.60924E0,0E0,1.6532097E0,0E0,0E0,0E0,9.630591E0,0E0,7.0428085E-1,0E0,0E0,0E0,0E0,0E0],"parents":[2147483647,0,0,1,1,2,2,3,3,5,5,6,6,7,7,9,9,10,10,13,13,15,15,19,19,21,21],"right_children":[2,4,6,8,-1,10,12,14,-1,16,18,-1,-1,20,-1,22,-1,-1,-1,24,-1,26,-1,-1,-1,-1,-1],"split_conditions":[1E0,1E0,1E0,1E0,-6.619351E-2,1E0,1E0,1E0,6.7119434E-2,1E0,1E0,1.8874804E-2,-3.335722E-2,1E0,6.6728204E-2,1E0,-5.2084676E-3,-2.6080957E-2,4.0506404E-2,1E0,6.236873E-2,1E0,-1.2160443E-3,-9.936667E-3,7.7420354E-2,5.973179E-2,2.5223115E-2],"split_indices":[44,161,345,54,0,543,746,56,0,243,572,0,0,53,0,618,0,0,0,27,0,199,0,0,0,0,0],"split_type":[0,0,0,0,0,0,0,0,0,0,0,0,0,0,0,0,0,0,0,0,0,0,0,0,0,0,0],"sum_hessian":[2.5597475E2,2.1950934E2,3.64654E1,2.131972E2,6.3121386E0,3.410326E1,2.362139E0,2.0944287E2,3.754327E0,3.101949E1,3.0837734E0,1.1391637E0,1.2229753E0,2.0604749E2,3.3953967E0,2.9975018E1,1.0444703E0,1.9801078E0,1.1036656E0,2.0215343E2,3.894057E0,2.8708796E1,1.2662235E0,1.9993816E2,2.2152748E0,2.491929E1,3.7895036E0],"tree_param":{"num_deleted":"0","num_feature":"813","num_nodes":"27","size_leaf_vector":"1"}},{"base_weights":[-1.674924E-2,-1.4591165E-1,7.944421E-1,-2.1491034E-1,5.9296865E-2,8.90554E-1,-5.217705E-2,-2.4281372E-1,7.75479E-2,9.5082283E-1,-2.3016665E-2,-2.6945576E-1,7.173702E-2,1.0226301E0,1.384072E-1,-2.954961E-1,7.532981E-2,1.0868366E0,3.6203254E-3,-2.2085437E-3,1.5617326E-2,-1.630058E-2,6.306336E-2,5.6785632E-2,8.695862E-3],"categories":[],"categories_nodes":[],"categories_segments":[],"categories_sizes":[],"default_left":[0,0,0,0,0,0,0,0,0,0,0,0,0,0,0,0,0,0,0,0,0,0,0,0,0],"id":25,"left_children":[1,3,5,7,-1,9,-1,11,-1,13,-1,15,-1,17,19,21,-1,23,-1,-1,-1,-1,-1,-1,-1],"loss_changes":[2.7246286E1,2.0859446E1,7.2396374E0,1.0922121E1,0E0,3.24543E0,0E0,9.841717E0,0E0,1.8033924E0,0E0,1.0115377E1,0E0,1.7806282E0,1.3650784E-1,1.0240238E1,0E0,1.0730362E0,0E0,0E0,0E0,0E0,0E0,0E0,0E0],"parents":[2147483647,0,0,1,1,2,2,3,3,5,5,7,7,9,9,11,11,13,13,14,14,15,15,17,17],"right_children":[2,4,6,8,-1,10,-1,12,-1,14,-1,16,-1,18,20,22,-1,24,-1,-1,-1,-1,-1,-1,-1],"split_conditions":[1E0,1E0,1E0,1E0,5.9296865E-2,1E0,-5.217705E-2,1E0,7.75479E-2,1E0,-2.3016665E-2,1E0,7.173702E-2,1E0,1E0,1E0,7.532981E-2,1E0,3.6203254E-3,-2.2085437E-3,1.5617326E-2,-1.630058E-2,6.306336E-2,5.6785632E-2,8.695862E-3],"split_indices":[44,43,581,50,0,241,0,135,0,456,0,177,0,551,338,127,0,659,0,0,0,0,0,0,0],"split_type":[0,0,0,0,0,0,0,0,0,0,0,0,0,0,0,0,0,0,0,0,0,0,0,0,0],"sum_hessian":[2.579383E2,2.2321661E2,3.472167E1,2.1301942E2,1.0197196E1,3.3486084E1,1.2355843E0,2.1055484E2,2.464587E0,3.233943E1,1.1466501E0,2.0808945E2,2.4653916E0,2.9475426E1,2.8640065E0,2.0590411E2,2.18533E0,2.7475163E1,2.0002635E0,1.7612936E0,1.1027129E0,2.02721E2,3.183125E0,2.5847301E1,1.627861E0],"tree_param":{"num_deleted":"0","num_feature":"813","num_nodes":"25","size_leaf_vector":"1"}},{"base_weights":[5.5552362E-3,-1.2862869E-1,8.451154E-1,-1.934881E-1,5.8018215E-2,9.030826E-1,-2.2353342E-2,-1.3331853E-1,-1.0463616E0,9.7580814E-1,-5.611282E-2,-1.7735657E-1,1.1814622E0,-1.166788E0,7.910862E-3,1.052823E0,1.822507E-1,-2.2609612E-2,1.8819524E-2,-3.1797263E-1,2.485278E-1,7.549367E-2,1.4895364E-2,-6.121881E-2,-1.4507012E-2,1.1101359E0,3.2865843E-1,-1.2924102E-2,2.5159732E-2,-1.8346565E-2,3.8564384E-2,4.46923E-3,4.855018E-2,5.8454018E-2,1.619495E-2,2.1330154E-2,3.980977E-3],"categories":[],"categories_nodes":[],"categories_segments":[],"categories_sizes":[],"default_left":[0,0,0,0,0,0,0,0,0,0,0,0,0,0,0,0,0,0,0,0,0,0,0,0,0,0,0,0,0,0,0,0,0,0,0,0,0],"id":26,"left_children":[1,3,5,7,-1,9,-1,11,13,15,17,19,21,23,-1,25,27,-1,-1,29,31,-1,-1,-1,-1,33,35,-1,-1,-1,-1,-1,-1,-1,-1,-1,-1],"loss_changes":[2.8226068E1,1.8287975E1,2.9898586E0,1.046094E1,0E0,2.3828964E0,0E0,1.1448049E1,2.1381416E0,1.7074013E0,7.351194E-1,1.137833E1,1.4134178E0,2.6886177E-1,0E0,8.021641E-1,6.900045E-1,0E0,0E0,7.870862E0,5.362563E0,0E0,0E0,0E0,0E0,8.0939484E-1,5.098492E-2,0E0,0E0,0E0,0E0,0E0,0E0,0E0,0E0,0E0,0E0],"parents":[2147483647,0,0,1,1,2,2,3,3,5,5,7,7,8,8,9,9,10,10,11,11,12,12,13,13,15,15,16,16,19,19,20,20,25,25,26,26],"right_children":[2,4,6,8,-1,10,-1,12,14,16,18,20,22,24,-1,26,28,-1,-1,30,32,-1,-1,-1,-1,34,36,-1,-1,-1,-1,-1,-1,-1,-1,-1,-1],"split_conditions":[1E0,1E0,1E0,1E0,5.8018215E-2,1E0,-2.2353342E-2,1E0,1E0,1E0,1E0,1E0,1E0,1E0,7.910862E-3,1E0,1E0,-2.2609612E-2,1.8819524E-2,1E0,1E0,7.549367E-2,1.4895364E-2,-6.121881E-2,-1.4507012E-2,1E0,1E0,-1.2924102E-2,2.5159732E-2,-1.8346565E-2,3.8564384E-2,4.46923E-3,4.855018E-2,5.8454018E-2,1.619495E-2,2.1330154E-2,3.980977E-3],"split_indices":[44,43,241,168,0,400,0,516,200,543,629,746,170,618,0,362,525,0,0,703,639,0,0,0,0,660,572,0,0,0,0,0,0,0,0,0,0],"split_type":[0,0,0,0,0,0,0,0,0,0,0,0,0,0,0,0,0,0,0,0,0,0,0,0,0,0,0,0,0,0,0,0,0,0,0,0,0],"sum_hessian":[2.4858714E2,2.1506143E2,3.3525715E1,2.055676E2,9.493837E0,3.2374516E1,1.151199E0,1.931008E2,1.2466801E1,3.0076794E1,2.2977228E0,1.8767964E2,5.421148E0,1.1362246E1,1.1045552E0,2.7118252E1,2.9585419E0,1.1756022E0,1.1221206E0,1.4128452E2,4.639513E1,3.4353795E0,1.9857682E0,1.0289648E1,1.0725973E0,2.463552E1,2.4827306E0,1.328632E0,1.6299099E0,1.35842E2,5.4425125E0,3.894111E1,7.4540243E0,2.2464426E1,2.1710963E0,1.2701823E0,1.2125484E0],"tree_param":{"num_deleted":"0","num_feature":"813","num_nodes":"37","size_leaf_vector":"1"}},{"base_weights":[5.3832985E-2,-6.7274444E-2,8.360516E-1,-9.98698E-2,6.712155E-2,9.2188525E-1,-1.7306593E-1,-1.3467215E-1,6.319888E-2,1.0001698E0,2.1677311E-4,-2.8799323E-2,1.801757E-2,-1.6138406E-1,7.029407E-2,1.047768E0,2.6012093E-4,2.2908205E-2,-2.4346408E-2,-1.8345939E-1,7.204091E-2,1.1012471E0,-3.5248161E-3,-1.0171916E-2,7.383562E-2,5.8319975E-2,1.9271316E-2],"categories":[],"categories_nodes":[],"categories_segments":[],"categories_sizes":[],"default_left":[0,0,0,0,0,0,0,0,0,0,0,0,0,0,0,0,0,0,0,0,0,0,0,0,0,0,0],"id":27,"left_children":[1,3,5,7,-1,9,11,13,-1,15,17,-1,-1,19,-1,21,-1,-1,-1,23,-1,25,-1,-1,-1,-1,-1],"loss_changes":[2.4161705E1,1.0301344E1,3.1208897E0,1.0479598E1,0E0,2.284647E0,9.645336E-1,8.979661E0,0E0,1.3768463E0,9.992976E-1,0E0,0E0,7.690793E0,0E0,1.7431831E0,0E0,0E0,0E0,7.199585E0,0E0,7.928276E-1,0E0,0E0,0E0,0E0,0E0],"parents":[2147483647,0,0,1,1,2,2,3,3,5,5,6,6,7,7,9,9,10,10,13,13,15,15,19,19,21,21],"right_children":[2,4,6,8,-1,10,12,14,-1,16,18,-1,-1,20,-1,22,-1,-1,-1,24,-1,26,-1,-1,-1,-1,-1],"split_conditions":[1E0,1E0,1E0,1E0,6.712155E-2,1E0,1E0,1E0,6.319888E-2,1E0,1E0,-2.8799323E-2,1.801757E-2,1E0,7.029407E-2,1E0,2.6012093E-4,2.2908205E-2,-2.4346408E-2,1E0,7.204091E-2,1E0,-3.5248161E-3,-1.0171916E-2,7.383562E-2,5.8319975E-2,1.9271316E-2],"split_indices":[44,144,400,53,0,551,338,0,0,129,758,0,0,27,0,306,0,0,0,121,0,287,0,0,0,0,0],"split_type":[0,0,0,0,0,0,0,0,0,0,0,0,0,0,0,0,0,0,0,0,0,0,0,0,0,0,0],"sum_hessian":[2.534582E2,2.2026894E2,3.3189262E1,2.1619911E2,4.0698237E0,3.0667213E1,2.5220509E0,2.116983E2,4.500814E0,2.8187828E1,2.4793854E0,1.3913102E0,1.1307406E0,2.0897017E2,2.7281249E0,2.685027E1,1.3375585E0,1.3086562E0,1.1707292E0,2.0700356E2,1.9666222E0,2.5639328E1,1.2109405E0,2.0540906E2,1.5944883E0,2.2923435E1,2.715894E0],"tree_param":{"num_deleted":"0","num_feature":"813","num_nodes":"27","size_leaf_vector":"1"}},{"base_weights":[2.331418E-2,-2.1633487E-2,5.6863695E-2,1.9211873E-2,-1.0518211E0,5.4135423E-2,-5.6435116E-2,-6.1397385E-2,-1.1682537E-3,2.8584005E-2,7.387762E-2,7.300288E-2,-8.3819395E-1,2.1176483E-3,6.375565E-2,-6.101897E-2,1.1272003E-2],"categories":[],"categories_nodes":[],"categories_segments":[],"categories_sizes":[],"default_left":[0,0,0,0,0,0,0,0,0,0,0,0,0,0,0,0,0],"id":28,"left_children":[1,3,-1,5,7,9,-1,-1,-1,11,-1,13,15,-1,-1,-1,-1],"loss_changes":[1.23342285E1,1.0005199E1,0E0,9.25066E0,1.6137857E0,8.083397E0,0E0,0E0,0E0,8.5504875E0,0E0,7.707859E0,4.677051E0,0E0,0E0,0E0,0E0],"parents":[2147483647,0,0,1,1,3,3,4,4,5,5,9,9,11,11,12,12],"right_children":[2,4,-1,6,8,10,-1,-1,-1,12,-1,14,16,-1,-1,-1,-1],"split_conditions":[1E0,1E0,5.6863695E-2,1E0,1E0,1E0,-5.6435116E-2,-6.1397385E-2,-1.1682537E-3,1E0,7.387762E-2,1E0,1E0,2.1176483E-3,6.375565E-2,-6.101897E-2,1.1272003E-2],"split_indices":[43,46,0,161,607,164,0,0,0,206,0,181,318,0,0,0,0],"split_type":[0,0,0,0,0,0,0,0,0,0,0,0,0,0,0,0,0],"sum_hessian":[2.4484886E2,2.3629506E2,8.553797E0,2.2822754E2,8.067521E0,2.2241379E2,5.813762E0,6.7223277E0,1.3451936E0,2.1949379E2,2.9199991E0,2.0966507E2,9.828712E0,2.054617E2,4.203376E0,7.122195E0,2.7065172E0],"tree_param":{"num_deleted":"0","num_feature":"813","num_nodes":"17","size_leaf_vector":"1"}},{"base_weights":[2.6504856E-2,-8.766222E-2,7.83137E-1,-1.4850792E-1,5.6701627E-2,8.7658733E-1,-1.3790965E-1,-2.0730954E-1,7.011204E-1,9.225349E-1,-3.365288E-3,-3.9634783E-2,3.440827E-2,-2.4702959E-1,6.143347E-2,9.069797E-1,-1.8968968E-2,3.4337974E-1,1.0151666E0,-2.7848783E-1,6.261883E-2,1.055097E0,5.175091E-3,4.2606123E-2,3.8259964E-2,1.0671347E0,9.9635E-3,-1.5304096E-2,6.4200126E-2,6.041264E-2,5.3996514E-3,-1.1382296E-2,1.4294001E-2,5.6376297E-2,1.4393875E-2],"categories":[],"categories_nodes":[],"categories_segments":[],"categories_sizes":[],"default_left":[0,0,0,0,0,0,0,0,0,0,0,0,0,0,0,0,0,0,0,0,0,0,0,0,0,0,0,0,0,0,0,0,0,0,0],"id":29,"left_children":[1,3,5,7,-1,9,11,13,15,17,-1,-1,-1,19,-1,21,-1,23,25,27,-1,29,-1,31,-1,33,-1,-1,-1,-1,-1,-1,-1,-1,-1],"loss_changes":[2.1489775E1,1.6252073E1,2.9279041E0,1.04863205E1,0E0,1.352087E0,2.637795E0,1.1389301E1,3.3749857E0,1.1767082E0,0E0,0E0,0E0,9.30903E0,0E0,1.288023E0,0E0,6.565071E-1,8.0496407E-1,8.45028E0,0E0,1.2916775E0,0E0,3.431594E-1,0E0,7.2642136E-1,0E0,0E0,0E0,0E0,0E0,0E0,0E0,0E0,0E0],"parents":[2147483647,0,0,1,1,2,2,3,3,5,5,6,6,7,7,8,8,9,9,13,13,15,15,17,17,18,18,19,19,21,21,23,23,25,25],"right_children":[2,4,6,8,-1,10,12,14,16,18,-1,-1,-1,20,-1,22,-1,24,26,28,-1,30,-1,32,-1,34,-1,-1,-1,-1,-1,-1,-1,-1,-1],"split_conditions":[1E0,1E0,1E0,1E0,5.6701627E-2,1E0,1E0,1E0,1E0,1E0,-3.365288E-3,-3.9634783E-2,3.440827E-2,1E0,6.143347E-2,1E0,-1.8968968E-2,1E0,1E0,1E0,6.261883E-2,1E0,5.175091E-3,1E0,3.8259964E-2,1E0,9.9635E-3,-1.5304096E-2,6.4200126E-2,6.041264E-2,5.3996514E-3,-1.1382296E-2,1.4294001E-2,5.6376297E-2,1.4393875E-2],"split_indices":[44,43,704,191,0,286,432,53,334,467,0,0,0,56,0,357,0,709,357,144,0,314,0,629,0,602,0,0,0,0,0,0,0,0,0],"split_type":[0,0,0,0,0,0,0,0,0,0,0,0,0,0,0,0,0,0,0,0,0,0,0,0,0,0,0,0,0,0,0,0,0,0,0],"sum_hessian":[2.4697997E2,2.1536761E2,3.161235E1,2.0598701E2,9.380608E0,2.8744204E1,2.8681455E0,1.9336078E2,1.2626237E1,2.74315E1,1.3127041E0,1.6224905E0,1.2456551E0,1.8896194E2,4.3988295E0,1.07405205E1,1.8857162E0,4.431524E0,2.2999977E1,1.8587643E2,3.085508E0,8.804323E0,1.936197E0,3.2296584E0,1.2018657E0,2.133324E1,1.6667361E0,1.8344092E2,2.4355211E0,7.341412E0,1.4629114E0,1.5604267E0,1.6692317E0,1.9384079E1,1.9491616E0],"tree_param":{"num_deleted":"0","num_feature":"813","num_nodes":"35","size_leaf_vector":"1"}},{"base_weights":[2.8743176E-3,-6.051197E-2,8.107227E-1,-8.13497E-3,-8.463874E-1,9.7793156E-1,-3.3898897E-2,3.0687781E-2,-5.8299333E-2,-9.650398E-1,3.2874902E-3,2.7351004E-1,1.4016008E0,7.144477E-2,-9.936694E-1,4.866143E-3,-1.0753042E0,-8.842293E-2,4.1694865E-2,2.1247981E-2,7.3661886E-2,1.8474253E-1,-3.1838572E-1,-5.974115E-2,7.387891E-3,-1.2081318E0,-1.33095775E-2,2.2387778E-2,-3.427663E-1,-1.6599463E-2,1.3623093E-2,-1.9912843E-2,6.2151767E-2,-6.391912E-2,-1.7844757E-2,-4.1442905E-2,2.1734765E-2],"categories":[],"categories_nodes":[],"categories_segments":[],"categories_sizes":[],"default_left":[0,0,0,0,0,0,0,0,0,0,0,0,0,0,0,0,0,0,0,0,0,0,0,0,0,0,0,0,0,0,0,0,0,0,0,0,0],"id":30,"left_children":[1,3,5,7,9,11,-1,13,-1,15,-1,17,19,21,23,-1,25,27,-1,-1,-1,29,31,-1,-1,33,-1,-1,35,-1,-1,-1,-1,-1,-1,-1,-1],"loss_changes":[1.272472E1,9.4793E0,5.1633387E0,9.793319E0,1.6208754E0,4.589576E0,0E0,8.880296E0,0E0,1.6037769E0,0E0,1.5949967E0,8.493996E-2,9.062755E0,2.0457764E0,0E0,9.333916E-1,8.9824986E-1,0E0,0E0,0E0,7.278808E0,6.265999E0,0E0,0E0,1.2667942E-1,0E0,0E0,1.9742248E0,0E0,0E0,0E0,0E0,0E0,0E0,0E0,0E0],"parents":[2147483647,0,0,1,1,2,2,3,3,4,4,5,5,7,7,9,9,11,11,12,12,13,13,14,14,16,16,17,17,21,21,22,22,25,25,28,28],"right_children":[2,4,6,8,10,12,-1,14,-1,16,-1,18,20,22,24,-1,26,28,-1,-1,-1,30,32,-1,-1,34,-1,-1,36,-1,-1,-1,-1,-1,-1,-1,-1],"split_conditions":[1E0,1E0,1E0,1E0,1E0,1E0,-3.3898897E-2,1E0,-5.8299333E-2,1E0,3.2874902E-3,1E0,1E0,1E0,1E0,4.866143E-3,1E0,1E0,4.1694865E-2,2.1247981E-2,7.3661886E-2,1E0,1E0,-5.974115E-2,7.387891E-3,1E0,-1.33095775E-2,2.2387778E-2,1E0,-1.6599463E-2,1.3623093E-2,-1.9912843E-2,6.2151767E-2,-6.391912E-2,-1.7844757E-2,-4.1442905E-2,2.1734765E-2],"split_indices":[614,168,352,161,723,452,0,46,0,786,0,196,786,437,401,0,667,786,0,0,0,203,172,0,0,356,0,0,401,0,0,0,0,0,0,0,0],"split_type":[0,0,0,0,0,0,0,0,0,0,0,0,0,0,0,0,0,0,0,0,0,0,0,0,0,0,0,0,0,0,0,0,0,0,0,0,0],"sum_hessian":[2.4654001E2,2.2946089E2,1.7079117E1,2.1607057E2,1.3390313E1,1.5662971E1,1.4161468E0,2.1000269E2,6.067891E0,1.1797655E1,1.592658E0,6.5004506E0,9.16252E0,2.0286151E2,7.1411743E0,1.1203917E0,1.0677263E1,4.4612856E0,2.0391648E0,1.099872E0,8.062648E0,1.5758745E2,4.527407E1,6.031469E0,1.1097056E0,8.747994E0,1.9292682E0,1.1907151E0,3.2705705E0,2.2465336E1,1.351221E2,4.3779564E1,1.4945089E0,7.617542E0,1.1304529E0,1.9716988E0,1.2988718E0],"tree_param":{"num_deleted":"0","num_feature":"813","num_nodes":"37","size_leaf_vector":"1"}},{"base_weights":[-1.1499764E-2,-4.2586956E-2,7.2709985E-2,-9.6382655E-2,7.0700765E-1,-1.462694E-1,5.620411E-1,8.437472E-1,-2.263376E-2,-1.6783494E-1,7.272109E-2,7.3478556E-1,-2.3040658E-2,9.4601953E-1,-1.1932596E-2,-1.9240849E-1,6.079308E-2,9.006682E-1,-1.3066443E-2,1.0602044E0,9.706502E-3,-1.0906527E-2,5.590337E-2,-1.7653199E-2,5.457889E-2,5.9459817E-2,1.4357701E-2],"categories":[],"categories_nodes":[],"categories_segments":[],"categories_sizes":[],"default_left":[0,0,0,0,0,0,0,0,0,0,0,0,0,0,0,0,0,0,0,0,0,0,0,0,0,0,0],"id":31,"left_children":[1,3,-1,5,7,9,11,13,-1,15,-1,17,-1,19,-1,21,-1,23,-1,25,-1,-1,-1,-1,-1,-1,-1],"loss_changes":[1.1414832E1,9.94606E0,0E0,7.6183825E0,3.0020008E0,7.633736E0,3.2303057E0,1.9005442E0,0E0,7.4465275E0,0E0,2.612587E0,0E0,9.9823856E-1,0E0,7.298398E0,0E0,3.3910809E0,0E0,8.502617E-1,0E0,0E0,0E0,0E0,0E0,0E0,0E0],"parents":[2147483647,0,0,1,1,3,3,4,4,5,5,6,6,7,7,9,9,11,11,13,13,15,15,17,17,19,19],"right_children":[2,4,-1,6,8,10,12,14,-1,16,-1,18,-1,20,-1,22,-1,24,-1,26,-1,-1,-1,-1,-1,-1,-1],"split_conditions":[1E0,1E0,7.2709985E-2,1E0,1E0,1E0,1E0,1E0,-2.263376E-2,1E0,7.272109E-2,1E0,-2.3040658E-2,1E0,-1.1932596E-2,1E0,6.079308E-2,1E0,-1.3066443E-2,1E0,9.706502E-3,-1.0906527E-2,5.590337E-2,-1.7653199E-2,5.457889E-2,5.9459817E-2,1.4357701E-2],"split_indices":[590,390,0,614,622,47,399,201,0,56,0,324,0,704,0,53,0,479,0,647,0,0,0,0,0,0,0],"split_type":[0,0,0,0,0,0,0,0,0,0,0,0,0,0,0,0,0,0,0,0,0,0,0,0,0,0,0],"sum_hessian":[2.4816122E2,2.4395787E2,4.2033534E0,2.284353E2,1.5522558E1,2.1306953E2,1.5365772E1,1.4129021E1,1.3935368E0,2.1112033E2,1.9492017E0,1.3386611E1,1.9791619E0,1.3024386E1,1.1046342E0,2.0828232E2,2.8380125E0,1.1557725E1,1.8288856E0,1.0951236E1,2.0731509E0,2.0509035E2,3.1919684E0,1.4151094E0,1.0142615E1,8.923873E0,2.0273628E0],"tree_param":{"num_deleted":"0","num_feature":"813","num_nodes":"27","size_leaf_vector":"1"}},{"base_weights":[6.010313E-2,-5.2825063E-2,7.7987957E-1,-1.0876425E-1,5.5424936E-2,8.5586894E-1,-2.7548298E-2,-6.2051997E-2,-5.895477E-2,9.141895E-1,-1.24592995E-2,-8.946595E-2,7.0076324E-2,9.9865144E-1,2.2287202E-1,-5.4485165E-2,-5.8908697E-2,1.0560024E0,-9.2504425E-3,-7.027821E-3,2.5560204E-2,-1.1911751E-5,-3.8197275E-2,5.5842537E-2,-2.2084063E-3],"categories":[],"categories_nodes":[],"categories_segments":[],"categories_sizes":[],"default_left":[0,0,0,0,0,0,0,0,0,0,0,0,0,0,0,0,0,0,0,0,0,0,0,0,0],"id":32,"left_children":[1,3,5,7,-1,9,-1,11,-1,13,-1,15,-1,17,19,21,-1,23,-1,-1,-1,-1,-1,-1,-1],"loss_changes":[1.9835752E1,1.3856234E1,3.8178997E0,1.0057885E1,0E0,2.2703915E0,0E0,7.95781E0,0E0,1.5477657E0,0E0,7.269371E0,0E0,2.0099754E0,5.5264705E-1,7.220471E0,0E0,1.766077E0,0E0,0E0,0E0,0E0,0E0,0E0,0E0],"parents":[2147483647,0,0,1,1,2,2,3,3,5,5,7,7,9,9,11,11,13,13,14,14,15,15,17,17],"right_children":[2,4,6,8,-1,10,-1,12,-1,14,-1,16,-1,18,20,22,-1,24,-1,-1,-1,-1,-1,-1,-1],"split_conditions":[1E0,1E0,1E0,1E0,5.5424936E-2,1E0,-2.7548298E-2,1E0,-5.895477E-2,1E0,-1.24592995E-2,1E0,7.0076324E-2,1E0,1E0,1E0,-5.8908697E-2,1E0,-9.2504425E-3,-7.027821E-3,2.5560204E-2,-1.1911751E-5,-3.8197275E-2,5.5842537E-2,-2.2084063E-3],"split_indices":[44,43,345,49,0,241,0,164,0,199,0,161,0,306,709,627,0,587,0,0,0,0,0,0,0],"split_type":[0,0,0,0,0,0,0,0,0,0,0,0,0,0,0,0,0,0,0,0,0,0,0,0,0],"sum_hessian":[2.4252621E2,2.1043669E2,3.2089523E1,2.0163078E2,8.805902E0,3.0693848E1,1.3956757E0,1.9421277E2,7.4180155E0,2.9319212E1,1.3746357E0,1.915635E2,2.6492615E0,2.573096E1,3.588252E0,1.8661743E2,4.946076E0,2.464472E1,1.0862397E0,1.8141382E0,1.774114E0,1.7429108E2,1.2326351E1,2.3338737E1,1.3059826E0],"tree_param":{"num_deleted":"0","num_feature":"813","num_nodes":"25","size_leaf_vector":"1"}},{"base_weights":[1.972546E-2,-1.00629926E-1,8.2209486E-1,-1.5366772E-1,5.4680653E-2,9.230805E-1,-3.249267E-2,-1.8591371E-1,7.281903E-2,1.0108526E0,-1.3296717E-1,-2.1426915E-1,6.985899E-2,1.068487E0,-1.2207733E-2,1.6479168E-2,-2.512454E-2,-2.4569803E-1,6.0007036E-2,1.1720943E0,3.6463937E-1,-1.3635106E-2,7.316377E-2,6.208647E-2,2.039635E-2,3.6977217E-2,-1.5591255E-2],"categories":[],"categories_nodes":[],"categories_segments":[],"categories_sizes":[],"default_left":[0,0,0,0,0,0,0,0,0,0,0,0,0,0,0,0,0,0,0,0,0,0,0,0,0,0,0],"id":33,"left_children":[1,3,5,7,-1,9,-1,11,-1,13,15,17,-1,19,-1,-1,-1,21,-1,23,25,-1,-1,-1,-1,-1,-1],"loss_changes":[2.3765238E1,1.3731771E1,5.3708897E0,1.0961239E1,0E0,2.9567795E0,0E0,9.4009495E0,0E0,2.3027153E0,7.160354E-1,9.188002E0,0E0,1.5543385E0,0E0,0E0,0E0,9.469073E0,0E0,7.299595E-1,1.4830747E0,0E0,0E0,0E0,0E0,0E0,0E0],"parents":[2147483647,0,0,1,1,2,2,3,3,5,5,7,7,9,9,10,10,11,11,13,13,17,17,19,19,20,20],"right_children":[2,4,6,8,-1,10,-1,12,-1,14,16,18,-1,20,-1,-1,-1,22,-1,24,26,-1,-1,-1,-1,-1,-1],"split_conditions":[1E0,1E0,1E0,1E0,5.4680653E-2,1E0,-3.249267E-2,1E0,7.281903E-2,1E0,1E0,1E0,6.985899E-2,1E0,-1.2207733E-2,1.6479168E-2,-2.512454E-2,1E0,6.0007036E-2,1E0,1E0,-1.3635106E-2,7.316377E-2,6.208647E-2,2.039635E-2,3.6977217E-2,-1.5591255E-2],"split_indices":[44,43,581,172,0,543,0,164,0,295,513,253,0,304,0,0,0,50,0,704,709,0,0,0,0,0,0],"split_type":[0,0,0,0,0,0,0,0,0,0,0,0,0,0,0,0,0,0,0,0,0,0,0,0,0,0,0],"sum_hessian":[2.4423804E2,2.1314142E2,3.109662E1,2.0491234E2,8.22908E0,2.9449099E1,1.6475224E0,2.017561E2,3.156236E0,2.7228807E1,2.2202904E0,1.9905539E2,2.7007098E0,2.6175362E1,1.0534468E0,1.0340306E0,1.1862597E0,1.9553676E2,3.5186346E0,2.2236807E1,3.9385538E0,1.9332242E2,2.214328E0,1.9806946E1,2.4298618E0,2.4741178E0,1.4644359E0],"tree_param":{"num_deleted":"0","num_feature":"813","num_nodes":"27","size_leaf_vector":"1"}},{"base_weights":[3.42879E-2,-8.320579E-2,7.75461E-1,-4.995716E-2,-6.283972E-2,8.6516654E-1,-3.2844505E-1,8.989618E-4,-8.860902E-1,9.471399E-1,-1.2519531E-2,1.2674281E-2,-3.5905667E-2,5.5203732E-2,-8.609513E-1,-1.0734795E0,1.0726012E-2,1.0125978E0,-1.2581889E-3,9.454911E-2,-5.7273436E-2,2.7867485E-2,-1.0656325E0,-6.1095174E-2,4.0079462E-3,1.0723188E0,3.1055805E-1,7.7556646E-3,-3.46793E-2,-6.110084E-2,7.3310814E-4,5.500092E-2,1.3064975E-2,2.4850167E-2,-2.4211325E-3],"categories":[],"categories_nodes":[],"categories_segments":[],"categories_sizes":[],"default_left":[0,0,0,0,0,0,0,0,0,0,0,0,0,0,0,0,0,0,0,0,0,0,0,0,0,0,0,0,0,0,0,0,0,0,0],"id":34,"left_children":[1,3,5,7,-1,9,11,13,15,17,-1,-1,-1,19,21,23,-1,25,-1,27,-1,-1,29,-1,-1,31,33,-1,-1,-1,-1,-1,-1,-1,-1],"loss_changes":[2.129156E1,8.182388E0,3.5966625E0,8.782758E0,0E0,3.0913563E0,9.164629E-1,9.20599E0,2.6726646E0,1.889288E0,0E0,0E0,0E0,8.848986E0,3.9786158E0,1.8591785E0,0E0,8.18346E-1,0E0,8.703135E0,0E0,0E0,1.7972555E0,0E0,0E0,2.719612E-1,2.6238012E-1,0E0,0E0,0E0,0E0,0E0,0E0,0E0,0E0],"parents":[2147483647,0,0,1,1,2,2,3,3,5,5,6,6,7,7,8,8,9,9,13,13,14,14,15,15,17,17,19,19,22,22,25,25,26,26],"right_children":[2,4,6,8,-1,10,12,14,16,18,-1,-1,-1,20,22,24,-1,26,-1,28,-1,-1,30,-1,-1,32,34,-1,-1,-1,-1,-1,-1,-1,-1],"split_conditions":[1E0,1E0,1E0,1E0,-6.283972E-2,1E0,1E0,1E0,1E0,1E0,-1.2519531E-2,1.2674281E-2,-3.5905667E-2,1E0,1E0,1E0,1.0726012E-2,1E0,-1.2581889E-3,1E0,-5.7273436E-2,2.7867485E-2,1E0,-6.1095174E-2,4.0079462E-3,1E0,1E0,7.7556646E-3,-3.46793E-2,-6.110084E-2,7.3310814E-4,5.500092E-2,1.3064975E-2,2.4850167E-2,-2.4211325E-3],"split_indices":[44,140,345,685,0,353,746,168,614,543,0,0,0,161,795,338,0,362,0,720,0,0,328,0,0,517,610,0,0,0,0,0,0,0,0],"split_type":[0,0,0,0,0,0,0,0,0,0,0,0,0,0,0,0,0,0,0,0,0,0,0,0,0,0,0,0,0,0,0,0,0,0,0],"sum_hessian":[2.427559E2,2.1030522E2,3.2450676E1,2.0552512E2,4.7801094E0,3.0211868E1,2.238807E0,1.9468285E2,1.084227E1,2.8284443E1,1.9274261E0,1.0380566E0,1.2007504E0,1.8402356E2,1.0659288E1,9.285908E0,1.5563626E0,2.6461544E1,1.8228985E0,1.7907657E2,4.946988E0,1.1269915E0,9.532296E0,8.174965E0,1.1109421E0,2.3900915E1,2.5606296E0,1.6704332E2,1.203324E1,8.21229E0,1.3200064E0,2.2766989E1,1.1339259E0,1.4322639E0,1.1283658E0],"tree_param":{"num_deleted":"0","num_feature":"813","num_nodes":"35","size_leaf_vector":"1"}},{"base_weights":[1.646151E-2,6.9930874E-2,-7.0241445E-1,1.2091222E0,3.909927E-2,-8.290345E-1,2.077221E-2,7.235599E-2,6.5946863E-3,8.88475E-3,6.3983686E-2,1.2988324E-2,-9.511509E-1,-1.8909076E-2,6.546559E-2,-1.0502224E0,2.0063636E-3,-7.2753415E-2,7.1459746E-1,-1.15522E0,-1.3853761E-2,-6.93859E-3,2.7320534E-2,4.229968E-2,-1.8459639E-2,-6.0324103E-2,-1.647075E-2],"categories":[],"categories_nodes":[],"categories_segments":[],"categories_sizes":[],"default_left":[0,0,0,0,0,0,0,0,0,0,0,0,0,0,0,0,0,0,0,0,0,0,0,0,0,0,0],"id":35,"left_children":[1,3,5,7,9,11,-1,-1,-1,13,-1,-1,15,17,-1,19,-1,21,23,25,-1,-1,-1,-1,-1,-1,-1],"loss_changes":[9.588827E0,8.098223E0,2.7892084E0,1.3673439E0,8.491172E0,2.3543425E0,0E0,0E0,0E0,8.064914E0,0E0,0E0,1.462717E0,8.692733E0,0E0,7.504635E-1,0E0,8.444237E0,2.4561152E0,8.07209E-2,0E0,0E0,0E0,0E0,0E0,0E0,0E0],"parents":[2147483647,0,0,1,1,2,2,3,3,4,4,5,5,9,9,12,12,13,13,15,15,17,17,18,18,19,19],"right_children":[2,4,6,8,10,12,-1,-1,-1,14,-1,-1,16,18,-1,20,-1,22,24,26,-1,-1,-1,-1,-1,-1,-1],"split_conditions":[1E0,1E0,1E0,1E0,1E0,1E0,2.077221E-2,7.235599E-2,6.5946863E-3,1E0,6.3983686E-2,1.2988324E-2,1E0,1E0,6.546559E-2,1E0,2.0063636E-3,1E0,1E0,1E0,-1.3853761E-2,-6.93859E-3,2.7320534E-2,4.229968E-2,-1.8459639E-2,-6.0324103E-2,-1.647075E-2],"split_indices":[168,513,620,746,181,795,0,0,0,54,0,0,356,614,0,723,0,268,324,422,0,0,0,0,0,0,0],"split_type":[0,0,0,0,0,0,0,0,0,0,0,0,0,0,0,0,0,0,0,0,0,0,0,0,0,0,0],"sum_hessian":[2.4718527E2,2.309129E2,1.6272377E1,5.077785E0,2.2583511E2,1.4848821E1,1.4235564E0,3.877693E0,1.2000921E0,2.2144884E2,4.3862834E0,1.3837724E0,1.3465049E1,2.1777972E2,3.6691132E0,1.2187526E1,1.2775228E0,2.037257E2,1.40540285E1,1.0295201E1,1.8923248E0,1.8479753E2,1.8928167E1,1.2730077E1,1.3239515E0,9.259442E0,1.0357585E0],"tree_param":{"num_deleted":"0","num_feature":"813","num_nodes":"27","size_leaf_vector":"1"}},{"base_weights":[4.657231E-3,-1.0418902E-1,7.583512E-1,-6.1695855E-2,-1.0914692E0,8.6130804E-1,-3.1820167E-2,-2.6363358E-2,-6.1288614E-2,-5.896866E-2,-1.4818867E-2,9.7780484E-1,2.5182458E-2,-5.674333E-2,6.191231E-2,1.0426631E0,-8.4722275E-3,3.112538E-2,-3.4849938E-2,-8.687148E-2,6.1483003E-2,1.1015584E0,-5.576066E-3,-5.687903E-3,6.2040098E-2,5.9684288E-2,2.3447337E-2],"categories":[],"categories_nodes":[],"categories_segments":[],"categories_sizes":[],"default_left":[0,0,0,0,0,0,0,0,0,0,0,0,0,0,0,0,0,0,0,0,0,0,0,0,0,0,0],"id":36,"left_children":[1,3,5,7,9,11,-1,13,-1,-1,-1,15,17,19,-1,21,-1,-1,-1,23,-1,25,-1,-1,-1,-1,-1],"loss_changes":[1.952206E1,8.657771E0,4.860285E0,8.212262E0,2.4608421E-1,2.740694E0,0E0,7.5838284E0,0E0,0E0,0E0,2.0288067E0,2.374315E0,7.545761E0,0E0,1.7338333E0,0E0,0E0,0E0,6.86924E0,0E0,7.59737E-1,0E0,0E0,0E0,0E0,0E0],"parents":[2147483647,0,0,1,1,2,2,3,3,4,4,5,5,7,7,11,11,12,12,13,13,15,15,19,19,21,21],"right_children":[2,4,6,8,10,12,-1,14,-1,-1,-1,16,18,20,-1,22,-1,-1,-1,24,-1,26,-1,-1,-1,-1,-1],"split_conditions":[1E0,1E0,1E0,1E0,1E0,1E0,-3.1820167E-2,1E0,-6.1288614E-2,-5.896866E-2,-1.4818867E-2,1E0,1E0,1E0,6.191231E-2,1E0,-8.4722275E-3,3.112538E-2,-3.4849938E-2,1E0,6.1483003E-2,1E0,-5.576066E-3,-5.687903E-3,6.2040098E-2,5.9684288E-2,2.3447337E-2],"split_indices":[44,46,581,125,657,684,0,127,0,0,0,286,610,56,0,353,0,0,0,54,0,437,0,0,0,0,0],"split_type":[0,0,0,0,0,0,0,0,0,0,0,0,0,0,0,0,0,0,0,0,0,0,0,0,0,0,0],"sum_hessian":[2.3600407E2,2.0697511E2,2.902897E1,1.9945302E2,7.5220947E0,2.7389612E1,1.6393571E0,1.9456999E2,4.883016E0,6.3380537E0,1.184041E0,2.3891394E1,3.4982193E0,1.9093819E2,3.631817E0,2.2699282E1,1.192112E0,1.9901547E0,1.5080645E0,1.874798E2,3.4583921E0,2.1640608E1,1.0586737E0,1.8465468E2,2.8251066E0,1.8115526E1,3.5250812E0],"tree_param":{"num_deleted":"0","num_feature":"813","num_nodes":"27","size_leaf_vector":"1"}},{"base_weights":[5.674794E-2,1.1653675E-1,-8.25929E-1,1.5578187E-1,-9.5676637E-1,-9.1926616E-1,8.209806E-3,1.9054092E-1,-9.577292E-1,-5.7490047E-2,1.7860134E-3,-9.9334055E-1,-7.78158E-3,2.2017276E-1,-5.6039255E-2,-5.7255007E-2,3.1129234E-3,-1.0419815E0,-1.7601794E-2,2.5220996E-1,-7.9434556E-1,-4.6150708E-1,-5.706612E-2,1.425705E-2,-3.679752E-2,2.8799048E-2,-5.843398E-2,7.134507E-3,-4.198267E-2],"categories":[],"categories_nodes":[],"categories_segments":[],"categories_sizes":[],"default_left":[0,0,0,0,0,0,0,0,0,0,0,0,0,0,0,0,0,0,0,0,0,0,0,0,0,0,0,0,0],"id":37,"left_children":[1,3,5,7,9,11,-1,13,15,-1,-1,17,-1,19,-1,-1,-1,21,-1,23,25,27,-1,-1,-1,-1,-1,-1,-1],"loss_changes":[1.284748E1,9.717749E0,1.578908E0,8.698028E0,1.6031208E0,6.527147E-1,0E0,8.569457E0,1.3758364E0,0E0,0E0,3.3221245E-2,0E0,7.0352736E0,0E0,0E0,0E0,1.3122272E-1,0E0,6.8681593E0,4.098894E0,8.843315E-1,0E0,0E0,0E0,0E0,0E0,0E0,0E0],"parents":[2147483647,0,0,1,1,2,2,3,3,4,4,5,5,7,7,8,8,11,11,13,13,17,17,19,19,20,20,21,21],"right_children":[2,4,6,8,10,12,-1,14,16,-1,-1,18,-1,20,-1,-1,-1,22,-1,24,26,28,-1,-1,-1,-1,-1,-1,-1],"split_conditions":[1E0,1E0,1E0,1E0,1E0,1E0,8.209806E-3,1E0,1E0,-5.7490047E-2,1.7860134E-3,1E0,-7.78158E-3,1E0,-5.6039255E-2,-5.7255007E-2,3.1129234E-3,1E0,-1.7601794E-2,1E0,1E0,1E0,-5.706612E-2,1.425705E-2,-3.679752E-2,2.8799048E-2,-5.843398E-2,7.134507E-3,-4.198267E-2],"split_indices":[168,46,620,140,607,657,0,125,583,0,0,356,0,49,0,0,0,774,0,133,774,452,0,0,0,0,0,0,0],"split_type":[0,0,0,0,0,0,0,0,0,0,0,0,0,0,0,0,0,0,0,0,0,0,0,0,0,0,0,0,0],"sum_hessian":[2.4061858E2,2.2616695E2,1.4451623E1,2.1901363E2,7.1533303E0,1.3272058E1,1.1795654E0,2.131877E2,5.8259273E0,5.8558807E0,1.2974498E0,1.1824268E1,1.4477892E0,2.0929048E2,3.8972065E0,4.818172E0,1.0077552E0,1.04099245E1,1.4143436E0,2.0361208E2,5.6784124E0,2.3461938E0,8.063731E0,1.9773392E2,5.8781595E0,1.1027796E0,4.5756326E0,1.1428392E0,1.2033546E0],"tree_param":{"num_deleted":"0","num_feature":"813","num_nodes":"29","size_leaf_vector":"1"}},{"base_weights":[2.2214964E-2,-7.5978674E-2,6.80197E-1,-1.2750779E-1,5.3779032E-2,7.8230745E-1,-3.729844E-2,-1.5861142E-1,6.873443E-2,8.679281E-1,-1.9222444E-2,-1.8617356E-1,7.239729E-2,9.523115E-1,1.1577535E-1,-2.1721897E-1,6.057824E-2,1.0106055E0,-2.8402142E-3,-1.838433E-2,3.738808E-2,-1.2441166E-2,6.115494E-2,5.2165058E-2,1.0467464E-2],"categories":[],"categories_nodes":[],"categories_segments":[],"categories_sizes":[],"default_left":[0,0,0,0,0,0,0,0,0,0,0,0,0,0,0,0,0,0,0,0,0,0,0,0,0],"id":38,"left_children":[1,3,5,7,-1,9,-1,11,-1,13,-1,15,-1,17,19,21,-1,23,-1,-1,-1,-1,-1,-1,-1],"loss_changes":[1.54690485E1,1.2511442E1,5.110674E0,9.586084E0,0E0,3.280487E0,0E0,9.00728E0,0E0,1.6534538E0,0E0,8.719917E0,0E0,1.5190334E0,1.4792273E0,9.021434E0,0E0,3.983631E-1,0E0,0E0,0E0,0E0,0E0,0E0,0E0],"parents":[2147483647,0,0,1,1,2,2,3,3,5,5,7,7,9,9,11,11,13,13,14,14,15,15,17,17],"right_children":[2,4,6,8,-1,10,-1,12,-1,14,-1,16,-1,18,20,22,-1,24,-1,-1,-1,-1,-1,-1,-1],"split_conditions":[1E0,1E0,1E0,1E0,5.3779032E-2,1E0,-3.729844E-2,1E0,6.873443E-2,1E0,-1.9222444E-2,1E0,7.239729E-2,1E0,1E0,1E0,6.057824E-2,1E0,-2.8402142E-3,-1.838433E-2,3.738808E-2,-1.2441166E-2,6.115494E-2,5.2165058E-2,1.0467464E-2],"split_indices":[44,43,345,0,0,353,0,5,0,543,0,172,0,89,572,127,0,358,0,0,0,0,0,0,0],"split_type":[0,0,0,0,0,0,0,0,0,0,0,0,0,0,0,0,0,0,0,0,0,0,0,0,0],"sum_hessian":[2.3762329E2,2.0753625E2,3.0087048E1,1.994985E2,8.037737E0,2.8498104E1,1.5889431E0,1.9632787E2,3.170639E0,2.6788397E1,1.7097067E0,1.9388568E2,2.4421923E0,2.3846916E1,2.9414814E0,1.9049907E2,3.3866146E0,2.254318E1,1.3037363E0,1.9035176E0,1.0379636E0,1.8721825E2,3.280816E0,2.1369122E1,1.1740578E0],"tree_param":{"num_deleted":"0","num_feature":"813","num_nodes":"25","size_leaf_vector":"1"}},{"base_weights":[4.545861E-2,2.0069877E-2,7.09675E-2,-5.5471025E-3,6.186313E-2,2.855354E-2,-8.434095E-1,6.314293E-2,-8.7368304E-1,-9.759138E-1,-3.9012094E-3,9.6240826E-2,-8.7238246E-1,-5.196459E-2,-3.4828778E-4,-5.7465274E-2,-1.15844365E-2,6.411399E-3,-3.8349915E-2,-5.4956384E-2,1.0394506E-2],"categories":[],"categories_nodes":[],"categories_segments":[],"categories_sizes":[],"default_left":[0,0,0,0,0,0,0,0,0,0,0,0,0,0,0,0,0,0,0,0,0],"id":39,"left_children":[1,3,-1,5,-1,7,9,11,13,15,-1,17,19,-1,-1,-1,-1,-1,-1,-1,-1],"loss_changes":[7.822816E0,6.9295077E0,0E0,6.265145E0,0E0,6.635655E0,7.935357E-1,6.4008307E0,1.1199145E0,6.6578245E-1,0E0,5.5639024E0,1.9603438E0,0E0,0E0,0E0,0E0,0E0,0E0,0E0,0E0],"parents":[2147483647,0,0,1,1,3,3,5,5,6,6,7,7,8,8,9,9,11,11,12,12],"right_children":[2,4,-1,6,-1,8,10,12,14,16,-1,18,20,-1,-1,-1,-1,-1,-1,-1,-1],"split_conditions":[1E0,1E0,7.09675E-2,1E0,6.186313E-2,1E0,1E0,1E0,1E0,1E0,-3.9012094E-3,1E0,1E0,-5.196459E-2,-3.4828778E-4,-5.7465274E-2,-1.15844365E-2,6.411399E-3,-3.8349915E-2,-5.4956384E-2,1.0394506E-2],"split_indices":[135,144,0,57,0,49,334,46,629,629,0,162,328,0,0,0,0,0,0,0,0],"split_type":[0,0,0,0,0,0,0,0,0,0,0,0,0,0,0,0,0,0,0,0,0],"sum_hessian":[2.2408589E2,2.2101625E2,3.0696468E0,2.1743555E2,3.5806956E0,2.0986024E2,7.575302E0,2.0300749E2,6.8527617E0,6.222921E0,1.3523812E0,1.9693718E2,6.0703015E0,5.5862513E0,1.2665106E0,4.6055975E0,1.6173233E0,1.907215E2,6.2156878E0,5.0027823E0,1.0675193E0],"tree_param":{"num_deleted":"0","num_feature":"813","num_nodes":"21","size_leaf_vector":"1"}},{"base_weights":[-4.3656374E-4,-1.0418555E-1,7.393641E-1,-1.528013E-1,5.246376E-2,8.245376E-1,-3.4102183E-2,-1.8639904E-1,1.1628898E0,9.142249E-1,-1.1275975E-2,-2.128174E-1,7.326094E-2,6.999221E-2,2.0611102E-2,9.6679753E-1,4.6921927E-3,-2.4052411E-1,6.338747E-2,1.0210384E0,8.472892E-3,-1.4466961E-2,2.9661108E-2,5.3721208E-2,1.6364591E-2],"categories":[],"categories_nodes":[],"categories_segments":[],"categories_sizes":[],"default_left":[0,0,0,0,0,0,0,0,0,0,0,0,0,0,0,0,0,0,0,0,0,0,0,0,0],"id":40,"left_children":[1,3,5,7,-1,9,-1,11,13,15,-1,17,-1,-1,-1,19,-1,21,-1,23,-1,-1,-1,-1,-1],"loss_changes":[1.7891308E1,1.1623894E1,4.0332603E0,8.926455E0,0E0,2.7961578E0,0E0,8.7325E0,3.2020855E-1,1.0105877E0,0E0,8.1328125E0,0E0,0E0,0E0,8.6016846E-1,0E0,7.8295794E0,0E0,4.6940613E-1,0E0,0E0,0E0,0E0,0E0],"parents":[2147483647,0,0,1,1,2,2,3,3,5,5,7,7,8,8,9,9,11,11,15,15,17,17,19,19],"right_children":[2,4,6,8,-1,10,-1,12,14,16,-1,18,-1,-1,-1,20,-1,22,-1,24,-1,-1,-1,-1,-1],"split_conditions":[1E0,1E0,1E0,1E0,5.246376E-2,1E0,-3.4102183E-2,1E0,1E0,1E0,-1.1275975E-2,1E0,7.326094E-2,6.999221E-2,2.0611102E-2,1E0,4.6921927E-3,1E0,6.338747E-2,1E0,8.472892E-3,-1.4466961E-2,2.9661108E-2,5.3721208E-2,1.6364591E-2],"split_indices":[44,43,581,253,0,345,0,177,741,778,0,144,0,0,0,621,0,136,0,379,0,0,0,0,0],"split_type":[0,0,0,0,0,0,0,0,0,0,0,0,0,0,0,0,0,0,0,0,0,0,0,0,0],"sum_hessian":[2.3109705E2,2.034277E2,2.766935E1,1.9603288E2,7.3948126E0,2.6501259E1,1.1680907E0,1.9198856E2,4.044331E0,2.453503E1,1.9662275E0,1.898234E2,2.165163E0,2.4166863E0,1.6276449E0,2.2889713E1,1.6453174E0,1.8715852E2,2.6648612E0,2.1169079E1,1.7206336E0,1.7742351E2,9.73502E0,1.9146944E1,2.0221355E0],"tree_param":{"num_deleted":"0","num_feature":"813","num_nodes":"25","size_leaf_vector":"1"}},{"base_weights":[-1.893345E-2,-1.13474816E-1,6.8651813E-1,-1.4077011E-1,6.0750324E-2,8.0431306E-1,-1.3377291E-1,-1.6621113E-1,5.7939984E-2,8.543132E-1,-7.323573E-3,-3.496916E-2,3.792208E-2,-1.8771915E-1,6.682355E-2,9.101842E-1,-6.562865E-3,-2.0794001E-1,7.2285764E-2,1.0062246E0,1.5574384E-1,-1.1485661E-2,6.545732E-2,5.3343445E-2,1.2322646E-2,2.005824E-2,-9.032594E-3],"categories":[],"categories_nodes":[],"categories_segments":[],"categories_sizes":[],"default_left":[0,0,0,0,0,0,0,0,0,0,0,0,0,0,0,0,0,0,0,0,0,0,0,0,0,0,0],"id":41,"left_children":[1,3,5,7,-1,9,11,13,-1,15,-1,-1,-1,17,-1,19,-1,21,-1,23,25,-1,-1,-1,-1,-1,-1],"loss_changes":[1.57133E1,7.698405E0,2.7983112E0,6.9473786E0,0E0,1.2894945E0,2.7277138E0,6.7554064E0,0E0,1.4088287E0,0E0,0E0,0E0,6.8831406E0,0E0,1.4579926E0,0E0,6.8321123E0,0E0,6.394844E-1,3.779106E-1,0E0,0E0,0E0,0E0,0E0,0E0],"parents":[2147483647,0,0,1,1,2,2,3,3,5,5,6,6,7,7,9,9,13,13,15,15,17,17,19,19,20,20],"right_children":[2,4,6,8,-1,10,12,14,-1,16,-1,-1,-1,18,-1,20,-1,22,-1,24,26,-1,-1,-1,-1,-1,-1],"split_conditions":[1E0,1E0,1E0,1E0,6.0750324E-2,1E0,1E0,1E0,5.7939984E-2,1E0,-7.323573E-3,-3.496916E-2,3.792208E-2,1E0,6.682355E-2,1E0,-6.562865E-3,1E0,7.2285764E-2,1E0,1E0,-1.1485661E-2,6.545732E-2,5.3343445E-2,1.2322646E-2,2.005824E-2,-9.032594E-3],"split_indices":[44,54,543,172,0,72,572,50,0,260,0,0,0,121,0,684,0,5,0,589,432,0,0,0,0,0,0],"split_type":[0,0,0,0,0,0,0,0,0,0,0,0,0,0,0,0,0,0,0,0,0,0,0,0,0,0,0],"sum_hessian":[2.3343361E2,2.0658693E2,2.684668E1,2.0330383E2,3.2830925E0,2.349259E1,3.3540897E0,2.0025563E2,3.0482013E0,2.2415274E1,1.0773153E0,2.1850355E0,1.1690543E0,1.9829253E2,1.9631011E0,2.128513E1,1.1301435E0,1.9672984E2,1.5626893E0,1.858546E1,2.6996706E0,1.947829E2,1.9469413E0,1.6837324E1,1.7481364E0,1.4495778E0,1.2500927E0],"tree_param":{"num_deleted":"0","num_feature":"813","num_nodes":"27","size_leaf_vector":"1"}},{"base_weights":[2.7964802E-2,-4.6201378E-2,5.8561504E-1,-7.59442E-2,6.821707E-2,6.7125905E-1,-3.2518696E-2,-1.06228985E-1,5.8468502E-2,7.3617375E-1,-1.1188052E-2,-1.3344546E-1,6.7706436E-2,8.0290747E-1,-7.076422E-3,-1.6107988E-1,5.924342E-2,8.631914E-1,-1.2436922E-2,-9.19759E-3,6.985422E-2,4.7522318E-2,3.0592345E-3],"categories":[],"categories_nodes":[],"categories_segments":[],"categories_sizes":[],"default_left":[0,0,0,0,0,0,0,0,0,0,0,0,0,0,0,0,0,0,0,0,0,0,0],"id":42,"left_children":[1,3,5,7,-1,9,-1,11,-1,13,-1,15,-1,17,-1,19,-1,21,-1,-1,-1,-1,-1],"loss_changes":[9.811444E0,8.902523E0,3.3839397E0,7.9063764E0,0E0,1.7061911E0,0E0,8.223812E0,0E0,1.5761976E0,0E0,7.461429E0,0E0,1.6953955E0,0E0,7.2547174E0,0E0,1.5032978E0,0E0,0E0,0E0,0E0,0E0],"parents":[2147483647,0,0,1,1,2,2,3,3,5,5,7,7,9,9,11,11,13,13,15,15,17,17],"right_children":[2,4,6,8,-1,10,-1,12,-1,14,-1,16,-1,18,-1,20,-1,22,-1,-1,-1,-1,-1],"split_conditions":[1E0,1E0,1E0,1E0,6.821707E-2,1E0,-3.2518696E-2,1E0,5.8468502E-2,1E0,-1.1188052E-2,1E0,6.7706436E-2,1E0,-7.076422E-3,1E0,5.924342E-2,1E0,-1.2436922E-2,-9.19759E-3,6.985422E-2,4.7522318E-2,3.0592345E-3],"split_indices":[44,0,241,53,0,587,0,135,0,664,0,54,0,183,0,27,0,660,0,0,0,0,0],"split_type":[0,0,0,0,0,0,0,0,0,0,0,0,0,0,0,0,0,0,0,0,0,0,0],"sum_hessian":[2.3557338E2,2.0872993E2,2.6843445E1,2.0534616E2,3.3837862E0,2.5531242E1,1.3122032E0,2.0136389E2,3.9822698E0,2.3970192E1,1.5610504E0,1.9857175E2,2.7921305E0,2.2355656E1,1.6145359E0,1.9535455E2,3.2171993E0,2.1313114E1,1.0425413E0,1.9339766E2,1.9568933E0,1.9054934E1,2.2581809E0],"tree_param":{"num_deleted":"0","num_feature":"813","num_nodes":"23","size_leaf_vector":"1"}},{"base_weights":[1.0504993E-2,5.953371E-2,-6.8738806E-1,9.070632E-2,-5.1972E-2,2.9575428E-2,-8.728189E-1,1.2433865E-1,-5.0094932E-2,-1.0113214E0,1.8381964E-2,1.6441388E-1,-5.769952E-1,-1.1136078E0,-1.0733479E-2,2.1688022E-1,-5.28725E-1,-5.2232426E-2,-7.4704444E-1,-5.921903E-2,-1.6770054E-2,1.2592636E-2,-3.1037781E-2,-3.384928E-2,2.2997303E-2,5.808585E-3,-1.2114325E-2,-4.5055322E-2,8.884187E-3],"categories":[],"categories_nodes":[],"categories_segments":[],"categories_sizes":[],"default_left":[0,0,0,0,0,0,0,0,0,0,0,0,0,0,0,0,0,0,0,0,0,0,0,0,0,0,0,0,0],"id":43,"left_children":[1,3,5,7,-1,-1,9,11,-1,13,-1,15,17,19,-1,21,23,25,27,-1,-1,-1,-1,-1,-1,-1,-1,-1,-1],"loss_changes":[8.046513E0,7.614885E0,4.177237E0,8.002867E0,0E0,0E0,2.7576065E0,5.9656973E0,0E0,8.0058193E-1,0E0,7.328631E0,9.882908E-1,2.1233368E-1,0E0,5.579254E0,2.4000916E0,1.5273692E-1,1.3881121E0,0E0,0E0,0E0,0E0,0E0,0E0,0E0,0E0,0E0,0E0],"parents":[2147483647,0,0,1,1,2,2,3,3,6,6,7,7,9,9,11,11,12,12,13,13,15,15,16,16,17,17,18,18],"right_children":[2,4,6,8,-1,-1,10,12,-1,14,-1,16,18,20,-1,22,24,26,28,-1,-1,-1,-1,-1,-1,-1,-1,-1,-1],"split_conditions":[1E0,1E0,1E0,1E0,-5.1972E-2,2.9575428E-2,1E0,1E0,-5.0094932E-2,1E0,1.8381964E-2,1E0,1E0,1E0,-1.0733479E-2,1E0,1E0,1E0,1E0,-5.921903E-2,-1.6770054E-2,1.2592636E-2,-3.1037781E-2,-3.384928E-2,2.2997303E-2,5.808585E-3,-1.2114325E-2,-4.5055322E-2,8.884187E-3],"split_indices":[168,161,786,140,0,0,411,685,0,328,0,720,467,245,0,126,356,376,264,0,0,0,0,0,0,0,0,0,0],"split_type":[0,0,0,0,0,0,0,0,0,0,0,0,0,0,0,0,0,0,0,0,0,0,0,0,0,0,0,0,0],"sum_hessian":[2.3296663E2,2.1852911E2,1.4437516E1,2.1339363E2,5.135491E0,1.5509391E0,1.2886578E1,2.0788087E2,5.5127444E0,1.1758419E1,1.1281585E0,1.9736853E2,1.0512356E1,1.0067889E1,1.6905298E0,1.8411896E2,1.3249563E1,2.8927243E0,7.6196313E0,8.750181E0,1.3177074E0,1.7741112E2,6.707842E0,1.1795912E1,1.4536515E0,1.7398303E0,1.152894E0,6.553368E0,1.0662628E0],"tree_param":{"num_deleted":"0","num_feature":"813","num_nodes":"29","size_leaf_vector":"1"}},{"base_weights":[2.892863E-2,7.9380326E-2,-8.019207E-1,1.1204791E-1,-1.0082507E0,-9.5268345E-1,2.8381317E-3,4.3877453E-2,6.319677E-1,-5.9870895E-2,-4.7461814E-3,-1.0003811E0,-1.3614568E-2,1.5692508E-3,5.1721152E-2,7.1895975E-1,-2.3992945E-2,-5.7027202E-2,-4.231409E-1,3.65453E-2,-6.014028E-2,8.355181E-1,-1.5689565E-2,6.3080373E-3,-3.6865592E-2,3.6818765E-3,-5.0831743E-2,4.610795E-2,-2.3472593E-3],"categories":[],"categories_nodes":[],"categories_segments":[],"categories_sizes":[],"default_left":[0,0,0,0,0,0,0,0,0,0,0,0,0,0,0,0,0,0,0,0,0,0,0,0,0,0,0,0,0],"id":44,"left_children":[1,3,5,7,9,11,-1,13,15,-1,-1,17,-1,19,-1,21,-1,-1,23,25,-1,27,-1,-1,-1,-1,-1,-1,-1],"loss_changes":[9.670497E0,7.8220825E0,1.7642193E0,7.4701347E0,9.9671984E-1,9.4109535E-2,0E0,7.881252E0,2.7095585E0,0E0,0E0,3.4099197E-1,0E0,7.6850963E0,0E0,3.0396957E0,0E0,0E0,7.1060485E-1,6.9989605E0,0E0,1.6494055E0,0E0,0E0,0E0,0E0,0E0,0E0,0E0],"parents":[2147483647,0,0,1,1,2,2,3,3,4,4,5,5,7,7,8,8,11,11,13,13,15,15,18,18,19,19,21,21],"right_children":[2,4,6,8,10,12,-1,14,16,-1,-1,18,-1,20,-1,22,-1,-1,24,26,-1,28,-1,-1,-1,-1,-1,-1,-1],"split_conditions":[1E0,1E0,1E0,1E0,1E0,1E0,2.8381317E-3,1E0,1E0,-5.9870895E-2,-4.7461814E-3,1E0,-1.3614568E-2,1E0,5.1721152E-2,1E0,-2.3992945E-2,-5.7027202E-2,1E0,1E0,-6.014028E-2,1E0,-1.5689565E-2,6.3080373E-3,-3.6865592E-2,3.6818765E-3,-5.0831743E-2,4.610795E-2,-2.3472593E-3],"split_indices":[168,180,44,44,560,659,0,43,581,0,0,379,0,140,0,551,0,0,318,133,0,329,0,0,0,0,0,0,0],"split_type":[0,0,0,0,0,0,0,0,0,0,0,0,0,0,0,0,0,0,0,0,0,0,0,0,0,0,0,0,0],"sum_hessian":[2.2818306E2,2.1597298E2,1.2210076E1,2.105461E2,5.4268856E0,1.0293357E1,1.9167196E0,1.8709863E2,2.3447464E1,4.2380548E0,1.1888306E0,9.179542E0,1.1138155E0,1.8039517E2,6.703459E0,2.2073715E1,1.3737482E0,6.6008863E0,2.578655E0,1.7624649E2,4.148689E0,2.0006697E1,2.0670185E0,1.1559701E0,1.4226849E0,1.7114883E2,5.097655E0,1.8177076E1,1.8296211E0],"tree_param":{"num_deleted":"0","num_feature":"813","num_nodes":"29","size_leaf_vector":"1"}},{"base_weights":[1.2048542E-2,5.258009E-2,-1.0812826E0,1.0260482E-1,-7.5867057E-1,-5.796435E-2,-1.7810363E-2,1.3878313E-1,-4.9129885E-2,1.7628873E-2,-9.1375196E-1,1.7833571E-1,-9.464059E-1,-1.0666322E0,1.1619213E-2,2.1516061E-1,-9.0352875E-1,-5.632026E-2,-4.2957996E-4,-5.8762677E-2,-1.687604E-2,1.232689E-2,-5.319606E-2,1.4867778E-2,-5.9515476E-2],"categories":[],"categories_nodes":[],"categories_segments":[],"categories_sizes":[],"default_left":[0,0,0,0,0,0,0,0,0,0,0,0,0,0,0,0,0,0,0,0,0,0,0,0,0],"id":45,"left_children":[1,3,5,7,9,-1,-1,11,-1,-1,13,15,17,19,-1,21,23,-1,-1,-1,-1,-1,-1,-1,-1],"loss_changes":[1.0222039E1,9.09293E0,5.3448677E-2,8.385849E0,2.5662308E0,0E0,0E0,8.934203E0,0E0,0E0,2.2988958E0,8.077745E0,1.2293663E0,4.35421E-1,0E0,7.9748945E0,2.6634407E0,0E0,0E0,0E0,0E0,0E0,0E0,0E0,0E0],"parents":[2147483647,0,0,1,1,2,2,3,3,4,4,7,7,10,10,11,11,12,12,13,13,15,15,16,16],"right_children":[2,4,6,8,10,-1,-1,12,-1,-1,14,16,18,20,-1,22,24,-1,-1,-1,-1,-1,-1,-1,-1],"split_conditions":[1E0,1E0,1E0,1E0,1E0,-5.796435E-2,-1.7810363E-2,1E0,-4.9129885E-2,1.7628873E-2,1E0,1E0,1E0,1E0,1.1619213E-2,1E0,1E0,-5.632026E-2,-4.2957996E-4,-5.8762677E-2,-1.687604E-2,1.232689E-2,-5.319606E-2,1.4867778E-2,-5.9515476E-2],"split_indices":[49,168,637,46,786,0,0,180,0,0,688,133,688,432,0,125,786,0,0,0,0,0,0,0,0],"split_type":[0,0,0,0,0,0,0,0,0,0,0,0,0,0,0,0,0,0,0,0,0,0,0,0,0],"sum_hessian":[2.2838785E2,2.2114168E2,7.24617E0,2.0912009E2,1.20216E1,6.001655E0,1.2445148E0,2.0321736E2,5.902715E0,1.3162692E0,1.0705331E1,1.9687732E2,6.3400517E0,9.506632E0,1.1986986E0,1.9117128E2,5.706037E0,5.1504116E0,1.1896399E0,7.741432E0,1.7651995E0,1.8738187E2,3.7894137E0,1.0928581E0,4.6131787E0],"tree_param":{"num_deleted":"0","num_feature":"813","num_nodes":"25","size_leaf_vector":"1"}},{"base_weights":[-5.0864513E-3,-4.2389426E-2,5.152145E-2,-8.604301E-2,6.88369E-1,-4.0114954E-2,-8.253249E-1,8.784452E-1,1.4883901E-1,8.035937E-3,-6.9570625E-1,-9.9034506E-1,2.241363E-2,5.0282188E-2,-1.4260163E-3,2.4751475E-2,-1.10387005E-1,5.5686526E-2,-6.5871716E-1,-8.313499E-1,2.0238513E-2,3.4203925E-3,-1.1010152E0,2.5781395E-3,-1.0682734E-2,4.386601E-3,-5.022158E-2,-4.3102052E-2,2.337618E-2,1.789317E-2,-4.9374267E-2,-5.933825E-2,-1.2127304E-2],"categories":[],"categories_nodes":[],"categories_segments":[],"categories_sizes":[],"default_left":[0,0,0,0,0,0,0,0,0,0,0,0,0,0,0,0,0,0,0,0,0,0,0,0,0,0,0,0,0,0,0,0,0],"id":46,"left_children":[1,3,-1,5,7,9,11,13,15,17,19,21,-1,-1,-1,-1,23,25,27,29,-1,-1,31,-1,-1,-1,-1,-1,-1,-1,-1,-1,-1],"loss_changes":[8.975297E0,7.209446E0,0E0,7.178576E0,1.1763835E0,6.3514E0,3.0442257E0,1.0925126E0,4.6068844E-1,6.017892E0,2.3913603E0,1.3952332E0,0E0,0E0,0E0,0E0,6.7961216E-2,6.0883985E0,3.2962837E0,2.6897125E0,0E0,0E0,4.672203E-1,0E0,0E0,0E0,0E0,0E0,0E0,0E0,0E0,0E0,0E0],"parents":[2147483647,0,0,1,1,3,3,4,4,5,5,6,6,7,7,8,8,9,9,10,10,11,11,16,16,17,17,18,18,19,19,22,22],"right_children":[2,4,-1,6,8,10,12,14,16,18,20,22,-1,-1,-1,-1,24,26,28,30,-1,-1,32,-1,-1,-1,-1,-1,-1,-1,-1,-1,-1],"split_conditions":[1E0,1E0,5.152145E-2,1E0,1E0,1E0,1E0,1E0,1E0,1E0,1E0,1E0,2.241363E-2,5.0282188E-2,-1.4260163E-3,2.4751475E-2,1E0,1E0,1E0,1E0,2.0238513E-2,3.4203925E-3,1E0,2.5781395E-3,-1.0682734E-2,4.386601E-3,-5.022158E-2,-4.3102052E-2,2.337618E-2,1.789317E-2,-4.9374267E-2,-5.933825E-2,-1.2127304E-2],"split_indices":[43,390,0,562,301,168,265,677,758,720,620,479,0,0,0,0,339,161,277,795,0,0,677,0,0,0,0,0,0,0,0,0,0],"split_type":[0,0,0,0,0,0,0,0,0,0,0,0,0,0,0,0,0,0,0,0,0,0,0,0,0,0,0,0,0,0,0,0,0],"sum_hessian":[2.3022249E2,2.2314313E2,7.07935E0,2.1139708E2,1.1746051E1,2.0002477E2,1.1372322E1,8.221464E0,3.5245867E0,1.8725899E2,1.2765776E1,1.0264725E1,1.1075977E0,7.114835E0,1.1066291E0,1.1196607E0,2.4049258E0,1.7562419E2,1.1634787E1,1.1582663E1,1.1831131E0,1.0075573E0,9.257167E0,1.1313581E0,1.2735678E0,1.7136148E2,4.26271E0,1.0054247E1,1.58054E0,1.1942897E0,1.0388373E1,8.068782E0,1.1883854E0],"tree_param":{"num_deleted":"0","num_feature":"813","num_nodes":"33","size_leaf_vector":"1"}},{"base_weights":[3.4822535E-2,-9.031508E-4,5.0984997E-2,3.0581197E-2,-9.72387E-1,6.028018E-2,-5.2218545E-2,-5.334294E-2,-1.2913333E-2,9.0419576E-2,-5.1198065E-2,1.2760255E-1,-8.5295194E-1,8.196121E-3,-4.4684153E-2,4.4668596E-3,-5.7221986E-2],"categories":[],"categories_nodes":[],"categories_segments":[],"categories_sizes":[],"default_left":[0,0,0,0,0,0,0,0,0,0,0,0,0,0,0,0,0],"id":47,"left_children":[1,3,-1,5,7,9,-1,-1,-1,11,-1,13,15,-1,-1,-1,-1],"loss_changes":[8.060253E0,6.821E0,0E0,6.959837E0,1.9674206E-1,6.9933205E0,0E0,0E0,0E0,7.3480616E0,0E0,7.543676E0,2.287506E0,0E0,0E0,0E0,0E0],"parents":[2147483647,0,0,1,1,3,3,4,4,5,5,9,9,11,11,12,12],"right_children":[2,4,-1,6,8,10,-1,-1,-1,12,-1,14,16,-1,-1,-1,-1],"split_conditions":[1E0,1E0,5.0984997E-2,1E0,1E0,1E0,-5.2218545E-2,-5.334294E-2,-1.2913333E-2,1E0,-5.1198065E-2,1E0,1E0,8.196121E-3,-4.4684153E-2,4.4668596E-3,-5.7221986E-2],"split_indices":[43,46,0,161,640,180,0,0,0,123,0,133,758,0,0,0,0],"split_type":[0,0,0,0,0,0,0,0,0,0,0,0,0,0,0,0,0],"sum_hessian":[2.2805318E2,2.2103441E2,7.018773E0,2.15034E2,6.000411E0,2.1017126E2,4.86273E0,4.8631167E0,1.1372944E0,2.0537881E2,4.7924476E0,1.9842273E2,6.9560895E0,1.9241924E2,6.003492E0,1.8072677E0,5.148822E0],"tree_param":{"num_deleted":"0","num_feature":"813","num_nodes":"17","size_leaf_vector":"1"}},{"base_weights":[3.7016522E-2,7.08338E-2,-5.445468E-2,9.919574E-2,-5.995306E-2,1.325554E-1,-5.057631E-2,1.7605633E-1,-5.752304E-1,2.2467181E-1,-5.0655735E-1,2.0471914E-2,-7.5916857E-1,1.3012454E-2,-3.3685625E-2,-4.104272E-2,1.8041568E-2,-4.6286058E-2,1.8796612E-2],"categories":[],"categories_nodes":[],"categories_segments":[],"categories_sizes":[],"default_left":[0,0,0,0,0,0,0,0,0,0,0,0,0,0,0,0,0,0,0],"id":48,"left_children":[1,3,-1,5,-1,7,-1,9,11,13,15,-1,17,-1,-1,-1,-1,-1,-1],"loss_changes":[8.80748E0,8.168896E0,0E0,8.269028E0,0E0,6.691106E0,0E0,6.830657E0,2.5978222E0,6.236574E0,4.0484753E0,0E0,2.4256992E0,0E0,0E0,0E0,0E0,0E0,0E0],"parents":[2147483647,0,0,1,1,3,3,5,5,7,7,8,8,9,9,10,10,12,12],"right_children":[2,4,-1,6,-1,8,-1,10,12,14,16,-1,18,-1,-1,-1,-1,-1,-1],"split_conditions":[1E0,1E0,-5.445468E-2,1E0,-5.995306E-2,1E0,-5.057631E-2,1E0,1E0,1E0,1E0,2.0471914E-2,1E0,1.3012454E-2,-3.3685625E-2,-4.104272E-2,1.8041568E-2,-4.6286058E-2,1.8796612E-2],"split_indices":[46,125,0,161,0,168,0,720,786,123,417,0,411,0,0,0,0,0,0],"split_type":[0,0,0,0,0,0,0,0,0,0,0,0,0,0,0,0,0,0,0],"sum_hessian":[2.2825108E2,2.2250627E2,5.7448034E0,2.1854712E2,3.959163E0,2.130296E2,5.5175157E0,2.0140254E2,1.1627063E1,1.8863863E2,1.2763906E1,1.6371287E0,9.989934E0,1.8213611E2,6.502529E0,9.408424E0,3.3554804E0,8.872532E0,1.1174018E0],"tree_param":{"num_deleted":"0","num_feature":"813","num_nodes":"19","size_leaf_vector":"1"}},{"base_weights":[3.7465014E-2,2.6444576E-3,5.0446708E-2,-4.8461013E-2,6.6287273E-1,8.431043E-3,-6.3554746E-1,8.1498015E-1,-2.124936E-2,1.3206911E-1,-2.8322196E-1,-7.533117E-1,3.1925555E-2,9.4750106E-1,-1.0964386E-2,-2.4772627E-2,3.6294714E-1,-5.3013355E-1,1.618604E-1,