{"learner":{"attributes":{"scikit_learn":"{\"_estimator_type\": \"classifier\"}"},"feature_names":[],"feature_types":[],"gradient_booster":{"model":{"gbtree_model_param":{"num_parallel_tree":"1","num_trees":"400"},"iteration_indptr":[0,1,2,3,4,5,6,7,8,9,10,11,12,13,14,15,16,17,18,19,20,21,22,23,24,25,26,27,28,29,30,31,32,33,34,35,36,37,38,39,40,41,42,43,44,45,46,47,48,49,50,51,52,53,54,55,56,57,58,59,60,61,62,63,64,65,66,67,68,69,70,71,72,73,74,75,76,77,78,79,80,81,82,83,84,85,86,87,88,89,90,91,92,93,94,95,96,97,98,99,100,101,102,103,104,105,106,107,108,109,110,111,112,113,114,115,116,117,118,119,120,121,122,123,124,125,126,127,128,129,130,131,132,133,134,135,136,137,138,139,140,141,142,143,144,145,146,147,148,149,150,151,152,153,154,155,156,157,158,159,160,161,162,163,164,165,166,167,168,169,170,171,172,173,174,175,176,177,178,179,180,181,182,183,184,185,186,187,188,189,190,191,192,193,194,195,196,197,198,199,200,201,202,203,204,205,206,207,208,209,210,211,212,213,214,215,216,217,218,219,220,221,222,223,224,225,226,227,228,229,230,231,232,233,234,235,236,237,238,239,240,241,242,243,244,245,246,247,248,249,250,251,252,253,254,255,256,257,258,259,260,261,262,263,264,265,266,267,268,269,270,271,272,273,274,275,276,277,278,279,280,281,282,283,284,285,286,287,288,289,290,291,292,293,294,295,296,297,298,299,300,301,302,303,304,305,306,307,308,309,310,311,312,313,314,315,316,317,318,319,320,321,322,323,324,325,326,327,328,329,330,331,332,333,334,335,336,337,338,339,340,341,342,343,344,345,346,347,348,349,350,351,352,353,354,355,356,357,358,359,360,361,362,363,364,365,366,367,368,369,370,371,372,373,374,375,376,377,378,379,380,381,382,383,384,385,386,387,388,389,390,391,392,393,394,395,396,397,398,399,400],"tree_info":[0,0,0,0,0,0,0,0,0,0,0,0,0,0,0,0,0,0,0,0,0,0,0,0,0,0,0,0,0,0,0,0,0,0,0,0,0,0,0,0,0,0,0,0,0,0,0,0,0,0,0,0,0,0,0,0,0,0,0,0,0,0,0,0,0,0,0,0,0,0,0,0,0,0,0,0,0,0,0,0,0,0,0,0,0,0,0,0,0,0,0,0,0,0,0,0,0,0,0,0,0,0,0,0,0,0,0,0,0,0,0,0,0,0,0,0,0,0,0,0,0,0,0,0,0,0,0,0,0,0,0,0,0,0,0,0,0,0,0,0,0,0,0,0,0,0,0,0,0,0,0,0,0,0,0,0,0,0,0,0,0,0,0,0,0,0,0,0,0,0,0,0,0,0,0,0,0,0,0,0,0,0,0,0,0,0,0,0,0,0,0,0,0,0,0,0,0,0,0,0,0,0,0,0,0,0,0,0,0,0,0,0,0,0,0,0,0,0,0,0,0,0,0,0,0,0,0,0,0,0,0,0,0,0,0,0,0,0,0,0,0,0,0,0,0,0,0,0,0,0,0,0,0,0,0,0,0,0,0,0,0,0,0,0,0,0,0,0,0,0,0,0,0,0,0,0,0,0,0,0,0,0,0,0,0,0,0,0,0,0,0,0,0,0,0,0,0,0,0,0,0,0,0,0,0,0,0,0,0,0,0,0,0,0,0,0,0,0,0,0,0,0,0,0,0,0,0,0,0,0,0,0,0,0,0,0,0,0,0,0,0,0,0,0,0,0,0,0,0,0,0,0,0,0,0,0,0,0,0,0,0,0,0,0,0,0,0,0,0,0,0,0,0,0,0,0,0,0,0,0,0,0,0,0,0,0,0,0,0,0,0,0,0,0,0,0,0,0,0,0],"trees":[{"base_weights":[-2.3768354E-2,-3.1277108E-1,1.4557123E0,-4.640588E-1,9.784936E-2,1.5374203E0,-2.3830181E-1,-5.084972E-1,8.5439675E-2,1.5811379E0,-9.265658E-3,1.2970279E-2,-3.15016E-2,-5.520593E-1,8.4621325E-2,1.6378565E0,1.000684E-2,-4.634326E-1,-1.6346579E0,1.6940458E0,5.504399E-1,6.662959E-2,-2.6159182E-2,-8.612766E-2,-9.265658E-3,8.788428E-2,2.7521996E-2,1.1219266E-2,3.5206217E-2],"categories":[],"categories_nodes":[],"categories_segments":[],"categories_sizes":[],"default_left":[0,0,0,0,0,0,0,0,0,0,0,0,0,0,0,0,0,0,0,0,0,0,0,0,0,0,0,0,0],"id":0,"left_children":[1,3,5,7,-1,9,11,13,-1,15,-1,-1,-1,17,-1,19,-1,21,23,25,27,-1,-1,-1,-1,-1,-1,-1,-1],"loss_changes":[1.4962018E2,1.0140907E2,8.281952E0,2.7441216E1,0E0,4.4119415E0,8.4527713E-1,2.6864288E1,0E0,3.8582153E0,0E0,0E0,0E0,2.4760101E1,0E0,2.1955566E0,0E0,2.7228107E1,2.1940994E0,2.5402527E0,4.2276025E-2,0E0,0E0,0E0,0E0,0E0,0E0,0E0,0E0],"parents":[2147483647,0,0,1,1,2,2,3,3,5,5,6,6,7,7,9,9,13,13,15,15,17,17,18,18,19,19,20,20],"right_children":[2,4,6,8,-1,10,12,14,-1,16,-1,-1,-1,18,-1,20,-1,22,24,26,28,-1,-1,-1,-1,-1,-1,-1,-1],"split_conditions":[1E0,1E0,1E0,1E0,9.784936E-2,1E0,1E0,1E0,8.5439675E-2,1E0,-9.265658E-3,1.2970279E-2,-3.15016E-2,1E0,8.4621325E-2,1E0,1.000684E-2,1E0,1E0,1E0,1E0,6.662959E-2,-2.6159182E-2,-8.612766E-2,-9.265658E-3,8.788428E-2,2.7521996E-2,1.1219266E-2,3.5206217E-2],"split_indices":[44,43,353,54,0,430,449,53,0,345,0,0,0,168,0,329,0,513,639,420,449,0,0,0,0,0,0,0,0],"split_type":[0,0,0,0,0,0,0,0,0,0,0,0,0,0,0,0,0,0,0,0,0,0,0,0,0,0,0,0,0],"sum_hessian":[3.4786334E2,2.9167578E2,5.6187546E1,2.7419522E2,1.748057E1,5.369032E1,2.4972243E0,2.694505E2,4.744726E0,5.2441708E1,1.2486122E0,1.2486122E0,1.2486122E0,2.6495547E2,4.4950037E0,5.0194206E1,2.2475019E0,2.462263E2,1.8729181E1,4.7197536E1,2.996669E0,7.24195E0,2.3898436E2,1.748057E1,1.2486122E0,4.4200867E1,2.996669E0,1.7480569E0,1.2486122E0],"tree_param":{"num_deleted":"0","num_feature":"813","num_nodes":"29","size_leaf_vector":"1"}},{"base_weights":[-1.1384921E-2,-1.14291035E-1,9.29934E-2,-2.4194863E-1,6.481253E-1,-3.0992374E-1,7.266013E-1,8.015252E-1,-6.626718E-1,-3.4753788E-1,8.023091E-2,2.8640878E-1,7.802506E-2,9.1720486E-1,-6.076811E-2,-6.076811E-2,-8.044855E-2,-3.8311213E-1,8.19883E-2,5.1287365E-1,-5.3664085E-2,1.0371844E0,-4.74429E-2,2.224925E-2,-3.1420317E-2,-2.0799298E-2,7.7053025E-2,3.4856122E-2,-3.0793486E-2,5.6068987E-2,-2.4090754E-2],"categories":[],"categories_nodes":[],"categories_segments":[],"categories_sizes":[],"default_left":[0,0,0,0,0,0,0,0,0,0,0,0,0,0,0,0,0,0,0,0,0,0,0,0,0,0,0,0,0,0,0],"id":1,"left_children":[1,3,-1,5,7,9,11,13,15,17,-1,19,-1,21,-1,-1,23,25,-1,27,-1,29,-1,-1,-1,-1,-1,-1,-1,-1,-1],"loss_changes":[6.647814E1,3.199557E1,0E0,1.8721382E1,1.0019859E1,1.9512798E1,6.4257765E0,1.1076805E1,1.6692815E0,1.893626E1,0E0,4.700939E0,0E0,1.015287E1,0E0,0E0,1.3579061E0,1.6785095E1,0E0,2.9730492E0,0E0,5.5224724E0,0E0,0E0,0E0,0E0,0E0,0E0,0E0,0E0,0E0],"parents":[2147483647,0,0,1,1,3,3,4,4,5,5,6,6,7,7,8,8,9,9,11,11,13,13,16,16,17,17,19,19,21,21],"right_children":[2,4,-1,6,8,10,12,14,16,18,-1,20,-1,22,-1,-1,24,26,-1,28,-1,30,-1,-1,-1,-1,-1,-1,-1,-1,-1],"split_conditions":[1E0,1E0,9.29934E-2,1E0,1E0,1E0,1E0,1E0,1E0,1E0,8.023091E-2,1E0,7.802506E-2,1E0,-6.076811E-2,-6.076811E-2,1E0,1E0,8.19883E-2,1E0,-5.3664085E-2,1E0,-4.74429E-2,2.224925E-2,-3.1420317E-2,-2.0799298E-2,7.7053025E-2,3.4856122E-2,-3.0793486E-2,5.6068987E-2,-2.4090754E-2],"split_indices":[43,411,0,614,223,53,697,147,758,56,0,669,0,619,0,0,728,54,0,469,0,15,0,0,0,0,0,0,0,0,0],"split_type":[0,0,0,0,0,0,0,0,0,0,0,0,0,0,0,0,0,0,0,0,0,0,0,0,0,0,0,0,0,0,0],"sum_hessian":[3.431235E2,3.2612766E2,1.6995869E1,2.79938E2,4.618965E1,2.6221515E2,1.7722857E1,4.1698307E1,4.4913454E0,2.5796548E2,4.2496576E0,1.2478997E1,5.2438593E0,3.995207E1,1.7462356E0,1.7462356E0,2.74511E0,2.5422194E2,3.7435467E0,1.1231176E1,1.2478209E0,3.7955864E1,1.9962075E0,1.4972892E0,1.2478209E0,2.5072224E2,3.4996917E0,9.983866E0,1.2473111E0,3.621054E1,1.74532E0],"tree_param":{"num_deleted":"0","num_feature":"813","num_nodes":"31","size_leaf_vector":"1"}},{"base_weights":[-1.0186138E-2,-2.797492E-1,1.4033757E0,-3.299705E-1,8.540237E-2,6.495855E-1,1.6911552E0,-3.726665E-1,8.456345E-2,7.9406136E-1,-3.174327E-2,8.977016E-2,7.7599716E-1,-4.0688235E-1,7.816092E-2,9.951745E-1,-5.09092E-3,3.5724533E-1,5.8861353E-2,-4.415403E-1,7.663729E-2,1.2592158E0,2.3148565E-1,2.6925752E-2,7.41722E-4,-2.3753043E-2,8.140518E-2,9.993865E-3,7.3984675E-2,-1.5967429E-2,3.9987456E-2],"categories":[],"categories_nodes":[],"categories_segments":[],"categories_sizes":[],"default_left":[0,0,0,0,0,0,0,0,0,0,0,0,0,0,0,0,0,0,0,0,0,0,0,0,0,0,0,0,0,0,0],"id":2,"left_children":[1,3,5,7,-1,9,11,13,-1,15,-1,-1,17,19,-1,21,-1,23,-1,25,-1,27,29,-1,-1,-1,-1,-1,-1,-1,-1],"loss_changes":[1.301588E2,2.9199366E1,1.0769035E1,2.48471E1,0E0,3.6104517E0,2.3245316E0,1.8893204E1,0E0,2.892394E0,0E0,0E0,5.4491305E-1,1.893715E1,0E0,2.278245E0,0E0,2.5564456E-1,0E0,1.9341457E1,0E0,1.8633928E0,1.6637805E0,0E0,0E0,0E0,0E0,0E0,0E0,0E0,0E0],"parents":[2147483647,0,0,1,1,2,2,3,3,5,5,6,6,7,7,9,9,12,12,13,13,15,15,17,17,19,19,21,21,22,22],"right_children":[2,4,6,8,-1,10,12,14,-1,16,-1,-1,18,20,-1,22,-1,24,-1,26,-1,28,30,-1,-1,-1,-1,-1,-1,-1,-1],"split_conditions":[1E0,1E0,1E0,1E0,8.540237E-2,1E0,1E0,1E0,8.456345E-2,1E0,-3.174327E-2,8.977016E-2,1E0,1E0,7.816092E-2,1E0,-5.09092E-3,1E0,5.8861353E-2,1E0,7.663729E-2,1E0,1E0,2.6925752E-2,7.41722E-4,-2.3753043E-2,8.140518E-2,9.993865E-3,7.3984675E-2,-1.5967429E-2,3.9987456E-2],"split_indices":[44,144,452,127,0,304,684,169,0,677,0,0,245,54,0,746,0,192,0,135,0,774,429,0,0,0,0,0,0,0,0],"split_type":[0,0,0,0,0,0,0,0,0,0,0,0,0,0,0,0,0,0,0,0,0,0,0,0,0,0,0,0,0,0,0],"sum_hessian":[3.395543E2,2.8584616E2,5.370813E1,2.7961575E2,6.230433E0,1.5739188E1,3.796894E1,2.7463016E2,4.985574E0,1.4491017E1,1.2481706E0,3.3222622E1,4.74632E0,2.7063663E2,3.9935498E0,1.1743845E1,2.7471724E0,3.247439E0,1.4988811E0,2.6664447E2,3.992139E0,8.244496E0,3.499349E0,1.7488794E0,1.4985594E0,2.6315283E2,3.4916391E0,1.7487533E0,6.495743E0,1.9993492E0,1.4999999E0],"tree_param":{"num_deleted":"0","num_feature":"813","num_nodes":"31","size_leaf_vector":"1"}},{"base_weights":[4.9538077E-3,8.658069E-2,-1.1340292E0,-8.9376755E-2,4.9618712E-1,-1.2923504E0,2.63531E-2,-1.3377683E-1,8.28078E-2,5.800485E-1,-8.903193E-1,4.103431E-3,-1.3983339E0,-1.6735342E-1,7.7023245E-2,6.788473E-1,-6.858781E-1,-5.274746E-2,-7.3201642E-3,-1.4767045E0,-5.6774933E-3,-2.0104289E-1,7.469406E-2,-3.5041052E-1,7.768551E-1,-9.424551E-1,1.5186804E-2,-1.5614793E0,-7.6061594E-3,-1.1670613E-2,7.911427E-2,-3.635722E-2,4.030755E-2,4.4001456E-2,-1.6708765E-2,-5.4461885E-2,-1.0622549E-2,-8.253078E-2,-2.863348E-2],"categories":[],"categories_nodes":[],"categories_segments":[],"categories_sizes":[],"default_left":[0,0,0,0,0,0,0,0,0,0,0,0,0,0,0,0,0,0,0,0,0,0,0,0,0,0,0,0,0,0,0,0,0,0,0,0,0,0,0],"id":3,"left_children":[1,3,5,7,9,11,-1,13,-1,15,17,-1,19,21,-1,23,25,-1,-1,27,-1,29,-1,31,33,35,-1,37,-1,-1,-1,-1,-1,-1,-1,-1,-1,-1,-1],"loss_changes":[3.2407196E1,2.3482885E1,6.8115044E0,1.7917551E1,1.1896658E1,3.2570343E0,0E0,1.2827076E1,0E0,1.2084465E1,5.7751894E-1,0E0,1.8544579E0,1.2618347E1,0E0,9.0155525E0,2.1201873E0,0E0,0E0,1.8785934E0,0E0,1.2872848E1,0E0,4.169907E0,9.401352E0,4.0928888E-1,0E0,6.062927E-1,0E0,0E0,0E0,0E0,0E0,0E0,0E0,0E0,0E0,0E0,0E0],"parents":[2147483647,0,0,1,1,2,2,3,3,4,4,5,5,7,7,9,9,10,10,12,12,13,13,15,15,16,16,19,19,21,21,23,23,24,24,25,25,27,27],"right_children":[2,4,6,8,10,12,-1,14,-1,16,18,-1,20,22,-1,24,26,-1,-1,28,-1,30,-1,32,34,36,-1,38,-1,-1,-1,-1,-1,-1,-1,-1,-1,-1,-1],"split_conditions":[1E0,1E0,1E0,1E0,1E0,1E0,2.63531E-2,1E0,8.28078E-2,1E0,1E0,4.103431E-3,1E0,1E0,7.7023245E-2,1E0,1E0,-5.274746E-2,-7.3201642E-3,1E0,-5.6774933E-3,1E0,7.469406E-2,1E0,1E0,1E0,1.5186804E-2,1E0,-7.6061594E-3,-1.1670613E-2,7.911427E-2,-3.635722E-2,4.030755E-2,4.4001456E-2,-1.6708765E-2,-5.4461885E-2,-1.0622549E-2,-8.253078E-2,-2.863348E-2],"split_indices":[168,432,411,181,410,795,0,56,0,581,742,0,256,53,0,203,746,0,0,347,0,0,0,741,664,647,0,362,0,0,0,0,0,0,0,0,0,0,0],"split_type":[0,0,0,0,0,0,0,0,0,0,0,0,0,0,0,0,0,0,0,0,0,0,0,0,0,0,0,0,0,0,0,0,0,0,0,0,0,0,0],"sum_hessian":[3.465147E2,3.2420413E2,2.2310581E1,2.2733015E2,9.687398E1,2.0571835E1,1.7387462E0,2.225916E2,4.7385697E0,9.1897316E1,4.9766645E0,1.4889137E0,1.9082922E1,2.1909767E2,3.493919E0,8.567462E1,6.222693E0,3.7325437E0,1.2441207E0,1.7845013E1,1.237908E0,2.1560425E2,3.493427E0,7.2248983E0,7.844972E1,4.979352E0,1.2433411E0,1.660352E1,1.2414938E0,2.1261418E2,2.9900656E0,5.729788E0,1.4951106E0,7.197391E1,6.4758196E0,3.7360444E0,1.2433076E0,1.4616611E1,1.9869093E0],"tree_param":{"num_deleted":"0","num_feature":"813","num_nodes":"39","size_leaf_vector":"1"}},{"base_weights":[2.3407567E-2,-2.4177012E-1,1.3444257E0,-3.758096E-1,8.8451125E-2,8.0715346E-1,1.5574354E0,-4.1308725E-1,7.964488E-2,1.0924608E0,-6.078956E-1,1.6163492E0,1.9215744E-2,-4.509301E-1,7.800814E-2,1.2068518E0,1.317161E-4,-3.7985582E-2,-8.420468E-3,1.662167E0,7.210176E-3,-4.862219E-1,7.83157E-2,5.940612E-1,7.9032324E-2,8.511643E-2,2.725271E-2,-2.6152475E-2,7.463409E-2,1.2640664E-3,6.7164324E-2],"categories":[],"categories_nodes":[],"categories_segments":[],"categories_sizes":[],"default_left":[0,0,0,0,0,0,0,0,0,0,0,0,0,0,0,0,0,0,0,0,0,0,0,0,0,0,0,0,0,0,0],"id":4,"left_children":[1,3,5,7,-1,9,11,13,-1,15,17,19,-1,21,-1,23,-1,-1,-1,25,-1,27,-1,29,-1,-1,-1,-1,-1,-1,-1],"loss_changes":[1.2098733E2,7.821077E1,5.350563E0,2.0513844E1,0E0,8.1199465E0,2.1619492E0,2.0590786E1,0E0,1.9573822E0,1.21676326E-1,2.325554E0,0E0,1.9420181E1,0E0,2.3205776E0,0E0,0E0,0E0,7.226715E-1,0E0,1.960844E1,0E0,2.9463665E0,0E0,0E0,0E0,0E0,0E0,0E0,0E0],"parents":[2147483647,0,0,1,1,2,2,3,3,5,5,6,6,7,7,9,9,10,10,11,11,13,13,15,15,19,19,21,21,23,23],"right_children":[2,4,6,8,-1,10,12,14,-1,16,18,20,-1,22,-1,24,-1,-1,-1,26,-1,28,-1,30,-1,-1,-1,-1,-1,-1,-1],"split_conditions":[1E0,1E0,1E0,1E0,8.8451125E-2,1E0,1E0,1E0,7.964488E-2,1E0,1E0,1E0,1.9215744E-2,1E0,7.800814E-2,1E0,1.317161E-4,-3.7985582E-2,-8.420468E-3,1E0,7.210176E-3,1E0,7.83157E-2,1E0,7.9032324E-2,8.511643E-2,2.725271E-2,-2.6152475E-2,7.463409E-2,1.2640664E-3,6.7164324E-2],"split_indices":[44,43,452,127,0,677,587,56,0,640,318,679,0,144,0,758,0,0,0,345,0,53,0,334,0,0,0,0,0,0,0],"split_type":[0,0,0,0,0,0,0,0,0,0,0,0,0,0,0,0,0,0,0,0,0,0,0,0,0,0,0,0,0,0,0],"sum_hessian":[3.4344965E2,2.867127E2,5.6736965E1,2.695571E2,1.7155582E1,1.7467682E1,3.9269283E1,2.6532336E2,4.2337446E0,1.4726451E1,2.741231E0,3.703174E1,2.2375438E0,2.6108774E2,4.235642E0,1.3230376E1,1.496075E0,1.4958642E0,1.2453668E0,3.5788803E1,1.2429355E0,2.5734442E2,3.743291E0,5.9937034E0,7.236673E0,3.404112E1,1.7476866E0,2.5336497E2,3.9794595E0,3.99478E0,1.9989233E0],"tree_param":{"num_deleted":"0","num_feature":"813","num_nodes":"31","size_leaf_vector":"1"}},{"base_weights":[4.9674517E-4,-8.3617866E-2,9.2714494E-1,-1.2402594E-1,8.2061544E-2,1.0818615E0,-2.6309222E-2,-7.8222644E-1,-1.6996285E-2,1.1875813E0,-3.0184388E-2,-9.305809E-1,1.1216779E-2,-1.2644552E-1,6.740113E-1,1.3378842E0,4.3363383E-1,-1.0433657E0,-1.268847E-1,6.273445E-1,-3.4050237E-2,-5.2221596E-2,-1.1633146E0,7.9957396E-1,-4.3013015E-1,1.4321057E0,3.6266313E-3,-2.3460444E-2,4.726502E-2,-5.923767E-2,1.9878808E-3,3.840969E-2,-4.0485673E-2,-1.385804E-2,6.919491E-2,-6.3005984E-3,4.0410873E-2,1.5547489E-2,-6.55277E-2,5.3794015E-2,1.676612E-2,-4.2720355E-2,7.6553943E-3,7.5394325E-2,9.003792E-3],"categories":[],"categories_nodes":[],"categories_segments":[],"categories_sizes":[],"default_left":[0,0,0,0,0,0,0,0,0,0,0,0,0,0,0,0,0,0,0,0,0,0,0,0,0,0,0,0,0,0,0,0,0,0,0,0,0,0,0,0,0,0,0,0,0],"id":5,"left_children":[1,3,5,7,-1,9,-1,11,13,15,-1,17,19,21,23,25,27,29,31,33,-1,35,37,39,41,43,-1,-1,-1,-1,-1,-1,-1,-1,-1,-1,-1,-1,-1,-1,-1,-1,-1,-1,-1],"loss_changes":[2.7387844E1,2.2656002E1,7.144232E0,2.2226501E1,0E0,5.484541E0,0E0,5.205353E0,2.0699211E1,2.3109741E0,0E0,3.2389526E0,3.8136153E0,1.8112415E1,5.5326786E0,2.3750877E0,3.0860372E0,5.0206947E0,4.115252E0,3.6144552E0,0E0,1.415956E1,3.8214874E0,3.994791E0,1.2373714E0,1.5594826E0,0E0,0E0,0E0,0E0,0E0,0E0,0E0,0E0,0E0,0E0,0E0,0E0,0E0,0E0,0E0,0E0,0E0,0E0,0E0],"parents":[2147483647,0,0,1,1,2,2,3,3,5,5,7,7,8,8,9,9,11,11,12,12,13,13,14,14,15,15,16,16,17,17,18,18,19,19,21,21,22,22,23,23,24,24,25,25],"right_children":[2,4,6,8,-1,10,-1,12,14,16,-1,18,20,22,24,26,28,30,32,34,-1,36,38,40,42,44,-1,-1,-1,-1,-1,-1,-1,-1,-1,-1,-1,-1,-1,-1,-1,-1,-1,-1,-1],"split_conditions":[1E0,1E0,1E0,1E0,8.2061544E-2,1E0,-2.6309222E-2,1E0,1E0,1E0,-3.0184388E-2,1E0,1E0,1E0,1E0,1E0,1E0,1E0,1E0,1E0,-3.4050237E-2,1E0,1E0,1E0,1E0,1E0,3.6266313E-3,-2.3460444E-2,4.726502E-2,-5.923767E-2,1.9878808E-3,3.840969E-2,-4.0485673E-2,-1.385804E-2,6.919491E-2,-6.3005984E-3,4.0410873E-2,1.5547489E-2,-6.55277E-2,5.3794015E-2,1.676612E-2,-4.2720355E-2,7.6553943E-3,7.5394325E-2,9.003792E-3],"split_indices":[614,181,324,203,0,442,0,239,411,437,0,644,51,168,600,249,231,420,231,208,0,191,786,728,231,287,0,0,0,0,0,0,0,0,0,0,0,0,0,0,0,0,0,0,0],"split_type":[0,0,0,0,0,0,0,0,0,0,0,0,0,0,0,0,0,0,0,0,0,0,0,0,0,0,0,0,0,0,0,0,0,0,0,0,0,0,0,0,0,0,0,0,0],"sum_hessian":[3.4938092E2,3.2113986E2,2.8241056E1,3.146956E2,6.4442873E0,2.5754877E1,2.4861798E0,4.313286E1,2.715627E2,2.4512835E1,1.2420434E0,3.6192844E1,6.9400134E0,2.351363E2,3.642641E1,1.9792587E1,4.7202473E0,3.1477335E1,4.7155085E0,3.7214098E0,3.2186038E0,2.2040878E2,1.4727523E1,3.295466E1,3.471753E0,1.8298264E1,1.4943235E0,1.7374581E0,2.9827893E0,2.7759819E1,3.717515E0,1.9865043E0,2.7290041E0,1.9835776E0,1.7378323E0,2.0378587E2,1.6622917E1,1.2363596E0,1.3491163E1,1.9833185E1,1.3121471E1,1.7406087E0,1.7311442E0,1.7061255E1,1.2370081E0],"tree_param":{"num_deleted":"0","num_feature":"813","num_nodes":"45","size_leaf_vector":"1"}},{"base_weights":[9.0665935E-4,-9.4333984E-2,8.414714E-2,-4.030867E-2,-7.579314E-2,-1.5440214E-1,6.231232E-1,-3.1008828E-1,3.459668E-1,7.678249E-1,-4.8884258E-1,-3.418633E-1,7.497607E-2,4.4298947E-1,-6.345985E-1,8.565103E-1,-4.0068254E-2,-5.0338317E-2,-1.3983263E-1,-1.866826E-2,6.698034E-2,2.5910292E-2,-4.0861353E-2,-4.496963E-2,1.1807859E-2,4.680301E-2,-3.580837E-2,4.5203916E-3,-1.9048048E-2],"categories":[],"categories_nodes":[],"categories_segments":[],"categories_sizes":[],"default_left":[0,0,0,0,0,0,0,0,0,0,0,0,0,0,0,0,0,0,0,0,0,0,0,0,0,0,0,0,0],"id":6,"left_children":[1,3,-1,5,-1,7,9,11,13,15,17,19,-1,21,23,25,-1,-1,27,-1,-1,-1,-1,-1,-1,-1,-1,-1,-1],"loss_changes":[5.515896E1,2.4965601E1,0E0,2.3937359E1,0E0,2.1105633E1,7.844019E0,1.2364269E1,6.4117017E0,6.4563084E0,9.357952E-1,1.1272659E1,0E0,6.0375023E0,1.6449406E0,5.6404533E0,0E0,0E0,2.9645175E-1,0E0,0E0,0E0,0E0,0E0,0E0,0E0,0E0,0E0,0E0],"parents":[2147483647,0,0,1,1,3,3,5,5,6,6,7,7,8,8,9,9,10,10,11,11,13,13,14,14,15,15,18,18],"right_children":[2,4,-1,6,-1,8,10,12,14,16,18,20,-1,22,24,26,-1,-1,28,-1,-1,-1,-1,-1,-1,-1,-1,-1,-1],"split_conditions":[1E0,1E0,8.414714E-2,1E0,-7.579314E-2,1E0,1E0,1E0,1E0,1E0,1E0,1E0,7.497607E-2,1E0,1E0,1E0,-4.0068254E-2,-5.0338317E-2,1E0,-1.866826E-2,6.698034E-2,2.5910292E-2,-4.0861353E-2,-4.496963E-2,1.1807859E-2,4.680301E-2,-3.580837E-2,4.5203916E-3,-1.9048048E-2],"split_indices":[43,46,0,411,0,277,660,135,219,147,203,53,0,584,380,619,0,0,704,0,0,0,0,0,0,0,0,0,0],"split_type":[0,0,0,0,0,0,0,0,0,0,0,0,0,0,0,0,0,0,0,0,0,0,0,0,0,0,0,0,0],"sum_hessian":[3.42326E2,3.2487476E2,1.745122E1,3.1397064E2,1.0904123E1,2.685535E2,4.541713E1,2.0511406E2,6.3439457E1,4.0461327E1,4.9558005E0,2.0237169E2,2.7423701E0,5.8226433E1,5.213022E0,3.8726788E1,1.7345388E0,1.2363889E0,3.7194116E0,1.9941368E2,2.9580088E0,5.5502544E1,2.723889E0,3.972201E0,1.2408214E0,3.7247517E1,1.4792731E0,2.2224126E0,1.4969989E0],"tree_param":{"num_deleted":"0","num_feature":"813","num_nodes":"29","size_leaf_vector":"1"}},{"base_weights":[4.8223644E-2,-1.9550174E-1,1.3041444E0,-3.2194918E-1,8.151808E-2,1.385685E0,-2.3443198E-2,-3.5725385E-1,7.752635E-2,1.4298906E0,-1.39621E-2,-3.9338475E-1,7.703292E-2,1.4783542E0,1.9871796E-2,-4.258109E-1,7.385429E-2,1.510677E0,5.253971E-3,-2.2769885E-2,7.985272E-2,8.0260985E-2,3.9317727E-2],"categories":[],"categories_nodes":[],"categories_segments":[],"categories_sizes":[],"default_left":[0,0,0,0,0,0,0,0,0,0,0,0,0,0,0,0,0,0,0,0,0,0,0],"id":7,"left_children":[1,3,5,7,-1,9,-1,11,-1,13,-1,15,-1,17,-1,19,-1,21,-1,-1,-1,-1,-1],"loss_changes":[1.0612862E2,6.760265E1,8.79538E0,1.8571693E1,0E0,4.382393E0,0E0,1.9005836E1,0E0,2.0584946E0,0E0,1.6647606E1,0E0,2.067047E0,0E0,1.6311207E1,0E0,2.0874786E0,0E0,0E0,0E0,0E0,0E0],"parents":[2147483647,0,0,1,1,2,2,3,3,5,5,7,7,9,9,11,11,13,13,15,15,17,17],"right_children":[2,4,6,8,-1,10,-1,12,-1,14,-1,16,-1,18,-1,20,-1,22,-1,-1,-1,-1,-1],"split_conditions":[1E0,1E0,1E0,1E0,8.151808E-2,1E0,-2.3443198E-2,1E0,7.752635E-2,1E0,-1.39621E-2,1E0,7.703292E-2,1E0,1.9871796E-2,1E0,7.385429E-2,1E0,5.253971E-3,-2.2769885E-2,7.985272E-2,8.0260985E-2,3.9317727E-2],"split_indices":[44,43,581,144,0,65,0,127,0,420,0,56,0,644,0,164,0,304,0,0,0,0,0],"split_type":[0,0,0,0,0,0,0,0,0,0,0,0,0,0,0,0,0,0,0,0,0,0,0],"sum_hessian":[3.4487958E2,2.895362E2,5.534338E1,2.715538E2,1.7982382E1,5.31189E1,2.2244797E0,2.6732275E2,4.231039E0,5.188253E1,1.2363713E0,2.631067E2,4.216081E0,4.9143833E1,2.7386987E0,2.5938242E2,3.7242584E0,4.7915977E1,1.2278533E0,2.5640704E2,2.9753807E0,4.130805E1,6.6079283E0],"tree_param":{"num_deleted":"0","num_feature":"813","num_nodes":"23","size_leaf_vector":"1"}},{"base_weights":[9.299507E-3,-2.2255012E-1,1.1625624E0,-3.274729E-1,7.781907E-2,6.122106E-1,1.3814256E0,-3.6602548E-1,8.4793694E-2,7.9272383E-1,-5.1133376E-2,1.4960475E0,4.968769E-1,-3.9988223E-1,7.1075335E-2,1.024079E-1,1.113857E0,7.714394E-2,5.685828E-3,-1.20743895E-2,4.916462E-2,-4.2679906E-1,7.898035E-2,-4.775568E-1,3.6954295E-2,1.2695755E0,7.957377E-3,-2.2736214E-2,6.877455E-2,-1.715638E-3,-3.646777E-2,6.939422E-2,2.2993967E-2],"categories":[],"categories_nodes":[],"categories_segments":[],"categories_sizes":[],"default_left":[0,0,0,0,0,0,0,0,0,0,0,0,0,0,0,0,0,0,0,0,0,0,0,0,0,0,0,0,0,0,0,0,0],"id":8,"left_children":[1,3,5,7,-1,9,11,13,-1,15,-1,17,19,21,-1,23,25,-1,-1,-1,-1,27,-1,29,-1,31,-1,-1,-1,-1,-1,-1,-1],"loss_changes":[9.159018E1,5.3749626E1,6.0604706E0,2.1696066E1,0E0,6.1551266E0,3.3351364E0,1.6663689E1,0E0,3.6262064E0,0E0,2.0977097E0,2.4325628E0,1.4622562E1,0E0,2.7376223E0,1.4948254E0,0E0,0E0,0E0,0E0,1.366386E1,0E0,4.199627E-1,0E0,2.880783E-1,0E0,0E0,0E0,0E0,0E0,0E0,0E0],"parents":[2147483647,0,0,1,1,2,2,3,3,5,5,6,6,7,7,9,9,11,11,12,12,13,13,15,15,16,16,21,21,23,23,25,25],"right_children":[2,4,6,8,-1,10,12,14,-1,16,-1,18,20,22,-1,24,26,-1,-1,-1,-1,28,-1,30,-1,32,-1,-1,-1,-1,-1,-1,-1],"split_conditions":[1E0,1E0,1E0,1E0,7.781907E-2,1E0,1E0,1E0,8.4793694E-2,1E0,-5.1133376E-2,1E0,1E0,1E0,7.1075335E-2,1E0,1E0,7.714394E-2,5.685828E-3,-1.20743895E-2,4.916462E-2,1E0,7.898035E-2,1E0,3.6954295E-2,1E0,7.957377E-3,-2.2736214E-2,6.877455E-2,-1.715638E-3,-3.646777E-2,6.939422E-2,2.2993967E-2],"split_indices":[44,43,452,0,0,581,304,53,0,544,0,65,411,27,0,245,420,0,0,0,0,56,0,338,0,567,0,0,0,0,0,0,0],"split_type":[0,0,0,0,0,0,0,0,0,0,0,0,0,0,0,0,0,0,0,0,0,0,0,0,0,0,0,0,0,0,0,0,0],"sum_hessian":[3.4057465E2,2.8423886E2,5.633578E1,2.6917844E2,1.5060439E1,1.710953E1,3.9226254E1,2.6494922E2,4.2292075E0,1.5872143E1,1.237388E0,3.4114326E1,5.111924E0,2.607861E2,4.163126E0,5.4581223E0,1.041402E1,3.288412E1,1.2302063E0,2.2301526E0,2.8817716E0,2.580614E2,2.724698E0,2.9870625E0,2.4710598E0,8.670079E0,1.7439402E0,2.5486021E2,3.201183E0,1.4937925E0,1.49327E0,6.9417095E0,1.7283702E0],"tree_param":{"num_deleted":"0","num_feature":"813","num_nodes":"33","size_leaf_vector":"1"}},{"base_weights":[4.6233203E-2,-1.6761899E-1,1.1617777E0,-2.1322453E-1,7.48212E-2,1.2140968E0,-2.1062158E-2,-2.511091E-1,7.530757E-2,1.2752045E0,1.9721271E-1,-2.832296E-1,7.36949E-2,1.3164722E0,-1.8952246E-3,-5.245609E-3,2.5753427E-2,-3.1481862E-1,6.959682E-2,1.3583026E0,-1.5240214E-4,-1.8688021E-2,2.9557109E-2,8.2801515E-3,7.03239E-2],"categories":[],"categories_nodes":[],"categories_segments":[],"categories_sizes":[],"default_left":[0,0,0,0,0,0,0,0,0,0,0,0,0,0,0,0,0,0,0,0,0,0,0,0,0],"id":9,"left_children":[1,3,5,7,-1,9,-1,11,-1,13,15,17,-1,19,-1,-1,-1,21,-1,23,-1,-1,-1,-1,-1],"loss_changes":[8.062071E1,2.1854313E1,5.0134735E0,1.8426353E1,0E0,3.034233E0,0E0,1.5486229E1,0E0,2.7428818E0,4.5548332E-1,1.4610783E1,0E0,2.6651382E0,0E0,0E0,0E0,1.4301504E1,0E0,2.4521713E0,0E0,0E0,0E0,0E0,0E0],"parents":[2147483647,0,0,1,1,2,2,3,3,5,5,7,7,9,9,10,10,11,11,13,13,17,17,19,19],"right_children":[2,4,6,8,-1,10,-1,12,-1,14,16,18,-1,20,-1,-1,-1,22,-1,24,-1,-1,-1,-1,-1],"split_conditions":[1E0,1E0,1E0,1E0,7.48212E-2,1E0,-2.1062158E-2,1E0,7.530757E-2,1E0,1E0,1E0,7.36949E-2,1E0,-1.8952246E-3,-5.245609E-3,2.5753427E-2,1E0,6.959682E-2,1E0,-1.5240214E-4,-1.8688021E-2,2.9557109E-2,8.2801515E-3,7.03239E-2],"split_indices":[44,144,241,127,0,587,0,169,0,430,432,53,0,386,0,0,0,614,0,795,0,0,0,0,0],"split_type":[0,0,0,0,0,0,0,0,0,0,0,0,0,0,0,0,0,0,0,0,0,0,0,0,0],"sum_hessian":[3.361287E2,2.8277072E2,5.3357986E1,2.760763E2,6.694414E0,5.1876514E1,1.4814743E0,2.7095996E2,5.1163535E0,4.8696182E1,3.180333E0,2.668273E2,4.1326485E0,4.720993E1,1.4862516E0,1.9739823E0,1.2063504E0,2.6268585E2,4.1414638E0,4.5730816E1,1.4791117E0,2.4719102E2,1.549481E1,1.9477187E0,4.37831E1],"tree_param":{"num_deleted":"0","num_feature":"813","num_nodes":"25","size_leaf_vector":"1"}},{"base_weights":[-1.5304552E-2,-2.2314668E-1,1.1126138E0,-3.4543914E-1,7.6047294E-2,1.1897595E0,-2.241647E-1,-3.871946E-1,7.7429436E-2,1.2760704E0,3.6488876E-1,2.628141E-2,-4.034705E-2,-4.1992676E-1,7.8893855E-2,1.3386081E0,2.81354E-1,6.2704456E-1,-1.895932E-2,-4.5890447E-1,1.2464783E0,1.3721799E0,1.1989398E-2,-1.8687952E-4,2.5112266E-2,2.6027063E-1,4.7586747E-2,-2.4673387E-2,6.645772E-2,7.923E-2,4.9104565E-3,7.172746E-2,3.351536E-2,-3.9292723E-3,2.6045654E-2],"categories":[],"categories_nodes":[],"categories_segments":[],"categories_sizes":[],"default_left":[0,0,0,0,0,0,0,0,0,0,0,0,0,0,0,0,0,0,0,0,0,0,0,0,0,0,0,0,0,0,0,0,0,0,0],"id":10,"left_children":[1,3,5,7,-1,9,11,13,-1,15,17,-1,-1,19,-1,21,23,25,-1,27,29,31,-1,-1,-1,33,-1,-1,-1,-1,-1,-1,-1,-1,-1],"loss_changes":[7.8815506E1,6.1062943E1,5.6617584E0,2.164011E1,0E0,3.0670166E0,2.0390844E0,1.7457256E1,0E0,2.3927383E0,1.4277651E0,0E0,0E0,1.7305046E1,0E0,1.2062683E0,2.474406E-1,3.343941E-1,0E0,1.6258316E1,2.2349205E0,7.970047E-1,0E0,0E0,0E0,3.6521852E-1,0E0,0E0,0E0,0E0,0E0,0E0,0E0,0E0,0E0],"parents":[2147483647,0,0,1,1,2,2,3,3,5,5,6,6,7,7,9,9,10,10,13,13,15,15,16,16,17,17,19,19,20,20,21,21,25,25],"right_children":[2,4,6,8,-1,10,12,14,-1,16,18,-1,-1,20,-1,22,24,26,-1,28,30,32,-1,-1,-1,34,-1,-1,-1,-1,-1,-1,-1,-1,-1],"split_conditions":[1E0,1E0,1E0,1E0,7.6047294E-2,1E0,1E0,1E0,7.7429436E-2,1E0,1E0,2.628141E-2,-4.034705E-2,1E0,7.8893855E-2,1E0,1E0,1E0,-1.895932E-2,1E0,1E0,1E0,1.1989398E-2,-1.8687952E-4,2.5112266E-2,1E0,4.7586747E-2,-2.4673387E-2,6.645772E-2,7.923E-2,4.9104565E-3,7.172746E-2,3.351536E-2,-3.9292723E-3,2.6045654E-2],"split_indices":[44,43,353,54,0,304,741,0,0,347,551,0,0,172,0,564,449,196,0,53,347,362,0,0,0,572,0,0,0,0,0,0,0,0,0],"split_type":[0,0,0,0,0,0,0,0,0,0,0,0,0,0,0,0,0,0,0,0,0,0,0,0,0,0,0,0,0,0,0,0,0,0,0],"sum_hessian":[3.3414304E2,2.8282828E2,5.131476E1,2.6504572E2,1.7782564E1,4.861893E1,2.6958258E0,2.60107E2,4.9387136E0,4.3518364E1,5.1005654E0,1.2218587E0,1.473967E0,2.566188E2,3.488187E0,4.061894E1,2.899426E0,3.8880088E0,1.2125568E0,2.5146167E2,5.1571527E0,3.9173317E1,1.4456203E0,1.6949419E0,1.2044842E0,2.6716635E0,1.2163452E0,2.4740337E2,4.0582967E0,3.690462E0,1.4666904E0,3.5017708E1,4.1556096E0,1.4652344E0,1.2064291E0],"tree_param":{"num_deleted":"0","num_feature":"813","num_nodes":"35","size_leaf_vector":"1"}},{"base_weights":[2.4438977E-2,6.93375E-2,-1.2883438E0,1.1336599E-1,-1.206307E0,-1.4310849E0,-9.907085E-3,1.6988878E-1,-8.561607E-1,-7.0749514E-2,-1.27765685E-2,-7.548567E-2,-2.398681E-2,2.9458818E-1,-2.9387683E-1,-9.7080004E-1,1.8525237E-2,3.3821437E-1,-9.0005714E-1,-4.2574978E-1,7.868916E-1,-1.1752594E0,4.657684E-2,1.9433234E-2,-3.2718733E-2,-6.1949085E-2,2.1809231E-2,-1.1761517E-2,-5.174921E-2,2.3384798E-2,6.1182E-2,-6.376863E-2,-4.461723E-3,2.7248038E-2,-2.651222E-2],"categories":[],"categories_nodes":[],"categories_segments":[],"categories_sizes":[],"default_left":[0,0,0,0,0,0,0,0,0,0,0,0,0,0,0,0,0,0,0,0,0,0,0,0,0,0,0,0,0,0,0,0,0,0,0],"id":11,"left_children":[1,3,5,7,9,11,-1,13,15,-1,-1,-1,-1,17,19,21,-1,23,25,27,29,31,33,-1,-1,-1,-1,-1,-1,-1,-1,-1,-1,-1,-1],"loss_changes":[1.993692E1,1.8477003E1,1.4572887E0,1.7493244E1,1.8170643E0,3.6392212E-3,0E0,1.74336E1,2.8352833E0,0E0,0E0,0E0,0E0,1.2650887E1,9.465661E0,3.4611416E0,0E0,1.1735653E1,4.443986E0,6.4591637E0,4.4788933E-1,1.3728809E0,1.3532641E0,0E0,0E0,0E0,0E0,0E0,0E0,0E0,0E0,0E0,0E0,0E0,0E0],"parents":[2147483647,0,0,1,1,2,2,3,3,4,4,5,5,7,7,8,8,13,13,14,14,15,15,17,17,18,18,19,19,20,20,21,21,22,22],"right_children":[2,4,6,8,10,12,-1,14,16,-1,-1,-1,-1,18,20,22,-1,24,26,28,30,32,34,-1,-1,-1,-1,-1,-1,-1,-1,-1,-1,-1,-1],"split_conditions":[1E0,1E0,1E0,1E0,1E0,1E0,-9.907085E-3,1E0,1E0,-7.0749514E-2,-1.27765685E-2,-7.548567E-2,-2.398681E-2,1E0,1E0,1E0,1.8525237E-2,1E0,1E0,1E0,1E0,1E0,1E0,1.9433234E-2,-3.2718733E-2,-6.1949085E-2,2.1809231E-2,-1.1761517E-2,-5.174921E-2,2.3384798E-2,6.1182E-2,-6.376863E-2,-4.461723E-3,2.7248038E-2,-2.651222E-2],"split_indices":[46,49,401,62,649,667,0,437,568,0,0,0,0,112,196,277,0,213,273,688,249,258,741,0,0,0,0,0,0,0,0,0,0,0,0],"split_type":[0,0,0,0,0,0,0,0,0,0,0,0,0,0,0,0,0,0,0,0,0,0,0,0,0,0,0,0,0,0,0,0,0,0,0],"sum_hessian":[3.3573077E2,3.25544E2,1.0186759E1,3.1556357E2,9.980451E0,8.730931E0,1.4558275E0,2.989592E2,1.6604359E1,7.7837663E0,2.1966846E0,7.5223E0,1.2086319E0,2.3589539E2,6.3063828E1,1.5375968E1,1.228391E0,2.2827606E2,7.619319E0,5.6745888E1,6.3179398E0,1.267377E1,2.7021976E0,2.1781369E2,1.0462377E1,6.135816E0,1.4835032E0,4.4283638E1,1.2462248E1,4.8466473E0,1.4712924E0,1.1444436E1,1.2293338E0,1.4792949E0,1.2229027E0],"tree_param":{"num_deleted":"0","num_feature":"813","num_nodes":"35","size_leaf_vector":"1"}},{"base_weights":[1.2069734E-2,5.8025297E-2,-7.59457E-2,1.0267401E-1,-1.2507207E0,4.9598597E-2,8.961539E-1,-7.353268E-2,-4.1508263E-1,1.5384151E-1,-3.3874398E-1,-1.7612256E-1,1.0574559E0,1.9630997E-2,-4.8996374E-2,2.055542E-1,-8.193448E-1,-1.8547864E-1,-1.0162805E0,3.4243304E-2,-4.800006E-2,1.1641508E0,-4.025373E-3,1.2501925E-2,-4.886378E-2,-5.9515845E-2,1.740047E-2,-2.8382363E-3,-5.046509E-2,-5.8013655E-2,-6.3768425E-3,7.0101365E-2,2.1648882E-2],"categories":[],"categories_nodes":[],"categories_segments":[],"categories_sizes":[],"default_left":[0,0,0,0,0,0,0,0,0,0,0,0,0,0,0,0,0,0,0,0,0,0,0,0,0,0,0,0,0,0,0,0,0],"id":12,"left_children":[1,3,-1,5,7,9,11,-1,13,15,17,19,21,-1,-1,23,25,27,29,-1,-1,31,-1,-1,-1,-1,-1,-1,-1,-1,-1,-1,-1],"loss_changes":[2.3711445E1,1.9232815E1,0E0,1.3309107E1,1.385767E0,1.2126187E1,3.6144743E0,0E0,2.052846E0,1.2036684E1,6.398348E0,2.9852371E0,2.2029343E0,0E0,0E0,1.2068938E1,5.654023E0,5.5576572E0,1.3209419E0,0E0,0E0,2.1666737E0,0E0,0E0,0E0,0E0,0E0,0E0,0E0,0E0,0E0,0E0,0E0],"parents":[2147483647,0,0,1,1,3,3,4,4,5,5,6,6,8,8,9,9,10,10,11,11,12,12,15,15,16,16,17,17,18,18,21,21],"right_children":[2,4,-1,6,8,10,12,-1,14,16,18,20,22,-1,-1,24,26,28,30,-1,-1,32,-1,-1,-1,-1,-1,-1,-1,-1,-1,-1,-1],"split_conditions":[1E0,1E0,-7.59457E-2,1E0,1E0,1E0,1E0,-7.353268E-2,1E0,1E0,1E0,1E0,1E0,1.9630997E-2,-4.8996374E-2,1E0,1E0,1E0,1E0,3.4243304E-2,-4.800006E-2,1E0,-4.025373E-3,1.2501925E-2,-4.886378E-2,-5.9515845E-2,1.740047E-2,-2.8382363E-3,-5.046509E-2,-5.8013655E-2,-6.3768425E-3,7.0101365E-2,2.1648882E-2],"split_indices":[161,49,0,136,401,437,479,0,728,62,647,741,742,0,0,133,700,239,245,0,0,437,0,0,0,0,0,0,0,0,0,0,0],"split_type":[0,0,0,0,0,0,0,0,0,0,0,0,0,0,0,0,0,0,0,0,0,0,0,0,0,0,0,0,0,0,0,0,0],"sum_hessian":[3.3476245E2,3.2594077E2,8.821671E0,3.1607907E2,9.861693E0,2.9725815E2,1.8820919E1,7.2053814E0,2.6563118E0,2.3482726E2,6.24309E1,2.4489973E0,1.6371922E1,1.2186311E0,1.4376806E0,2.237277E2,1.109955E1,5.1952496E1,1.0478404E1,1.22729E0,1.2217072E0,1.4947443E1,1.4244783E0,2.1637866E2,7.349041E0,8.407932E0,2.6916177E0,4.5856754E1,6.0957427E0,8.754497E0,1.7239076E0,1.0585955E1,4.3614883E0],"tree_param":{"num_deleted":"0","num_feature":"813","num_nodes":"33","size_leaf_vector":"1"}},{"base_weights":[1.6101016E-2,-6.0359396E-2,7.258073E-2,-1.617012E-2,-7.018412E-2,3.26773E-2,-1.3443307E0,7.340861E-2,-1.0687623E0,-7.400032E-2,-6.593362E-1,1.0955673E-1,-1.1303928E0,-7.02395E-2,-2.6906052E-1,2.5359853E-4,-4.9353834E-2,7.2952523E-3,-4.887484E-2,-6.6983275E-2,-1.8223295E-2,-3.0492876E-2,1.7052798E-2],"categories":[],"categories_nodes":[],"categories_segments":[],"categories_sizes":[],"default_left":[0,0,0,0,0,0,0,0,0,0,0,0,0,0,0,0,0,0,0,0,0,0,0],"id":13,"left_children":[1,3,-1,5,-1,7,9,11,13,-1,15,17,19,-1,21,-1,-1,-1,-1,-1,-1,-1,-1],"loss_changes":[3.7113903E1,1.9046238E1,0E0,2.028695E1,0E0,1.3623888E1,5.5057526E-2,1.2834482E1,2.532668E0,0E0,7.9702175E-1,1.1383672E1,8.908224E-1,0E0,1.1315179E0,0E0,0E0,0E0,0E0,0E0,0E0,0E0,0E0],"parents":[2147483647,0,0,1,1,3,3,5,5,6,6,7,7,8,8,10,10,11,11,12,12,14,14],"right_children":[2,4,-1,6,-1,8,10,12,14,-1,16,18,20,-1,22,-1,-1,-1,-1,-1,-1,-1,-1],"split_conditions":[1E0,1E0,7.258073E-2,1E0,-7.018412E-2,1E0,1E0,1E0,1E0,-7.400032E-2,1E0,1E0,1E0,-7.02395E-2,1E0,2.5359853E-4,-4.9353834E-2,7.2952523E-3,-4.887484E-2,-6.6983275E-2,-1.8223295E-2,-3.0492876E-2,1.7052798E-2],"split_indices":[43,161,0,46,0,57,591,180,572,0,249,123,543,0,334,0,0,0,0,0,0,0,0],"split_type":[0,0,0,0,0,0,0,0,0,0,0,0,0,0,0,0,0,0,0,0,0,0,0],"sum_hessian":[3.3633875E2,3.2023962E2,1.6099115E1,3.1102048E2,9.219135E0,3.0092828E2,1.0092218E1,2.9109683E2,9.8314295E0,7.455006E0,2.637212E0,2.83493E2,7.603824E0,6.3898344E0,3.4415953E0,1.1963829E0,1.4408293E0,2.751582E2,8.334815E0,5.3837533E0,2.2200706E0,2.2084374E0,1.2331579E0],"tree_param":{"num_deleted":"0","num_feature":"813","num_nodes":"23","size_leaf_vector":"1"}},{"base_weights":[-2.6316259E-2,-1.05484195E-1,7.129461E-2,-1.3903965E-1,7.171035E-2,-9.849582E-2,-6.8754666E-2,-1.509255E-1,8.467593E-1,-1.1231611E-1,-6.553983E-2,1.0386201E0,-2.4733953E-2,-1.4100143E-3,-3.0977799E-2,6.1344977E-2,-2.6765052E-2],"categories":[],"categories_nodes":[],"categories_segments":[],"categories_sizes":[],"default_left":[0,0,0,0,0,0,0,0,0,0,0,0,0,0,0,0,0],"id":14,"left_children":[1,3,-1,5,-1,7,-1,9,11,13,-1,15,-1,-1,-1,-1,-1],"loss_changes":[3.844451E1,1.6566664E1,0E0,1.5447624E1,0E0,1.5102268E1,0E0,1.271065E1,4.6393538E0,1.1885143E1,0E0,4.908184E0,0E0,0E0,0E0,0E0,0E0],"parents":[2147483647,0,0,1,1,3,3,5,5,7,7,8,8,9,9,11,11],"right_children":[2,4,-1,6,-1,8,-1,10,12,14,-1,16,-1,-1,-1,-1,-1],"split_conditions":[1E0,1E0,7.129461E-2,1E0,7.171035E-2,1E0,-6.8754666E-2,1E0,1E0,1E0,-6.553983E-2,1E0,-2.4733953E-2,-1.4100143E-3,-3.0977799E-2,6.1344977E-2,-2.6765052E-2],"split_indices":[43,181,0,49,0,136,0,161,717,223,0,673,0,0,0,0,0],"split_type":[0,0,0,0,0,0,0,0,0,0,0,0,0,0,0,0,0],"sum_hessian":[3.3208386E2,3.1579544E2,1.6288397E1,3.099502E2,5.8452435E0,3.011518E2,8.798405E0,2.8612204E2,1.502976E1,2.7796603E2,8.156002E0,1.334659E1,1.6831704E0,2.3933295E2,3.86331E1,1.2117521E1,1.229069E0],"tree_param":{"num_deleted":"0","num_feature":"813","num_nodes":"17","size_leaf_vector":"1"}},{"base_weights":[1.4043844E-2,-1.8522848E-1,1.0535986E0,-2.8759265E-1,6.938462E-2,1.1351446E0,-2.2554894E-3,-3.2194877E-1,7.217805E-2,1.1774861E0,-3.9554327E-3,-5.3376096E-1,4.4878688E-2,-3.4722665E-1,7.61401E-2,1.2204155E0,-6.3715572E-3,-4.106238E-2,1.6777577E-3,-3.7128064E-1,7.6757714E-2,1.2995719E0,4.2739728E-1,-1.982448E-2,7.2505824E-2,6.768513E-2,-7.509695E-3,-1.2447683E-2,3.3224054E-2],"categories":[],"categories_nodes":[],"categories_segments":[],"categories_sizes":[],"default_left":[0,0,0,0,0,0,0,0,0,0,0,0,0,0,0,0,0,0,0,0,0,0,0,0,0,0,0,0,0],"id":15,"left_children":[1,3,5,7,-1,9,11,13,-1,15,-1,17,-1,19,-1,21,-1,-1,-1,23,-1,25,27,-1,-1,-1,-1,-1,-1],"loss_changes":[6.9832565E1,4.595526E1,4.6712074E0,1.631377E1,0E0,2.6811523E0,2.81567E0,1.2751354E1,0E0,2.8839035E0,0E0,6.307596E-1,0E0,1.231447E1,0E0,2.4104233E0,0E0,0E0,0E0,1.2371326E1,0E0,3.5361862E0,1.0919558E0,0E0,0E0,0E0,0E0,0E0,0E0],"parents":[2147483647,0,0,1,1,2,2,3,3,5,5,6,6,7,7,9,9,11,11,13,13,15,15,19,19,21,21,22,22],"right_children":[2,4,6,8,-1,10,12,14,-1,16,-1,18,-1,20,-1,22,-1,-1,-1,24,-1,26,28,-1,-1,-1,-1,-1,-1],"split_conditions":[1E0,1E0,1E0,1E0,6.938462E-2,1E0,1E0,1E0,7.217805E-2,1E0,-3.9554327E-3,1E0,4.4878688E-2,1E0,7.61401E-2,1E0,-6.3715572E-3,-4.106238E-2,1.6777577E-3,1E0,7.6757714E-2,1E0,1E0,-1.982448E-2,7.2505824E-2,6.768513E-2,-7.509695E-3,-1.2447683E-2,3.3224054E-2],"split_indices":[44,43,329,127,0,603,246,164,0,65,0,245,0,177,0,304,0,0,0,135,0,400,544,0,0,0,0,0,0],"split_type":[0,0,0,0,0,0,0,0,0,0,0,0,0,0,0,0,0,0,0,0,0,0,0,0,0,0,0,0,0],"sum_hessian":[3.3516174E2,2.8193872E2,5.322303E1,2.6547876E2,1.6459942E1,4.9337486E1,3.8855426E0,2.6111084E2,4.367926E0,4.7704304E1,1.6331859E0,2.6984556E0,1.187087E0,2.583821E2,2.7287319E0,4.6247597E1,1.4567071E0,1.4938487E0,1.2046069E0,2.5591466E2,2.4674413E0,4.1469482E1,4.7781124E0,2.5319267E2,2.721985E0,4.004072E1,1.4287593E0,1.2271738E0,3.5509388E0],"tree_param":{"num_deleted":"0","num_feature":"813","num_nodes":"29","size_leaf_vector":"1"}},{"base_weights":[6.2768124E-3,-1.8615037E-1,1.0608667E0,-1.1355238E-1,-1.213582E0,1.1272E0,-2.0822786E-2,-1.5423192E-1,7.0990354E-2,-1.3008496E0,1.5002298E-3,1.2315347E0,4.4790626E-1,-1.971007E-1,1.260992E0,8.111628E-4,-1.3997465E0,1.2676347E0,5.0132414E-3,-3.6954667E-2,1.0198385E0,-2.3297654E-1,7.8018956E-2,7.284378E-2,5.0060223E-3,-7.491465E-2,-1.1575492E-2,1.3127651E0,1.9820308E-2,5.9161592E-2,1.9434264E-2,-1.36777405E-2,7.013331E-2,6.821759E-2,3.7289347E-2],"categories":[],"categories_nodes":[],"categories_segments":[],"categories_sizes":[],"default_left":[0,0,0,0,0,0,0,0,0,0,0,0,0,0,0,0,0,0,0,0,0,0,0,0,0,0,0,0,0,0,0,0,0,0,0],"id":16,"left_children":[1,3,5,7,9,11,-1,13,-1,15,-1,17,19,21,23,-1,25,27,-1,-1,29,31,-1,-1,-1,-1,-1,33,-1,-1,-1,-1,-1,-1,-1],"loss_changes":[6.7278015E1,2.0777052E1,5.4826508E0,1.6623804E1,2.0361176E0,2.937439E0,0E0,1.5846673E1,0E0,2.2654324E0,0E0,1.5923347E0,6.270418E0,1.615205E1,1.6037512E0,0E0,1.4982357E0,1.0804749E0,0E0,0E0,1.4895439E-1,1.6728962E1,0E0,0E0,0E0,0E0,0E0,1.0203552E-1,0E0,0E0,0E0,0E0,0E0,0E0,0E0],"parents":[2147483647,0,0,1,1,2,2,3,3,4,4,5,5,7,7,9,9,11,11,12,12,13,13,14,14,16,16,17,17,20,20,21,21,27,27],"right_children":[2,4,6,8,10,12,-1,14,-1,16,-1,18,20,22,24,-1,26,28,-1,-1,30,32,-1,-1,-1,-1,-1,34,-1,-1,-1,-1,-1,-1,-1],"split_conditions":[1E0,1E0,1E0,1E0,1E0,1E0,-2.0822786E-2,1E0,7.0990354E-2,1E0,1.5002298E-3,1E0,1E0,1E0,1E0,8.111628E-4,1E0,1E0,5.0132414E-3,-3.6954667E-2,1E0,1E0,7.8018956E-2,7.284378E-2,5.0060223E-3,-7.491465E-2,-1.1575492E-2,1E0,1.9820308E-2,5.9161592E-2,1.9434264E-2,-1.36777405E-2,7.013331E-2,6.821759E-2,3.7289347E-2],"split_indices":[44,168,581,144,328,304,0,516,0,786,0,603,432,164,359,0,258,420,0,0,360,127,0,0,0,0,0,660,0,0,0,0,0,0,0],"split_type":[0,0,0,0,0,0,0,0,0,0,0,0,0,0,0,0,0,0,0,0,0,0,0,0,0,0,0,0,0,0,0,0,0,0,0],"sum_hessian":[3.2955713E2,2.7939957E2,5.015754E1,2.6199744E2,1.7402136E1,4.8229004E1,1.928535E0,2.5610254E2,5.894904E0,1.6218006E1,1.18413E0,4.110292E1,7.126085E0,2.494084E2,6.694141E0,1.1911167E0,1.5026889E1,3.971503E1,1.3878881E0,2.2220738E0,4.9040112E0,2.452691E2,4.139298E0,5.509494E0,1.1846471E0,1.359736E1,1.429529E0,3.727724E1,2.4377894E0,3.2006974E0,1.7033136E0,2.4014418E2,5.1249228E0,3.287935E1,4.3978925E0],"tree_param":{"num_deleted":"0","num_feature":"813","num_nodes":"35","size_leaf_vector":"1"}},{"base_weights":[7.757853E-4,-6.2486306E-2,6.712129E-2,-9.239718E-2,1.3757336E0,-1.756132E-1,4.5069045E-1,7.896281E-2,1.9266894E-2,-2.3030043E-1,6.789869E-1,5.300426E-1,-5.1102072E-2,-2.5953087E-1,6.432631E-2,-1.724429E-2,1.1105891E0,6.135844E-1,-3.6277637E-2,-1.4299403E-2,6.797459E-2,-2.176909E-2,4.385985E-2,6.0183E-2,1.1135415E-2,3.4296047E-2,-4.4329405E-2],"categories":[],"categories_nodes":[],"categories_segments":[],"categories_sizes":[],"default_left":[0,0,0,0,0,0,0,0,0,0,0,0,0,0,0,0,0,0,0,0,0,0,0,0,0,0,0],"id":17,"left_children":[1,3,-1,5,7,9,11,-1,-1,13,15,17,-1,19,-1,21,23,25,-1,-1,-1,-1,-1,-1,-1,-1,-1],"loss_changes":[2.8011688E1,1.3685783E1,0E0,1.40755415E1,6.984787E-1,1.2740848E1,5.3833694E0,0E0,0E0,1.1587701E1,4.9616666E0,4.637823E0,0E0,1.1091253E1,0E0,3.1042724E0,5.7224846E-1,4.7337646E0,0E0,0E0,0E0,0E0,0E0,0E0,0E0,0E0,0E0],"parents":[2147483647,0,0,1,1,3,3,4,4,5,5,6,6,9,9,10,10,11,11,13,13,15,15,16,16,17,17],"right_children":[2,4,-1,6,8,10,12,-1,-1,14,16,18,-1,20,-1,22,24,26,-1,-1,-1,-1,-1,-1,-1,-1,-1],"split_conditions":[1E0,1E0,6.712129E-2,1E0,1E0,1E0,1E0,7.896281E-2,1.9266894E-2,1E0,1E0,1E0,-5.1102072E-2,1E0,6.432631E-2,1E0,1E0,1E0,-3.6277637E-2,-1.4299403E-2,6.797459E-2,-2.176909E-2,4.385985E-2,6.0183E-2,1.1135415E-2,3.4296047E-2,-4.4329405E-2],"split_indices":[43,590,0,411,728,115,147,0,0,53,467,109,0,144,0,591,667,46,0,0,0,0,0,0,0,0,0],"split_type":[0,0,0,0,0,0,0,0,0,0,0,0,0,0,0,0,0,0,0,0,0,0,0,0,0,0,0],"sum_hessian":[3.28044E2,3.1418292E2,1.3861071E1,3.0869864E2,5.484296E0,2.6826904E2,4.0429585E1,4.056193E0,1.4281032E0,2.5282114E2,1.5447909E1,3.8969944E1,1.459641E0,2.4885442E2,3.9667246E0,6.2790394E0,9.16887E0,3.7018234E1,1.9517103E0,2.4566328E2,3.1911368E0,4.6285157E0,1.6505235E0,7.977034E0,1.1918362E0,3.583317E1,1.1850613E0],"tree_param":{"num_deleted":"0","num_feature":"813","num_nodes":"27","size_leaf_vector":"1"}},{"base_weights":[1.2427804E-2,-1.4850144E-1,9.178882E-1,-2.2765957E-1,6.590328E-2,9.966377E-1,-3.4870293E-2,-2.6309612E-1,7.2034225E-2,1.0804482E0,2.4346378E-2,-1.9959298E-1,-1.1502889E0,1.1268358E0,-3.7759633E-3,2.1585079E-2,-1.654519E-2,-2.5412172E-1,7.248217E-2,-1.2373455E0,2.1301927E-3,1.1737734E0,-1.8418202E-3,-1.4290172E-2,7.544428E-2,-6.655615E-2,-1.2189609E-2,6.0322214E-2,6.2768483E-3],"categories":[],"categories_nodes":[],"categories_segments":[],"categories_sizes":[],"default_left":[0,0,0,0,0,0,0,0,0,0,0,0,0,0,0,0,0,0,0,0,0,0,0,0,0,0,0,0,0],"id":18,"left_children":[1,3,5,7,-1,9,-1,11,-1,13,15,17,19,21,-1,-1,-1,23,-1,25,-1,27,-1,-1,-1,-1,-1,-1,-1],"loss_changes":[4.893449E1,3.3410355E1,7.1413918E0,1.6427689E1,0E0,3.9448776E0,0E0,1.4793739E1,0E0,2.4896812E0,8.505614E-1,2.2856033E1,1.8806458E0,2.4014816E0,0E0,0E0,0E0,1.3998613E1,0E0,1.2070446E0,0E0,1.2708778E0,0E0,0E0,0E0,0E0,0E0,0E0,0E0],"parents":[2147483647,0,0,1,1,2,2,3,3,5,5,7,7,9,9,10,10,11,11,12,12,13,13,17,17,19,19,21,21],"right_children":[2,4,6,8,-1,10,-1,12,-1,14,16,18,20,22,-1,-1,-1,24,-1,26,-1,28,-1,-1,-1,-1,-1,-1,-1],"split_conditions":[1E0,1E0,1E0,1E0,6.590328E-2,1E0,-3.4870293E-2,1E0,7.2034225E-2,1E0,1E0,1E0,1E0,1E0,-3.7759633E-3,2.1585079E-2,-1.654519E-2,1E0,7.248217E-2,1E0,2.1301927E-3,1E0,-1.8418202E-3,-1.4290172E-2,7.544428E-2,-6.655615E-2,-1.2189609E-2,6.0322214E-2,6.2768483E-3],"split_indices":[44,43,581,54,0,329,0,168,0,347,774,516,293,382,0,0,0,164,0,328,0,67,0,0,0,0,0,0,0],"split_type":[0,0,0,0,0,0,0,0,0,0,0,0,0,0,0,0,0,0,0,0,0,0,0,0,0,0,0,0,0],"sum_hessian":[3.3388773E2,2.8421045E2,4.967728E1,2.7045724E2,1.3753197E1,4.7733173E1,1.9441077E0,2.6565686E2,4.8003983E0,4.3842735E1,3.8904366E0,2.4905505E2,1.6601797E1,4.2175484E1,1.6672517E0,1.7120609E0,2.1783757E0,2.4190292E2,7.1521273E0,1.5437886E1,1.1639118E0,4.0531918E1,1.6435654E0,2.3845569E2,3.447225E0,1.379598E1,1.6419057E0,3.9160458E1,1.3714592E0],"tree_param":{"num_deleted":"0","num_feature":"813","num_nodes":"29","size_leaf_vector":"1"}},{"base_weights":[1.0534505E-2,-1.6941437E-1,9.4265485E-1,-2.4895394E-1,6.453564E-2,1.0289135E0,-2.8008723E-1,-2.8101334E-1,8.476522E-2,1.0839242E0,-2.4227643E-2,3.0848766E-3,-2.1618094E-2,-3.4644085E-1,6.751362E-1,1.1453942E0,8.795253E-2,-3.826429E-1,6.873535E-2,1.6780107E-1,7.2758496E-2,1.1883672E0,2.2249995E-1,-1.4338824E-2,2.5342816E-2,-2.0815162E-2,7.488143E-2,-1.971352E-2,7.926711E-2,6.09177E-2,3.8943214E-3,2.5305423E-4,1.6969597E-2],"categories":[],"categories_nodes":[],"categories_segments":[],"categories_sizes":[],"default_left":[0,0,0,0,0,0,0,0,0,0,0,0,0,0,0,0,0,0,0,0,0,0,0,0,0,0,0,0,0,0,0,0,0],"id":19,"left_children":[1,3,5,7,-1,9,11,13,-1,15,-1,-1,-1,17,19,21,23,25,-1,27,-1,29,31,-1,-1,-1,-1,-1,-1,-1,-1,-1,-1],"loss_changes":[5.5677933E1,3.264E1,5.953224E0,1.697816E1,0E0,4.7201767E0,2.5179252E-1,1.658068E1,0E0,2.8947296E0,0E0,0E0,0E0,1.5806053E1,6.512859E0,1.5599403E0,7.618571E-1,1.587397E1,0E0,9.76867E0,0E0,1.3610725E0,8.1573114E-2,0E0,0E0,0E0,0E0,0E0,0E0,0E0,0E0,0E0,0E0],"parents":[2147483647,0,0,1,1,2,2,3,3,5,5,6,6,7,7,9,9,13,13,14,14,15,15,16,16,17,17,19,19,21,21,22,22],"right_children":[2,4,6,8,-1,10,12,14,-1,16,-1,-1,-1,18,20,22,24,26,-1,28,-1,30,32,-1,-1,-1,-1,-1,-1,-1,-1,-1,-1],"split_conditions":[1E0,1E0,1E0,1E0,6.453564E-2,1E0,1E0,1E0,8.476522E-2,1E0,-2.4227643E-2,3.0848766E-3,-2.1618094E-2,1E0,1E0,1E0,1E0,1E0,6.873535E-2,1E0,7.2758496E-2,1E0,1E0,-1.4338824E-2,2.5342816E-2,-2.0815162E-2,7.488143E-2,-1.971352E-2,7.926711E-2,6.09177E-2,3.8943214E-3,2.5305423E-4,1.6969597E-2],"split_indices":[44,43,587,5,0,581,758,224,0,420,0,0,0,54,248,621,245,0,0,317,0,430,684,0,0,0,0,0,0,0,0,0,0],"split_type":[0,0,0,0,0,0,0,0,0,0,0,0,0,0,0,0,0,0,0,0,0,0,0,0,0,0,0,0,0,0,0,0,0],"sum_hessian":[3.2998972E2,2.7727847E2,5.271126E1,2.6374084E2,1.353763E1,4.9385845E1,3.3254156E0,2.6030408E2,3.4367585E0,4.7927612E1,1.4582334E0,1.2082627E0,2.117153E0,2.4422957E2,1.60745E1,4.500023E1,2.9273837E0,2.3996002E2,4.269557E0,1.0476007E1,5.598491E0,4.272324E1,2.27699E0,1.7116472E0,1.2157365E0,2.3650473E2,3.455281E0,8.018459E0,2.4575489E0,4.1505318E1,1.2179224E0,1.1608708E0,1.116119E0],"tree_param":{"num_deleted":"0","num_feature":"813","num_nodes":"33","size_leaf_vector":"1"}},{"base_weights":[2.6696464E-2,-1.3952947E-1,9.3564856E-1,-2.1661468E-1,6.3515715E-2,1.0089799E0,-3.1927368E-1,-1.5448143E-1,-1.1184962E0,1.0815117E0,2.075238E-1,-1.9696162E-3,-2.1853052E-2,6.835103E-2,-2.012535E-1,6.3518755E-4,-1.2034047E0,1.1273036E0,-8.705373E-3,-1.9733025E-1,4.164498E-2,-2.362847E-1,6.8579614E-2,-1.2999346E0,-1.0341021E-2,1.1639843E0,-6.962117E-3,1.6853549E-2,-3.557157E-2,-1.3522972E-2,6.508948E-2,-6.76967E-2,-1.7900558E-2,-7.648073E-4,5.9876144E-2],"categories":[],"categories_nodes":[],"categories_segments":[],"categories_sizes":[],"default_left":[0,0,0,0,0,0,0,0,0,0,0,0,0,0,0,0,0,0,0,0,0,0,0,0,0,0,0,0,0,0,0,0,0,0,0],"id":20,"left_children":[1,3,5,7,-1,9,11,13,15,17,19,-1,-1,-1,21,-1,23,25,-1,27,-1,29,-1,31,-1,33,-1,-1,-1,-1,-1,-1,-1,-1,-1],"loss_changes":[5.0236122E1,3.0838097E1,5.052223E0,1.4817032E1,0E0,2.6125107E0,1.0137546E-1,1.8167027E1,1.6558743E0,2.7557526E0,1.5030882E0,0E0,0E0,0E0,1.3811798E1,0E0,1.2605991E0,2.163601E0,0E0,1.3437302E0,0E0,1.2983658E1,0E0,2.4289703E-1,0E0,1.6785545E0,0E0,0E0,0E0,0E0,0E0,0E0,0E0,0E0,0E0],"parents":[2147483647,0,0,1,1,2,2,3,3,5,5,6,6,7,7,8,8,9,9,10,10,14,14,16,16,17,17,19,19,21,21,23,23,25,25],"right_children":[2,4,6,8,-1,10,12,14,16,18,20,-1,-1,-1,22,-1,24,26,-1,28,-1,30,-1,32,-1,34,-1,-1,-1,-1,-1,-1,-1,-1,-1],"split_conditions":[1E0,1E0,1E0,1E0,6.3515715E-2,1E0,1E0,1E0,1E0,1E0,1E0,-1.9696162E-3,-2.1853052E-2,6.835103E-2,1E0,6.3518755E-4,1E0,1E0,-8.705373E-3,1E0,4.164498E-2,1E0,6.8579614E-2,1E0,-1.0341021E-2,1E0,-6.962117E-3,1.6853549E-2,-3.557157E-2,-1.3522972E-2,6.508948E-2,-6.76967E-2,-1.7900558E-2,-7.648073E-4,5.9876144E-2],"split_indices":[44,43,353,168,0,543,449,513,786,65,245,0,0,0,54,0,561,638,0,591,0,172,0,357,0,488,0,0,0,0,0,0,0,0,0],"split_type":[0,0,0,0,0,0,0,0,0,0,0,0,0,0,0,0,0,0,0,0,0,0,0,0,0,0,0,0,0,0,0,0,0,0,0],"sum_hessian":[3.3062424E2,2.802243E2,5.039993E1,2.6649942E2,1.372488E1,4.780257E1,2.5973606E0,2.5041862E2,1.6080784E1,4.3515022E1,4.287545E0,1.1645772E0,1.4327834E0,6.6266165E0,2.43792E2,1.1821315E0,1.4898652E1,4.208249E1,1.4325356E0,3.0181348E0,1.2694105E0,2.3931172E2,4.480295E0,1.3305483E1,1.5931686E0,4.097673E1,1.1057599E0,1.6486914E0,1.3694434E0,2.3491623E2,4.3954883E0,1.2170358E1,1.1351258E0,1.1481862E0,3.982854E1],"tree_param":{"num_deleted":"0","num_feature":"813","num_nodes":"35","size_leaf_vector":"1"}},{"base_weights":[1.9913094E-2,-1.3226368E-1,8.9875454E-1,-2.036171E-1,6.2166948E-2,1.0022699E0,-2.4373335E-1,-2.414161E-1,6.8885446E-2,1.0750436E0,5.5102646E-2,-3.8025968E-2,1.4202158E-1,-2.724952E-1,7.177343E-2,1.1211469E0,-1.3084984E-2,2.0063369E-2,-2.2629667E-2,-1.5767263E-2,2.5439793E-2,-3.0338603E-1,7.3532745E-2,1.1714925E0,2.8583947E-1,-1.6756972E-2,7.282164E-2,6.338573E-2,2.7626544E-2,-1.0494769E-2,3.848992E-2],"categories":[],"categories_nodes":[],"categories_segments":[],"categories_sizes":[],"default_left":[0,0,0,0,0,0,0,0,0,0,0,0,0,0,0,0,0,0,0,0,0,0,0,0,0,0,0,0,0,0,0],"id":21,"left_children":[1,3,5,7,-1,9,11,13,-1,15,17,-1,19,21,-1,23,-1,-1,-1,-1,-1,25,-1,27,29,-1,-1,-1,-1,-1,-1],"loss_changes":[4.3800137E1,2.7665493E1,5.9607697E0,1.6253986E1,0E0,3.0092049E0,1.068902E0,1.3993394E1,0E0,2.8377876E0,9.250692E-1,0E0,7.6477724E-1,1.4289774E1,0E0,1.351448E0,0E0,0E0,0E0,0E0,0E0,1.4650511E1,0E0,1.5327606E0,1.0257946E0,0E0,0E0,0E0,0E0,0E0,0E0],"parents":[2147483647,0,0,1,1,2,2,3,3,5,5,6,6,7,7,9,9,10,10,12,12,13,13,15,15,21,21,23,23,24,24],"right_children":[2,4,6,8,-1,10,12,14,-1,16,18,-1,20,22,-1,24,-1,-1,-1,-1,-1,26,-1,28,30,-1,-1,-1,-1,-1,-1],"split_conditions":[1E0,1E0,1E0,1E0,6.2166948E-2,1E0,1E0,1E0,6.8885446E-2,1E0,1E0,-3.8025968E-2,1E0,1E0,7.177343E-2,1E0,-1.3084984E-2,2.0063369E-2,-2.2629667E-2,-1.5767263E-2,2.5439793E-2,1E0,7.3532745E-2,1E0,1E0,-1.6756972E-2,7.282164E-2,6.338573E-2,2.7626544E-2,-1.0494769E-2,3.848992E-2],"split_indices":[44,43,329,54,0,587,544,56,0,581,610,0,452,590,0,543,0,0,0,0,0,0,0,437,629,0,0,0,0,0,0],"split_type":[0,0,0,0,0,0,0,0,0,0,0,0,0,0,0,0,0,0,0,0,0,0,0,0,0,0,0,0,0,0,0],"sum_hessian":[3.2561514E2,2.7827893E2,4.73362E1,2.653662E2,1.2912738E1,4.351614E1,3.8200586E0,2.599987E2,5.3675094E0,4.028585E1,3.2302895E0,1.2174983E0,2.6025603E0,2.5608987E2,3.9088318E0,3.9098648E1,1.1872042E0,2.045338E0,1.1849518E0,1.2206419E0,1.3819184E0,2.5244221E2,3.6476374E0,3.649647E1,2.6021779E0,2.4876321E2,3.679012E0,3.0679054E1,5.8174148E0,1.565194E0,1.0369838E0],"tree_param":{"num_deleted":"0","num_feature":"813","num_nodes":"31","size_leaf_vector":"1"}},{"base_weights":[-6.0553676E-3,-1.4748655E-1,7.8467464E-1,-2.1900046E-1,6.1151054E-2,8.671843E-1,-2.1803449E-1,-2.457196E-1,7.8949146E-2,9.281733E-1,-8.515149E-2,-4.178456E-2,4.232266E-2,-2.7552384E-1,7.153901E-2,1.009133E0,2.3666164E-2,5.041198E-3,-1.0925752E-2,-3.0678084E-1,6.3044295E-2,1.0566244E0,-8.111878E-3,1.6998284E-2,-1.3825594E-2,-1.66013E-2,7.219889E-2,5.4666888E-2,1.1457078E-3],"categories":[],"categories_nodes":[],"categories_segments":[],"categories_sizes":[],"default_left":[0,0,0,0,0,0,0,0,0,0,0,0,0,0,0,0,0,0,0,0,0,0,0,0,0,0,0,0,0],"id":22,"left_children":[1,3,5,7,-1,9,11,13,-1,15,17,-1,-1,19,-1,21,23,-1,-1,25,-1,27,-1,-1,-1,-1,-1,-1,-1],"loss_changes":[3.6055508E1,2.7068787E1,4.236166E0,1.2913946E1,0E0,2.715908E0,3.6780987E0,1.3274889E1,0E0,3.1066895E0,1.1252055E-1,0E0,0E0,1.2590574E1,0E0,2.352932E0,5.246935E-1,0E0,0E0,1.1522692E1,0E0,1.4102364E0,0E0,0E0,0E0,0E0,0E0,0E0,0E0],"parents":[2147483647,0,0,1,1,2,2,3,3,5,5,6,6,7,7,9,9,10,10,13,13,15,15,16,16,19,19,21,21],"right_children":[2,4,6,8,-1,10,12,14,-1,16,18,-1,-1,20,-1,22,24,-1,-1,26,-1,28,-1,-1,-1,-1,-1,-1,-1],"split_conditions":[1E0,1E0,1E0,1E0,6.1151054E-2,1E0,1E0,1E0,7.8949146E-2,1E0,1E0,-4.178456E-2,4.232266E-2,1E0,7.153901E-2,1E0,1E0,5.041198E-3,-1.0925752E-2,1E0,6.3044295E-2,1E0,-8.111878E-3,1.6998284E-2,-1.3825594E-2,-1.66013E-2,7.219889E-2,5.4666888E-2,1.1457078E-3],"split_indices":[44,43,587,5,0,420,334,0,0,329,544,0,0,54,0,386,774,0,0,164,0,788,0,0,0,0,0,0,0],"split_type":[0,0,0,0,0,0,0,0,0,0,0,0,0,0,0,0,0,0,0,0,0,0,0,0,0,0,0,0,0],"sum_hessian":[3.2036755E2,2.724502E2,4.7917377E1,2.5973715E2,1.2713034E1,4.4399082E1,3.5182965E0,2.5678452E2,2.9526396E0,4.1750675E1,2.648405E0,2.3624487E0,1.1558478E0,2.5312027E2,3.6642337E0,3.821454E1,3.5361388E0,1.2079335E0,1.4404714E0,2.4885779E2,4.262482E0,3.68197E1,1.3948396E0,1.6572925E0,1.8788463E0,2.4611922E2,2.7385745E0,3.5501156E1,1.3185436E0],"tree_param":{"num_deleted":"0","num_feature":"813","num_nodes":"29","size_leaf_vector":"1"}},{"base_weights":[4.1452702E-2,7.632974E-2,-1.0059556E0,1.21425346E-1,-8.177215E-1,-1.1510943E0,4.608006E-3,1.6502182E-1,-8.9919776E-1,-1.010807E0,3.0198693E-2,-6.5887205E-2,-1.8625319E-2,2.48808E-1,-3.9932984E-1,-1.0767604E0,2.0590952E-2,-1.1188021E0,4.8757265E-3,3.1091747E-1,-6.277768E-1,-5.1881623E-1,6.721071E-1,-1.2702613E0,-4.72098E-3,-3.205664E-1,-1.2904592E0,1.1928202E-2,4.9342953E-2,-5.072106E-2,3.1497527E-2,-1.4509979E-2,-6.144909E-2,9.085374E-3,4.4893607E-2,-6.7473575E-2,-1.8968128E-2,1.6171884E-3,-2.5401888E-2,-6.8646155E-2,-1.6744712E-2],"categories":[],"categories_nodes":[],"categories_segments":[],"categories_sizes":[],"default_left":[0,0,0,0,0,0,0,0,0,0,0,0,0,0,0,0,0,0,0,0,0,0,0,0,0,0,0,0,0,0,0,0,0,0,0,0,0,0,0,0,0],"id":23,"left_children":[1,3,5,7,9,11,-1,13,15,17,-1,-1,-1,19,21,23,-1,25,-1,27,29,31,33,35,-1,37,39,-1,-1,-1,-1,-1,-1,-1,-1,-1,-1,-1,-1,-1,-1],"loss_changes":[1.1898773E1,1.2763931E1,1.7794523E0,1.3492954E1,4.786497E0,7.220125E-1,0E0,1.3739472E1,3.3395395E0,1.7569895E0,0E0,0E0,0E0,1.3903817E1,5.1718836E0,2.0153942E0,0E0,1.3162851E0,0E0,1.1296814E1,8.90177E0,5.2379704E0,3.0357695E-1,1.4467621E-1,0E0,2.522961E-1,3.3296776E-1,0E0,0E0,0E0,0E0,0E0,0E0,0E0,0E0,0E0,0E0,0E0,0E0,0E0,0E0],"parents":[2147483647,0,0,1,1,2,2,3,3,4,4,5,5,7,7,8,8,9,9,13,13,14,14,15,15,17,17,19,19,20,20,21,21,22,22,23,23,25,25,26,26],"right_children":[2,4,6,8,10,12,-1,14,16,18,-1,-1,-1,20,22,24,-1,26,-1,28,30,32,34,36,-1,38,40,-1,-1,-1,-1,-1,-1,-1,-1,-1,-1,-1,-1,-1,-1],"split_conditions":[1E0,1E0,1E0,1E0,1E0,1E0,4.608006E-3,1E0,1E0,1E0,3.0198693E-2,-6.5887205E-2,-1.8625319E-2,1E0,1E0,1E0,2.0590952E-2,1E0,4.8757265E-3,1E0,1E0,1E0,1E0,1E0,-4.72098E-3,1E0,1E0,1.1928202E-2,4.9342953E-2,-5.072106E-2,3.1497527E-2,-1.4509979E-2,-6.144909E-2,9.085374E-3,4.4893607E-2,-6.7473575E-2,-1.8968128E-2,1.6171884E-3,-2.5401888E-2,-6.8646155E-2,-1.6744712E-2],"split_indices":[46,206,697,31,644,328,0,704,267,288,0,0,0,62,366,557,0,786,0,614,700,437,298,429,0,248,688,0,0,0,0,0,0,0,0,0,0,0,0,0,0],"split_type":[0,0,0,0,0,0,0,0,0,0,0,0,0,0,0,0,0,0,0,0,0,0,0,0,0,0,0,0,0,0,0,0,0,0,0,0,0,0,0,0,0],"sum_hessian":[3.2261972E2,3.1312042E2,9.4992895E0,2.989078E2,1.4212612E1,8.34772E0,1.1515697E0,2.8746683E2,1.1440988E1,1.276761E1,1.4450021E0,6.305587E0,2.042133E0,2.507922E2,3.667461E1,1.0233638E1,1.2073498E0,1.1625375E1,1.142235E0,2.3480095E2,1.5991261E1,3.345904E1,3.2155688E0,8.304689E0,1.9289488E0,2.565028E0,9.060348E0,2.1331992E2,2.1481035E1,1.2379167E1,3.6120937E0,2.6376537E1,7.0825047E0,1.5826466E0,1.6329222E0,7.1539035E0,1.150786E0,1.1769406E0,1.3880873E0,7.9385E0,1.1218472E0],"tree_param":{"num_deleted":"0","num_feature":"813","num_nodes":"41","size_leaf_vector":"1"}},{"base_weights":[-2.6537806E-3,-1.4719705E-1,8.1046134E-1,-1.0150923E-1,-6.95587E-2,8.642869E-1,-2.3765545E-2,-1.3036264E-1,6.662539E-2,2.9328805E-1,1.0538985E0,-6.813432E-2,-7.155755E-1,-1.6431618E-1,5.4097265E-2,1.1203408E0,-1.951553E-2,4.3774948E-2,-4.3850625E-1,-8.653284E-1,4.9034718E-1,-4.0525407E-1,4.1482795E-2,1.1830754E0,3.7587294E-1,-8.8779087E-4,3.8179707E-2,-1.5469645E-2,-5.4744918E-2,-4.9017098E-2,2.5646046E-2,3.7491884E-2,2.5680847E-4,-3.409099E-2,2.0121444E-2,6.285717E-2,2.2866175E-2,-1.019704E-2,4.0921483E-2],"categories":[],"categories_nodes":[],"categories_segments":[],"categories_sizes":[],"default_left":[0,0,0,0,0,0,0,0,0,0,0,0,0,0,0,0,0,0,0,0,0,0,0,0,0,0,0,0,0,0,0,0,0,0,0,0,0,0,0],"id":24,"left_children":[1,3,5,7,-1,9,-1,11,-1,13,15,17,19,21,-1,23,-1,25,27,29,31,33,-1,35,37,-1,-1,-1,-1,-1,-1,-1,-1,-1,-1,-1,-1,-1,-1],"loss_changes":[3.8111275E1,1.5505864E1,3.7980614E0,1.1206062E1,0E0,4.815422E0,0E0,9.502882E0,0E0,4.9361076E0,3.8098602E0,9.891386E0,4.9578934E0,2.5423102E0,0E0,1.1366844E0,0E0,8.15528E0,4.3528585E0,4.1000443E0,4.256705E-1,2.0806909E0,0E0,1.078701E0,1.2182434E0,0E0,0E0,0E0,0E0,0E0,0E0,0E0,0E0,0E0,0E0,0E0,0E0,0E0,0E0],"parents":[2147483647,0,0,1,1,2,2,3,3,5,5,7,7,9,9,10,10,11,11,12,12,13,13,15,15,17,17,18,18,19,19,20,20,21,21,23,23,24,24],"right_children":[2,4,6,8,-1,10,-1,12,-1,14,16,18,20,22,-1,24,-1,26,28,30,32,34,-1,36,38,-1,-1,-1,-1,-1,-1,-1,-1,-1,-1,-1,-1,-1,-1],"split_conditions":[1E0,1E0,1E0,1E0,-6.95587E-2,1E0,-2.3765545E-2,1E0,6.662539E-2,1E0,1E0,1E0,1E0,1E0,5.4097265E-2,1E0,-1.951553E-2,1E0,1E0,1E0,1E0,1E0,4.1482795E-2,1E0,1E0,-8.8779087E-4,3.8179707E-2,-1.5469645E-2,-5.4744918E-2,-4.9017098E-2,2.5646046E-2,3.7491884E-2,2.5680847E-4,-3.409099E-2,2.0121444E-2,6.285717E-2,2.2866175E-2,-1.019704E-2,4.0921483E-2],"split_indices":[44,161,345,127,0,544,0,600,0,432,162,437,723,334,0,616,0,595,192,666,684,362,0,684,432,0,0,0,0,0,0,0,0,0,0,0,0,0,0],"split_type":[0,0,0,0,0,0,0,0,0,0,0,0,0,0,0,0,0,0,0,0,0,0,0,0,0,0,0,0,0,0,0,0,0,0,0,0,0,0,0],"sum_hessian":[3.222526E2,2.7430905E2,4.794353E1,2.6563464E2,8.674423E0,4.633178E1,1.6117527E0,2.6128647E2,4.348173E0,1.2184872E1,3.4146908E1,2.3718224E2,2.4104227E1,8.211782E0,3.9730892E0,3.285943E1,1.2874795E0,1.8282329E2,5.435894E1,2.1692823E1,2.4114046E0,7.086347E0,1.1254356E0,2.976227E1,3.0971568E0,1.6932462E2,1.3498682E1,4.6653484E1,7.7054577E0,2.0288475E1,1.404349E0,1.2158072E0,1.1955974E0,5.394874E0,1.6914729E0,2.6341724E1,3.4205449E0,1.5740707E0,1.5230861E0],"tree_param":{"num_deleted":"0","num_feature":"813","num_nodes":"39","size_leaf_vector":"1"}},{"base_weights":[1.9624453E-2,-9.521877E-2,7.412682E-1,-1.5923667E-1,5.9873786E-2,4.217514E-1,1.0430558E0,-1.1937443E-1,-6.662998E-2,5.8388054E-1,-4.210542E-1,1.1816084E0,7.615474E-2,-1.4653729E-1,6.6508465E-2,7.3877025E-1,-3.037014E-2,-6.46318E-2,-3.7749913E-2,6.364366E-2,4.860214E-3,-2.1706002E-2,2.4470158E-2,-1.736271E-1,6.878417E-2,8.50946E-1,8.8263914E-2,-1.5901482E-2,1.2099544E-2,-9.950313E-3,7.017871E-2,1.699741E-2,5.2850958E-2,9.248663E-3,-3.6397488E-3],"categories":[],"categories_nodes":[],"categories_segments":[],"categories_sizes":[],"default_left":[0,0,0,0,0,0,0,0,0,0,0,0,0,0,0,0,0,0,0,0,0,0,0,0,0,0,0,0,0,0,0,0,0,0,0],"id":25,"left_children":[1,3,5,7,-1,9,11,13,-1,15,17,19,21,23,-1,25,-1,27,-1,-1,-1,-1,-1,29,-1,31,33,-1,-1,-1,-1,-1,-1,-1,-1],"loss_changes":[2.713454E1,2.357841E1,3.8942566E0,1.2477051E1,0E0,3.458537E0,2.91576E0,1.0525852E1,0E0,4.1644187E0,4.718423E-1,1.8116398E0,1.030843E0,1.0896708E1,0E0,1.2581854E0,0E0,3.2633087E-1,0E0,0E0,0E0,0E0,0E0,1.0479451E1,0E0,1.2695379E0,7.2702125E-2,0E0,0E0,0E0,0E0,0E0,0E0,0E0,0E0],"parents":[2147483647,0,0,1,1,2,2,3,3,5,5,6,6,7,7,9,9,10,10,11,11,12,12,13,13,15,15,17,17,23,23,25,25,26,26],"right_children":[2,4,6,8,-1,10,12,14,-1,16,18,20,22,24,-1,26,-1,28,-1,-1,-1,-1,-1,30,-1,32,34,-1,-1,-1,-1,-1,-1,-1,-1],"split_conditions":[1E0,1E0,1E0,1E0,5.9873786E-2,1E0,1E0,1E0,-6.662998E-2,1E0,1E0,1E0,1E0,1E0,6.6508465E-2,1E0,-3.037014E-2,1E0,-3.7749913E-2,6.364366E-2,4.860214E-3,-2.1706002E-2,2.4470158E-2,1E0,6.878417E-2,1E0,1E0,-1.5901482E-2,1.2099544E-2,-9.950313E-3,7.017871E-2,1.699741E-2,5.2850958E-2,9.248663E-3,-3.6397488E-3],"split_indices":[44,43,432,161,0,677,684,127,0,616,704,660,557,56,0,667,0,572,0,0,0,0,0,164,0,544,198,0,0,0,0,0,0,0,0],"split_type":[0,0,0,0,0,0,0,0,0,0,0,0,0,0,0,0,0,0,0,0,0,0,0,0,0,0,0,0,0,0,0,0,0,0,0],"sum_hessian":[3.2556006E2,2.8161206E2,4.3948013E1,2.6915933E2,1.2452716E1,2.2511515E1,2.1436499E1,2.6138126E2,7.7780743E0,1.9137318E1,3.3741963E0,1.855552E1,2.880981E0,2.5745572E2,3.92553E0,1.727154E1,1.8657783E0,2.2095056E0,1.1646907E0,1.6954784E1,1.6007335E0,1.266551E0,1.61443E0,2.5382455E2,3.6311855E0,1.4468422E1,2.8031185E0,1.1893806E0,1.0201249E0,2.5066486E2,3.1596918E0,4.919422E0,9.549E0,1.6586713E0,1.1444472E0],"tree_param":{"num_deleted":"0","num_feature":"813","num_nodes":"35","size_leaf_vector":"1"}},{"base_weights":[4.304366E-3,-1.2761275E-1,7.9551756E-1,-1.9225064E-1,5.8824856E-2,8.9871144E-1,-2.96941E-1,-2.2074004E-1,7.0035785E-2,9.4888294E-1,-2.3841979E-2,-5.3484827E-2,4.5541614E-2,-1.6431864E-1,-1.0363448E0,1.0005941E0,-2.0427449E-2,-1.993865E-1,6.647026E-2,-1.1251042E0,3.380425E-3,1.0514376E0,-4.08219E-4,-1.1192312E-2,8.2166016E-2,-6.1595555E-2,-9.670659E-4,5.53203E-2,7.901995E-3],"categories":[],"categories_nodes":[],"categories_segments":[],"categories_sizes":[],"default_left":[0,0,0,0,0,0,0,0,0,0,0,0,0,0,0,0,0,0,0,0,0,0,0,0,0,0,0,0,0],"id":26,"left_children":[1,3,5,7,-1,9,11,13,-1,15,-1,-1,-1,17,19,21,-1,23,-1,25,-1,27,-1,-1,-1,-1,-1,-1,-1],"loss_changes":[3.277972E1,2.2918964E1,5.326277E0,1.1988579E1,0E0,3.29953E0,5.2909184E0,1.1504164E1,0E0,3.2261505E0,0E0,0E0,0E0,1.275651E1,1.6659946E0,2.006466E0,0E0,1.0908824E1,0E0,1.7566051E0,0E0,1.6466866E0,0E0,0E0,0E0,0E0,0E0,0E0,0E0],"parents":[2147483647,0,0,1,1,2,2,3,3,5,5,6,6,7,7,9,9,13,13,14,14,15,15,17,17,19,19,21,21],"right_children":[2,4,6,8,-1,10,12,14,-1,16,-1,-1,-1,18,20,22,-1,24,-1,26,-1,28,-1,-1,-1,-1,-1,-1,-1],"split_conditions":[1E0,1E0,1E0,1E0,5.8824856E-2,1E0,1E0,1E0,7.0035785E-2,1E0,-2.3841979E-2,-5.3484827E-2,4.5541614E-2,1E0,1E0,1E0,-2.0427449E-2,1E0,6.647026E-2,1E0,3.380425E-3,1E0,-4.08219E-4,-1.1192312E-2,8.2166016E-2,-6.1595555E-2,-9.670659E-4,5.53203E-2,7.901995E-3],"split_indices":[44,43,543,0,0,270,572,168,0,65,0,0,0,516,293,193,0,128,0,256,0,602,0,0,0,0,0,0,0],"split_type":[0,0,0,0,0,0,0,0,0,0,0,0,0,0,0,0,0,0,0,0,0,0,0,0,0,0,0,0,0],"sum_hessian":[3.1208588E2,2.6820706E2,4.387882E1,2.5635355E2,1.1853518E1,4.0253788E1,3.625032E0,2.5269563E2,3.657905E0,3.9136513E1,1.117275E0,2.2803473E0,1.3446846E0,2.3746959E2,1.5226052E1,3.7953556E1,1.1829574E0,2.3286908E2,4.6005054E0,1.4075225E1,1.1508273E0,3.609213E1,1.8614266E0,2.3068553E2,2.1835515E0,1.2731402E1,1.3438222E0,3.377558E1,2.3165457E0],"tree_param":{"num_deleted":"0","num_feature":"813","num_nodes":"29","size_leaf_vector":"1"}},{"base_weights":[-1.2067065E-2,-1.385175E-1,7.296565E-1,-1.7240784E-1,6.758866E-2,3.1322286E-1,9.445027E-1,-1.9972754E-1,7.6871544E-2,5.378611E-1,-6.322592E-1,1.0660864E0,-1.0321511E-1,-2.2859496E-1,6.3445E-2,9.2972E-2,9.924176E-1,-4.7469076E-2,-6.104169E-3,1.157964E0,-1.4335572E-2,-2.457513E-2,1.9181566E-2,-1.9229682E-1,-6.511143E-2,-2.116344E-1,4.518827E-2,5.993656E-2,-2.0787157E-3,1.2180368E0,7.3101535E-3,1.1815005E-2,-1.3591401E-2,-1.0633406E-2,7.681346E-2,-2.5681673E-2,8.1463475E-3,6.247964E-2,2.0226885E-2],"categories":[],"categories_nodes":[],"categories_segments":[],"categories_sizes":[],"default_left":[0,0,0,0,0,0,0,0,0,0,0,0,0,0,0,0,0,0,0,0,0,0,0,0,0,0,0,0,0,0,0,0,0,0,0,0,0,0,0],"id":27,"left_children":[1,3,5,7,-1,9,11,13,-1,15,17,19,21,23,-1,25,27,-1,-1,29,31,-1,-1,33,-1,35,-1,-1,-1,37,-1,-1,-1,-1,-1,-1,-1,-1,-1],"loss_changes":[3.0250526E1,1.4146231E1,3.9073772E0,1.2930357E1,0E0,4.05371E0,3.9945984E0,1.1604152E1,0E0,2.874104E0,5.015433E-1,2.7376957E0,9.603055E-1,9.982288E0,0E0,2.294599E0,1.5755615E0,0E0,0E0,1.3581734E0,2.6663044E-1,0E0,0E0,9.311674E0,0E0,8.756108E-1,0E0,0E0,0E0,1.0347366E-1,0E0,0E0,0E0,0E0,0E0,0E0,0E0,0E0,0E0],"parents":[2147483647,0,0,1,1,2,2,3,3,5,5,6,6,7,7,9,9,10,10,11,11,12,12,13,13,15,15,16,16,19,19,20,20,23,23,25,25,29,29],"right_children":[2,4,6,8,-1,10,12,14,-1,16,18,20,22,24,-1,26,28,-1,-1,30,32,-1,-1,34,-1,36,-1,-1,-1,38,-1,-1,-1,-1,-1,-1,-1,-1,-1],"split_conditions":[1E0,1E0,1E0,1E0,6.758866E-2,1E0,1E0,1E0,7.6871544E-2,1E0,1E0,1E0,1E0,1E0,6.3445E-2,1E0,1E0,-4.7469076E-2,-6.104169E-3,1E0,1E0,-2.457513E-2,1.9181566E-2,1E0,-6.511143E-2,1E0,4.518827E-2,5.993656E-2,-2.0787157E-3,1E0,7.3101535E-3,1.1815005E-2,-1.3591401E-2,-1.0633406E-2,7.681346E-2,-2.5681673E-2,8.1463475E-3,6.247964E-2,2.0226885E-2],"split_indices":[44,144,452,135,0,677,684,53,0,298,437,660,557,161,0,308,557,0,0,329,298,0,0,121,0,245,0,0,0,343,0,0,0,0,0,0,0,0,0],"split_type":[0,0,0,0,0,0,0,0,0,0,0,0,0,0,0,0,0,0,0,0,0,0,0,0,0,0,0,0,0,0,0,0,0,0,0,0,0,0,0],"sum_hessian":[3.2045273E2,2.7447324E2,4.597947E1,2.6923495E2,5.2382936E0,1.6484898E1,2.9494572E1,2.658701E2,3.3648667E0,1.3668506E1,2.8163922E0,2.6412025E1,3.0825462E0,2.6157294E2,4.297142E0,7.5164475E0,6.1520576E0,1.2059128E0,1.6104794E0,2.427587E1,2.1361563E0,1.7095333E0,1.373013E0,2.5415926E2,7.4136786E0,6.000938E0,1.5155096E0,4.9958963E0,1.1561611E0,2.2722834E1,1.5530348E0,1.1241977E0,1.0119585E0,2.5206561E2,2.093647E0,3.116717E0,2.884221E0,2.1358265E1,1.3645697E0],"tree_param":{"num_deleted":"0","num_feature":"813","num_nodes":"39","size_leaf_vector":"1"}},{"base_weights":[2.9703163E-2,-2.056482E-2,5.8406223E-2,1.6950594E-2,-1.0597886E0,5.0226584E-2,-5.753882E-2,-1.119485E0,-1.3952412E-2,9.723422E-2,-7.8525525E-1,-1.1897371E0,-1.5622717E-2,1.3575603E-1,-8.470766E-1,-9.6715724E-1,3.3681076E-2,-1.994099E-2,-6.397438E-2,9.138136E-3,-2.9817302E-2,3.6895182E-2,-5.6129098E-2,-5.719235E-2,9.615217E-5],"categories":[],"categories_nodes":[],"categories_segments":[],"categories_sizes":[],"default_left":[0,0,0,0,0,0,0,0,0,0,0,0,0,0,0,0,0,0,0,0,0,0,0,0,0],"id":28,"left_children":[1,3,-1,5,7,9,-1,11,-1,13,15,17,-1,19,21,23,-1,-1,-1,-1,-1,-1,-1,-1,-1],"loss_changes":[1.7846014E1,1.1684549E1,0E0,1.1318706E1,1.7428017E-1,1.1180317E1,0E0,1.5939617E-1,0E0,9.884289E0,4.677307E0,7.618141E-2,0E0,9.018549E0,5.4851227E0,2.3820982E0,0E0,0E0,0E0,0E0,0E0,0E0,0E0,0E0,0E0],"parents":[2147483647,0,0,1,1,3,3,4,4,5,5,7,7,9,9,10,10,11,11,13,13,14,14,15,15],"right_children":[2,4,-1,6,8,10,-1,12,-1,14,16,18,-1,20,22,24,-1,-1,-1,-1,-1,-1,-1,-1,-1],"split_conditions":[1E0,1E0,5.8406223E-2,1E0,1E0,1E0,-5.753882E-2,1E0,-1.3952412E-2,1E0,1E0,1E0,-1.5622717E-2,1E0,1E0,1E0,3.3681076E-2,-1.994099E-2,-6.397438E-2,9.138136E-3,-2.9817302E-2,3.6895182E-2,-5.6129098E-2,-5.719235E-2,9.615217E-5],"split_indices":[43,46,0,161,602,562,0,397,0,133,526,544,0,62,795,287,0,0,0,0,0,0,0,0,0],"split_type":[0,0,0,0,0,0,0,0,0,0,0,0,0,0,0,0,0,0,0,0,0,0,0,0,0],"sum_hessian":[3.1043094E2,2.9824365E2,1.2187273E1,2.8880176E2,9.441898E0,2.8173044E2,7.071309E0,8.368179E0,1.0737193E0,2.6756003E2,1.4170406E1,7.261822E0,1.1063572E0,2.5789578E2,9.664253E0,1.28991165E1,1.2712903E0,1.2948388E0,5.9669833E0,2.4304102E2,1.4854776E1,1.1825703E0,8.481683E0,1.0757405E1,2.1417108E0],"tree_param":{"num_deleted":"0","num_feature":"813","num_nodes":"25","size_leaf_vector":"1"}},{"base_weights":[2.174412E-2,-8.651173E-2,6.9227165E-1,-1.3935518E-1,5.6849893E-2,7.7038497E-1,-2.8772244E-2,-1.9128515E-1,6.7058206E-1,8.574245E-1,-5.894121E-2,-2.2346303E-1,6.3523196E-2,2.3422775E-1,6.672728E-2,9.2072237E-1,-1.183519E-1,-4.699632E-1,3.685258E-2,-2.5403294E-1,6.689233E-2,-3.3804354E-1,7.736143E-2,9.9485636E-1,1.3037185E-1,-7.5286077E-3,-1.5063476E-3,-3.0089993E-2,-7.250834E-3,-1.42292995E-2,6.256936E-2,-1.3509281E-3,-5.002756E-2,5.1804375E-2,1.8275638E-4,1.458465E-2,-7.5210677E-3],"categories":[],"categories_nodes":[],"categories_segments":[],"categories_sizes":[],"default_left":[0,0,0,0,0,0,0,0,0,0,0,0,0,0,0,0,0,0,0,0,0,0,0,0,0,0,0,0,0,0,0,0,0,0,0,0,0],"id":29,"left_children":[1,3,5,7,-1,9,-1,11,13,15,17,19,-1,21,-1,23,25,27,-1,29,-1,31,-1,33,35,-1,-1,-1,-1,-1,-1,-1,-1,-1,-1,-1,-1],"loss_changes":[2.2781038E1,1.7640438E1,4.762993E0,1.1067544E1,0E0,3.047451E0,0E0,1.1816857E1,4.291968E0,2.433693E0,1.9427053E0,1.1831276E1,0E0,8.640424E0,0E0,1.947937E0,4.5002736E-3,7.673329E-2,0E0,1.1256071E1,0E0,1.6924146E0,0E0,1.3149452E0,2.3374937E-1,0E0,0E0,0E0,0E0,0E0,0E0,0E0,0E0,0E0,0E0,0E0,0E0],"parents":[2147483647,0,0,1,1,2,2,3,3,5,5,7,7,8,8,9,9,10,10,11,11,13,13,15,15,16,16,17,17,19,19,21,21,23,23,24,24],"right_children":[2,4,6,8,-1,10,-1,12,14,16,18,20,-1,22,-1,24,26,28,-1,30,-1,32,-1,34,36,-1,-1,-1,-1,-1,-1,-1,-1,-1,-1,-1,-1],"split_conditions":[1E0,1E0,1E0,1E0,5.6849893E-2,1E0,-2.8772244E-2,1E0,1E0,1E0,1E0,1E0,6.3523196E-2,1E0,6.672728E-2,1E0,1E0,1E0,3.685258E-2,1E0,6.689233E-2,1E0,7.736143E-2,1E0,1E0,-7.5286077E-3,-1.5063476E-3,-3.0089993E-2,-7.250834E-3,-1.42292995E-2,6.256936E-2,-1.3509281E-3,-5.002756E-2,5.1804375E-2,1.8275638E-4,1.458465E-2,-7.5210677E-3],"split_indices":[44,43,581,224,0,329,0,54,248,382,246,56,0,374,0,660,467,376,0,172,0,709,0,587,432,0,0,0,0,0,0,0,0,0,0,0,0],"split_type":[0,0,0,0,0,0,0,0,0,0,0,0,0,0,0,0,0,0,0,0,0,0,0,0,0,0,0,0,0,0,0,0,0,0,0,0,0],"sum_hessian":[3.1201297E2,2.6939108E2,4.2621883E1,2.590872E2,1.0303888E1,4.05176E1,2.1042805E0,2.4419424E2,1.48929405E1,3.663844E1,3.8791623E0,2.397634E2,4.430852E0,9.803131E0,5.089809E0,3.4459496E1,2.1789417E0,2.8283124E0,1.05085E0,2.3598027E2,3.783118E0,7.3445506E0,2.4585805E0,3.1267855E1,3.1916425E0,1.0784141E0,1.1005276E0,1.4059122E0,1.4224002E0,2.3208107E2,3.8992085E0,5.70638E0,1.6381706E0,2.9975668E1,1.2921873E0,2.0024045E0,1.1892381E0],"tree_param":{"num_deleted":"0","num_feature":"813","num_nodes":"37","size_leaf_vector":"1"}},{"base_weights":[2.8257562E-2,8.262527E-2,-7.495007E-1,1.19038224E-1,-5.7575848E-2,-9.300994E-1,2.6015813E-2,1.9969226E-1,-3.5692605E-1,1.11608645E-2,-1.0382131E0,1.6330618E-1,1.3616545E0,-4.4884038E-1,5.929978E-2,-1.1169496E0,2.2787084E-3,1.992175E-1,-8.408885E-1,7.321884E-2,2.0704718E-2,-5.8010226E-1,6.636614E-1,-1.1617045E0,-1.2408892E-2,6.8924897E-3,4.192274E-2,-5.4636326E-2,1.898547E-2,-3.3500917E-2,4.5075685E-2,5.302831E-2,5.0976914E-3,-6.2022623E-2,-2.1157227E-2],"categories":[],"categories_nodes":[],"categories_segments":[],"categories_sizes":[],"default_left":[0,0,0,0,0,0,0,0,0,0,0,0,0,0,0,0,0,0,0,0,0,0,0,0,0,0,0,0,0,0,0,0,0,0,0],"id":30,"left_children":[1,3,5,7,-1,9,-1,11,13,-1,15,17,19,21,-1,23,-1,25,27,-1,-1,29,31,33,-1,-1,-1,-1,-1,-1,-1,-1,-1,-1,-1],"loss_changes":[1.3290363E1,1.3317675E1,5.1941013E0,1.1042764E1,0E0,2.518589E0,0E0,1.0137339E1,6.4562144E0,0E0,1.4969139E0,8.776472E0,1.04519844E-1,6.2478313E0,0E0,3.2745552E-1,0E0,8.957692E0,3.0074573E0,0E0,0E0,5.459263E0,9.404938E-1,3.352604E-1,0E0,0E0,0E0,0E0,0E0,0E0,0E0,0E0,0E0,0E0,0E0],"parents":[2147483647,0,0,1,1,2,2,3,3,5,5,7,7,8,8,10,10,11,11,12,12,13,13,15,15,17,17,18,18,21,21,22,22,23,23],"right_children":[2,4,6,8,-1,10,-1,12,14,-1,16,18,20,22,-1,24,-1,26,28,-1,-1,30,32,34,-1,-1,-1,-1,-1,-1,-1,-1,-1,-1,-1],"split_conditions":[1E0,1E0,1E0,1E0,-5.7575848E-2,1E0,2.6015813E-2,1E0,1E0,1.11608645E-2,1E0,1E0,1E0,1E0,5.929978E-2,1E0,2.2787084E-3,1E0,1E0,7.321884E-2,2.0704718E-2,1E0,1E0,1E0,-1.2408892E-2,6.8924897E-3,4.192274E-2,-5.4636326E-2,1.898547E-2,-3.3500917E-2,4.5075685E-2,5.302831E-2,5.0976914E-3,-6.2022623E-2,-2.1157227E-2],"split_indices":[168,161,411,190,0,795,0,516,703,0,620,133,197,314,0,660,0,614,292,0,0,106,709,724,0,0,0,0,0,0,0,0,0,0,0],"split_type":[0,0,0,0,0,0,0,0,0,0,0,0,0,0,0,0,0,0,0,0,0,0,0,0,0,0,0,0,0,0,0,0,0,0,0],"sum_hessian":[3.1184036E2,2.9230136E2,1.9539005E1,2.848019E2,7.4994407E0,1.7340324E1,2.198682E0,2.4403044E2,4.077148E1,1.394942E0,1.5945382E1,2.3772673E2,6.303713E0,3.914844E1,1.6230391E0,1.4836893E1,1.1084887E0,2.3029277E2,7.4339566E0,5.195109E0,1.1086041E0,3.5444923E1,3.7035155E0,1.3789351E1,1.047542E0,2.1123003E2,1.906274E1,6.249334E0,1.1846228E0,3.393336E1,1.5115628E0,1.6497118E0,2.0538037E0,1.18466625E1,1.9426881E0],"tree_param":{"num_deleted":"0","num_feature":"813","num_nodes":"35","size_leaf_vector":"1"}},{"base_weights":[3.4664936E-2,-2.2278579E-2,6.89659E-1,-4.3643244E-2,7.736471E-2,7.8350174E-1,-3.5155144E-2,-6.508022E-2,7.601784E-2,8.8245714E-1,-3.093337E-2,-2.4498342E-2,-8.812018E-1,9.910931E-1,-2.306181E-2,6.6230674E-3,-1.0698817E0,-1.0481604E0,1.2092992E-2,1.1061945E0,-1.3565967E-2,-9.016104E-4,6.410636E-2,-6.2398404E-2,-2.48386E-3,-5.8065932E-2,-5.052191E-3,6.1842997E-2,-1.9906651E-2],"categories":[],"categories_nodes":[],"categories_segments":[],"categories_sizes":[],"default_left":[0,0,0,0,0,0,0,0,0,0,0,0,0,0,0,0,0,0,0,0,0,0,0,0,0,0,0,0,0],"id":31,"left_children":[1,3,5,7,-1,9,-1,11,-1,13,-1,15,17,19,-1,21,23,25,-1,27,-1,-1,-1,-1,-1,-1,-1,-1,-1],"loss_changes":[1.1772852E1,9.825378E0,3.8504066E0,9.756649E0,0E0,3.8932457E0,0E0,9.421447E0,0E0,3.8066502E0,0E0,8.877122E0,2.7805815E0,3.4310722E0,0E0,8.380478E0,1.371151E0,1.1602325E0,0E0,4.4126663E0,0E0,0E0,0E0,0E0,0E0,0E0,0E0,0E0,0E0],"parents":[2147483647,0,0,1,1,2,2,3,3,5,5,7,7,9,9,11,11,12,12,13,13,15,15,16,16,17,17,19,19],"right_children":[2,4,6,8,-1,10,-1,12,-1,14,-1,16,18,20,-1,22,24,26,-1,28,-1,-1,-1,-1,-1,-1,-1,-1,-1],"split_conditions":[1E0,1E0,1E0,1E0,7.736471E-2,1E0,-3.5155144E-2,1E0,7.601784E-2,1E0,-3.093337E-2,1E0,1E0,1E0,-2.306181E-2,1E0,1E0,1E0,1.2092992E-2,1E0,-1.3565967E-2,-9.016104E-4,6.410636E-2,-6.2398404E-2,-2.48386E-3,-5.8065932E-2,-5.052191E-3,6.1842997E-2,-1.9906651E-2],"split_indices":[614,5,133,177,0,345,0,206,0,601,0,2,723,420,0,144,697,380,0,352,0,0,0,0,0,0,0,0,0],"split_type":[0,0,0,0,0,0,0,0,0,0,0,0,0,0,0,0,0,0,0,0,0,0,0,0,0,0,0,0,0],"sum_hessian":[3.142339E2,2.8998895E2,2.4244915E1,2.8705383E2,2.9351168E0,2.3124275E1,1.1206399E0,2.8411798E2,2.9358757E0,2.1946117E1,1.1781566E0,2.716406E2,1.2477386E1,2.0547304E1,1.3988135E0,2.6475247E2,6.8881044E0,1.0920586E1,1.5568014E0,1.8943832E1,1.6034728E0,2.6069907E2,4.053406E0,5.6743417E0,1.2137626E0,9.553057E0,1.3675286E0,1.7593468E1,1.3503639E0],"tree_param":{"num_deleted":"0","num_feature":"813","num_nodes":"29","size_leaf_vector":"1"}},{"base_weights":[2.265827E-3,-1.178231E-1,8.054918E-1,-1.6878091E-1,5.5924833E-2,8.9724654E-1,-2.1112844E-1,-1.9473499E-1,6.674894E-2,9.711388E-1,-1.4741853E-2,-3.4870565E-2,2.2978595E-2,-2.1612465E-1,7.851177E-2,1.0147038E0,-3.5664183E-3,-2.6278195E-1,6.192002E-1,1.0720015E0,1.1345138E-1,-1.4607399E-2,5.420812E-2,4.399852E-2,-4.8818767E-2,5.607717E-2,-1.5373494E-3,-5.004729E-4,9.2779705E-3],"categories":[],"categories_nodes":[],"categories_segments":[],"categories_sizes":[],"default_left":[0,0,0,0,0,0,0,0,0,0,0,0,0,0,0,0,0,0,0,0,0,0,0,0,0,0,0,0,0],"id":32,"left_children":[1,3,5,7,-1,9,11,13,-1,15,-1,-1,-1,17,-1,19,-1,21,23,25,27,-1,-1,-1,-1,-1,-1,-1,-1],"loss_changes":[3.0069483E1,1.7274803E1,3.9714336E0,1.0459696E1,0E0,3.5788727E0,1.6792303E0,1.0071022E1,0E0,1.6814308E0,0E0,0E0,0E0,1.0123306E1,0E0,1.6379738E0,0E0,9.918657E0,6.608446E0,1.778305E0,2.994629E-2,0E0,0E0,0E0,0E0,0E0,0E0,0E0,0E0],"parents":[2147483647,0,0,1,1,2,2,3,3,5,5,6,6,7,7,9,9,13,13,15,15,17,17,18,18,19,19,20,20],"right_children":[2,4,6,8,-1,10,12,14,-1,16,-1,-1,-1,18,-1,20,-1,22,24,26,28,-1,-1,-1,-1,-1,-1,-1,-1],"split_conditions":[1E0,1E0,1E0,1E0,5.5924833E-2,1E0,1E0,1E0,6.674894E-2,1E0,-1.4741853E-2,-3.4870565E-2,2.2978595E-2,1E0,7.851177E-2,1E0,-3.5664183E-3,1E0,1E0,1E0,1E0,-1.4607399E-2,5.420812E-2,4.399852E-2,-4.8818767E-2,5.607717E-2,-1.5373494E-3,-5.004729E-4,9.2779705E-3],"split_indices":[44,43,343,0,0,345,277,128,0,581,0,0,0,313,0,250,0,172,635,359,452,0,0,0,0,0,0,0,0],"split_type":[0,0,0,0,0,0,0,0,0,0,0,0,0,0,0,0,0,0,0,0,0,0,0,0,0,0,0,0,0],"sum_hessian":[3.0975085E2,2.7020612E2,3.9544735E1,2.603391E2,9.8670025E0,3.6378803E1,3.1659343E0,2.5677777E2,3.5613458E0,3.4429974E1,1.9488268E0,1.8121976E0,1.3537366E0,2.5457018E2,2.207586E0,3.3074417E1,1.3555572E0,2.4175244E2,1.2817735E1,3.091925E1,2.155168E0,2.3736063E2,4.391821E0,1.1402654E1,1.4150803E0,2.9573587E1,1.3456619E0,1.1121581E0,1.04301E0],"tree_param":{"num_deleted":"0","num_feature":"813","num_nodes":"29","size_leaf_vector":"1"}},{"base_weights":[-2.68428E-2,-1.2326832E-1,6.2950724E-1,-1.7343634E-1,5.5170912E-2,7.105555E-1,-5.326892E-2,-1.9917317E-1,8.410915E-2,8.4584E-1,-1.4212218E-1,-2.3128505E-1,6.2163223E-2,9.0363336E-1,-1.1343885E-2,-3.7926283E-2,3.1650952E-1,-2.5572655E-1,7.445537E-2,9.6032953E-1,1.1545162E-1,-7.3082796E-3,2.7138768E-2,-1.41575625E-2,6.520074E-2,5.130892E-2,1.1694272E-2,-2.5755858E-2,3.450536E-2],"categories":[],"categories_nodes":[],"categories_segments":[],"categories_sizes":[],"default_left":[0,0,0,0,0,0,0,0,0,0,0,0,0,0,0,0,0,0,0,0,0,0,0,0,0,0,0,0,0],"id":33,"left_children":[1,3,5,7,-1,9,-1,11,-1,13,15,17,-1,19,-1,-1,21,23,-1,25,27,-1,-1,-1,-1,-1,-1,-1,-1],"loss_changes":[1.973757E1,1.6910933E1,6.2454567E0,1.2841541E1,0E0,4.587988E0,0E0,1.2292856E1,0E0,2.2862968E0,1.9814377E0,1.1077397E1,0E0,1.3216019E0,0E0,0E0,5.229405E-1,1.11347065E1,0E0,1.18396E0,1.546844E0,0E0,0E0,0E0,0E0,0E0,0E0,0E0,0E0],"parents":[2147483647,0,0,1,1,2,2,3,3,5,5,7,7,9,9,10,10,11,11,13,13,16,16,17,17,19,19,20,20],"right_children":[2,4,6,8,-1,10,-1,12,-1,14,16,18,-1,20,-1,-1,22,24,-1,26,28,-1,-1,-1,-1,-1,-1,-1,-1],"split_conditions":[1E0,1E0,1E0,1E0,5.5170912E-2,1E0,-5.326892E-2,1E0,8.410915E-2,1E0,1E0,1E0,6.2163223E-2,1E0,-1.1343885E-2,-3.7926283E-2,1E0,1E0,7.445537E-2,1E0,1E0,-7.3082796E-3,2.7138768E-2,-1.41575625E-2,6.520074E-2,5.130892E-2,1.1694272E-2,-2.5755858E-2,3.450536E-2],"split_indices":[44,43,581,50,0,304,0,53,0,400,432,5,0,616,0,0,231,0,0,655,277,0,0,0,0,0,0,0,0],"split_type":[0,0,0,0,0,0,0,0,0,0,0,0,0,0,0,0,0,0,0,0,0,0,0,0,0,0,0,0,0],"sum_hessian":[3.0963855E2,2.7068408E2,3.895447E1,2.608737E2,9.810386E0,3.773097E1,1.2235034E0,2.581854E2,2.6882806E0,3.257128E1,5.159688E0,2.5338417E2,4.8012404E0,3.1055754E1,1.5155274E0,1.9222652E0,3.237423E0,2.5067421E2,2.709956E0,2.8767979E1,2.2877755E0,1.1795181E0,2.057905E0,2.4714713E2,3.5270884E0,2.5998709E1,2.76927E0,1.1402203E0,1.1475552E0],"tree_param":{"num_deleted":"0","num_feature":"813","num_nodes":"29","size_leaf_vector":"1"}},{"base_weights":[2.7902612E-2,-7.052875E-2,6.5482956E-1,-1.6289158E-2,-9.144066E-1,7.2960544E-1,-2.7964432E-2,-5.4315496E-2,1.2089177E0,1.6538542E-2,-1.0521828E0,4.3348294E-1,1.0454373E0,-1.6757784E-2,-5.9863776E-2,6.882046E-2,1.9768378E-2,-1.1652839E0,9.0621095E-3,5.9223145E-1,-3.4925172E-1,5.655956E-2,9.510594E-3,2.4989137E-2,-1.0766709E0,-1.2253911E0,-1.088928E-2,7.0812297E-1,-2.992477E-2,-3.6151346E-2,1.7870843E-2,2.907262E-3,-6.1481237E-2,-6.253036E-2,-1.5014461E-2,-6.364242E-2,-1.8442301E-2,4.1552458E-2,-4.057022E-3],"categories":[],"categories_nodes":[],"categories_segments":[],"categories_sizes":[],"default_left":[0,0,0,0,0,0,0,0,0,0,0,0,0,0,0,0,0,0,0,0,0,0,0,0,0,0,0,0,0,0,0,0,0,0,0,0,0,0,0],"id":34,"left_children":[1,3,5,7,9,11,-1,13,15,-1,17,19,21,23,-1,-1,-1,25,-1,27,29,-1,-1,31,33,35,-1,37,-1,-1,-1,-1,-1,-1,-1,-1,-1,-1,-1],"loss_changes":[1.8856709E1,1.2085414E1,4.172268E0,1.1685962E1,3.0839014E0,3.2401733E0,0E0,1.0405368E1,4.8473263E-1,0E0,2.2476196E0,2.951645E0,1.1343384E0,1.0476184E1,0E0,0E0,0E0,5.023308E-1,0E0,3.0092702E0,1.4083829E0,0E0,0E0,9.56337E0,8.3598423E-1,3.8000107E-2,0E0,1.7684212E0,0E0,0E0,0E0,0E0,0E0,0E0,0E0,0E0,0E0,0E0,0E0],"parents":[2147483647,0,0,1,1,2,2,3,3,4,4,5,5,7,7,8,8,10,10,11,11,12,12,13,13,17,17,19,19,20,20,23,23,24,24,25,25,27,27],"right_children":[2,4,6,8,10,12,-1,14,16,-1,18,20,22,24,-1,-1,-1,26,-1,28,30,-1,-1,32,34,36,-1,38,-1,-1,-1,-1,-1,-1,-1,-1,-1,-1,-1],"split_conditions":[1E0,1E0,1E0,1E0,1E0,1E0,-2.7964432E-2,1E0,1E0,1.6538542E-2,1E0,1E0,1E0,1E0,-5.9863776E-2,6.882046E-2,1.9768378E-2,1E0,9.0621095E-3,1E0,1E0,5.655956E-2,9.510594E-3,1E0,1E0,1E0,-1.088928E-2,1E0,-2.992477E-2,-3.6151346E-2,1.7870843E-2,2.907262E-3,-6.1481237E-2,-6.253036E-2,-1.5014461E-2,-6.364242E-2,-1.8442301E-2,4.1552458E-2,-4.057022E-3],"split_indices":[44,168,345,516,786,432,0,161,170,0,256,647,684,46,0,0,0,198,0,168,277,0,0,125,591,284,0,329,0,0,0,0,0,0,0,0,0,0,0],"split_type":[0,0,0,0,0,0,0,0,0,0,0,0,0,0,0,0,0,0,0,0,0,0,0,0,0,0,0,0,0,0,0,0,0,0,0,0,0,0,0],"sum_hessian":[3.0382492E2,2.6336285E2,4.046208E1,2.4841545E2,1.4947407E1,3.8490562E1,1.9715154E0,2.4186444E2,6.550998E0,1.3495766E0,1.359783E1,2.1089582E1,1.7400978E1,2.3515201E2,6.7124434E0,4.8588223E0,1.6921759E0,1.25062895E1,1.0915412E0,1.7735899E1,3.3536837E0,1.5521911E1,1.8790685E0,2.2718045E2,7.9715595E0,1.1484449E1,1.0218401E0,1.6532154E1,1.203745E0,2.1783502E0,1.1753336E0,2.2226035E2,4.9200935E0,6.01351E0,1.958049E0,1.04210415E1,1.0634079E0,1.4258482E1,2.2736726E0],"tree_param":{"num_deleted":"0","num_feature":"813","num_nodes":"39","size_leaf_vector":"1"}},{"base_weights":[5.9133573E-3,5.515753E-2,-7.437771E-1,2.652501E-2,6.661903E-2,-8.588964E-1,1.4812878E-2,-1.8586755E-2,8.238421E-1,-9.340589E-1,6.4642946E-3,1.3919624E-2,-1.0109887E0,9.602732E-1,-1.0136687E-2,-1.0443227E0,1.3857265E-4,-2.211665E-2,1.0412049E0,-5.756823E-2,-1.2508354E-2,1.0555241E0,-1.2095709E-3,-5.8214128E-2,-9.48678E-3,7.8630744E-4,-4.7838848E-2,6.4561926E-2,6.586378E-4,5.8962494E-2,5.4556E-3],"categories":[],"categories_nodes":[],"categories_segments":[],"categories_sizes":[],"default_left":[0,0,0,0,0,0,0,0,0,0,0,0,0,0,0,0,0,0,0,0,0,0,0,0,0,0,0,0,0,0,0],"id":35,"left_children":[1,3,5,7,-1,9,-1,11,13,15,-1,17,19,21,-1,23,-1,25,27,-1,-1,29,-1,-1,-1,-1,-1,-1,-1,-1,-1],"loss_changes":[1.1570243E1,1.0715382E1,2.567356E0,1.0393993E1,0E0,1.4316463E0,0E0,8.855607E0,2.3618927E0,1.7097263E0,0E0,9.883922E0,6.418066E-1,1.3226652E0,0E0,1.2948971E0,0E0,9.151932E0,2.308751E0,0E0,0E0,1.350831E0,0E0,0E0,0E0,0E0,0E0,0E0,0E0,0E0,0E0],"parents":[2147483647,0,0,1,1,2,2,3,3,5,5,7,7,8,8,9,9,11,11,12,12,13,13,15,15,17,17,18,18,21,21],"right_children":[2,4,6,8,-1,10,-1,12,14,16,-1,18,20,22,-1,24,-1,26,28,-1,-1,30,-1,-1,-1,-1,-1,-1,-1,-1,-1],"split_conditions":[1E0,1E0,1E0,1E0,6.661903E-2,1E0,1.4812878E-2,1E0,1E0,1E0,6.4642946E-3,1E0,1E0,1E0,-1.0136687E-2,1E0,1.3857265E-4,1E0,1E0,-5.756823E-2,-1.2508354E-2,1E0,-1.2095709E-3,-5.8214128E-2,-9.48678E-3,7.8630744E-4,-4.7838848E-2,6.4561926E-2,6.586378E-4,5.8962494E-2,5.4556E-3],"split_indices":[168,181,620,136,0,208,0,180,742,258,0,703,432,673,0,723,0,57,338,0,0,704,0,0,0,0,0,0,0,0,0],"split_type":[0,0,0,0,0,0,0,0,0,0,0,0,0,0,0,0,0,0,0,0,0,0,0,0,0,0,0,0,0,0,0],"sum_hessian":[3.1129355E2,2.929756E2,1.831797E1,2.875501E2,5.425471E0,1.6649263E1,1.6687065E0,2.730763E2,1.4473817E1,1.5523309E1,1.1259544E0,2.6537E2,7.7062883E0,1.2832919E1,1.6408979E0,1.3785976E1,1.7373329E0,2.5732184E2,8.048155E0,6.072551E0,1.6337376E0,1.1635004E1,1.197915E0,1.1771235E1,2.0147402E0,2.4825365E2,9.068192E0,6.2677183E0,1.7804366E0,1.00722275E1,1.5627767E0],"tree_param":{"num_deleted":"0","num_feature":"813","num_nodes":"31","size_leaf_vector":"1"}},{"base_weights":[3.368428E-2,-5.5179253E-2,6.1096644E-1,-8.287807E-2,6.94487E-2,7.358306E-1,-1.4300196E-1,-1.1239361E-1,6.256794E-2,8.1423795E-1,-2.7328283E-2,-6.158451E-1,2.7329475E-2,-1.3964865E-1,6.314299E-2,8.691301E-1,-9.523014E-3,-4.228203E-2,-3.8000632E-3,-1.6264886E-1,7.7140115E-2,1.0180099E0,2.9504415E-1,-9.499791E-3,6.467488E-2,5.9193563E-2,2.0426897E-2,-2.6280908E-2,2.9836057E-2],"categories":[],"categories_nodes":[],"categories_segments":[],"categories_sizes":[],"default_left":[0,0,0,0,0,0,0,0,0,0,0,0,0,0,0,0,0,0,0,0,0,0,0,0,0,0,0,0,0],"id":36,"left_children":[1,3,5,7,-1,9,11,13,-1,15,-1,17,-1,19,-1,21,-1,-1,-1,23,-1,25,27,-1,-1,-1,-1,-1,-1],"loss_changes":[1.5539365E1,1.0629642E1,3.9090014E0,1.03344E1,0E0,3.9467735E0,2.4814484E0,9.703181E0,0E0,1.9976788E0,0E0,4.7814226E-1,0E0,9.930064E0,0E0,2.4073143E0,0E0,0E0,0E0,1.010784E1,0E0,2.0180588E0,2.27739E0,0E0,0E0,0E0,0E0,0E0,0E0],"parents":[2147483647,0,0,1,1,2,2,3,3,5,5,6,6,7,7,9,9,11,11,13,13,15,15,19,19,21,21,22,22],"right_children":[2,4,6,8,-1,10,12,14,-1,16,-1,18,-1,20,-1,22,-1,-1,-1,24,-1,26,28,-1,-1,-1,-1,-1,-1],"split_conditions":[1E0,1E0,1E0,1E0,6.94487E-2,1E0,1E0,1E0,6.256794E-2,1E0,-2.7328283E-2,1E0,2.7329475E-2,1E0,6.314299E-2,1E0,-9.523014E-3,-4.228203E-2,-3.8000632E-3,1E0,7.7140115E-2,1E0,1E0,-9.499791E-3,6.467488E-2,5.9193563E-2,2.0426897E-2,-2.6280908E-2,2.9836057E-2],"split_indices":[44,164,304,144,0,581,411,127,0,400,0,338,0,50,0,557,0,0,0,56,0,417,452,0,0,0,0,0,0],"split_type":[0,0,0,0,0,0,0,0,0,0,0,0,0,0,0,0,0,0,0,0,0,0,0,0,0,0,0,0,0],"sum_hessian":[3.0125836E2,2.618544E2,3.9403965E1,2.5785144E2,4.0029716E0,3.3826103E1,5.5778613E0,2.5316672E2,4.684708E0,3.2221127E1,1.6049752E0,3.372398E0,2.2054636E0,2.4912791E2,4.0388083E0,3.0679855E1,1.5412719E0,1.9681575E0,1.4042404E0,2.4665924E2,2.4686668E0,2.3747942E1,6.931912E0,2.4296579E2,3.6934636E0,1.7926876E1,5.8210664E0,1.6637189E0,5.2681932E0],"tree_param":{"num_deleted":"0","num_feature":"813","num_nodes":"29","size_leaf_vector":"1"}},{"base_weights":[1.1965797E-2,4.6924222E-2,-5.6382127E-2,9.931807E-2,-7.2697484E-1,1.3574046E-1,-9.6065193E-1,1.6568195E-2,-8.5900706E-1,1.6591477E-1,-6.0314186E-2,-1.1407661E0,1.1973577E-2,-1.0110731E0,1.1482961E-2,2.0356771E-1,-9.62797E-1,-6.1671305E-2,-1.2995894E-2,-5.750781E-2,-3.1913846E-4,1.1678311E-2,-4.9074203E-2,-5.6714028E-2,5.1612775E-3],"categories":[],"categories_nodes":[],"categories_segments":[],"categories_sizes":[],"default_left":[0,0,0,0,0,0,0,0,0,0,0,0,0,0,0,0,0,0,0,0,0,0,0,0,0],"id":37,"left_children":[1,3,-1,5,7,9,11,-1,13,15,-1,17,-1,19,-1,21,23,-1,-1,-1,-1,-1,-1,-1,-1],"loss_changes":[1.2212093E1,1.2118261E1,0E0,1.0906553E1,2.9337158E0,1.1163279E1,2.3043146E0,0E0,3.068634E0,1.1486206E1,0E0,3.6042404E-1,0E0,2.1192446E0,0E0,9.39773E0,1.7167292E0,0E0,0E0,0E0,0E0,0E0,0E0,0E0,0E0],"parents":[2147483647,0,0,1,1,3,3,4,4,5,5,6,6,8,8,9,9,11,11,13,13,15,15,16,16],"right_children":[2,4,-1,6,8,10,12,-1,14,16,-1,18,-1,20,-1,22,24,-1,-1,-1,-1,-1,-1,-1,-1],"split_conditions":[1E0,1E0,-5.6382127E-2,1E0,1E0,1E0,1E0,1.6568195E-2,1E0,1E0,-6.0314186E-2,1E0,1.1973577E-2,1E0,1.1482961E-2,1E0,1E0,-6.1671305E-2,-1.2995894E-2,-5.750781E-2,-3.1913846E-4,1.1678311E-2,-4.9074203E-2,-5.6714028E-2,5.1612775E-3],"split_indices":[161,168,0,46,786,125,607,0,411,49,0,199,0,724,0,140,677,0,0,0,0,0,0,0,0],"split_type":[0,0,0,0,0,0,0,0,0,0,0,0,0,0,0,0,0,0,0,0,0,0,0,0,0],"sum_hessian":[3.0420862E2,2.960848E2,8.123821E0,2.7812695E2,1.7957846E1,2.697305E2,8.396464E0,1.8243742E0,1.613347E1,2.6465628E2,5.074209E0,7.343772E0,1.0526922E0,1.4218666E1,1.9148046E0,2.5690576E2,7.750529E0,6.2826085E0,1.0611633E0,1.23624935E1,1.8561726E0,2.5134607E2,5.559686E0,6.6213655E0,1.1291631E0],"tree_param":{"num_deleted":"0","num_feature":"813","num_nodes":"25","size_leaf_vector":"1"}},{"base_weights":[1.514604E-2,-6.437366E-2,5.428222E-1,-1.08779736E-1,5.389923E-2,2.1799406E-1,8.8854724E-1,-1.3927016E-1,1.2576833E0,3.5774237E-1,-5.2541114E-2,9.676568E-1,-6.760975E-3,-1.6867295E-1,6.4787276E-2,7.064399E-2,1.8811777E-2,5.134347E-1,-4.1332912E-1,1.0594878E0,-2.43038E-3,-1.9597673E-1,5.8947157E-2,6.102488E-1,-1.21603515E-2,-3.6836483E-2,6.8612373E-3,1.1125033E0,6.6966875E-3,-7.2418824E-3,-4.748368E-2,3.6483612E-2,-1.4795962E-2,5.775779E-2,1.724891E-2],"categories":[],"categories_nodes":[],"categories_segments":[],"categories_sizes":[],"default_left":[0,0,0,0,0,0,0,0,0,0,0,0,0,0,0,0,0,0,0,0,0,0,0,0,0,0,0,0,0,0,0,0,0,0,0],"id":38,"left_children":[1,3,5,7,-1,9,11,13,15,17,-1,19,-1,21,-1,-1,-1,23,25,27,-1,29,-1,31,-1,-1,-1,33,-1,-1,-1,-1,-1,-1,-1],"loss_changes":[1.2690939E1,1.3459121E1,4.254136E0,1.0761015E1,0E0,4.231704E0,1.6583853E0,1.074293E1,2.4068356E-1,2.6533096E0,0E0,1.6968689E0,0E0,9.257162E0,0E0,0E0,0E0,1.4203882E0,8.079587E-1,6.465664E-1,0E0,9.162736E0,0E0,1.9126897E0,0E0,0E0,0E0,9.903717E-2,0E0,0E0,0E0,0E0,0E0,0E0,0E0],"parents":[2147483647,0,0,1,1,2,2,3,3,5,5,6,6,7,7,8,8,9,9,11,11,13,13,17,17,18,18,19,19,21,21,23,23,27,27],"right_children":[2,4,6,8,-1,10,12,14,16,18,-1,20,-1,22,-1,-1,-1,24,26,28,-1,30,-1,32,-1,-1,-1,34,-1,-1,-1,-1,-1,-1,-1],"split_conditions":[1E0,1E0,1E0,1E0,5.389923E-2,1E0,1E0,1E0,1E0,1E0,-5.2541114E-2,1E0,-6.760975E-3,1E0,6.4787276E-2,7.064399E-2,1.8811777E-2,1E0,1E0,1E0,-2.43038E-3,1E0,5.8947157E-2,1E0,-1.21603515E-2,-3.6836483E-2,6.8612373E-3,1E0,6.6966875E-3,-7.2418824E-3,-4.748368E-2,3.6483612E-2,-1.4795962E-2,5.775779E-2,1.724891E-2],"split_indices":[44,43,432,172,0,581,192,0,223,329,0,660,0,53,0,0,0,660,277,736,0,168,0,667,0,0,0,742,0,0,0,0,0,0,0],"split_type":[0,0,0,0,0,0,0,0,0,0,0,0,0,0,0,0,0,0,0,0,0,0,0,0,0,0,0,0,0,0,0,0,0,0,0],"sum_hessian":[3.0061584E2,2.6200955E2,3.860629E1,2.5307666E2,8.932893E0,2.0745382E1,1.7860909E1,2.484314E2,4.645266E0,1.9333975E1,1.4114069E0,1.6630617E1,1.2302909E0,2.4430809E2,4.123297E0,3.4371743E0,1.2080917E0,1.6363947E1,2.9700289E0,1.5213385E1,1.417233E0,2.4029411E2,4.013976E0,1.4679187E1,1.6847597E0,1.6579642E0,1.3120646E0,1.41981325E1,1.015252E0,2.261423E2,1.4151809E1,1.3141984E1,1.5372032E0,1.2972208E1,1.2259239E0],"tree_param":{"num_deleted":"0","num_feature":"813","num_nodes":"35","size_leaf_vector":"1"}},{"base_weights":[2.9504359E-2,-1.0766369E-2,7.3836774E-1,-3.4963734E-2,5.840124E-2,9.0550596E-1,-1.0053738E-2,-1.59785E-3,-9.549866E-1,1.0936219E0,1.9859056E-1,2.9043552E-2,-9.772216E-1,-1.1093374E0,4.425015E-3,6.090953E-2,1.749813E-2,3.5481583E-2,-2.7720183E-2,5.565668E-2,-5.6473102E-2,-1.0584671E0,-1.084213E-2,-6.0310956E-2,-1.0371966E-2,4.7154544E-4,3.466077E-2,-5.81624E-2,-1.1961599E-2],"categories":[],"categories_nodes":[],"categories_segments":[],"categories_sizes":[],"default_left":[0,0,0,0,0,0,0,0,0,0,0,0,0,0,0,0,0,0,0,0,0,0,0,0,0,0,0,0,0],"id":39,"left_children":[1,3,5,7,-1,9,-1,11,13,15,17,19,21,23,-1,-1,-1,-1,-1,25,-1,27,-1,-1,-1,-1,-1,-1,-1],"loss_changes":[8.195572E0,7.810249E0,2.605257E0,8.221596E0,0E0,1.5492706E0,0E0,7.7861123E0,1.6078634E0,5.250244E-1,1.9379612E0,7.8500504E0,2.6043034E-1,4.6971226E-1,0E0,0E0,0E0,0E0,0E0,7.298129E0,0E0,3.1466818E-1,0E0,0E0,0E0,0E0,0E0,0E0,0E0],"parents":[2147483647,0,0,1,1,2,2,3,3,5,5,7,7,8,8,9,9,10,10,11,11,12,12,13,13,19,19,21,21],"right_children":[2,4,6,8,-1,10,-1,12,14,16,18,20,22,24,-1,-1,-1,-1,-1,26,-1,28,-1,-1,-1,-1,-1,-1,-1],"split_conditions":[1E0,1E0,1E0,1E0,5.840124E-2,1E0,-1.0053738E-2,1E0,1E0,1E0,1E0,1E0,1E0,1E0,4.425015E-3,6.090953E-2,1.749813E-2,3.5481583E-2,-2.7720183E-2,1E0,-5.6473102E-2,1E0,-1.084213E-2,-6.0310956E-2,-1.0371966E-2,4.7154544E-4,3.466077E-2,-5.81624E-2,-1.1961599E-2],"split_indices":[115,590,442,49,0,657,0,46,690,667,353,55,657,343,0,0,0,0,0,625,0,324,0,0,0,0,0,0,0],"split_type":[0,0,0,0,0,0,0,0,0,0,0,0,0,0,0,0,0,0,0,0,0,0,0,0,0,0,0,0,0],"sum_hessian":[2.8581757E2,2.7138495E2,1.4432643E1,2.66877E2,4.5079174E0,1.22834015E1,2.1492417E0,2.5850375E2,8.373255E0,9.269641E0,3.0137603E0,2.5157285E2,6.930914E0,7.2393203E0,1.1339349E0,7.393131E0,1.87651E0,1.829622E0,1.1841384E0,2.468541E2,4.7187605E0,5.9076624E0,1.0232517E0,6.232414E0,1.0069064E0,2.3111224E2,1.5741846E1,4.865448E0,1.0422145E0],"tree_param":{"num_deleted":"0","num_feature":"813","num_nodes":"29","size_leaf_vector":"1"}},{"base_weights":[-3.1869991E-3,-8.527823E-2,5.460769E-1,-1.2988096E-1,5.3272177E-2,6.5024114E-1,-5.401338E-1,-1.552337E-1,8.081637E-2,1.7733774E-1,8.798899E-1,8.797771E-3,-5.538494E-2,-1.790533E-1,7.82926E-2,-4.240892E-2,3.9439636E-1,9.929865E-1,1.010058E-1,-2.0888743E-1,6.1143737E-2,6.4013994E-1,-4.740392E-2,1.0709649E0,-4.105864E-3,-1.4243315E-2,3.2331116E-2,-1.1512763E-2,7.143929E-2,4.233246E-2,-2.7245805E-2,5.5752646E-2,7.354981E-3],"categories":[],"categories_nodes":[],"categories_segments":[],"categories_sizes":[],"default_left":[0,0,0,0,0,0,0,0,0,0,0,0,0,0,0,0,0,0,0,0,0,0,0,0,0,0,0,0,0,0,0,0,0],"id":40,"left_children":[1,3,5,7,-1,9,11,13,-1,15,17,-1,-1,19,-1,-1,21,23,25,27,-1,29,-1,31,-1,-1,-1,-1,-1,-1,-1,-1,-1],"loss_changes":[1.3380036E1,1.3386742E1,4.716817E0,1.1291456E1,0E0,3.7168922E0,1.7891521E0,1.0395136E1,0E0,3.2081282E0,1.9920197E0,0E0,0E0,1.0471582E1,0E0,0E0,4.347023E0,1.8172455E0,1.0526407E0,8.728194E0,0E0,2.9525957E0,0E0,6.22242E-1,0E0,0E0,0E0,0E0,0E0,0E0,0E0,0E0,0E0],"parents":[2147483647,0,0,1,1,2,2,3,3,5,5,6,6,7,7,9,9,10,10,13,13,16,16,17,17,18,18,19,19,21,21,23,23],"right_children":[2,4,6,8,-1,10,12,14,-1,16,18,-1,-1,20,-1,-1,22,24,26,28,-1,30,-1,32,-1,-1,-1,-1,-1,-1,-1,-1,-1],"split_conditions":[1E0,1E0,1E0,1E0,5.3272177E-2,1E0,1E0,1E0,8.081637E-2,1E0,1E0,8.797771E-3,-5.538494E-2,1E0,7.82926E-2,-4.240892E-2,1E0,1E0,1E0,1E0,6.1143737E-2,1E0,-4.740392E-2,1E0,-4.105864E-3,-1.4243315E-2,3.2331116E-2,-1.1512763E-2,7.143929E-2,4.233246E-2,-2.7245805E-2,5.5752646E-2,7.354981E-3],"split_indices":[44,43,587,27,0,452,741,128,0,774,359,0,0,54,0,0,581,333,763,50,0,677,0,659,0,0,0,0,0,0,0,0,0],"split_type":[0,0,0,0,0,0,0,0,0,0,0,0,0,0,0,0,0,0,0,0,0,0,0,0,0,0,0,0,0,0,0,0,0],"sum_hessian":[2.947095E2,2.5712515E2,3.7584362E1,2.4838472E2,8.740426E0,3.4661774E1,2.9225886E0,2.4572816E2,2.6565585E0,1.1909465E1,2.2752308E1,1.5972905E0,1.3252981E0,2.4325748E2,2.470688E0,1.5724869E0,1.0336978E1,1.9627453E1,3.1248565E0,2.390219E2,4.235572E0,9.179763E0,1.1572155E0,1.8303715E1,1.3237377E0,2.1103032E0,1.0145533E0,2.3679172E2,2.2301795E0,8.060663E0,1.119099E0,1.7272507E1,1.0312085E0],"tree_param":{"num_deleted":"0","num_feature":"813","num_nodes":"33","size_leaf_vector":"1"}},{"base_weights":[3.6494255E-2,-4.955088E-2,6.211734E-1,7.761113E-2,-3.6365566E-1,7.299376E-1,-5.982947E-2,1.5599208E-1,-7.403128E-1,-5.522673E-1,8.254868E-2,8.9586926E-1,1.769361E-1,-4.32773E-1,3.521859E-2,2.3208302E-1,-4.970999E-1,-8.890828E-1,-1.4726308E-1,-5.92386E-1,3.6618944E-2,-1.9991255E-1,6.624835E-1,9.751659E-1,-1.1405613E-2,4.1140833E-1,-3.9954394E-2,-6.065603E-1,2.5257533E-3,2.6679167E-1,-5.109039E-2,-6.338515E-1,3.3538338E-2,-1.0262655E0,2.00491E-3,1.29881045E-2,-2.0900274E-2,-6.5781623E-1,1.925274E-1,-4.5274577E-1,4.374773E-1,8.3448756E-1,-1.2320504E-2,1.0333836E0,1.2168373E-2,9.613502E-2,3.5686616E-2,-5.4853268E-2,1.238654E-2,1.5179567E-2,-4.9948834E-2,-3.7475538E-2,2.5463406E-2,-5.648098E-2,-9.683386E-3,-3.844272E-2,5.151854E-3,2.3228588E-2,-1.8038532E-2,-3.4565534E-2,1.4708332E-2,3.6984205E-2,-5.1718345E-3,5.3409725E-2,7.1077184E-3,5.3587377E-2,8.39171E-3,-1.7742561E-2,2.5954738E-2],"categories":[],"categories_nodes":[],"categories_segments":[],"categories_sizes":[],"default_left":[0,0,0,0,0,0,0,0,0,0,0,0,0,0,0,0,0,0,0,0,0,0,0,0,0,0,0,0,0,0,0,0,0,0,0,0,0,0,0,0,0,0,0,0,0,0,0,0,0,0,0,0,0,0,0,0,0,0,0,0,0,0,0,0,0,0,0,0,0],"id":41,"left_children":[1,3,5,7,9,11,13,15,17,19,21,23,25,27,-1,29,31,33,35,37,-1,39,41,43,-1,45,-1,47,-1,49,-1,51,-1,53,-1,-1,-1,55,57,59,61,63,-1,65,-1,67,-1,-1,-1,-1,-1,-1,-1,-1,-1,-1,-1,-1,-1,-1,-1,-1,-1,-1,-1,-1,-1,-1,-1],"loss_changes":[1.4932472E1,1.0378505E1,2.8636932E0,1.1993744E1,6.345006E0,2.8609123E0,2.062607E0,8.558631E0,1.3139458E0,3.1520805E0,3.9179258E0,2.4564114E0,2.3519688E0,4.3078464E-1,0E0,6.9250298E0,3.3075542E0,1.6846962E0,6.025823E-1,2.781681E0,0E0,2.8262146E0,1.4251459E0,7.5406265E-1,0E0,6.7374015E-1,0E0,1.7723522E0,0E0,7.268443E0,0E0,2.5857148E0,0E0,7.512703E-1,0E0,0E0,0E0,4.129883E0,8.828055E-1,2.3715477E0,9.167903E-1,9.4637203E-1,0E0,5.3587914E-1,0E0,1.131888E0,0E0,0E0,0E0,0E0,0E0,0E0,0E0,0E0,0E0,0E0,0E0,0E0,0E0,0E0,0E0,0E0,0E0,0E0,0E0,0E0,0E0,0E0,0E0],"parents":[2147483647,0,0,1,1,2,2,3,3,4,4,5,5,6,6,7,7,8,8,9,9,10,10,11,11,12,12,13,13,15,15,16,16,17,17,18,18,19,19,21,21,22,22,23,23,25,25,27,27,29,29,31,31,33,33,37,37,38,38,39,39,40,40,41,41,43,43,45,45],"right_children":[2,4,6,8,10,12,14,16,18,20,22,24,26,28,-1,30,32,34,36,38,-1,40,42,44,-1,46,-1,48,-1,50,-1,52,-1,54,-1,-1,-1,56,58,60,62,64,-1,66,-1,68,-1,-1,-1,-1,-1,-1,-1,-1,-1,-1,-1,-1,-1,-1,-1,-1,-1,-1,-1,-1,-1,-1,-1],"split_conditions":[1E0,1E0,1E0,1E0,1E0,1E0,1E0,1E0,1E0,1E0,1E0,1E0,1E0,1E0,3.521859E-2,1E0,1E0,1E0,1E0,1E0,3.6618944E-2,1E0,1E0,1E0,-1.1405613E-2,1E0,-3.9954394E-2,1E0,2.5257533E-3,1E0,-5.109039E-2,1E0,3.3538338E-2,1E0,2.00491E-3,1.29881045E-2,-2.0900274E-2,1E0,1E0,1E0,1E0,1E0,-1.2320504E-2,1E0,1.2168373E-2,1E0,3.5686616E-2,-5.4853268E-2,1.238654E-2,1.5179567E-2,-4.9948834E-2,-3.7475538E-2,2.5463406E-2,-5.648098E-2,-9.683386E-3,-3.844272E-2,5.151854E-3,2.3228588E-2,-1.8038532E-2,-3.4565534E-2,1.4708332E-2,3.6984205E-2,-5.1718345E-3,5.3409725E-2,7.1077184E-3,5.3587377E-2,8.39171E-3,-1.7742561E-2,2.5954738E-2],"split_indices":[44,709,304,333,432,318,411,720,700,53,572,268,543,287,0,161,408,265,197,348,0,677,333,287,0,277,0,432,0,140,0,42,0,646,0,0,0,560,324,649,411,277,0,321,0,741,0,0,0,0,0,0,0,0,0,0,0,0,0,0,0,0,0,0,0,0,0,0,0],"split_type":[0,0,0,0,0,0,0,0,0,0,0,0,0,0,0,0,0,0,0,0,0,0,0,0,0,0,0,0,0,0,0,0,0,0,0,0,0,0,0,0,0,0,0,0,0,0,0,0,0,0,0,0,0,0,0,0,0,0,0,0,0,0,0,0,0,0,0,0,0],"sum_hessian":[2.952045E2,2.5813147E2,3.7073032E1,1.842804E2,7.385107E1,3.190549E1,5.1675434E0,1.6890378E2,1.5376619E1,5.174193E1,2.2109138E1,2.4064709E1,7.8407817E0,3.7642272E0,1.4033161E0,1.5185588E2,1.7047901E1,1.1893816E1,3.4828038E0,5.0697548E1,1.0443803E0,1.5308373E1,6.800764E0,2.2602509E1,1.462201E0,6.788461E0,1.0523205E0,2.581034E0,1.1831931E0,1.4853163E2,3.3242397E0,1.5670247E1,1.3776546E0,1.0272689E1,1.6211271E0,1.4074485E0,2.0753553E0,4.694606E1,3.7514884E0,1.1168039E1,4.1403346E0,5.78739E0,1.0133736E0,2.0555141E1,2.047366E0,3.9682388E0,2.8202221E0,1.4590911E0,1.1219429E0,1.4507405E2,3.4575841E0,1.4543123E1,1.1271238E0,8.820963E0,1.4517262E0,4.0958153E1,5.987908E0,2.622448E0,1.1290405E0,8.520895E0,2.6471446E0,2.4205246E0,1.7198098E0,3.920933E0,1.8664572E0,1.9454624E1,1.1005188E0,1.998423E0,1.9698159E0],"tree_param":{"num_deleted":"0","num_feature":"813","num_nodes":"69","size_leaf_vector":"1"}},{"base_weights":[1.3059335E-2,-7.430731E-2,6.535188E-1,-3.8292963E-2,-1.1135536E0,7.352759E-1,-3.3883524E-1,2.7628539E-3,-9.743544E-1,-1.2860562E0,-5.8868714E-4,4.7255546E-1,1.0069482E0,1.6060144E-2,-4.4252157E-2,3.829435E-2,-5.6716144E-2,-1.129543E0,1.1342405E-2,-6.885538E-2,-2.1201584E-2,5.931545E-1,-2.6058985E-2,5.5528503E-2,1.926226E-2,8.558466E-2,-7.2719246E-1,-6.068175E-2,-1.4170888E-2,7.065923E-1,-1.4867984E-2,6.3528228E-3,-3.659604E-2,2.586109E-2,-4.3839674E-2,4.1110672E-2,-5.544437E-3],"categories":[],"categories_nodes":[],"categories_segments":[],"categories_sizes":[],"default_left":[0,0,0,0,0,0,0,0,0,0,0,0,0,0,0,0,0,0,0,0,0,0,0,0,0,0,0,0,0,0,0,0,0,0,0,0,0],"id":42,"left_children":[1,3,5,7,9,11,13,15,17,19,-1,21,23,-1,-1,25,-1,27,-1,-1,-1,29,-1,-1,-1,31,33,-1,-1,35,-1,-1,-1,-1,-1,-1,-1],"loss_changes":[1.6699867E1,9.791934E0,3.155573E0,9.802393E0,1.650773E0,1.9089222E0,1.5141106E0,9.953294E0,2.254035E0,1.0174751E-2,0E0,2.5706186E0,5.7340336E-1,0E0,0E0,8.707339E0,0E0,3.4323406E-1,0E0,0E0,0E0,1.9572916E0,0E0,0E0,0E0,7.7488575E0,3.0598865E0,0E0,0E0,1.5692143E0,0E0,0E0,0E0,0E0,0E0,0E0,0E0],"parents":[2147483647,0,0,1,1,2,2,3,3,4,4,5,5,6,6,7,7,8,8,9,9,11,11,12,12,15,15,17,17,21,21,25,25,26,26,29,29],"right_children":[2,4,6,8,10,12,14,16,18,20,-1,22,24,-1,-1,26,-1,28,-1,-1,-1,30,-1,-1,-1,32,34,-1,-1,36,-1,-1,-1,-1,-1,-1,-1],"split_conditions":[1E0,1E0,1E0,1E0,1E0,1E0,1E0,1E0,1E0,1E0,-5.8868714E-4,1E0,1E0,1.6060144E-2,-4.4252157E-2,1E0,-5.6716144E-2,1E0,1.1342405E-2,-6.885538E-2,-2.1201584E-2,1E0,-2.6058985E-2,5.5528503E-2,1.926226E-2,1E0,1E0,-6.068175E-2,-1.4170888E-2,1E0,-1.4867984E-2,6.3528228E-3,-3.659604E-2,2.586109E-2,-4.3839674E-2,4.1110672E-2,-5.544437E-3],"split_indices":[44,126,587,46,697,432,709,161,697,287,0,655,304,0,0,168,0,625,0,0,0,616,0,0,0,206,786,0,0,677,0,0,0,0,0,0,0],"split_type":[0,0,0,0,0,0,0,0,0,0,0,0,0,0,0,0,0,0,0,0,0,0,0,0,0,0,0,0,0,0,0,0,0,0,0,0,0],"sum_hessian":[2.96585E2,2.6176144E2,3.482354E1,2.5399623E2,7.7652125E0,3.241225E1,2.4112916E0,2.4427914E2,9.717078E0,6.5694065E0,1.1958064E0,1.787026E1,1.4541989E1,1.2784055E0,1.1328862E0,2.3781429E2,6.464865E0,8.658151E0,1.0589272E0,5.4013596E0,1.1680468E0,1.6295727E1,1.5745327E0,1.1790485E1,2.751504E0,2.248139E2,1.3000377E1,7.48037E0,1.1777805E0,1.463765E1,1.6580774E0,2.147636E2,1.0050308E1,1.1314433E0,1.1868934E1,1.2818821E1,1.818829E0],"tree_param":{"num_deleted":"0","num_feature":"813","num_nodes":"37","size_leaf_vector":"1"}},{"base_weights":[4.0140677E-2,7.0776686E-2,-5.3406715E-2,1.1464465E-1,-7.227621E-1,7.1652055E-2,8.553694E-1,-8.5818803E-1,1.6668944E-2,5.1633466E-2,7.8213476E-2,1.0126048E0,-2.087907E-2,-9.923721E-1,1.445287E-2,2.5050018E-2,1.1785446E0,1.2192653E0,-5.387391E-3,-1.10334E0,1.7222197E-3,2.5422292E-4,7.759191E-2,6.862813E-2,1.2950364E-2,7.5098515E-2,1.0449852E-2,-6.0507935E-2,-2.0443758E-2],"categories":[],"categories_nodes":[],"categories_segments":[],"categories_sizes":[],"default_left":[0,0,0,0,0,0,0,0,0,0,0,0,0,0,0,0,0,0,0,0,0,0,0,0,0,0,0,0,0],"id":43,"left_children":[1,3,-1,5,7,9,11,13,-1,15,-1,17,-1,19,-1,21,23,25,-1,27,-1,-1,-1,-1,-1,-1,-1,-1,-1],"loss_changes":[1.0230119E1,1.0246524E1,0E0,8.777029E0,2.493291E0,7.7897186E0,3.4518461E0,2.435526E0,0E0,7.787824E0,0E0,3.3176394E0,0E0,1.4875584E0,0E0,7.794537E0,7.135391E-1,3.0276146E0,0E0,3.5912132E-1,0E0,0E0,0E0,0E0,0E0,0E0,0E0,0E0,0E0],"parents":[2147483647,0,0,1,1,3,3,4,4,5,5,6,6,7,7,9,9,11,11,13,13,15,15,16,16,17,17,19,19],"right_children":[2,4,-1,6,8,10,12,14,-1,16,-1,18,-1,20,-1,22,24,26,-1,28,-1,-1,-1,-1,-1,-1,-1,-1,-1],"split_conditions":[1E0,1E0,-5.3406715E-2,1E0,1E0,1E0,1E0,1E0,1.6668944E-2,1E0,7.8213476E-2,1E0,-2.087907E-2,1E0,1.445287E-2,1E0,1E0,1E0,-5.387391E-3,1E0,1.7222197E-3,2.5422292E-4,7.759191E-2,6.862813E-2,1.2950364E-2,7.5098515E-2,1.0449852E-2,-6.0507935E-2,-2.0443758E-2],"split_indices":[161,168,0,224,411,27,314,362,0,172,0,591,0,347,0,121,746,741,0,560,0,0,0,0,0,0,0,0,0],"split_type":[0,0,0,0,0,0,0,0,0,0,0,0,0,0,0,0,0,0,0,0,0,0,0,0,0,0,0,0,0],"sum_hessian":[2.980747E2,2.9096762E2,7.107071E0,2.7653586E2,1.4431771E1,2.6240244E2,1.4133434E1,1.2957676E1,1.4740952E0,2.5995062E2,2.4517958E0,1.2761633E1,1.3718008E0,1.1721681E1,1.235995E0,2.5495847E2,4.9921546E0,1.069968E1,2.061953E0,1.0511211E1,1.2104696E0,2.5265784E2,2.300635E0,3.7155287E0,1.276626E0,7.9799385E0,2.7197416E0,8.466381E0,2.0448296E0],"tree_param":{"num_deleted":"0","num_feature":"813","num_nodes":"29","size_leaf_vector":"1"}},{"base_weights":[8.227808E-3,-2.716095E-2,5.26608E-2,-5.485018E-2,6.26425E-2,-1.0004561E-1,7.23287E-1,-1.22892156E-1,7.641905E-2,9.9908906E-1,-2.718496E-1,-1.5150434E-1,6.045381E-2,1.1779025E0,-1.1697455E-2,-2.0545064E-2,-3.1797586E-3,-1.1528092E-2,1.9761533E-2,6.812258E-2,5.2620107E-3],"categories":[],"categories_nodes":[],"categories_segments":[],"categories_sizes":[],"default_left":[0,0,0,0,0,0,0,0,0,0,0,0,0,0,0,0,0,0,0,0,0],"id":44,"left_children":[1,3,-1,5,-1,7,9,11,-1,13,15,17,-1,19,-1,-1,-1,-1,-1,-1,-1],"loss_changes":[1.0732041E1,1.0025451E1,0E0,9.776544E0,0E0,9.922877E0,4.4622164E0,1.0052762E1,0E0,2.9586515E0,9.258187E-2,1.1087842E1,0E0,1.99329E0,0E0,0E0,0E0,0E0,0E0,0E0,0E0],"parents":[2147483647,0,0,1,1,3,3,5,5,6,6,7,7,9,9,10,10,11,11,13,13],"right_children":[2,4,-1,6,-1,8,10,12,-1,14,16,18,-1,20,-1,-1,-1,-1,-1,-1,-1],"split_conditions":[1E0,1E0,5.26608E-2,1E0,6.26425E-2,1E0,1E0,1E0,7.641905E-2,1E0,1E0,1E0,6.045381E-2,1E0,-1.1697455E-2,-2.0545064E-2,-3.1797586E-3,-1.1528092E-2,1.9761533E-2,6.812258E-2,