{"learner":{"attributes":{"scikit_learn":"{\"_estimator_type\": \"classifier\"}"},"feature_names":[],"feature_types":[],"gradient_booster":{"model":{"gbtree_model_param":{"num_parallel_tree":"1","num_trees":"400"},"iteration_indptr":[0,1,2,3,4,5,6,7,8,9,10,11,12,13,14,15,16,17,18,19,20,21,22,23,24,25,26,27,28,29,30,31,32,33,34,35,36,37,38,39,40,41,42,43,44,45,46,47,48,49,50,51,52,53,54,55,56,57,58,59,60,61,62,63,64,65,66,67,68,69,70,71,72,73,74,75,76,77,78,79,80,81,82,83,84,85,86,87,88,89,90,91,92,93,94,95,96,97,98,99,100,101,102,103,104,105,106,107,108,109,110,111,112,113,114,115,116,117,118,119,120,121,122,123,124,125,126,127,128,129,130,131,132,133,134,135,136,137,138,139,140,141,142,143,144,145,146,147,148,149,150,151,152,153,154,155,156,157,158,159,160,161,162,163,164,165,166,167,168,169,170,171,172,173,174,175,176,177,178,179,180,181,182,183,184,185,186,187,188,189,190,191,192,193,194,195,196,197,198,199,200,201,202,203,204,205,206,207,208,209,210,211,212,213,214,215,216,217,218,219,220,221,222,223,224,225,226,227,228,229,230,231,232,233,234,235,236,237,238,239,240,241,242,243,244,245,246,247,248,249,250,251,252,253,254,255,256,257,258,259,260,261,262,263,264,265,266,267,268,269,270,271,272,273,274,275,276,277,278,279,280,281,282,283,284,285,286,287,288,289,290,291,292,293,294,295,296,297,298,299,300,301,302,303,304,305,306,307,308,309,310,311,312,313,314,315,316,317,318,319,320,321,322,323,324,325,326,327,328,329,330,331,332,333,334,335,336,337,338,339,340,341,342,343,344,345,346,347,348,349,350,351,352,353,354,355,356,357,358,359,360,361,362,363,364,365,366,367,368,369,370,371,372,373,374,375,376,377,378,379,380,381,382,383,384,385,386,387,388,389,390,391,392,393,394,395,396,397,398,399,400],"tree_info":[0,0,0,0,0,0,0,0,0,0,0,0,0,0,0,0,0,0,0,0,0,0,0,0,0,0,0,0,0,0,0,0,0,0,0,0,0,0,0,0,0,0,0,0,0,0,0,0,0,0,0,0,0,0,0,0,0,0,0,0,0,0,0,0,0,0,0,0,0,0,0,0,0,0,0,0,0,0,0,0,0,0,0,0,0,0,0,0,0,0,0,0,0,0,0,0,0,0,0,0,0,0,0,0,0,0,0,0,0,0,0,0,0,0,0,0,0,0,0,0,0,0,0,0,0,0,0,0,0,0,0,0,0,0,0,0,0,0,0,0,0,0,0,0,0,0,0,0,0,0,0,0,0,0,0,0,0,0,0,0,0,0,0,0,0,0,0,0,0,0,0,0,0,0,0,0,0,0,0,0,0,0,0,0,0,0,0,0,0,0,0,0,0,0,0,0,0,0,0,0,0,0,0,0,0,0,0,0,0,0,0,0,0,0,0,0,0,0,0,0,0,0,0,0,0,0,0,0,0,0,0,0,0,0,0,0,0,0,0,0,0,0,0,0,0,0,0,0,0,0,0,0,0,0,0,0,0,0,0,0,0,0,0,0,0,0,0,0,0,0,0,0,0,0,0,0,0,0,0,0,0,0,0,0,0,0,0,0,0,0,0,0,0,0,0,0,0,0,0,0,0,0,0,0,0,0,0,0,0,0,0,0,0,0,0,0,0,0,0,0,0,0,0,0,0,0,0,0,0,0,0,0,0,0,0,0,0,0,0,0,0,0,0,0,0,0,0,0,0,0,0,0,0,0,0,0,0,0,0,0,0,0,0,0,0,0,0,0,0,0,0,0,0,0,0,0,0,0,0,0,0,0,0,0,0,0,0,0,0,0,0,0,0,0,0,0,0,0,0,0],"trees":[{"base_weights":[7.307905E-2,-2.1647543E-1,1.479878E0,-3.5471037E-1,9.61516E-2,1.594374E0,-6.718058E-2,-4.0554303E-1,8.459649E-2,1.766826E0,6.877535E-1,2.9395303E-2,-3.804287E-2,-4.495618E-1,8.162563E-2,1.8358966E0,1.8882668E-2,9.5440465E-1,-1.8029768E-2,-4.8899838E-1,7.906269E-2,1.2954185E-2,1.886989E0,9.98682E-3,6.2697455E-2,-2.6325697E-2,7.7541016E-2,9.700266E-2,2.9395303E-2],"categories":[],"categories_nodes":[],"categories_segments":[],"categories_sizes":[],"default_left":[0,0,0,0,0,0,0,0,0,0,0,0,0,0,0,0,0,0,0,0,0,0,0,0,0,0,0,0,0],"id":0,"left_children":[1,3,5,7,-1,9,11,13,-1,15,17,-1,-1,19,-1,21,-1,23,-1,25,-1,-1,27,-1,-1,-1,-1,-1,-1],"loss_changes":[1.1384601E2,6.929652E1,8.556129E0,2.3445318E1,0E0,5.734955E0,2.3769794E0,1.995639E1,0E0,2.8291245E0,2.7877946E0,0E0,0E0,1.7633533E1,0E0,2.307701E0,0E0,1.3869095E0,0E0,1.6678207E1,0E0,0E0,1.1663055E0,0E0,0E0,0E0,0E0,0E0,0E0],"parents":[2147483647,0,0,1,1,2,2,3,3,5,5,6,6,7,7,9,9,10,10,13,13,15,15,17,17,19,19,22,22],"right_children":[2,4,6,8,-1,10,12,14,-1,16,18,-1,-1,20,-1,22,-1,24,-1,26,-1,-1,28,-1,-1,-1,-1,-1,-1],"split_conditions":[1E0,1E0,1E0,1E0,9.61516E-2,1E0,1E0,1E0,8.459649E-2,1E0,1E0,2.9395303E-2,-3.804287E-2,1E0,8.162563E-2,1E0,1.8882668E-2,1E0,-1.8029768E-2,1E0,7.906269E-2,1.2954185E-2,1E0,9.98682E-3,6.2697455E-2,-2.6325697E-2,7.7541016E-2,9.700266E-2,2.9395303E-2],"split_indices":[44,43,587,54,0,318,741,53,0,329,258,0,0,127,0,479,0,758,0,144,0,0,549,0,0,0,0,0,0],"split_type":[0,0,0,0,0,0,0,0,0,0,0,0,0,0,0,0,0,0,0,0,0,0,0,0,0,0,0,0,0],"sum_hessian":[2.7769662E2,2.3099765E2,4.6698986E1,2.1776212E2,1.3235541E1,4.345253E1,3.2464535E0,2.1326701E2,4.4950895E0,3.5710987E1,7.741543E0,1.7480903E0,1.4983631E0,2.0952112E2,3.7459078E0,3.371317E1,1.9978175E0,6.24318E0,1.4983631E0,2.0627466E2,3.2464535E0,1.248636E0,3.2464535E1,2.2475448E0,3.995635E0,2.0327794E2,2.9967263E0,3.0716444E1,1.7480903E0],"tree_param":{"num_deleted":"0","num_feature":"813","num_nodes":"29","size_leaf_vector":"1"}},{"base_weights":[4.946706E-2,-5.0136443E-2,9.172351E-2,-1.7397963E-1,7.090714E-1,-1.22156076E-1,-8.302197E-2,9.0883887E-1,-7.4165964E-1,-6.148735E-2,-1.1172279E0,1.0280167E0,-3.080745E-2,-6.367879E-2,1.8727677E-3,-9.658326E-3,-1.2348204E0,-1.296153E0,1.3692662E-2,1.1361942E0,-2.4367321E-2,2.1993432E-3,-5.4289687E-2,2.7741066E-3,-7.5468384E-2,-7.4401475E-2,-1.3607613E-2,5.9704512E-2,2.2152446E-3],"categories":[],"categories_nodes":[],"categories_segments":[],"categories_sizes":[],"default_left":[0,0,0,0,0,0,0,0,0,0,0,0,0,0,0,0,0,0,0,0,0,0,0,0,0,0,0,0,0],"id":1,"left_children":[1,3,-1,5,7,9,-1,11,13,15,17,19,-1,-1,-1,21,23,25,-1,27,-1,-1,-1,-1,-1,-1,-1,-1,-1],"loss_changes":[4.877064E1,2.4597265E1,0E0,1.7098558E1,1.1310728E1,1.309845E1,0E0,6.57819E0,2.1168811E0,1.2553978E1,3.4600935E0,5.5884895E0,0E0,0E0,0E0,1.1530119E1,3.1775675E0,1.8011532E0,0E0,1.7782784E0,0E0,0E0,0E0,0E0,0E0,0E0,0E0,0E0,0E0],"parents":[2147483647,0,0,1,1,3,3,4,4,5,5,7,7,8,8,9,9,10,10,11,11,15,15,16,16,17,17,19,19],"right_children":[2,4,-1,6,8,10,-1,12,14,16,18,20,-1,-1,-1,22,24,26,-1,28,-1,-1,-1,-1,-1,-1,-1,-1,-1],"split_conditions":[1E0,1E0,9.172351E-2,1E0,1E0,1E0,-8.302197E-2,1E0,1E0,1E0,1E0,1E0,-3.080745E-2,-6.367879E-2,1.8727677E-3,1E0,1E0,1E0,1.3692662E-2,1E0,-2.4367321E-2,2.1993432E-3,-5.4289687E-2,2.7741066E-3,-7.5468384E-2,-7.4401475E-2,-1.3607613E-2,5.9704512E-2,2.2152446E-3],"split_indices":[43,411,0,161,223,62,0,619,758,49,568,15,0,0,0,162,786,396,0,288,0,0,0,0,0,0,0,0,0],"split_type":[0,0,0,0,0,0,0,0,0,0,0,0,0,0,0,0,0,0,0,0,0,0,0,0,0,0,0,0,0],"sum_hessian":[2.7279474E2,2.592978E2,1.3496951E1,2.2359538E2,3.5702393E1,2.1710835E2,6.4870296E0,3.1709486E1,3.992905E0,2.0563287E2,1.1475479E1,2.9713278E1,1.9962089E0,1.9957355E0,1.9971695E0,1.978994E2,7.733475E0,1.0228145E1,1.2473347E0,2.7967009E1,1.7462686E0,1.8941615E2,8.483242E0,1.4968016E0,6.2366734E0,8.2324095E0,1.9957355E0,2.6469877E1,1.4971316E0],"tree_param":{"num_deleted":"0","num_feature":"813","num_nodes":"29","size_leaf_vector":"1"}},{"base_weights":[-6.393005E-3,-2.3898123E-1,1.303092E0,-2.889857E-1,8.1375234E-2,1.3913183E0,-8.138502E-3,-3.318272E-1,7.97063E-2,1.4796135E0,2.4322085E-1,-4.0114373E-1,7.1904516E-1,1.5389103E0,9.867688E-3,2.6719872E-2,-1.1040416E-2,-4.6227664E-1,7.2540814E-1,1.0035489E0,-3.448803E-1,1.6195421E0,5.191506E-1,-2.4888212E-2,7.675348E-2,4.0664128E-4,8.095323E-2,6.180333E-2,-1.6444352E-2,-3.086381E-2,1.9305248E-3,8.337998E-2,1.2664827E-2,-9.905375E-3,4.5845762E-2],"categories":[],"categories_nodes":[],"categories_segments":[],"categories_sizes":[],"default_left":[0,0,0,0,0,0,0,0,0,0,0,0,0,0,0,0,0,0,0,0,0,0,0,0,0,0,0,0,0,0,0,0,0,0,0],"id":2,"left_children":[1,3,5,7,-1,9,-1,11,-1,13,15,17,19,21,-1,-1,-1,23,25,27,29,31,33,-1,-1,-1,-1,-1,-1,-1,-1,-1,-1,-1,-1],"loss_changes":[8.3721756E1,2.2254242E1,5.588524E0,1.8935867E1,0E0,3.6151276E0,0E0,1.659887E1,0E0,2.449852E0,6.580509E-1,1.4846058E1,4.64845E0,1.9932938E0,0E0,0E0,0E0,1.4973228E1,7.1880555E0,3.9602594E0,4.1484895E-1,1.6438599E0,1.3221046E0,0E0,0E0,0E0,0E0,0E0,0E0,0E0,0E0,0E0,0E0,0E0,0E0],"parents":[2147483647,0,0,1,1,2,2,3,3,5,5,7,7,9,9,10,10,11,11,12,12,13,13,17,17,18,18,19,19,20,20,21,21,22,22],"right_children":[2,4,6,8,-1,10,-1,12,-1,14,16,18,20,22,-1,-1,-1,24,26,28,30,32,34,-1,-1,-1,-1,-1,-1,-1,-1,-1,-1,-1,-1],"split_conditions":[1E0,1E0,1E0,1E0,8.1375234E-2,1E0,-8.138502E-3,1E0,7.97063E-2,1E0,1E0,1E0,1E0,1E0,9.867688E-3,2.6719872E-2,-1.1040416E-2,1E0,1E0,1E0,1E0,1E0,1E0,-2.4888212E-2,7.675348E-2,4.0664128E-4,8.095323E-2,6.180333E-2,-1.6444352E-2,-3.086381E-2,1.9305248E-3,8.337998E-2,1.2664827E-2,-9.905375E-3,4.5845762E-2],"split_indices":[44,144,345,127,0,616,0,614,0,371,640,224,437,343,0,0,0,56,248,248,544,421,417,0,0,0,0,0,0,0,0,0,0,0,0],"split_type":[0,0,0,0,0,0,0,0,0,0,0,0,0,0,0,0,0,0,0,0,0,0,0,0,0,0,0,0,0,0,0,0,0,0,0],"sum_hessian":[2.728619E2,2.3240082E2,4.046109E1,2.271602E2,5.24061E0,3.8212063E1,2.2490273E0,2.2291264E2,4.2475567E0,3.521507E1,2.9969935E0,2.0969897E2,1.3213668E1,3.346726E1,1.7478095E0,1.7482973E0,1.2486962E0,1.9946458E2,1.0234397E1,1.0470505E1,2.7431626E0,3.0469862E1,2.9973965E0,1.9672017E2,2.7444117E0,6.237275E0,3.9971223E0,8.9763975E0,1.4941074E0,1.2474599E0,1.4957029E0,2.9221432E1,1.2484295E0,1.2483292E0,1.7490673E0],"tree_param":{"num_deleted":"0","num_feature":"813","num_nodes":"35","size_leaf_vector":"1"}},{"base_weights":[8.27394E-3,-7.7035256E-2,9.2716765E-1,-3.5946915E-4,-9.804958E-1,1.0858457E0,-5.4257732E-2,-4.847317E-2,8.013737E-2,-1.2774012E0,8.041484E-1,1.2773024E0,-3.0043382E-2,-8.994486E-2,8.041268E-2,-1.3872957E0,-1.3707179E-2,8.882258E-3,5.3599622E-2,1.3870046E0,-1.2015833E-2,-1.2514801E-1,7.548923E-2,-7.931794E-3,-1.4823169E0,1.5027789E0,-7.719503E-6,-7.855224E-3,7.8370385E-2,-7.903226E-2,-1.8901775E-2,7.934391E-2,1.0467917E-2],"categories":[],"categories_nodes":[],"categories_segments":[],"categories_sizes":[],"default_left":[0,0,0,0,0,0,0,0,0,0,0,0,0,0,0,0,0,0,0,0,0,0,0,0,0,0,0,0,0,0,0,0,0],"id":3,"left_children":[1,3,5,7,9,11,-1,13,-1,15,17,19,-1,21,-1,23,-1,-1,-1,25,-1,27,-1,-1,29,31,-1,-1,-1,-1,-1,-1,-1],"loss_changes":[2.2078024E1,1.7858814E1,8.817991E0,1.8484228E1,1.1713522E1,8.090513E0,0E0,1.6129797E1,0E0,1.5686607E0,3.9526248E-1,3.7770767E0,0E0,1.3024447E1,0E0,1.5961647E0,0E0,0E0,0E0,3.121952E0,0E0,1.2358578E1,0E0,0E0,9.7039604E-1,1.6193047E0,0E0,0E0,0E0,0E0,0E0,0E0,0E0],"parents":[2147483647,0,0,1,1,2,2,3,3,4,4,5,5,7,7,9,9,10,10,11,11,13,13,15,15,19,19,21,21,24,24,25,25],"right_children":[2,4,6,8,10,12,-1,14,-1,16,18,20,-1,22,-1,24,-1,-1,-1,26,-1,28,-1,-1,30,32,-1,-1,-1,-1,-1,-1,-1],"split_conditions":[1E0,1E0,1E0,1E0,1E0,1E0,-5.4257732E-2,1E0,8.013737E-2,1E0,1E0,1E0,-3.0043382E-2,1E0,8.041268E-2,1E0,-1.3707179E-2,8.882258E-3,5.3599622E-2,1E0,-1.2015833E-2,1E0,7.548923E-2,-7.931794E-3,1E0,1E0,-7.719503E-6,-7.855224E-3,7.8370385E-2,-7.903226E-2,-1.8901775E-2,7.934391E-2,1.0467917E-2],"split_indices":[614,168,469,516,411,248,0,181,0,697,741,333,0,127,0,786,0,0,0,635,0,164,0,0,362,569,0,0,0,0,0,0,0],"split_type":[0,0,0,0,0,0,0,0,0,0,0,0,0,0,0,0,0,0,0,0,0,0,0,0,0,0,0,0,0,0,0,0,0],"sum_hessian":[2.7973193E2,2.5680646E2,2.2925493E1,2.3763869E2,1.9167757E1,2.1676624E1,1.2488692E0,2.316558E2,5.9828725E0,1.6677416E1,2.4903407E0,1.9684938E1,1.9916855E0,2.2692116E2,4.7346506E0,1.468596E1,1.991457E0,1.2439376E0,1.2464032E0,1.8438185E1,1.2467529E0,2.2293704E2,3.9841151E0,1.2458687E0,1.3440091E1,1.6940922E1,1.4972634E0,2.1969623E2,3.2408173E0,1.1945088E1,1.4950025E0,1.5693625E1,1.247297E0],"tree_param":{"num_deleted":"0","num_feature":"813","num_nodes":"33","size_leaf_vector":"1"}},{"base_weights":[9.91667E-3,-2.1325424E-1,1.2636199E0,-3.4054625E-1,8.62783E-2,1.3678949E0,-2.721108E-1,-3.8049698E-1,7.372385E-2,1.4747905E0,3.361119E-1,1.0396234E-2,-3.1555764E-2,-3.0518904E-1,-1.3337449E0,1.5615945E0,6.8243467E-3,4.2515773E-2,-3.3358186E-2,-2.48914E-1,-1.4596425E0,-1.4283816E0,-6.5424303E-3,1.7690515E-2,1.6278456E0,-9.759432E-3,-7.872808E-2,-8.182362E-2,-1.6352782E-2,-7.690034E-2,-7.3898765E-3,8.411591E-2,8.964721E-3],"categories":[],"categories_nodes":[],"categories_segments":[],"categories_sizes":[],"default_left":[0,0,0,0,0,0,0,0,0,0,0,0,0,0,0,0,0,0,0,0,0,0,0,0,0,0,0,0,0,0,0,0,0],"id":4,"left_children":[1,3,5,7,-1,9,11,13,-1,15,17,-1,-1,19,21,23,-1,-1,-1,25,27,29,-1,-1,31,-1,-1,-1,-1,-1,-1,-1,-1],"loss_changes":[7.741753E1,5.8566154E1,7.067734E0,1.6606825E1,0E0,3.8408508E0,7.331041E-1,1.5193396E1,0E0,3.891388E0,3.1396513E0,0E0,0E0,1.2805513E1,1.590622E0,2.0713577E0,0E0,0E0,0E0,1.3544042E1,1.3105183E0,1.7906799E0,0E0,0E0,2.1512604E0,0E0,0E0,0E0,0E0,0E0,0E0,0E0,0E0],"parents":[2147483647,0,0,1,1,2,2,3,3,5,5,6,6,7,7,9,9,10,10,13,13,14,14,15,15,19,19,20,20,21,21,24,24],"right_children":[2,4,6,8,-1,10,12,14,-1,16,18,-1,-1,20,22,24,-1,-1,-1,26,28,30,-1,-1,32,-1,-1,-1,-1,-1,-1,-1,-1],"split_conditions":[1E0,1E0,1E0,1E0,8.62783E-2,1E0,1E0,1E0,7.372385E-2,1E0,1E0,1.0396234E-2,-3.1555764E-2,1E0,1E0,1E0,6.8243467E-3,4.2515773E-2,-3.3358186E-2,1E0,1E0,1E0,-6.5424303E-3,1.7690515E-2,1E0,-9.759432E-3,-7.872808E-2,-8.182362E-2,-1.6352782E-2,-7.690034E-2,-7.3898765E-3,8.411591E-2,8.964721E-3],"split_indices":[44,43,587,127,0,660,741,168,0,345,318,0,0,46,660,479,0,0,0,161,591,347,0,0,564,0,0,0,0,0,0,0,0],"split_type":[0,0,0,0,0,0,0,0,0,0,0,0,0,0,0,0,0,0,0,0,0,0,0,0,0,0,0,0,0,0,0,0,0],"sum_hessian":[2.7473544E2,2.3392458E2,4.0810863E1,2.2028618E2,1.3638396E1,3.8318363E1,2.4925008E0,2.163152E2,3.9709804E0,3.43321E1,3.9862611E0,1.2465422E0,1.2459586E0,2.0170071E2,1.461449E1,3.2084232E1,2.2478704E0,2.7363005E0,1.2499608E0,1.9348471E2,8.216001E0,1.3374789E1,1.2397003E0,1.9981213E0,3.008611E1,1.8705121E2,6.433505E0,6.721657E0,1.4943442E0,1.213495E1,1.2398397E0,2.88402E1,1.245909E0],"tree_param":{"num_deleted":"0","num_feature":"813","num_nodes":"33","size_leaf_vector":"1"}},{"base_weights":[-3.8635319E-3,-1.238021E-1,6.721444E-1,-4.445991E-2,-1.1630719E0,7.662759E-1,-5.737349E-2,5.205331E-2,-6.8710756E-1,-1.2690967E0,-1.1981217E-2,8.586839E-1,-4.209623E-2,1.24152705E-1,-8.9827996E-1,-9.1948503E-1,3.7671685E-1,-5.9931153E-3,-1.3637831E0,9.5612764E-1,-3.2297615E-2,1.724202E-1,-1.2247664E0,-1.1160063E0,7.20341E-2,-1.0542691E0,2.643671E-2,-9.367006E-2,4.0159915E-2,-7.3728375E-2,-1.3230211E-2,1.0407649E0,-1.8450473E-2,6.4211697E-3,7.662519E-2,-7.132393E-2,-2.1477519E-2,-6.517351E-2,3.9957887E-3,-3.0295953E-2,3.5884168E-2,-5.8497187E-2,1.0538927E-2,-2.9316757E-2,1.9373821E-2,2.9172605E-2,6.864526E-2],"categories":[],"categories_nodes":[],"categories_segments":[],"categories_sizes":[],"default_left":[0,0,0,0,0,0,0,0,0,0,0,0,0,0,0,0,0,0,0,0,0,0,0,0,0,0,0,0,0,0,0,0,0,0,0,0,0,0,0,0,0,0,0,0,0,0,0],"id":5,"left_children":[1,3,5,7,9,11,-1,13,15,17,-1,19,-1,21,23,25,27,-1,29,31,-1,33,35,37,39,41,-1,43,-1,-1,-1,45,-1,-1,-1,-1,-1,-1,-1,-1,-1,-1,-1,-1,-1,-1,-1],"loss_changes":[2.292935E1,1.975135E1,8.178547E0,1.3939371E1,1.3598061E0,6.8336277E0,0E0,1.3529151E1,7.599478E0,1.4700413E0,0E0,6.391329E0,0E0,1.2119241E1,3.0233927E0,5.314499E0,1.2727458E0,0E0,1.2869282E0,4.577282E0,0E0,1.0421848E1,4.2053795E-1,2.668517E0,1.9635272E0,3.5580788E0,0E0,1.1123374E0,0E0,0E0,0E0,4.576664E0,0E0,0E0,0E0,0E0,0E0,0E0,0E0,0E0,0E0,0E0,0E0,0E0,0E0,0E0,0E0],"parents":[2147483647,0,0,1,1,2,2,3,3,4,4,5,5,7,7,8,8,9,9,11,11,13,13,14,14,15,15,16,16,18,18,19,19,21,21,22,22,23,23,24,24,25,25,27,27,31,31],"right_children":[2,4,6,8,10,12,-1,14,16,18,-1,20,-1,22,24,26,28,-1,30,32,-1,34,36,38,40,42,-1,44,-1,-1,-1,46,-1,-1,-1,-1,-1,-1,-1,-1,-1,-1,-1,-1,-1,-1,-1],"split_conditions":[1E0,1E0,1E0,1E0,1E0,1E0,-5.737349E-2,1E0,1E0,1E0,-1.1981217E-2,1E0,-4.209623E-2,1E0,1E0,1E0,1E0,-5.9931153E-3,1E0,1E0,-3.2297615E-2,1E0,1E0,1E0,1E0,1E0,2.643671E-2,1E0,4.0159915E-2,-7.3728375E-2,-1.3230211E-2,1E0,-1.8450473E-2,6.4211697E-3,7.662519E-2,-7.132393E-2,-2.1477519E-2,-6.517351E-2,3.9957887E-3,-3.0295953E-2,3.5884168E-2,-5.8497187E-2,1.0538927E-2,-2.9316757E-2,1.9373821E-2,2.9172605E-2,6.864526E-2],"split_indices":[411,168,147,192,697,619,0,627,572,786,0,581,0,49,268,408,452,0,256,109,0,144,401,324,231,256,0,709,0,0,0,231,0,0,0,0,0,0,0,0,0,0,0,0,0,0,0],"split_type":[0,0,0,0,0,0,0,0,0,0,0,0,0,0,0,0,0,0,0,0,0,0,0,0,0,0,0,0,0,0,0,0,0,0,0,0,0,0,0,0,0,0,0,0,0,0,0],"sum_hessian":[2.8077478E2,2.3915952E2,4.161526E1,2.2316495E2,1.5994565E1,4.0118736E1,1.4965248E0,1.9482501E2,2.833994E1,1.40115385E1,1.9830264E0,3.837949E1,1.7392452E0,1.8189449E2,1.2930519E1,2.3370632E1,4.9693065E0,1.2390258E0,1.2772513E1,3.6387497E1,1.9919937E0,1.7645277E2,5.441716E0,1.0438174E1,2.4923453E0,2.1629614E1,1.7410178E0,2.7341006E0,2.235206E0,1.1292811E1,1.479702E0,3.440465E1,1.982846E0,1.7198376E2,4.469013E0,3.7074652E0,1.734251E0,8.945946E0,1.4922286E0,1.2457752E0,1.2465701E0,1.98864E1,1.7432141E0,1.2428629E0,1.4912376E0,1.5634577E1,1.8770073E1],"tree_param":{"num_deleted":"0","num_feature":"813","num_nodes":"47","size_leaf_vector":"1"}},{"base_weights":[-9.517063E-3,-9.987278E-2,8.244401E-2,-2.2553588E-1,6.5988326E-1,-2.5408566E-1,7.108336E-2,-6.0027206E-1,8.7219816E-1,-2.8261855E-1,6.9055334E-2,-8.75081E-1,1.2367456E-2,1.0495088E0,-1.9336966E-1,-3.104052E-1,6.475897E-2,-5.3421028E-2,-9.2574395E-3,1.171618E0,-1.8369867E-2,3.1436557E-1,-5.303773E-2,-1.6851744E-2,6.5242045E-2,6.300609E-2,1.184996E-2,3.227297E-2,-2.040761E-3],"categories":[],"categories_nodes":[],"categories_segments":[],"categories_sizes":[],"default_left":[0,0,0,0,0,0,0,0,0,0,0,0,0,0,0,0,0,0,0,0,0,0,0,0,0,0,0,0,0],"id":6,"left_children":[1,3,-1,5,7,9,-1,11,13,15,-1,17,-1,19,21,23,-1,-1,-1,25,-1,27,-1,-1,-1,-1,-1,-1,-1],"loss_changes":[4.1315975E1,2.5103441E1,0E0,1.0943644E1,1.0516748E1,1.0750073E1,0E0,1.6089134E0,6.319359E0,1.0006163E1,0E0,4.337504E-1,0E0,5.259371E0,2.7392788E0,9.734098E0,0E0,0E0,0E0,1.8465729E0,0E0,5.222727E-1,0E0,0E0,0E0,0E0,0E0,0E0,0E0],"parents":[2147483647,0,0,1,1,3,3,4,4,5,5,7,7,8,8,9,9,11,11,13,13,14,14,15,15,19,19,21,21],"right_children":[2,4,-1,6,8,10,-1,12,14,16,-1,18,-1,20,22,24,-1,-1,-1,26,-1,28,-1,-1,-1,-1,-1,-1,-1],"split_conditions":[1E0,1E0,8.244401E-2,1E0,1E0,1E0,7.108336E-2,1E0,1E0,1E0,6.9055334E-2,1E0,1.2367456E-2,1E0,1E0,1E0,6.475897E-2,-5.3421028E-2,-9.2574395E-3,1E0,-1.8369867E-2,1E0,-5.303773E-2,-1.6851744E-2,6.5242045E-2,6.300609E-2,1.184996E-2,3.227297E-2,-2.040761E-3],"split_indices":[43,411,0,53,203,144,0,697,640,590,0,557,0,143,728,127,0,0,0,660,0,544,0,0,0,0,0,0,0],"split_type":[0,0,0,0,0,0,0,0,0,0,0,0,0,0,0,0,0,0,0,0,0,0,0,0,0,0,0,0,0],"sum_hessian":[2.7362454E2,2.6037793E2,1.3246591E1,2.2402716E2,3.6350784E1,2.2104175E2,2.98541E0,4.977932E0,3.1372852E1,2.1806386E2,2.9778874E0,3.7347007E0,1.2432312E0,2.6910082E1,4.4627705E0,2.1507936E2,2.9845014E0,2.4887042E0,1.2459965E0,2.4934351E1,1.9757305E0,3.2171438E0,1.2456267E0,2.1236948E2,2.7098753E0,2.2459295E1,2.4750564E0,1.2420526E0,1.9750911E0],"tree_param":{"num_deleted":"0","num_feature":"813","num_nodes":"29","size_leaf_vector":"1"}},{"base_weights":[-2.9911455E-3,-2.5555876E-1,1.3078165E0,-3.620211E-1,7.903136E-2,1.3866469E0,-1.9586718E-2,-2.8849286E-1,-1.354236E0,1.4434154E0,-1.3450359E-2,-1.3585267E-2,1.20820245E-2,-3.3801743E-1,7.4758835E-2,-1.4484072E0,-2.4245419E-2,1.4812267E0,6.203831E-3,-3.7362215E-1,7.5652614E-2,-7.85026E-2,-2.5322204E-2,1.5307723E0,5.249776E-1,-2.0530753E-2,6.707002E-2,7.954878E-2,2.0379607E-2,-1.057738E-2,5.1414307E-2],"categories":[],"categories_nodes":[],"categories_segments":[],"categories_sizes":[],"default_left":[0,0,0,0,0,0,0,0,0,0,0,0,0,0,0,0,0,0,0,0,0,0,0,0,0,0,0,0,0,0,0],"id":7,"left_children":[1,3,5,7,-1,9,11,13,15,17,-1,-1,-1,19,-1,21,-1,23,-1,25,-1,-1,-1,27,29,-1,-1,-1,-1,-1,-1],"loss_changes":[9.142796E1,4.5834057E1,4.695656E0,1.5634886E1,0E0,4.3478394E0,2.953154E-1,1.8682816E1,5.161648E-1,1.8559723E0,0E0,0E0,0E0,1.3814789E1,0E0,6.8600845E-1,0E0,1.0752869E0,0E0,1.3115288E1,0E0,0E0,0E0,1.8657532E0,1.5058978E0,0E0,0E0,0E0,0E0,0E0,0E0],"parents":[2147483647,0,0,1,1,2,2,3,3,5,5,6,6,7,7,8,8,9,9,13,13,15,15,17,17,19,19,23,23,24,24],"right_children":[2,4,6,8,-1,10,12,14,16,18,-1,-1,-1,20,-1,22,-1,24,-1,26,-1,-1,-1,28,30,-1,-1,-1,-1,-1,-1],"split_conditions":[1E0,1E0,1E0,1E0,7.903136E-2,1E0,1E0,1E0,1E0,1E0,-1.3450359E-2,-1.3585267E-2,1.20820245E-2,1E0,7.4758835E-2,1E0,-2.4245419E-2,1E0,6.203831E-3,1E0,7.5652614E-2,-7.85026E-2,-2.5322204E-2,1E0,1E0,-2.0530753E-2,6.707002E-2,7.954878E-2,2.0379607E-2,-1.057738E-2,5.1414307E-2],"split_indices":[44,43,400,168,0,65,709,516,420,584,0,0,0,164,0,581,0,616,0,127,0,0,0,378,277,0,0,0,0,0,0],"split_type":[0,0,0,0,0,0,0,0,0,0,0,0,0,0,0,0,0,0,0,0,0,0,0,0,0,0,0,0,0,0,0],"sum_hessian":[2.741515E2,2.3053654E2,4.3614952E1,2.1866138E2,1.1875176E1,4.1127865E1,2.4870877E0,2.047771E2,1.3884278E1,3.988838E1,1.2394876E0,1.2451974E0,1.2418903E0,2.0003354E2,4.74355E0,1.192623E1,1.9580482E0,3.865777E1,1.2306099E0,1.9704167E2,2.9918733E0,9.9717E0,1.9545304E0,3.6182266E1,2.475501E0,1.9362575E2,3.415915E0,3.3946236E1,2.2360337E0,1.2402482E0,1.2352529E0],"tree_param":{"num_deleted":"0","num_feature":"813","num_nodes":"31","size_leaf_vector":"1"}},{"base_weights":[7.642926E-2,-1.5954277E-1,1.2697546E0,-2.6928845E-1,7.674324E-2,1.3608193E0,-4.2080123E-2,-3.0361205E-1,7.139104E-2,1.4276475E0,3.90996E-3,-3.3350652E-1,7.2600536E-2,1.5145386E0,4.2379752E-1,-3.6236712E-1,7.369423E-2,7.859961E-2,2.0792697E-2,3.628794E-2,-1.1380963E-2,-1.091701E-2,-3.599418E-2],"categories":[],"categories_nodes":[],"categories_segments":[],"categories_sizes":[],"default_left":[0,0,0,0,0,0,0,0,0,0,0,0,0,0,0,0,0,0,0,0,0,0,0],"id":8,"left_children":[1,3,5,7,-1,9,-1,11,-1,13,-1,15,-1,17,19,21,-1,-1,-1,-1,-1,-1,-1],"loss_changes":[7.7234566E1,4.304959E1,9.850365E0,1.3026627E1,0E0,3.6414337E0,0E0,1.1648872E1,0E0,2.983162E0,0E0,1.1487059E1,0E0,1.7361145E0,1.0895505E0,1.0526413E1,0E0,0E0,0E0,0E0,0E0,0E0,0E0],"parents":[2147483647,0,0,1,1,2,2,3,3,5,5,7,7,9,9,11,11,13,13,14,14,15,15],"right_children":[2,4,6,8,-1,10,-1,12,-1,14,-1,16,-1,18,20,22,-1,-1,-1,-1,-1,-1,-1],"split_conditions":[1E0,1E0,1E0,1E0,7.674324E-2,1E0,-4.2080123E-2,1E0,7.139104E-2,1E0,3.90996E-3,1E0,7.2600536E-2,1E0,1E0,1E0,7.369423E-2,7.859961E-2,2.0792697E-2,3.628794E-2,-1.1380963E-2,-1.091701E-2,-3.599418E-2],"split_indices":[44,43,581,53,0,371,0,164,0,660,0,56,0,345,318,709,0,0,0,0,0,0,0],"split_type":[0,0,0,0,0,0,0,0,0,0,0,0,0,0,0,0,0,0,0,0,0,0,0],"sum_hessian":[2.7255942E2,2.282841E2,4.4275333E1,2.151876E2,1.3096489E1,4.2785435E1,1.4898963E0,2.117266E2,3.4610157E0,4.055912E1,2.2263157E0,2.0897818E2,2.7484124E0,3.6859875E1,3.699245E0,2.0648059E2,2.4975958E0,3.4618763E1,2.2411146E0,2.449614E0,1.2496309E0,1.4833424E2,5.814634E1],"tree_param":{"num_deleted":"0","num_feature":"813","num_nodes":"23","size_leaf_vector":"1"}},{"base_weights":[6.477282E-3,-2.1234015E-1,1.1857451E0,-1.326741E-1,-1.2215041E0,1.2876172E0,-3.2642865E-1,7.523213E-2,-1.7258228E-1,-1.3578751E0,-6.5178494E-3,1.8457092E-1,1.3717772E0,2.7886508E-2,-5.2962273E-2,-7.2585054E-2,-8.188894E-1,-1.4492636E0,-2.5124473E-2,-3.5220172E-2,4.2244587E-2,1.4115002E0,6.067557E-3,-1.4327878E-1,7.918501E-1,-1.0178677E0,2.1131078E-3,-7.565975E-2,-2.2767529E-2,1.4516754E0,1.9297333E-2,-4.343051E-3,-6.207892E-2,4.7944028E-2,-1.80697E-2,-6.0894627E-2,-3.0837788E-3,2.2956343E-2,-3.9360058E-2,7.470935E-2,2.87487E-2],"categories":[],"categories_nodes":[],"categories_segments":[],"categories_sizes":[],"default_left":[0,0,0,0,0,0,0,0,0,0,0,0,0,0,0,0,0,0,0,0,0,0,0,0,0,0,0,0,0,0,0,0,0,0,0,0,0,0,0,0,0],"id":9,"left_children":[1,3,5,7,9,11,13,-1,15,17,-1,19,21,-1,-1,23,25,27,-1,-1,-1,29,-1,31,33,35,37,-1,-1,39,-1,-1,-1,-1,-1,-1,-1,-1,-1,-1,-1],"loss_changes":[6.988809E1,1.8206295E1,6.9501915E0,1.4169653E1,2.292307E0,3.4522476E0,2.8411186E0,0E0,1.3429279E1,4.1659546E-1,0E0,2.9343932E0,1.6630707E0,0E0,0E0,1.1225874E1,4.5546856E0,1.179924E-1,0E0,0E0,0E0,9.106064E-1,0E0,1.0360432E1,3.0240688E0,4.2155514E0,2.6824868E0,0E0,0E0,4.077301E-1,0E0,0E0,0E0,0E0,0E0,0E0,0E0,0E0,0E0,0E0,0E0],"parents":[2147483647,0,0,1,1,2,2,3,3,4,4,5,5,6,6,8,8,9,9,11,11,12,12,15,15,16,16,17,17,21,21,23,23,24,24,25,25,26,26,29,29],"right_children":[2,4,6,8,10,12,14,-1,16,18,-1,20,22,-1,-1,24,26,28,-1,-1,-1,30,-1,32,34,36,38,-1,-1,40,-1,-1,-1,-1,-1,-1,-1,-1,-1,-1,-1],"split_conditions":[1E0,1E0,1E0,1E0,1E0,1E0,1E0,7.523213E-2,1E0,1E0,-6.5178494E-3,1E0,1E0,2.7886508E-2,-5.2962273E-2,1E0,1E0,1E0,-2.5124473E-2,-3.5220172E-2,4.2244587E-2,1E0,6.067557E-3,1E0,1E0,1E0,1E0,-7.565975E-2,-2.2767529E-2,1E0,1.9297333E-2,-4.343051E-3,-6.207892E-2,4.7944028E-2,-1.80697E-2,-6.0894627E-2,-3.0837788E-3,2.2956343E-2,-3.9360058E-2,7.470935E-2,2.87487E-2],"split_indices":[44,168,587,513,420,479,709,0,192,258,0,544,72,0,0,614,746,379,0,0,0,255,0,57,399,380,298,0,0,399,0,0,0,0,0,0,0,0,0,0,0],"split_type":[0,0,0,0,0,0,0,0,0,0,0,0,0,0,0,0,0,0,0,0,0,0,0,0,0,0,0,0,0,0,0,0,0,0,0,0,0,0,0,0,0],"sum_hessian":[2.6886176E2,2.274732E2,4.138854E1,2.1187843E2,1.5594772E1,3.891539E1,2.4731493E0,4.168166E0,2.0771027E2,1.3644981E1,1.9497912E0,2.9850345E0,3.5930355E1,1.2291169E0,1.2440324E0,1.8084247E2,2.6867807E1,1.1700621E1,1.9443609E0,1.2437899E0,1.7412446E0,3.469923E1,1.2311254E0,1.6794235E2,1.2900116E1,2.1433414E1,5.434392E0,1.0502599E1,1.1980217E0,3.2991318E1,1.707912E0,1.6076329E2,7.1790495E0,1.1415313E1,1.4848038E0,1.7499104E1,3.9343102E0,3.7065928E0,1.7277994E0,3.0793787E1,2.1975317E0],"tree_param":{"num_deleted":"0","num_feature":"813","num_nodes":"41","size_leaf_vector":"1"}},{"base_weights":[-3.7577875E-2,-2.527349E-1,1.0682664E0,-3.5035503E-1,7.351463E-2,1.154901E0,-4.278447E-2,-4.2540985E-1,8.7302727E-1,1.2495792E0,-1.8189846E-1,-4.6069902E-1,7.358604E-2,1.1496009E0,-2.0508695E-1,1.3088933E0,-4.2549293E-3,2.7568465E-2,-3.838373E-2,-4.931989E-1,7.649706E-2,7.998468E-2,6.218305E-1,1.4292533E-2,-3.0219052E-2,1.386921E0,1.1104983E-1,-2.614837E-2,7.371445E-2,5.868522E-2,5.753984E-3,7.512711E-2,3.6607455E-2,-1.6466385E-2,2.5169468E-2],"categories":[],"categories_nodes":[],"categories_segments":[],"categories_sizes":[],"default_left":[0,0,0,0,0,0,0,0,0,0,0,0,0,0,0,0,0,0,0,0,0,0,0,0,0,0,0,0,0,0,0,0,0,0,0],"id":10,"left_children":[1,3,5,7,-1,9,-1,11,13,15,17,19,-1,21,23,25,-1,-1,-1,27,-1,-1,29,-1,-1,31,33,-1,-1,-1,-1,-1,-1,-1,-1],"loss_changes":[6.4855934E1,3.8872917E1,8.38945E0,2.0262146E1,0E0,5.6589546E0,0E0,1.4387428E1,4.067198E0,3.2941666E0,2.0174234E0,1.3810036E1,0E0,1.4703922E0,8.5336626E-1,3.4494934E0,0E0,0E0,0E0,1.24445915E1,0E0,0E0,1.6582632E0,0E0,0E0,1.6336212E0,7.609818E-1,0E0,0E0,0E0,0E0,0E0,0E0,0E0,0E0],"parents":[2147483647,0,0,1,1,2,2,3,3,5,5,7,7,8,8,9,9,10,10,11,11,13,13,14,14,15,15,19,19,22,22,25,25,26,26],"right_children":[2,4,6,8,-1,10,-1,12,14,16,18,20,-1,22,24,26,-1,-1,-1,28,-1,-1,30,-1,-1,32,34,-1,-1,-1,-1,-1,-1,-1,-1],"split_conditions":[1E0,1E0,1E0,1E0,7.351463E-2,1E0,-4.278447E-2,1E0,1E0,1E0,1E0,1E0,7.358604E-2,1E0,1E0,1E0,-4.2549293E-3,2.7568465E-2,-3.838373E-2,1E0,7.649706E-2,7.998468E-2,1E0,1.4292533E-2,-3.0219052E-2,1E0,1E0,-2.614837E-2,7.371445E-2,5.868522E-2,5.753984E-3,7.512711E-2,3.6607455E-2,-1.6466385E-2,2.5169468E-2],"split_indices":[44,43,581,224,0,587,0,54,437,551,741,135,0,758,591,382,0,0,0,0,0,0,42,0,0,318,245,0,0,0,0,0,0,0,0],"split_type":[0,0,0,0,0,0,0,0,0,0,0,0,0,0,0,0,0,0,0,0,0,0,0,0,0,0,0,0,0,0,0,0,0,0,0],"sum_hessian":[2.704492E2,2.2704579E2,4.340339E1,2.1562592E2,1.1419873E1,4.1915676E1,1.4877142E0,2.0377644E2,1.1849471E1,3.9204296E1,2.711379E0,2.007985E2,2.9779615E0,9.377508E0,2.4719627E0,3.7554657E1,1.6496394E0,1.2301849E0,1.4811943E0,1.98313E2,2.4854865E0,3.965021E0,5.4124875E0,1.2361765E0,1.2357862E0,3.5109753E1,2.444903E0,1.9608046E2,2.2325406E0,1.9608735E0,3.451614E0,2.874002E1,6.3697333E0,1.2276005E0,1.2173023E0],"tree_param":{"num_deleted":"0","num_feature":"813","num_nodes":"35","size_leaf_vector":"1"}},{"base_weights":[-4.0716965E-2,-1.441131E-1,5.3072685E-1,-1.7852639E-1,7.048372E-2,6.4421076E-1,-4.0138792E-2,-2.1318726E-1,6.85702E-2,7.1653986E-1,-3.4806855E-2,-2.4089059E-1,6.862134E-2,7.784841E-1,-2.9856015E-2,-2.7087805E-1,6.448876E-2,9.191891E-1,7.481229E-3,-1.5411029E-2,4.9343176E-2,5.0171275E-2,-2.9274324E-2,-2.8689954E-2,5.3883146E-2],"categories":[],"categories_nodes":[],"categories_segments":[],"categories_sizes":[],"default_left":[0,0,0,0,0,0,0,0,0,0,0,0,0,0,0,0,0,0,0,0,0,0,0,0,0],"id":11,"left_children":[1,3,5,7,-1,9,-1,11,-1,13,-1,15,-1,17,-1,19,-1,21,23,-1,-1,-1,-1,-1,-1],"loss_changes":[1.5938274E1,1.24489975E1,6.7739983E0,1.2329098E1,0E0,4.2465076E0,0E0,9.995414E0,0E0,3.4895954E0,0E0,1.0314125E1,0E0,3.8910885E0,0E0,1.0343343E1,0E0,4.43783E0,4.69515E0,0E0,0E0,0E0,0E0,0E0,0E0],"parents":[2147483647,0,0,1,1,2,2,3,3,5,5,7,7,9,9,11,11,13,13,15,15,17,17,18,18],"right_children":[2,4,6,8,-1,10,-1,12,-1,14,-1,16,-1,18,-1,20,-1,22,24,-1,-1,-1,-1,-1,-1],"split_conditions":[1E0,1E0,1E0,1E0,7.048372E-2,1E0,-4.0138792E-2,1E0,6.85702E-2,1E0,-3.4806855E-2,1E0,6.862134E-2,1E0,-2.9856015E-2,1E0,6.448876E-2,1E0,1E0,-1.5411029E-2,4.9343176E-2,5.0171275E-2,-2.9274324E-2,-2.8689954E-2,5.3883146E-2],"split_indices":[411,181,619,144,0,15,0,164,0,213,0,127,0,640,0,114,0,293,245,0,0,0,0,0,0],"split_type":[0,0,0,0,0,0,0,0,0,0,0,0,0,0,0,0,0,0,0,0,0,0,0,0,0],"sum_hessian":[2.674568E2,2.271114E2,4.0345367E1,2.2305626E2,4.0551486E0,3.765753E1,2.6878328E0,2.1902078E2,4.0354757E0,3.6171047E1,1.4864869E0,2.1609334E2,2.9274366E0,3.493129E1,1.2397552E0,2.127484E2,3.3449473E0,2.9377766E1,5.5535254E0,2.0734717E2,5.401224E0,2.8135767E1,1.2419999E0,3.8993716E0,1.654154E0],"tree_param":{"num_deleted":"0","num_feature":"813","num_nodes":"25","size_leaf_vector":"1"}},{"base_weights":[1.1013881E-2,-9.285334E-2,6.099486E-1,-4.831424E-2,-7.270001E-2,6.8305475E-1,-3.8091406E-2,1.1153503E-2,-8.836962E-1,7.553848E-1,-3.3485185E-2,1.0851501E-1,-4.8371387E-1,-1.0868093E0,3.7678093E-2,8.8289213E-1,-1.5633544E-1,-7.040378E-1,1.8484423E-1,-2.6021588E-1,-6.7565046E-2,-1.2871003E0,-4.1883576E-1,1.1292974E0,3.3458504E-1,-4.7111142E-2,2.7978215E-2,-5.1864702E-2,5.5141527E-2,1.1500193E-2,-5.3143937E-2,-4.6849344E-3,-4.337817E-2,-7.114088E-2,-1.4746368E-2,-4.7711443E-2,2.5009725E-3,6.490454E-2,-2.0858137E-2,2.7858356E-2,-3.0325418E-2],"categories":[],"categories_nodes":[],"categories_segments":[],"categories_sizes":[],"default_left":[0,0,0,0,0,0,0,0,0,0,0,0,0,0,0,0,0,0,0,0,0,0,0,0,0,0,0,0,0,0,0,0,0,0,0,0,0,0,0,0,0],"id":12,"left_children":[1,3,5,7,-1,9,-1,11,13,15,-1,17,19,21,-1,23,25,27,29,31,-1,33,35,37,39,-1,-1,-1,-1,-1,-1,-1,-1,-1,-1,-1,-1,-1,-1,-1,-1],"loss_changes":[1.6794567E1,1.3883068E1,4.5213614E0,1.1132941E1,0E0,4.2635956E0,0E0,1.0171007E1,5.7712984E0,4.430645E0,0E0,1.106464E1,6.3785057E0,1.2881985E0,0E0,4.0192146E0,3.5541706E0,1.0385258E1,9.370075E0,2.835145E0,0E0,9.302788E-1,1.2107112E0,6.2929554E0,2.7493267E0,0E0,0E0,0E0,0E0,0E0,0E0,0E0,0E0,0E0,0E0,0E0,0E0,0E0,0E0,0E0,0E0],"parents":[2147483647,0,0,1,1,2,2,3,3,5,5,7,7,8,8,9,9,11,11,12,12,13,13,15,15,16,16,17,17,18,18,19,19,21,21,22,22,23,23,24,24],"right_children":[2,4,6,8,-1,10,-1,12,14,16,-1,18,20,22,-1,24,26,28,30,32,-1,34,36,38,40,-1,-1,-1,-1,-1,-1,-1,-1,-1,-1,-1,-1,-1,-1,-1,-1],"split_conditions":[1E0,1E0,1E0,1E0,-7.270001E-2,1E0,-3.8091406E-2,1E0,1E0,1E0,-3.3485185E-2,1E0,1E0,1E0,3.7678093E-2,1E0,1E0,1E0,1E0,1E0,-6.7565046E-2,1E0,1E0,1E0,1E0,-4.7111142E-2,2.7978215E-2,-5.1864702E-2,5.5141527E-2,1.1500193E-2,-5.3143937E-2,-4.6849344E-3,-4.337817E-2,-7.114088E-2,-1.4746368E-2,-4.7711443E-2,2.5009725E-3,6.490454E-2,-2.0858137E-2,2.7858356E-2,-3.0325418E-2],"split_indices":[411,161,309,627,0,15,0,379,175,223,0,513,688,452,0,709,758,169,49,192,0,287,525,183,660,0,0,0,0,0,0,0,0,0,0,0,0,0,0,0,0],"split_type":[0,0,0,0,0,0,0,0,0,0,0,0,0,0,0,0,0,0,0,0,0,0,0,0,0,0,0,0,0,0,0,0,0,0,0,0,0,0,0,0,0],"sum_hessian":[2.680567E2,2.2916064E2,3.8896057E1,2.2290239E2,6.2582593E0,3.740471E1,1.4913465E0,2.0901036E2,1.3892024E1,3.5925426E1,1.4792845E0,1.7530176E2,3.3708607E1,1.2657924E1,1.2341008E0,3.154532E1,4.380105E0,1.4347165E1,1.6095459E2,2.7837383E1,5.8712234E0,9.024935E0,3.6329885E0,2.1033438E1,1.0511884E1,1.9372872E0,2.4428177E0,1.2472644E1,1.8745207E0,1.561197E2,4.8348794E0,2.2753347E1,5.084037E0,7.557165E0,1.4677695E0,1.2128195E0,2.420169E0,1.9108395E1,1.9250431E0,8.831148E0,1.6807353E0],"tree_param":{"num_deleted":"0","num_feature":"813","num_nodes":"41","size_leaf_vector":"1"}},{"base_weights":[-9.435742E-3,-8.495753E-2,7.0995905E-2,-2.3177186E-1,2.7050206E-1,-2.8967148E-1,6.5040857E-1,4.6127975E-1,-6.4314204E-1,-3.1561953E-1,7.189268E-2,1.1597906E0,-2.0392652E-1,3.068173E-1,1.1694927E0,-8.346813E-1,1.1926477E-2,-2.530804E-1,-1.0090983E0,7.234082E-2,-7.84288E-3,-4.330465E-1,1.4446643E-2,-4.2050713E-1,4.4158906E-1,1.2733465E0,1.4521851E-2,-2.8349182E-1,-6.2120456E-2,-1.5597263E-2,3.260452E-2,-5.6819268E-2,-8.0652265E-3,1.6634738E-2,-5.1325876E-2,2.0019377E-3,-6.1904635E-2,1.0586756E-2,5.6602295E-2,6.758985E-2,2.2219684E-2,2.9463405E-2,-4.1716985E-2],"categories":[],"categories_nodes":[],"categories_segments":[],"categories_sizes":[],"default_left":[0,0,0,0,0,0,0,0,0,0,0,0,0,0,0,0,0,0,0,0,0,0,0,0,0,0,0,0,0,0,0,0,0,0,0,0,0,0,0,0,0,0,0],"id":13,"left_children":[1,3,-1,5,7,9,11,13,15,17,-1,19,21,23,25,27,-1,29,31,-1,-1,33,-1,35,37,39,-1,41,-1,-1,-1,-1,-1,-1,-1,-1,-1,-1,-1,-1,-1,-1,-1],"loss_changes":[2.923033E1,1.3478612E1,0E0,9.508667E0,1.3474775E1,8.160502E0,5.261382E0,6.546788E0,2.475122E0,7.1261463E0,0E0,3.0171375E0,7.0819193E-1,5.3985195E0,6.295843E-1,2.1860538E0,0E0,8.593117E0,1.2999144E0,0E0,0E0,2.1252081E0,0E0,3.3728127E0,6.958164E0,1.6753197E-2,0E0,3.4233122E0,0E0,0E0,0E0,0E0,0E0,0E0,0E0,0E0,0E0,0E0,0E0,0E0,0E0,0E0,0E0],"parents":[2147483647,0,0,1,1,3,3,4,4,5,5,6,6,7,7,8,8,9,9,11,11,12,12,13,13,14,14,15,15,17,17,18,18,21,21,23,23,24,24,25,25,27,27],"right_children":[2,4,-1,6,8,10,12,14,16,18,-1,20,22,24,26,28,-1,30,32,-1,-1,34,-1,36,38,40,-1,42,-1,-1,-1,-1,-1,-1,-1,-1,-1,-1,-1,-1,-1,-1,-1],"split_conditions":[1E0,1E0,7.0995905E-2,1E0,1E0,1E0,1E0,1E0,1E0,1E0,7.189268E-2,1E0,1E0,1E0,1E0,1E0,1.1926477E-2,1E0,1E0,7.234082E-2,-7.84288E-3,1E0,1.4446643E-2,1E0,1E0,1E0,1.4521851E-2,1E0,-6.2120456E-2,-1.5597263E-2,3.260452E-2,-5.6819268E-2,-8.0652265E-3,1.6634738E-2,-5.1325876E-2,2.0019377E-3,-6.1904635E-2,1.0586756E-2,5.6602295E-2,6.758985E-2,2.2219684E-2,2.9463405E-2,-4.1716985E-2],"split_indices":[43,432,0,224,333,50,467,245,700,600,0,688,357,203,358,304,0,115,629,0,0,249,0,375,746,322,0,340,0,0,0,0,0,0,0,0,0,0,0,0,0,0,0],"split_type":[0,0,0,0,0,0,0,0,0,0,0,0,0,0,0,0,0,0,0,0,0,0,0,0,0,0,0,0,0,0,0,0,0,0,0,0,0,0,0,0,0,0,0],"sum_hessian":[2.6866568E2,2.560761E2,1.2589557E1,1.814715E2,7.460462E1,1.7092493E2,1.054657E1,6.2127018E1,1.24776E1,1.6920076E2,1.7241561E0,6.3831778E0,4.1633925E0,5.2179752E1,9.947265E0,1.029447E1,2.183131E0,1.5645622E2,1.2744548E1,5.159547E0,1.2236309E0,2.9249866E0,1.2384058E0,7.825834E0,4.435392E1,8.495095E0,1.45217E0,5.0980015E0,5.1964684E0,1.4751822E2,8.937998E0,1.0784907E1,1.95964E0,1.4689913E0,1.4559953E0,5.614317E0,2.2115166E0,3.4256535E1,1.0097384E1,7.1844444E0,1.3106503E0,1.9456221E0,3.1523793E0],"tree_param":{"num_deleted":"0","num_feature":"813","num_nodes":"43","size_leaf_vector":"1"}},{"base_weights":[-4.906151E-3,-7.048743E-2,6.899241E-2,-1.0470654E-1,6.950373E-2,-1.9019544E-1,4.4596255E-1,-2.1840553E-1,7.4073665E-2,5.817979E-1,-5.8576816E-1,-3.3393794E-1,2.1281973E-1,6.9238144E-1,-3.956847E-2,-5.6334555E-2,8.546316E-3,-1.8179895E-2,6.0611572E-2,1.8594151E-2,-2.5047658E-2,3.955529E-2,-3.456546E-2],"categories":[],"categories_nodes":[],"categories_segments":[],"categories_sizes":[],"default_left":[0,0,0,0,0,0,0,0,0,0,0,0,0,0,0,0,0,0,0,0,0,0,0],"id":14,"left_children":[1,3,-1,5,-1,7,9,11,-1,13,15,17,19,21,-1,-1,-1,-1,-1,-1,-1,-1,-1],"loss_changes":[2.4183449E1,1.2849444E1,0E0,1.1820659E1,0E0,1.0533024E1,5.07772E0,1.0721383E1,0E0,5.1595154E0,2.0060914E0,8.190609E0,5.384174E0,4.4591455E0,0E0,0E0,0E0,0E0,0E0,0E0,0E0,0E0,0E0],"parents":[2147483647,0,0,1,1,3,3,5,5,6,6,7,7,9,9,10,10,11,11,12,12,13,13],"right_children":[2,4,-1,6,-1,8,10,12,-1,14,16,18,20,22,-1,-1,-1,-1,-1,-1,-1,-1,-1],"split_conditions":[1E0,1E0,6.899241E-2,1E0,6.950373E-2,1E0,1E0,1E0,7.4073665E-2,1E0,1E0,1E0,1E0,1E0,-3.956847E-2,-5.6334555E-2,8.546316E-3,-1.8179895E-2,6.0611572E-2,1.8594151E-2,-2.5047658E-2,3.955529E-2,-3.456546E-2],"split_indices":[43,181,0,411,0,0,223,557,0,147,758,53,248,619,0,0,0,0,0,0,0,0,0],"split_type":[0,0,0,0,0,0,0,0,0,0,0,0,0,0,0,0,0,0,0,0,0,0,0],"sum_hessian":[2.642256E2,2.53184E2,1.1041573E1,2.4829509E2,4.8889265E0,2.1549506E2,3.2800026E1,2.1277376E2,2.721296E0,2.9369411E1,3.4306152E0,1.6799162E2,4.478214E1,2.7639345E1,1.730067E0,1.7153983E0,1.7152169E0,1.6558015E2,2.4114633E0,3.7012863E1,7.769275E0,2.6198391E1,1.4409536E0],"tree_param":{"num_deleted":"0","num_feature":"813","num_nodes":"23","size_leaf_vector":"1"}},{"base_weights":[-3.4718882E-2,-2.2442223E-1,1.0324364E0,-3.1850922E-1,6.762993E-2,1.1117715E0,-1.1867902E-2,-3.5386994E-1,6.539633E-2,1.1791689E0,1.4970897E-4,-3.8947502E-1,1.2185457E0,1.2374382E0,-1.020615E-3,-4.2206433E-1,6.944725E-2,1.7264878E-2,7.890874E-2,1.2819892E0,-1.3934766E-3,-2.2470748E-2,7.081389E-2,6.599806E-2,8.0752345E-3],"categories":[],"categories_nodes":[],"categories_segments":[],"categories_sizes":[],"default_left":[0,0,0,0,0,0,0,0,0,0,0,0,0,0,0,0,0,0,0,0,0,0,0,0,0],"id":15,"left_children":[1,3,5,7,-1,9,-1,11,-1,13,-1,15,17,19,-1,21,-1,-1,-1,23,-1,-1,-1,-1,-1],"loss_changes":[5.4302975E1,3.42017E1,4.3430405E0,1.2862213E1,0E0,2.8576202E0,0E0,1.2332205E1,0E0,2.547947E0,0E0,1.26335125E1,1.003881E0,1.9768486E0,0E0,1.0938358E1,0E0,0E0,0E0,1.2029991E0,0E0,0E0,0E0,0E0,0E0],"parents":[2147483647,0,0,1,1,2,2,3,3,5,5,7,7,9,9,11,11,12,12,13,13,15,15,19,19],"right_children":[2,4,6,8,-1,10,-1,12,-1,14,-1,16,18,20,-1,22,-1,-1,-1,24,-1,-1,-1,-1,-1],"split_conditions":[1E0,1E0,1E0,1E0,6.762993E-2,1E0,-1.1867902E-2,1E0,6.539633E-2,1E0,1.4970897E-4,1E0,1E0,1E0,-1.020615E-3,1E0,6.944725E-2,1.7264878E-2,7.890874E-2,1E0,-1.3934766E-3,-2.2470748E-2,7.081389E-2,6.599806E-2,8.0752345E-3],"split_indices":[44,43,329,127,0,382,0,172,0,193,0,164,231,551,0,135,0,0,0,386,0,0,0,0,0],"split_type":[0,0,0,0,0,0,0,0,0,0,0,0,0,0,0,0,0,0,0,0,0,0,0,0,0],"sum_hessian":[2.6609393E2,2.2660167E2,3.9492252E1,2.145966E2,1.2005064E1,3.7287056E1,2.2051973E0,2.1079607E2,3.8005402E0,3.5090572E1,2.196481E0,2.0686423E2,3.9318337E0,3.343492E1,1.6556515E0,2.0389064E2,2.9735959E0,1.7186857E0,2.2131479E0,3.2284996E1,1.1499256E0,2.016461E2,2.2445338E0,3.1054565E1,1.2304307E0],"tree_param":{"num_deleted":"0","num_feature":"813","num_nodes":"25","size_leaf_vector":"1"}},{"base_weights":[3.95268E-2,-1.4554559E-1,1.0178236E0,-6.265401E-2,-1.0493344E0,1.10655E0,-5.2625455E-2,5.1239026E-3,-1.0580975E0,-1.2195117E0,-4.519971E-3,1.2023406E0,1.2958503E-1,-3.7721667E-2,6.9166176E-2,-1.2246033E0,-2.6191347E-3,-1.2949383E0,-7.633995E-3,-9.742701E-3,1.0595278E-2,1.2792904E0,-5.512104E-3,-2.085202E-2,2.696071E-2,1.16529614E-1,-4.1315052E-1,-6.889077E-2,3.0025174E-3,-1.3916025E0,-1.2171498E-2,1.3366764E0,1.0249353E-2,1.02078635E-2,-2.8787402E-2,-2.485112E-2,4.0159136E-2,-7.52523E-2,-1.3983021E-2,6.9224924E-2,1.2786232E-2],"categories":[],"categories_nodes":[],"categories_segments":[],"categories_sizes":[],"default_left":[0,0,0,0,0,0,0,0,0,0,0,0,0,0,0,0,0,0,0,0,0,0,0,0,0,0,0,0,0,0,0,0,0,0,0,0,0,0,0,0,0],"id":16,"left_children":[1,3,5,7,9,11,-1,13,15,17,19,21,23,25,-1,27,-1,29,-1,-1,-1,31,-1,-1,-1,33,35,-1,-1,37,-1,39,-1,-1,-1,-1,-1,-1,-1,-1,-1],"loss_changes":[4.7864952E1,1.6602913E1,8.889141E0,1.3827679E1,3.306715E0,3.6634102E0,0E0,1.1437169E1,2.1236305E0,1.0910301E0,1.9011827E-1,3.8827477E0,1.2918065E0,1.09331875E1,0E0,2.280136E0,0E0,1.1680412E0,0E0,0E0,0E0,1.8882675E0,0E0,0E0,0E0,8.24668E0,6.005803E0,0E0,0E0,1.2649097E0,0E0,1.357708E0,0E0,0E0,0E0,0E0,0E0,0E0,0E0,0E0,0E0],"parents":[2147483647,0,0,1,1,2,2,3,3,4,4,5,5,7,7,8,8,9,9,10,10,11,11,12,12,13,13,15,15,17,17,21,21,25,25,26,26,29,29,31,31],"right_children":[2,4,6,8,10,12,-1,14,16,18,20,22,24,26,-1,28,-1,30,-1,-1,-1,32,-1,-1,-1,34,36,-1,-1,38,-1,40,-1,-1,-1,-1,-1,-1,-1,-1,-1],"split_conditions":[1E0,1E0,1E0,1E0,1E0,1E0,-5.2625455E-2,1E0,1E0,1E0,1E0,1E0,1E0,1E0,6.9166176E-2,1E0,-2.6191347E-3,1E0,-7.633995E-3,-9.742701E-3,1.0595278E-2,1E0,-5.512104E-3,-2.085202E-2,2.696071E-2,1E0,1E0,-6.889077E-2,3.0025174E-3,1E0,-1.2171498E-2,1E0,1.0249353E-2,1.02078635E-2,-2.8787402E-2,-2.485112E-2,4.0159136E-2,-7.52523E-2,-1.3983021E-2,6.9224924E-2,1.2786232E-2],"split_indices":[44,581,581,168,655,660,0,516,420,637,667,329,298,709,0,595,0,340,0,0,0,345,0,0,0,720,274,0,0,724,0,347,0,0,0,0,0,0,0,0,0],"split_type":[0,0,0,0,0,0,0,0,0,0,0,0,0,0,0,0,0,0,0,0,0,0,0,0,0,0,0,0,0,0,0,0,0,0,0,0,0,0,0,0,0],"sum_hessian":[2.6254764E2,2.2149657E2,4.1051086E1,2.03868E2,1.7628561E1,3.9810486E1,1.2406003E0,1.9180331E2,1.2064682E1,1.5015639E1,2.612922E0,3.604556E1,3.7649262E0,1.8696361E2,4.839709E0,1.01642475E1,1.9004339E0,1.3824415E1,1.1912242E0,1.4432961E0,1.1696259E0,3.4073376E1,1.972182E0,1.6050249E0,2.1599014E0,1.3300562E2,5.3957996E1,9.016402E0,1.1478457E0,1.2364339E1,1.4600768E0,3.2113735E1,1.9596401E0,1.1868741E2,1.4318212E1,5.1030575E1,2.9274201E0,1.0898876E1,1.4654629E0,3.0484276E1,1.6294602E0],"tree_param":{"num_deleted":"0","num_feature":"813","num_nodes":"41","size_leaf_vector":"1"}},{"base_weights":[2.1565463E-2,-4.3847643E-2,6.652405E-2,4.2154018E-2,-6.173684E-1,7.46608E-2,-6.550499E-2,-6.8449044E-1,3.2709327E-2,1.17524624E-1,-1.0189993E0,-8.044404E-1,-9.468984E-2,1.5720035E-1,-9.929414E-1,-1.1694304E0,-9.226682E-3,-9.0074944E-1,1.1234765E-1,2.8421326E-2,-5.60497E-1,1.0725459E-2,-3.3501774E-2,-5.9165765E-2,-4.739515E-4,-6.911499E-2,-1.1716145E-2,-5.3831823E-2,-7.8265695E-3,3.3398293E-2,-2.491901E-2,-3.5355497E-2,-9.909765E-3],"categories":[],"categories_nodes":[],"categories_segments":[],"categories_sizes":[],"default_left":[0,0,0,0,0,0,0,0,0,0,0,0,0,0,0,0,0,0,0,0,0,0,0,0,0,0,0,0,0,0,0,0,0],"id":17,"left_children":[1,3,-1,5,7,9,-1,11,-1,13,15,17,19,21,23,25,-1,27,29,-1,31,-1,-1,-1,-1,-1,-1,-1,-1,-1,-1,-1,-1],"loss_changes":[2.2665192E1,1.2477174E1,0E0,9.788472E0,3.2627525E0,1.0256124E1,0E0,2.1747475E0,0E0,9.362925E0,8.2086754E-1,2.4238987E0,2.3295999E0,9.749653E0,1.3640151E0,1.0315905E0,0E0,2.9620705E0,1.4831916E0,0E0,8.9734316E-2,0E0,0E0,0E0,0E0,0E0,0E0,0E0,0E0,0E0,0E0,0E0,0E0],"parents":[2147483647,0,0,1,1,3,3,4,4,5,5,7,7,9,9,10,10,11,11,12,12,13,13,14,14,15,15,17,17,18,18,20,20],"right_children":[2,4,-1,6,8,10,-1,12,-1,14,16,18,20,22,24,26,-1,28,30,-1,32,-1,-1,-1,-1,-1,-1,-1,-1,-1,-1,-1,-1],"split_conditions":[1E0,1E0,6.652405E-2,1E0,1E0,1E0,-6.550499E-2,1E0,3.2709327E-2,1E0,1E0,1E0,1E0,1E0,1E0,1E0,-9.226682E-3,1E0,1E0,2.8421326E-2,1E0,1.0725459E-2,-3.3501774E-2,-5.9165765E-2,-4.739515E-4,-6.911499E-2,-1.1716145E-2,-5.3831823E-2,-7.8265695E-3,3.3398293E-2,-2.491901E-2,-3.5355497E-2,-9.909765E-3],"split_indices":[43,192,0,161,315,46,0,258,0,49,328,360,758,62,677,591,0,560,255,0,649,0,0,0,0,0,0,0,0,0,0,0,0],"split_type":[0,0,0,0,0,0,0,0,0,0,0,0,0,0,0,0,0,0,0,0,0,0,0,0,0,0,0,0,0,0,0,0,0],"sum_hessian":[2.6303635E2,2.5143727E2,1.1599087E1,2.1945557E2,3.198171E1,2.1522653E2,4.229035E0,3.0816671E1,1.1650407E0,2.0796817E2,7.258356E0,2.5306147E1,5.510523E0,2.0162285E2,6.3453255E0,5.809629E0,1.4487271E0,2.2916275E1,2.389873E0,2.1828067E0,3.3277164E0,1.892526E2,1.2370253E1,5.1459785E0,1.1993471E0,4.3428016E0,1.4668274E0,1.8174324E1,4.7419505E0,1.2023224E0,1.1875505E0,1.6914998E0,1.6362164E0],"tree_param":{"num_deleted":"0","num_feature":"813","num_nodes":"33","size_leaf_vector":"1"}},{"base_weights":[4.0372252E-2,-1.310138E-1,9.8188406E-1,-2.0944482E-1,6.4927764E-2,1.0488238E0,-2.463403E-2,-2.4922828E-1,7.681862E-2,1.1282446E0,1.2414757E-1,-2.8080186E-1,7.3619395E-2,1.1840076E0,-7.7361017E-3,-3.314403E-2,4.601947E-2,-3.423459E-1,5.737798E-1,1.2373596E0,1.2875132E-2,-1.8904597E-2,5.1766466E-2,4.8785638E-2,-2.480623E-2,6.483481E-2,1.43128205E-2],"categories":[],"categories_nodes":[],"categories_segments":[],"categories_sizes":[],"default_left":[0,0,0,0,0,0,0,0,0,0,0,0,0,0,0,0,0,0,0,0,0,0,0,0,0,0,0],"id":18,"left_children":[1,3,5,7,-1,9,-1,11,-1,13,15,17,-1,19,-1,-1,-1,21,23,25,-1,-1,-1,-1,-1,-1,-1],"loss_changes":[4.3057854E1,2.5606588E1,4.572441E0,1.5320088E1,0E0,2.7698288E0,0E0,1.1890109E1,0E0,2.7848892E0,3.2782824E0,1.1145012E1,0E0,1.4098053E0,0E0,0E0,0E0,9.985239E0,6.6585555E0,1.4798889E0,0E0,0E0,0E0,0E0,0E0,0E0,0E0],"parents":[2147483647,0,0,1,1,2,2,3,3,5,5,7,7,9,9,10,10,11,11,13,13,17,17,18,18,19,19],"right_children":[2,4,6,8,-1,10,-1,12,-1,14,16,18,-1,20,-1,-1,-1,22,24,26,-1,-1,-1,-1,-1,-1,-1],"split_conditions":[1E0,1E0,1E0,1E0,6.4927764E-2,1E0,-2.463403E-2,1E0,7.681862E-2,1E0,1E0,1E0,7.3619395E-2,1E0,-7.7361017E-3,-3.314403E-2,4.601947E-2,1E0,1E0,1E0,1.2875132E-2,-1.8904597E-2,5.1766466E-2,4.8785638E-2,-2.480623E-2,6.483481E-2,1.43128205E-2],"split_indices":[44,43,581,54,0,616,0,0,0,193,432,224,0,382,0,0,0,172,298,329,0,0,0,0,0,0,0],"split_type":[0,0,0,0,0,0,0,0,0,0,0,0,0,0,0,0,0,0,0,0,0,0,0,0,0,0,0],"sum_hessian":[2.650429E2,2.2495462E2,4.0088276E1,2.1406384E2,1.08907795E1,3.862363E1,1.4646474E0,2.1013261E2,3.9312313E0,3.536589E1,3.2577384E0,2.071701E2,2.9624996E0,3.396669E1,1.3991997E0,1.7225796E0,1.5351588E0,1.9381184E2,1.3358262E1,3.1800003E1,2.1666887E0,1.8961746E2,4.194379E0,9.774351E0,3.5839105E0,2.9590572E1,2.2094297E0],"tree_param":{"num_deleted":"0","num_feature":"813","num_nodes":"27","size_leaf_vector":"1"}},{"base_weights":[-2.6284527E-2,-1.9672109E-1,8.978502E-1,-2.725794E-1,6.322142E-2,9.965164E-1,-4.399908E-2,-2.0857716E-1,-1.141765E0,1.0544891E0,-2.6304478E-2,-2.4546807E-1,6.536063E-2,-1.2545301E0,4.737435E-3,1.1399832E0,-1.8582238E-1,-2.7896255E-1,6.902967E-2,1.3099628E-3,-6.896365E-2,1.194157E0,2.4614827E-1,-1.9514548E-2,4.797841E-3,-1.5300124E-2,7.058117E-2,6.178817E-2,1.0243248E-3,2.1139558E-2,-2.2466385E-3],"categories":[],"categories_nodes":[],"categories_segments":[],"categories_sizes":[],"default_left":[0,0,0,0,0,0,0,0,0,0,0,0,0,0,0,0,0,0,0,0,0,0,0,0,0,0,0,0,0,0,0],"id":19,"left_children":[1,3,5,7,-1,9,-1,11,13,15,-1,17,-1,19,-1,21,23,25,-1,-1,-1,27,29,-1,-1,-1,-1,-1,-1,-1,-1],"loss_changes":[4.2151863E1,2.5374866E1,8.187458E0,1.1750055E1,0E0,4.0814857E0,0E0,1.1613311E1,2.1485462E0,4.32843E0,0E0,1.1168314E1,0E0,2.1785583E0,0E0,1.4714584E0,2.3122348E-1,9.33796E0,0E0,0E0,0E0,1.6406059E0,1.9088785E-1,0E0,0E0,0E0,0E0,0E0,0E0,0E0,0E0],"parents":[2147483647,0,0,1,1,2,2,3,3,5,5,7,7,8,8,9,9,11,11,13,13,15,15,16,16,17,17,21,21,22,22],"right_children":[2,4,6,8,-1,10,-1,12,14,16,-1,18,-1,20,-1,22,24,26,-1,-1,-1,28,30,-1,-1,-1,-1,-1,-1,-1,-1],"split_conditions":[1E0,1E0,1E0,1E0,6.322142E-2,1E0,-4.399908E-2,1E0,1E0,1E0,-2.6304478E-2,1E0,6.536063E-2,1E0,4.737435E-3,1E0,1E0,1E0,6.902967E-2,1.3099628E-3,-6.896365E-2,1E0,1E0,-1.9514548E-2,4.797841E-3,-1.5300124E-2,7.058117E-2,6.178817E-2,1.0243248E-3,2.1139558E-2,-2.2466385E-3],"split_indices":[44,43,581,168,0,65,0,516,256,587,0,54,0,786,0,399,437,56,0,0,0,420,610,0,0,0,0,0,0,0,0],"split_type":[0,0,0,0,0,0,0,0,0,0,0,0,0,0,0,0,0,0,0,0,0,0,0,0,0,0,0,0,0,0,0],"sum_hessian":[2.654987E2,2.2482225E2,4.0676445E1,2.1449956E2,1.0322697E1,3.895405E1,1.7223973E0,2.0094313E2,1.355642E1,3.7821453E1,1.1325947E0,1.9698697E2,3.9561603E0,1.24101E1,1.146321E0,3.5458225E1,2.3632293E0,1.9382294E2,3.1640267E0,1.1715739E0,1.1238525E1,3.311518E1,2.3430455E0,1.1463232E0,1.2169061E0,1.9157776E2,2.2451766E0,3.1930347E1,1.1848329E0,1.1765616E0,1.1664839E0],"tree_param":{"num_deleted":"0","num_feature":"813","num_nodes":"31","size_leaf_vector":"1"}},{"base_weights":[-2.0657882E-2,-1.6367313E-1,8.4336644E-1,-2.400498E-1,6.2354304E-2,9.6182793E-1,-6.3556415E-1,-2.7898657E-1,7.196293E-2,3.3474305E-1,1.2043943E0,3.2076852E-3,-5.2048218E-2,-3.1630298E-1,6.6971E-2,5.170899E-1,-2.7517913E-2,1.2678272E0,-4.1532344E-3,-3.5142043E-1,6.454428E-2,-2.3939507E-3,7.834974E-1,1.3242813E0,2.2848688E-2,-1.9098826E-2,6.2566325E-2,2.4870047E-2,-3.49997E-2,1.0120488E-2,5.810652E-2,6.796952E-2,1.6841866E-2],"categories":[],"categories_nodes":[],"categories_segments":[],"categories_sizes":[],"default_left":[0,0,0,0,0,0,0,0,0,0,0,0,0,0,0,0,0,0,0,0,0,0,0,0,0,0,0,0,0,0,0,0,0],"id":20,"left_children":[1,3,5,7,-1,9,11,13,-1,15,17,-1,-1,19,-1,21,-1,23,-1,25,-1,27,29,31,-1,-1,-1,-1,-1,-1,-1,-1,-1],"loss_changes":[3.3106167E1,2.5054478E1,7.277918E0,1.4707322E1,0E0,5.016239E0,1.0380687E0,1.3388052E1,0E0,2.1119812E0,2.1719627E0,0E0,0E0,1.2342104E1,0E0,1.3725197E0,0E0,5.016556E-1,0E0,1.0611582E1,0E0,1.8663182E0,1.2058191E0,3.0752182E-1,0E0,0E0,0E0,0E0,0E0,0E0,0E0,0E0,0E0],"parents":[2147483647,0,0,1,1,2,2,3,3,5,5,6,6,7,7,9,9,10,10,13,13,15,15,17,17,19,19,21,21,22,22,23,23],"right_children":[2,4,6,8,-1,10,12,14,-1,16,18,-1,-1,20,-1,22,-1,24,-1,26,-1,28,30,32,-1,-1,-1,-1,-1,-1,-1,-1,-1],"split_conditions":[1E0,1E0,1E0,1E0,6.2354304E-2,1E0,1E0,1E0,7.196293E-2,1E0,1E0,3.2076852E-3,-5.2048218E-2,1E0,6.6971E-2,1E0,-2.7517913E-2,1E0,-4.1532344E-3,1E0,6.454428E-2,1E0,1E0,1E0,2.2848688E-2,-1.9098826E-2,6.2566325E-2,2.4870047E-2,-3.49997E-2,1.0120488E-2,5.810652E-2,6.796952E-2,1.6841866E-2],"split_indices":[44,43,587,54,0,452,709,53,0,543,65,0,0,172,0,758,0,399,0,127,0,357,245,526,0,0,0,0,0,0,0,0,0],"split_type":[0,0,0,0,0,0,0,0,0,0,0,0,0,0,0,0,0,0,0,0,0,0,0,0,0,0,0,0,0,0,0,0,0],"sum_hessian":[2.6580008E2,2.287478E2,3.7052284E1,2.1778696E2,1.0960858E1,3.462823E1,2.4240546E0,2.136667E2,4.1202493E0,1.0322478E1,2.4305752E1,1.1980247E0,1.2260299E0,2.0963754E2,4.0291586E0,8.903898E0,1.4185795E0,2.3178978E1,1.1267725E0,2.059195E2,3.718045E0,3.3542535E0,5.549645E0,2.1078247E1,2.1007316E0,2.0281454E2,3.104948E0,2.1213775E0,1.2328762E0,2.794898E0,2.7547472E0,1.9990788E1,1.0874594E0],"tree_param":{"num_deleted":"0","num_feature":"813","num_nodes":"33","size_leaf_vector":"1"}},{"base_weights":[2.9543133E-2,-1.14847966E-1,8.1065565E-1,-1.8988656E-1,6.1527837E-2,9.10489E-1,-3.9707357E-1,-2.2345987E-1,6.847068E-2,9.9413276E-1,-2.805886E-2,1.397081E-2,-5.073929E-2,-2.5536582E-1,7.3671825E-2,1.0843494E0,7.475709E-2,-2.8694147E-1,7.136821E-2,1.1432632E0,-5.895606E-6,2.2332588E-2,-2.0565261E-1,-1.1121498E-2,-4.8840664E-2,6.020492E-2,2.03697E-2,-2.6794443E-2,1.2137817E-2],"categories":[],"categories_nodes":[],"categories_segments":[],"categories_sizes":[],"default_left":[0,0,0,0,0,0,0,0,0,0,0,0,0,0,0,0,0,0,0,0,0,0,0,0,0,0,0,0,0],"id":21,"left_children":[1,3,5,7,-1,9,11,13,-1,15,-1,-1,-1,17,-1,19,21,23,-1,25,-1,-1,27,-1,-1,-1,-1,-1,-1],"loss_changes":[2.9725697E1,2.2708729E1,5.3187294E0,1.1390017E1,0E0,5.269825E0,1.8862766E0,1.1644254E1,0E0,2.953064E0,0E0,0E0,0E0,1.1308996E1,0E0,2.1237144E0,5.447449E-1,8.78104E0,0E0,9.2074966E-1,0E0,0E0,5.9813285E-1,0E0,0E0,0E0,0E0,0E0,0E0],"parents":[2147483647,0,0,1,1,2,2,3,3,5,5,6,6,7,7,9,9,13,13,15,15,16,16,17,17,19,19,22,22],"right_children":[2,4,6,8,-1,10,12,14,-1,16,-1,-1,-1,18,-1,20,22,24,-1,26,-1,-1,28,-1,-1,-1,-1,-1,-1],"split_conditions":[1E0,1E0,1E0,1E0,6.1527837E-2,1E0,1E0,1E0,6.847068E-2,1E0,-2.805886E-2,1.397081E-2,-5.073929E-2,1E0,7.3671825E-2,1E0,1E0,1E0,7.136821E-2,1E0,-5.895606E-6,2.2332588E-2,1E0,-1.1121498E-2,-4.8840664E-2,6.020492E-2,2.03697E-2,-2.6794443E-2,1.2137817E-2],"split_indices":[44,43,587,54,0,581,709,56,0,660,0,0,0,0,0,329,467,600,0,333,0,0,629,0,0,0,0,0,0],"split_type":[0,0,0,0,0,0,0,0,0,0,0,0,0,0,0,0,0,0,0,0,0,0,0,0,0,0,0,0,0],"sum_hessian":[2.6173364E2,2.2161954E2,4.0114098E1,2.107254E2,1.0894134E1,3.727868E1,2.835418E0,2.0712253E2,3.602865E0,3.5580887E1,1.6977929E0,1.6147159E0,1.2207022E0,2.041338E2,2.9887242E0,3.223799E1,3.3428974E0,2.011881E2,2.9457204E0,3.0525475E1,1.7125162E0,1.1821764E0,2.160721E0,1.8519272E2,1.5995376E1,2.760689E1,2.918584E0,1.1319748E0,1.0287462E0],"tree_param":{"num_deleted":"0","num_feature":"813","num_nodes":"29","size_leaf_vector":"1"}},{"base_weights":[2.1194397E-2,-1.21700056E-1,8.640204E-1,-1.9114257E-1,6.0166817E-2,9.4201505E-1,-1.1754983E-1,-2.293705E-1,1.2058184E0,3.3835387E-1,1.0971733E0,-3.7739594E-2,2.6256565E-2,-2.6317582E-1,6.558252E-2,7.988741E-2,2.3550582E-3,-2.487695E-2,6.5524656E-1,1.1678208E0,2.6256478E-1,-3.1119987E-1,6.128768E-1,8.3241326E-1,-5.341352E-3,1.2203642E0,5.841668E-3,7.2534935E-4,2.0237043E-2,-1.6944995E-2,6.4906925E-2,5.3425778E-2,-5.6349035E-2,5.1021267E-2,1.3162265E-2,6.403144E-2,1.8897122E-2],"categories":[],"categories_nodes":[],"categories_segments":[],"categories_sizes":[],"default_left":[0,0,0,0,0,0,0,0,0,0,0,0,0,0,0,0,0,0,0,0,0,0,0,0,0,0,0,0,0,0,0,0,0,0,0,0,0],"id":22,"left_children":[1,3,5,7,-1,9,11,13,15,17,19,-1,-1,21,-1,-1,-1,-1,23,25,27,29,31,33,-1,35,-1,-1,-1,-1,-1,-1,-1,-1,-1,-1,-1],"loss_changes":[3.076332E1,2.0338331E1,2.9453316E0,1.1411945E1,0E0,2.8518353E0,1.8766735E0,1.0962198E1,2.5196238E0,2.5728168E0,1.2812004E0,0E0,0E0,8.615995E0,0E0,0E0,0E0,0E0,9.775889E-1,1.2124481E0,1.137445E-1,8.932892E0,9.721663E0,3.150351E-1,0E0,6.970329E-1,0E0,0E0,0E0,0E0,0E0,0E0,0E0,0E0,0E0,0E0,0E0],"parents":[2147483647,0,0,1,1,2,2,3,3,5,5,6,6,7,7,8,8,9,9,10,10,13,13,18,18,19,19,20,20,21,21,22,22,23,23,25,25],"right_children":[2,4,6,8,-1,10,12,14,16,18,20,-1,-1,22,-1,-1,-1,-1,24,26,28,30,32,34,-1,36,-1,-1,-1,-1,-1,-1,-1,-1,-1,-1,-1],"split_conditions":[1E0,1E0,1E0,1E0,6.0166817E-2,1E0,1E0,1E0,1E0,1E0,1E0,-3.7739594E-2,2.6256565E-2,1E0,6.558252E-2,7.988741E-2,2.3550582E-3,-2.487695E-2,1E0,1E0,1E0,1E0,1E0,1E0,-5.341352E-3,1E0,5.841668E-3,7.2534935E-4,2.0237043E-2,-1.6944995E-2,6.4906925E-2,5.3425778E-2,-5.6349035E-2,5.1021267E-2,1.3162265E-2,6.403144E-2,1.8897122E-2],"split_indices":[44,43,345,172,0,544,758,54,347,467,664,0,0,313,0,0,0,0,417,193,198,0,183,647,0,778,0,0,0,0,0,0,0,0,0,0,0],"split_type":[0,0,0,0,0,0,0,0,0,0,0,0,0,0,0,0,0,0,0,0,0,0,0,0,0,0,0,0,0,0,0,0,0,0,0,0,0],"sum_hessian":[2.5356161E2,2.1753577E2,3.6025852E1,2.07516E2,1.0019755E1,3.341132E1,2.6145341E0,2.0280212E2,4.713886E0,7.482087E0,2.5929234E1,1.2252306E0,1.3893036E0,1.9926018E2,3.5419405E0,3.2393126E0,1.4745733E0,1.9000695E0,5.5820174E0,2.353759E1,2.391643E0,1.8951593E2,9.744251E0,4.454205E0,1.1278126E0,2.2263388E1,1.2742021E0,1.2728714E0,1.1187717E0,1.8708522E2,2.4307036E0,8.027775E0,1.7164761E0,2.7522295E0,1.7019753E0,2.0291609E1,1.9717796E0],"tree_param":{"num_deleted":"0","num_feature":"813","num_nodes":"37","size_leaf_vector":"1"}},{"base_weights":[1.1122163E-2,4.6641685E-2,-1.0018356E0,8.128976E-2,-1.050764E0,-5.6635953E-2,-1.3164001E-2,1.2519704E-1,-7.727608E-1,-5.9112776E-2,-7.208524E-3,1.7772214E-1,-5.62928E-1,-1.0020335E0,2.2284888E-2,2.1631087E-1,-9.5573443E-1,-7.1233743E-1,3.8172428E-2,-1.0965291E0,-1.8126138E-2,1.2880176E-2,-3.7158992E-2,-1.0941881E-2,-5.292625E-2,-4.3195006E-2,2.780563E-2,-8.209421E-3,-6.263348E-2],"categories":[],"categories_nodes":[],"categories_segments":[],"categories_sizes":[],"default_left":[0,0,0,0,0,0,0,0,0,0,0,0,0,0,0,0,0,0,0,0,0,0,0,0,0,0,0,0,0],"id":23,"left_children":[1,3,5,7,9,-1,-1,11,13,-1,-1,15,17,19,-1,21,23,25,-1,27,-1,-1,-1,-1,-1,-1,-1,-1,-1],"loss_changes":[9.549559E0,9.824015E0,5.7098675E-1,9.441996E0,7.725992E-1,0E0,0E0,8.698227E0,3.889748E0,0E0,0E0,9.906986E0,3.9346519E0,2.4795341E-1,0E0,8.721261E0,3.3542204E-1,3.5363188E0,0E0,1.0771618E0,0E0,0E0,0E0,0E0,0E0,0E0,0E0,0E0,0E0],"parents":[2147483647,0,0,1,1,2,2,3,3,4,4,7,7,8,8,11,11,12,12,13,13,15,15,16,16,17,17,19,19],"right_children":[2,4,6,8,10,-1,-1,12,14,-1,-1,16,18,20,-1,22,24,26,-1,28,-1,-1,-1,-1,-1,-1,-1,-1,-1],"split_conditions":[1E0,1E0,1E0,1E0,1E0,-5.6635953E-2,-1.3164001E-2,1E0,1E0,-5.9112776E-2,-7.208524E-3,1E0,1E0,1E0,2.2284888E-2,1E0,1E0,1E0,3.8172428E-2,1E0,-1.8126138E-2,1.2880176E-2,-3.7158992E-2,-1.0941881E-2,-5.292625E-2,-4.3195006E-2,2.780563E-2,-8.209421E-3,-6.263348E-2],"split_indices":[46,180,328,206,343,0,0,627,343,0,0,133,175,456,0,57,467,375,0,786,0,0,0,0,0,0,0,0,0],"split_type":[0,0,0,0,0,0,0,0,0,0,0,0,0,0,0,0,0,0,0,0,0,0,0,0,0,0,0,0,0],"sum_hessian":[2.631159E2,2.551239E2,7.992004E0,2.4821306E2,6.9108357E0,6.3355513E0,1.6564524E0,2.3688792E2,1.1325148E1,5.76991E0,1.1409259E0,2.2077753E2,1.6110386E1,9.681112E0,1.6440357E0,2.142911E2,6.486421E0,1.4895437E1,1.2149489E0,7.8121347E0,1.8689771E0,2.0615073E2,8.140384E0,1.1770704E0,5.3093505E0,1.3590489E1,1.3049481E0,1.4149249E0,6.39721E0],"tree_param":{"num_deleted":"0","num_feature":"813","num_nodes":"29","size_leaf_vector":"1"}},{"base_weights":[-2.7398804E-2,-1.7747667E-1,8.6710596E-1,-2.127119E-1,6.65728E-2,9.3832284E-1,-2.0988839E-2,-2.4705695E-1,6.5283224E-2,1.0096135E0,-1.9141776E-2,-2.1067418E-1,-6.5630525E-2,1.0827146E0,6.291712E-2,-2.346114E-1,6.2853724E-2,1.1475742E0,1.1970616E-2,1.665265E-2,-9.958827E-3,-1.4395668E-2,2.4165241E-2,5.97379E-2,5.9001455E-3],"categories":[],"categories_nodes":[],"categories_segments":[],"categories_sizes":[],"default_left":[0,0,0,0,0,0,0,0,0,0,0,0,0,0,0,0,0,0,0,0,0,0,0,0,0],"id":24,"left_children":[1,3,5,7,-1,9,-1,11,-1,13,-1,15,-1,17,19,21,-1,23,-1,-1,-1,-1,-1,-1,-1],"loss_changes":[3.4860962E1,1.2098139E1,3.8136559E0,1.1691613E1,0E0,3.745823E0,0E0,8.020959E0,0E0,2.2928238E0,0E0,7.6082106E0,0E0,1.4541092E0,3.1464648E-1,8.00891E0,0E0,1.272049E0,0E0,0E0,0E0,0E0,0E0,0E0,0E0],"parents":[2147483647,0,0,1,1,2,2,3,3,5,5,7,7,9,9,11,11,13,13,14,14,15,15,17,17],"right_children":[2,4,6,8,-1,10,-1,12,-1,14,-1,16,-1,18,20,22,-1,24,-1,-1,-1,-1,-1,-1,-1],"split_conditions":[1E0,1E0,1E0,1E0,6.65728E-2,1E0,-2.0988839E-2,1E0,6.5283224E-2,1E0,-1.9141776E-2,1E0,-6.5630525E-2,1E0,1E0,1E0,6.2853724E-2,1E0,1.1970616E-2,1.665265E-2,-9.958827E-3,-1.4395668E-2,2.4165241E-2,5.97379E-2,5.9001455E-3],"split_indices":[44,54,345,53,0,353,0,161,0,347,0,164,0,260,298,614,0,382,0,0,0,0,0,0,0],"split_type":[0,0,0,0,0,0,0,0,0,0,0,0,0,0,0,0,0,0,0,0,0,0,0,0,0],"sum_hessian":[2.575346E2,2.2122037E2,3.631423E1,2.1701193E2,4.208435E0,3.4666615E1,1.6476165E0,2.1303056E2,3.9813743E0,3.311549E1,1.5511242E0,2.0715508E2,5.8754883E0,3.060833E1,2.5071611E0,2.0465752E2,2.4975655E0,2.8087286E1,2.521044E0,1.1013137E0,1.4058474E0,1.9107037E2,1.358713E1,2.6703083E1,1.3842033E0],"tree_param":{"num_deleted":"0","num_feature":"813","num_nodes":"25","size_leaf_vector":"1"}},{"base_weights":[-1.2620408E-2,-1.3876952E-1,7.5742316E-1,-2.0167376E-1,5.8844466E-2,8.373109E-1,-2.885345E-2,-2.3269475E-1,6.285636E-2,9.335936E-1,-2.1874583E-1,-2.5973606E-1,7.4529774E-2,1.0158902E0,-1.2591633E-1,-2.5269648E-2,8.497555E-3,-2.882866E-1,6.99908E-2,1.1047274E0,-3.657847E-2,1.958214E-2,-2.9800847E-2,-1.5813906E-2,6.0405303E-2,5.9184175E-2,6.6177906E-3,-4.1360565E-2,4.0312573E-2],"categories":[],"categories_nodes":[],"categories_segments":[],"categories_sizes":[],"default_left":[0,0,0,0,0,0,0,0,0,0,0,0,0,0,0,0,0,0,0,0,0,0,0,0,0,0,0,0,0],"id":25,"left_children":[1,3,5,7,-1,9,-1,11,-1,13,15,17,-1,19,21,-1,-1,23,-1,25,27,-1,-1,-1,-1,-1,-1,-1,-1],"loss_changes":[2.5552238E1,1.8935728E1,4.430834E0,1.0088897E1,0E0,3.798149E0,0E0,1.0304316E1,0E0,2.9688816E0,5.052097E-1,1.0371486E1,0E0,2.8775215E0,1.0212716E0,0E0,0E0,9.079748E0,0E0,1.9941063E0,2.8858616E0,0E0,0E0,0E0,0E0,0E0,0E0,0E0,0E0],"parents":[2147483647,0,0,1,1,2,2,3,3,5,5,7,7,9,9,10,10,11,11,13,13,14,14,17,17,19,19,20,20],"right_children":[2,4,6,8,-1,10,-1,12,-1,14,16,18,-1,20,22,-1,-1,24,-1,26,28,-1,-1,-1,-1,-1,-1,-1,-1],"split_conditions":[1E0,1E0,1E0,1E0,5.8844466E-2,1E0,-2.885345E-2,1E0,6.285636E-2,1E0,1E0,1E0,7.4529774E-2,1E0,1E0,-2.5269648E-2,8.497555E-3,1E0,6.99908E-2,1E0,1E0,1.958214E-2,-2.9800847E-2,-1.5813906E-2,6.0405303E-2,5.9184175E-2,6.6177906E-3,-4.1360565E-2,4.0312573E-2],"split_indices":[44,43,581,54,0,587,0,5,0,660,198,56,0,382,467,0,0,127,0,399,697,0,0,0,0,0,0,0,0],"split_type":[0,0,0,0,0,0,0,0,0,0,0,0,0,0,0,0,0,0,0,0,0,0,0,0,0,0,0,0,0],"sum_hessian":[2.6096262E2,2.2493361E2,3.6029003E1,2.154779E2,9.455709E0,3.4345512E1,1.6834908E0,2.1181422E2,3.6636803E0,3.1582077E1,2.7634344E0,2.09378E2,2.4362142E0,2.9343975E1,2.2381015E0,1.4177105E0,1.3457239E0,2.0664915E2,2.7288554E0,2.7014107E1,2.3298688E0,1.1447169E0,1.0933847E0,2.0362871E2,3.0204365E0,2.4784315E1,2.2297926E0,1.2117214E0,1.1181474E0],"tree_param":{"num_deleted":"0","num_feature":"813","num_nodes":"29","size_leaf_vector":"1"}},{"base_weights":[4.524866E-2,-7.58668E-2,7.925178E-1,-1.3368139E-1,5.7517685E-2,9.040447E-1,-1.0602005E-1,-6.906352E-2,-1.0199845E0,9.760946E-1,8.5283995E-2,-3.101842E-2,1.9531718E-2,-1.136262E-1,7.560732E-2,-1.1806601E0,6.744969E-3,1.0211118E0,-5.595546E-3,-2.105695E-2,3.535165E-2,3.5547767E-2,-4.5091745E-1,-6.42074E-2,-1.8393632E-2,1.0668484E0,-2.1573843E-3,4.639767E-3,-6.612699E-2,-2.6728278E-2,3.6012005E-2,5.604737E-2,2.0517032E-3],"categories":[],"categories_nodes":[],"categories_segments":[],"categories_sizes":[],"default_left":[0,0,0,0,0,0,0,0,0,0,0,0,0,0,0,0,0,0,0,0,0,0,0,0,0,0,0,0,0,0,0,0,0],"id":26,"left_children":[1,3,5,7,-1,9,11,13,15,17,19,-1,-1,21,-1,23,-1,25,-1,-1,-1,27,29,-1,-1,31,-1,-1,-1,-1,-1,-1,-1],"loss_changes":[2.285116E1,1.5580854E1,3.6241837E0,1.1882431E1,0E0,1.7706451E0,1.4640836E0,1.3954198E1,2.7774792E0,1.5243225E0,1.4431041E0,0E0,0E0,9.634576E0,0E0,5.7808304E-1,0E0,1.3964729E0,0E0,0E0,0E0,1.049983E1,6.1349783E0,0E0,0E0,1.432375E0,0E0,0E0,0E0,0E0,0E0,0E0,0E0],"parents":[2147483647,0,0,1,1,2,2,3,3,5,5,6,6,7,7,8,8,9,9,10,10,13,13,15,15,17,17,21,21,22,22,25,25],"right_children":[2,4,6,8,-1,10,12,14,16,18,20,-1,-1,22,-1,24,-1,26,-1,-1,-1,28,30,-1,-1,32,-1,-1,-1,-1,-1,-1,-1],"split_conditions":[1E0,1E0,1E0,1E0,5.7517685E-2,1E0,1E0,1E0,1E0,1E0,1E0,-3.101842E-2,1.9531718E-2,1E0,7.560732E-2,1E0,6.744969E-3,1E0,-5.595546E-3,-2.105695E-2,3.535165E-2,1E0,1E0,-6.42074E-2,-1.8393632E-2,1E0,-2.1573843E-3,4.639767E-3,-6.612699E-2,-2.6728278E-2,3.6012005E-2,5.604737E-2,2.0517032E-3],"split_indices":[44,43,660,168,0,333,298,516,420,263,572,0,0,709,0,258,0,183,0,0,0,180,333,0,0,129,0,0,0,0,0,0,0],"split_type":[0,0,0,0,0,0,0,0,0,0,0,0,0,0,0,0,0,0,0,0,0,0,0,0,0,0,0,0,0,0,0,0,0],"sum_hessian":[2.5081837E2,2.1660936E2,3.4209015E1,2.0770723E2,8.902126E0,3.0426353E1,3.7826598E0,1.945976E2,1.310964E1,2.7788813E1,2.637541E0,1.7358615E0,2.0467982E0,1.9016634E2,4.43125E0,1.1488903E1,1.6207374E0,2.6743748E1,1.0450656E0,1.6313988E0,1.0061423E0,1.3247234E2,5.7693996E1,9.67687E0,1.8120321E0,2.563946E1,1.1042866E0,1.2800807E2,4.464263E0,5.4355312E1,3.3386853E0,2.426694E1,1.3725209E0],"tree_param":{"num_deleted":"0","num_feature":"813","num_nodes":"33","size_leaf_vector":"1"}},{"base_weights":[-5.674644E-3,-1.1769261E-1,6.9080156E-1,-7.7626236E-2,-6.4133875E-2,8.01308E-1,-3.5174078E-1,-9.9960424E-2,7.434761E-2,8.9958423E-1,-2.5348172E-2,-2.9875552E-2,3.9490145E-3,-1.2631345E-1,6.4011656E-2,1.0022951E0,-1.814119E-1,-1.5042272E-1,6.9285825E-2,1.0942861E0,1.4095539E-1,-2.8544161E-2,1.800272E-2,-8.839994E-3,6.2304344E-2,5.699708E-2,2.617099E-3,-1.6134052E-2,3.5987608E-2],"categories":[],"categories_nodes":[],"categories_segments":[],"categories_sizes":[],"default_left":[0,0,0,0,0,0,0,0,0,0,0,0,0,0,0,0,0,0,0,0,0,0,0,0,0,0,0,0,0],"id":27,"left_children":[1,3,5,7,-1,9,11,13,-1,15,-1,-1,-1,17,-1,19,21,23,-1,25,27,-1,-1,-1,-1,-1,-1,-1,-1],"loss_changes":[2.0169012E1,1.0293313E1,4.408499E0,7.7075644E0,0E0,4.659254E0,4.8415446E-1,7.9530363E0,0E0,3.5979652E0,0E0,0E0,0E0,7.904139E0,0E0,2.0842514E0,9.4712156E-1,7.9078226E0,0E0,1.147541E0,1.2718256E0,0E0,0E0,0E0,0E0,0E0,0E0,0E0,0E0],"parents":[2147483647,0,0,1,1,2,2,3,3,5,5,6,6,7,7,9,9,13,13,15,15,16,16,17,17,19,19,20,20],"right_children":[2,4,6,8,-1,10,12,14,-1,16,-1,-1,-1,18,-1,20,22,24,-1,26,28,-1,-1,-1,-1,-1,-1,-1,-1],"split_conditions":[1E0,1E0,1E0,1E0,-6.4133875E-2,1E0,1E0,1E0,7.434761E-2,1E0,-2.5348172E-2,-2.9875552E-2,3.9490145E-3,1E0,6.4011656E-2,1E0,1E0,1E0,6.9285825E-2,1E0,1E0,-2.8544161E-2,1.800272E-2,-8.839994E-3,6.2304344E-2,5.699708E-2,2.617099E-3,-1.6134052E-2,3.5987608E-2],"split_indices":[44,161,660,121,0,329,298,164,0,587,0,0,0,135,0,333,198,144,0,386,572,0,0,0,0,0,0,0,0],"split_type":[0,0,0,0,0,0,0,0,0,0,0,0,0,0,0,0,0,0,0,0,0,0,0,0,0,0,0,0,0],"sum_hessian":[2.5647586E2,2.2165666E2,3.4819202E1,2.1531804E2,6.338625E0,3.1691397E1,3.1278045E0,2.1321059E2,2.1074483E0,2.9767662E1,1.9237355E0,1.7449172E0,1.3828874E0,2.1010733E2,3.1032493E0,2.7251192E1,2.516469E0,2.0769614E2,2.4111934E0,2.4377258E1,2.8739343E0,1.4320682E0,1.0844007E0,2.0470312E2,2.9930136E0,2.3263842E1,1.1134171E0,1.841403E0,1.0325313E0],"tree_param":{"num_deleted":"0","num_feature":"813","num_nodes":"29","size_leaf_vector":"1"}},{"base_weights":[6.1063548E-3,-3.5765775E-2,5.6319863E-2,6.8209535E-3,-1.0789202E0,4.4554744E-2,-6.0726423E-2,-6.257384E-2,4.2868457E-3,1.5063079E-1,-3.5565072E-1,8.807829E-2,8.9057726E-1,-2.0243853E-1,-1.0593963E0,7.3309974E-3,-3.891872E-2,5.330686E-2,-2.6282465E-2,3.5286297E-3,-4.2529576E-2,-6.440825E-2,-1.6162636E-2],"categories":[],"categories_nodes":[],"categories_segments":[],"categories_sizes":[],"default_left":[0,0,0,0,0,0,0,0,0,0,0,0,0,0,0,0,0,0,0,0,0,0,0],"id":28,"left_children":[1,3,-1,5,7,9,-1,-1,-1,11,13,15,17,19,21,-1,-1,-1,-1,-1,-1,-1,-1],"loss_changes":[1.17046E1,1.0698955E1,0E0,1.0756352E1,2.0056896E0,9.6574335E0,0E0,0E0,0E0,8.2312355E0,4.9283104E0,8.567042E0,4.0124702E0,7.209888E0,9.7990227E-1,0E0,0E0,0E0,0E0,0E0,0E0,0E0,0E0],"parents":[2147483647,0,0,1,1,3,3,4,4,5,5,9,9,10,10,11,11,12,12,13,13,14,14],"right_children":[2,4,-1,6,8,10,-1,-1,-1,12,14,16,18,20,22,-1,-1,-1,-1,-1,-1,-1,-1],"split_conditions":[1E0,1E0,5.6319863E-2,1E0,1E0,1E0,-6.0726423E-2,-6.257384E-2,4.2868457E-3,1E0,1E0,1E0,1E0,1E0,1E0,7.3309974E-3,-3.891872E-2,5.330686E-2,-2.6282465E-2,3.5286297E-3,-4.2529576E-2,-6.440825E-2,-1.6162636E-2],"split_indices":[43,46,0,161,607,437,0,0,0,614,192,213,442,709,700,0,0,0,0,0,0,0,0],"split_type":[0,0,0,0,0,0,0,0,0,0,0,0,0,0,0,0,0,0,0,0,0,0,0],"sum_hessian":[2.4765851E2,2.396687E2,7.989812E0,2.3122252E2,8.446186E0,2.2522758E2,5.9949236E0,7.2913485E0,1.1548373E0,1.7853088E2,4.66967E1,1.6564673E2,1.2884164E1,3.940542E1,7.2912807E0,1.5594136E2,9.705358E0,1.1683089E1,1.2010744E0,2.8353601E1,1.1051818E1,4.9905148E0,2.3007662E0],"tree_param":{"num_deleted":"0","num_feature":"813","num_nodes":"23","size_leaf_vector":"1"}},{"base_weights":[2.4158692E-2,-1.0422314E-1,8.425504E-1,-1.6453315E-1,5.64315E-2,9.3497914E-1,-2.9519875E-2,-2.0137638E-1,1.1750149E0,9.9755573E-1,-1.405555E-2,-2.332648E-1,6.1284043E-2,7.738061E-2,2.8913007E-3,1.0495524E0,6.0791243E-3,-2.8920165E-1,6.28471E-1,1.1013666E0,-2.011115E-3,-1.5784608E-2,7.367226E-2,7.015874E-3,6.1675735E-2,5.7673927E-2,1.2297312E-3],"categories":[],"categories_nodes":[],"categories_segments":[],"categories_sizes":[],"default_left":[0,0,0,0,0,0,0,0,0,0,0,0,0,0,0,0,0,0,0,0,0,0,0,0,0,0,0],"id":29,"left_children":[1,3,5,7,-1,9,-1,11,13,15,-1,17,-1,-1,-1,19,-1,21,23,25,-1,-1,-1,-1,-1,-1,-1],"loss_changes":[2.636599E1,1.632669E1,5.058441E0,1.0493874E1,0E0,2.7422256E0,0E0,9.529384E0,2.2871895E0,1.2837734E0,0E0,9.799372E0,0E0,0E0,0E0,1.6885529E0,0E0,9.245716E0,3.5120978E0,1.5334206E0,0E0,0E0,0E0,0E0,0E0,0E0,0E0],"parents":[2147483647,0,0,1,1,2,2,3,3,5,5,7,7,8,8,9,9,11,11,15,15,17,17,18,18,19,19],"right_children":[2,4,6,8,-1,10,-1,12,14,16,-1,18,-1,-1,-1,20,-1,22,24,26,-1,-1,-1,-1,-1,-1,-1],"split_conditions":[1E0,1E0,1E0,1E0,5.64315E-2,1E0,-2.9519875E-2,1E0,1E0,1E0,-1.405555E-2,1E0,6.1284043E-2,7.738061E-2,2.8913007E-3,1E0,6.0791243E-3,1E0,1E0,1E0,-2.011115E-3,-1.5784608E-2,7.367226E-2,7.015874E-3,6.1675735E-2,5.7673927E-2,1.2297312E-3],"split_indices":[44,43,581,172,0,430,0,54,347,329,0,224,0,0,0,347,0,50,248,422,0,0,0,0,0,0,0],"split_type":[0,0,0,0,0,0,0,0,0,0,0,0,0,0,0,0,0,0,0,0,0,0,0,0,0,0,0],"sum_hessian":[2.4910965E2,2.1608487E2,3.3024776E1,2.0683333E2,9.251548E0,3.1350128E1,1.6746478E0,2.0212373E2,4.709588E0,2.9986795E1,1.3633338E0,1.9852414E2,3.5995977E0,3.242798E0,1.4667897E0,2.81195E1,1.8672956E0,1.8704698E2,1.1477161E1,2.6833063E1,1.286435E0,1.8508624E2,1.9607315E0,7.0339966E0,4.4431653E0,2.5526438E1,1.306627E0],"tree_param":{"num_deleted":"0","num_feature":"813","num_nodes":"27","size_leaf_vector":"1"}},{"base_weights":[8.804E-3,4.1395716E-2,-5.8060657E-2,8.8353716E-2,-7.8251666E-1,1.2752199E-1,-9.7869635E-1,-9.7192913E-1,7.515476E-2,1.6881213E-1,-9.568042E-1,-5.6334376E-2,-1.4411009E-2,-1.079255E0,-7.178243E-3,-1.9903228E-2,2.5571093E-2,2.0983131E-1,-8.6231524E-1,3.9706924E-3,-1.1331737E0,-5.7786305E-2,-1.4144214E-2,1.2497518E-2,-3.9391305E-2,-5.2950628E-2,-6.319418E-3,-6.1276596E-2,-1.6363064E-2],"categories":[],"categories_nodes":[],"categories_segments":[],"categories_sizes":[],"default_left":[0,0,0,0,0,0,0,0,0,0,0,0,0,0,0,0,0,0,0,0,0,0,0,0,0,0,0,0,0],"id":30,"left_children":[1,3,-1,5,7,9,11,13,15,17,19,-1,-1,21,-1,-1,-1,23,25,-1,27,-1,-1,-1,-1,-1,-1,-1,-1],"loss_changes":[9.614827E0,9.549794E0,0E0,9.85171E0,2.2360382E0,1.0252041E1,5.290861E-1,8.210335E-1,8.924529E-1,9.399719E0,1.6283064E0,0E0,0E0,2.5557613E-1,0E0,0E0,0E0,8.619154E0,1.1015744E0,0E0,1.391983E-1,0E0,0E0,0E0,0E0,0E0,0E0,0E0,0E0],"parents":[2147483647,0,0,1,1,3,3,4,4,5,5,6,6,7,7,8,8,9,9,10,10,13,13,17,17,18,18,20,20],"right_children":[2,4,-1,6,8,10,12,14,16,18,20,-1,-1,22,-1,-1,-1,24,26,-1,28,-1,-1,-1,-1,-1,-1,-1,-1],"split_conditions":[1E0,1E0,-5.8060657E-2,1E0,1E0,1E0,1E0,1E0,1E0,1E0,1E0,-5.6334376E-2,-1.4411009E-2,1E0,-7.178243E-3,-1.9903228E-2,2.5571093E-2,1E0,1E0,3.9706924E-3,1E0,-5.7786305E-2,-1.4144214E-2,1.2497518E-2,-3.9391305E-2,-5.2950628E-2,-6.319418E-3,-6.1276596E-2,-1.6363064E-2],"split_indices":[161,62,0,46,666,49,401,557,345,57,786,0,0,244,0,0,0,126,432,0,196,0,0,0,0,0,0,0,0],"split_type":[0,0,0,0,0,0,0,0,0,0,0,0,0,0,0,0,0,0,0,0,0,0,0,0,0,0,0,0,0],"sum_hessian":[2.4987956E2,2.440461E2,5.83347E0,2.3173157E2,1.23145275E1,2.2437589E2,7.3556905E0,9.977769E0,2.3367593E0,2.1695862E2,7.4172645E0,5.537148E0,1.8185425E0,8.565161E0,1.4126083E0,1.1629132E0,1.1738462E0,2.0942404E2,7.5345764E0,1.1587906E0,6.258474E0,7.4030457E0,1.1621146E0,2.0204848E2,7.3755636E0,5.5990524E0,1.9355239E0,5.14785E0,1.1106238E0],"tree_param":{"num_deleted":"0","num_feature":"813","num_nodes":"29","size_leaf_vector":"1"}},{"base_weights":[4.261804E-3,6.508421E-2,-6.501901E-1,3.378078E-2,6.434169E-2,-8.018347E-1,3.6534153E-2,-2.278623E-2,6.7327106E-1,-9.361511E-1,2.0803032E-2,-4.6798814E-2,6.029091E-2,8.8098407E-1,-3.3360133E-1,-1.0681576E0,-9.553578E-2,-6.994404E-2,6.0431696E-2,1.0266672E0,-2.4141751E-2,-4.147609E-2,1.8762562E-2,-1.1509517E0,-7.1204863E-3,-6.5439544E-3,-6.863716E-4,-4.89987E-3,5.0853904E-2,5.8962047E-2,-3.7986771E-3,-6.351671E-2,-1.4872054E-2],"categories":[],"categories_nodes":[],"categories_segments":[],"categories_sizes":[],"default_left":[0,0,0,0,0,0,0,0,0,0,0,0,0,0,0,0,0,0,0,0,0,0,0,0,0,0,0,0,0,0,0,0,0],"id":31,"left_children":[1,3,5,7,-1,9,-1,11,13,15,-1,17,-1,19,21,23,25,27,-1,29,-1,-1,-1,31,-1,-1,-1,-1,-1,-1,-1,-1,-1],"loss_changes":[1.0059967E1,8.797803E0,5.0861597E0,8.206114E0,0E0,3.6352024E0,0E0,6.2221303E0,4.1491795E0,1.9151192E0,0E0,6.068855E0,0E0,3.586481E0,1.6744688E0,1.032753E0,8.512288E-3,6.2951474E0,0E0,2.5078945E0,0E0,0E0,0E0,1.0680122E0,0E0,0E0,0E0,0E0,0E0,0E0,0E0,0E0,0E0],"parents":[2147483647,0,0,1,1,2,2,3,3,5,5,7,7,8,8,9,9,11,11,13,13,14,14,15,15,16,16,17,17,19,19,23,23],"right_children":[2,4,6,8,-1,10,-1,12,14,16,-1,18,-1,20,22,24,26,28,-1,30,-1,-1,-1,32,-1,-1,-1,-1,-1,-1,-1,-1,-1],"split_conditions":[1E0,1E0,1E0,1E0,6.434169E-2,1E0,3.6534153E-2,1E0,1E0,1E0,2.0803032E-2,1E0,6.029091E-2,1E0,1E0,1E0,1E0,1E0,6.0431696E-2,1E0,-2.4141751E-2,-4.147609E-2,1.8762562E-2,1E0,-7.1204863E-3,-6.5439544E-3,-6.863716E-4,-4.89987E-3,5.0853904E-2,5.8962047E-2,-3.7986771E-3,-6.351671E-2,-1.4872054E-2],"split_indices":[581,181,224,614,0,268,0,144,669,560,0,590,0,553,411,256,379,253,0,248,0,0,0,647,0,0,0,0,0,0,0,0,0],"split_type":[0,0,0,0,0,0,0,0,0,0,0,0,0,0,0,0,0,0,0,0,0,0,0,0,0,0,0,0,0,0,0,0,0],"sum_hessian":[2.50666E2,2.3017493E2,2.0491077E1,2.2542674E2,4.7481914E0,1.8841295E1,1.6497838E0,2.0799281E2,1.7433928E1,1.717813E1,1.6631649E0,2.0494907E2,3.0437388E0,1.4556101E1,2.8778265E0,1.4612728E1,2.5654013E0,2.0216621E2,2.78286E0,1.3374635E1,1.1814665E0,1.593068E0,1.2847583E0,1.318983E1,1.4228987E0,1.3725841E0,1.1928172E0,1.9796701E2,4.199193E0,1.1687897E1,1.686738E0,1.1142884E1,2.046945E0],"tree_param":{"num_deleted":"0","num_feature":"813","num_nodes":"33","size_leaf_vector":"1"}},{"base_weights":[7.700342E-3,-9.241141E-2,6.578241E-1,-1.410104E-1,5.445614E-2,8.846873E-2,9.4719917E-1,-1.7526954E-1,1.223832E0,3.3510002E-1,-5.1706176E-2,1.0451363E0,1.3170016E-1,-2.0361848E-1,6.647647E-2,7.2633445E-2,1.34936E-2,5.528566E-1,-3.276279E-2,1.1225941E0,5.5359923E-3,-2.1264464E-2,3.4119483E-2,-2.2957692E-1,6.300864E-2,7.7956045E-1,-2.1651214E-2,1.1680484E0,1.5503831E-2,-1.2662202E-2,6.0798205E-2,5.2093394E-2,-5.6625484E-3,6.057095E-2,1.5232027E-2],"categories":[],"categories_nodes":[],"categories_segments":[],"categories_sizes":[],"default_left":[0,0,0,0,0,0,0,0,0,0,0,0,0,0,0,0,0,0,0,0,0,0,0,0,0,0,0,0,0,0,0,0,0,0,0],"id":32,"left_children":[1,3,5,7,-1,9,11,13,15,17,-1,19,21,23,-1,-1,-1,25,-1,27,-1,-1,-1,29,-1,31,-1,33,-1,-1,-1,-1,-1,-1,-1],"loss_changes":[1.6146955E1,1.2502182E1,5.3702936E0,9.914124E0,0E0,3.7404585E0,1.6071033E0,8.940689E0,7.441788E-1,2.6925545E0,0E0,1.2768707E0,1.3595954E0,7.9020023E0,0E0,0E0,0E0,2.4385633E0,0E0,2.940216E-1,0E0,0E0,0E0,7.0716457E0,0E0,1.9915051E0,0E0,2.4751091E-1,0E0,0E0,0E0,0E0,0E0,0E0,0E0],"parents":[2147483647,0,0,1,1,2,2,3,3,5,5,6,6,7,7,8,8,9,9,11,11,12,12,13,13,17,17,19,19,23,23,25,25,27,27],"right_children":[2,4,6,8,-1,10,12,14,16,18,-1,20,22,24,-1,-1,-1,26,-1,28,-1,-1,-1,30,-1,32,-1,34,-1,-1,-1,-1,-1,-1,-1],"split_conditions":[1E0,1E0,1E0,1E0,5.445614E-2,1E0,1E0,1E0,1E0,1E0,-5.1706176E-2,1E0,1E0,1E0,6.647647E-2,7.2633445E-2,1.34936E-2,1E0,-3.276279E-2,1E0,5.5359923E-3,-2.1264464E-2,3.4119483E-2,1E0,6.300864E-2,1E0,-2.1651214E-2,1E0,1.5503831E-2,-1.2662202E-2,6.0798205E-2,5.2093394E-2,-5.6625484E-3,6.057095E-2,1.5232027E-2],"split_indices":[44,43,452,172,0,581,190,0,298,382,0,318,277,144,0,0,0,587,0,711,0,0,0,164,0,557,0,576,0,0,0,0,0,0,0],"split_type":[0,0,0,0,0,0,0,0,0,0,0,0,0,0,0,0,0,0,0,0,0,0,0,0,0,0,0,0,0,0,0,0,0,0,0],"sum_hessian":[2.4615617E2,2.1405237E2,3.21038E1,2.0644165E2,7.6107264E0,1.1258344E1,2.0845459E1,2.0223685E2,4.204798E0,9.805573E0,1.4527705E0,1.8359041E1,2.4864173E0,1.9934605E2,2.8907967E0,2.9696565E0,1.2351415E0,8.400299E0,1.4052743E0,1.676771E1,1.5913318E0,1.3493477E0,1.1370696E0,1.9670097E2,2.6450725E0,6.9999356E0,1.4003637E0,1.5464992E1,1.3027172E0,1.9434389E2,2.3570886E0,5.2813325E0,1.7186034E0,1.4341522E1,1.1234691E0],"tree_param":{"num_deleted":"0","num_feature":"813","num_nodes":"35","size_leaf_vector":"1"}},{"base_weights":[-1.0842832E-2,-1.0578709E-1,6.2281495E-1,-1.5650636E-1,5.4229464E-2,-1.7885008E-1,7.9206616E-1,-1.8287094E-1,7.3296E-2,-3.9186504E-2,2.8597248E-1,8.903196E-1,-1.0000829E-2,-1.0051508E-1,-6.8325084E-1,-9.167738E-2,3.6110777E-2,1.003609E0,-6.00833E-2,-1.5644649E-1,7.528412E-1,-7.732456E-1,1.5273421E-2,-1.3156286E-2,6.3761594E-3,1.0926824E0,1.5239057E-1,3.2114536E-3,-9.069255E-3,-8.731034E-4,-2.3946635E-2,4.9570166E-2,-1.2944435E-2,-4.2860195E-2,4.3462273E-3,5.812926E-2,1.4650087E-2,-2.0593466E-2,3.30449E-2],"categories":[],"categories_nodes":[],"categories_segments":[],"categories_sizes":[],"default_left":[0,0,0,0,0,0,0,0,0,0,0,0,0,0,0,0,0,0,0,0,0,0,0,0,0,0,0,0,0,0,0,0,0,0,0,0,0,0,0],"id":33,"left_children":[1,3,5,7,-1,9,11,13,-1,-1,15,17,-1,19,21,23,-1,25,27,29,31,33,-1,-1,-1,35,37,-1,-1,-1,-1,-1,-1,-1,-1,-1,-1,-1,-1],"loss_changes":[1.494563E1,1.3207901E1,4.534316E0,9.165254E0,0E0,2.0402465E0,2.8016434E0,8.402479E0,0E0,0E0,7.886596E-1,2.7168694E0,0E0,8.5985985E0,2.8058567E0,1.552365E-1,0E0,1.5092659E0,6.5503635E-2,7.502831E0,2.9361734E0,2.0065756E0,0E0,0E0,0E0,7.6874924E-1,1.2063806E0,0E0,0E0,0E0,0E0,0E0,0E0,0E0,0E0,0E0,0E0,0E0,0E0],"parents":[2147483647,0,0,1,1,2,2,3,3,5,5,6,6,7,7,10,10,11,11,13,13,14,14,15,15,17,17,18,18,19,19,20,20,21,21,25,25,26,26],"right_children":[2,4,6,8,-1,10,12,14,-1,-1,16,18,-1,20,22,24,-1,26,28,30,32,34,-1,-1,-1,36,38,-1,-1,-1,-1,-1,-1,-1,-1,-1,-1,-1,-1],"split_conditions":[1E0,1E0,1E0,1E0,5.4229464E-2,1E0,1E0,1E0,7.3296E-2,-3.9186504E-2,1E0,1E0,-1.0000829E-2,1E0,1E0,1E0,3.6110777E-2,1E0,1E0,1E0,1E0,1E0,1.5273421E-2,-1.3156286E-2,6.3761594E-3,1E0,1E0,3.2114536E-3,-9.069255E-3,-8.731034E-4,-2.3946635E-2,4.9570166E-2,-1.2944435E-2,-4.2860195E-2,4.3462273E-3,5.812926E-2,1.4650087E-2,-2.0593466E-2,3.30449E-2],"split_indices":[44,43,467,5,0,758,660,192,0,0,629,192,0,224,360,660,0,616,557,709,723,352,0,0,0,362,432,0,0,0,0,0,0,0,0,0,0,0,0],"split_type":[0,0,0,0,0,0,0,0,0,0,0,0,0,0,0,0,0,0,0,0,0,0,0,0,0,0,0,0,0,0,0,0,0,0,0,0,0,0,0],"sum_hessian":[2.4632727E2,2.1495282E2,3.137445E1,2.0700146E2,7.951346E0,5.4593434E0,2.5915108E1,2.0456456E2,2.4369082E0,2.074145E0,3.3851984E0,2.3673153E1,2.241955E0,1.7668538E2,2.787918E1,2.2378066E0,1.1473918E0,2.1101807E1,2.5713463E0,1.6658368E2,1.0101701E1,2.5753033E1,2.1261487E0,1.1432345E0,1.0945721E0,1.8846043E1,2.2557626E0,1.5022814E0,1.0690647E0,1.1714914E2,4.943454E1,8.190502E0,1.9111986E0,2.346604E1,2.2869928E0,1.6913746E1,1.9322981E0,1.1593474E0,1.0964152E0],"tree_param":{"num_deleted":"0","num_feature":"813","num_nodes":"39","size_leaf_vector":"1"}},{"base_weights":[3.167966E-2,7.002867E-2,-6.22182E-2,-1.5432667E-2,6.310187E-1,3.5782248E-2,-8.9842653E-1,7.4929076E-1,-4.122598E-1,-8.373435E-3,6.668759E-2,5.056379E-3,-1.0137302E0,8.1877893E-1,-2.090322E-2,7.5210454E-3,-4.118378E-2,-3.972768E-2,6.1789215E-2,-1.1191876E0,-1.2174735E-2,9.083734E-1,-7.7890703E-3,-3.3372652E-3,6.891112E-2,-6.0357727E-2,-1.0768057E-2,4.8715334E-2,2.2239785E-3],"categories":[],"categories_nodes":[],"categories_segments":[],"categories_sizes":[],"default_left":[0,0,0,0,0,0,0,0,0,0,0,0,0,0,0,0,0,0,0,0,0,0,0,0,0,0,0,0,0],"id":34,"left_children":[1,3,-1,5,7,9,11,13,15,17,-1,-1,19,21,-1,-1,-1,23,-1,25,-1,27,-1,-1,-1,-1,-1,-1,-1],"loss_changes":[1.2176786E1,1.1554102E1,0E0,9.526003E0,4.2397575E0,1.1438717E1,1.4333792E0,2.6921234E0,1.0241473E0,7.6100674E0,0E0,0E0,5.7580376E-1,2.5582771E0,0E0,0E0,0E0,7.3718796E0,0E0,4.4827652E-1,0E0,1.4088268E0,0E0,0E0,0E0,0E0,0E0,0E0,0E0],"parents":[2147483647,0,0,1,1,3,3,4,4,5,5,6,6,7,7,8,8,9,9,12,12,13,13,17,17,19,19,21,21],"right_children":[2,4,-1,6,8,10,12,14,16,18,-1,-1,20,22,-1,-1,-1,24,-1,26,-1,28,-1,-1,-1,-1,-1,-1,-1],"split_conditions":[1E0,1E0,-6.22182E-2,1E0,1E0,1E0,1E0,1E0,1E0,1E0,6.668759E-2,5.056379E-3,1E0,1E0,-2.090322E-2,7.5210454E-3,-4.118378E-2,1E0,6.1789215E-2,1E0,-1.2174735E-2,1E0,-7.7890703E-3,-3.3372652E-3,6.891112E-2,-6.0357727E-2,-1.0768057E-2,4.8715334E-2,2.2239785E-3],"split_indices":[161,44,0,168,587,516,786,65,741,144,0,0,647,543,0,0,0,585,0,618,0,329,0,0,0,0,0,0,0],"split_type":[0,0,0,0,0,0,0,0,0,0,0,0,0,0,0,0,0,0,0,0,0,0,0,0,0,0,0,0,0],"sum_hessian":[2.4605515E2,2.3979373E2,6.2614136E0,2.0893675E2,3.085698E1,1.9838937E2,1.0547393E1,2.7968142E1,2.888838E0,1.9282326E2,5.566114E0,1.1035748E0,9.443818E0,2.6678665E1,1.2894753E0,1.4880542E0,1.4007838E0,1.890276E2,3.7956507E0,7.9080367E0,1.5357809E0,2.4494703E1,2.183963E0,1.8642833E2,2.5992775E0,6.9007964E0,1.0072405E0,2.2639057E1,1.8556447E0],"tree_param":{"num_deleted":"0","num_feature":"813","num_nodes":"29","size_leaf_vector":"1"}},{"base_weights":[1.860602E-2,9.7061865E-2,-4.9219146E-1,1.3378532E-1,-8.9555246E-1,-5.584638E-1,3.5828132E-2,1.6805796E-1,-8.907215E-1,6.441581E-5,-5.9326705E-2,-6.2105995E-1,3.3188846E-2,2.1175908E-1,-6.617999E-1,-5.331982E-2,-9.4154617E-4,-7.6760143E-1,3.6437582E-2,2.6140615E-1,-5.387164E-1,-9.206504E-1,2.2897417E-2,-8.48027E-1,1.971269E-2,3.0346006E-2,-1.9829473E-2,1.01644015E-2,4.3312844E-2,-7.978606E-3,-5.273434E-2,-5.7602204E-2,1.7462332E-3,-4.5456234E-2,6.25337E-3],"categories":[],"categories_nodes":[],"categories_segments":[],"categories_sizes":[],"default_left":[0,0,0,0,0,0,0,0,0,0,0,0,0,0,0,0,0,0,0,0,0,0,0,0,0,0,0,0,0,0,0,0,0,0,0],"id":35,"left_children":[1,3,5,7,9,11,-1,13,15,-1,-1,17,-1,19,21,-1,-1,23,25,27,29,31,-1,33,-1,-1,-1,-1,-1,-1,-1,-1,-1,-1,-1],"loss_changes":[1.0088967E1,8.067649E0,3.0857897E0,7.562853E0,2.065425E0,2.8868685E0,0E0,7.5794277E0,1.0510101E0,0E0,0E0,3.0423584E0,0E0,7.4297237E0,3.466309E0,0E0,0E0,2.7291803E0,1.8851308E0,6.297743E0,2.270256E0,2.000257E0,0E0,1.557661E0,0E0,0E0,0E0,0E0,0E0,0E0,0E0,0E0,0E0,0E0,0E0],"parents":[2147483647,0,0,1,1,2,2,3,3,4,4,5,5,7,7,8,8,11,11,13,13,14,14,17,17,18,18,19,19,20,20,21,21,23,23],"right_children":[2,4,6,8,10,12,-1,14,16,-1,-1,18,-1,20,22,-1,-1,24,26,28,30,32,-1,34,-1,-1,-1,-1,-1,-1,-1,-1,-1,-1,-1],"split_conditions":[1E0,1E0,1E0,1E0,1E0,1E0,3.5828132E-2,1E0,1E0,6.441581E-5,-5.9326705E-2,1E0,3.3188846E-2,1E0,1E0,-5.331982E-2,-9.4154617E-4,1E0,1E0,1E0,1E0,1E0,2.2897417E-2,1E0,1.971269E-2,3.0346006E-2,-1.9829473E-2,1.01644015E-2,4.3312844E-2,-7.978606E-3,-5.273434E-2,-5.7602204E-2,1.7462332E-3,-4.5456234E-2,6.25337E-3],"split_indices":[192,49,136,2,774,315,0,230,308,0,0,258,0,168,746,0,0,440,758,614,746,198,0,405,0,0,0,0,0,0,0,0,0,0,0],"split_type":[0,0,0,0,0,0,0,0,0,0,0,0,0,0,0,0,0,0,0,0,0,0,0,0,0,0,0,0,0,0,0,0,0,0,0],"sum_hessian":[2.4955972E2,2.1703436E2,3.252537E1,2.1012563E2,6.908735E0,3.1344814E1,1.1805571E0,2.0413277E2,5.9928546E0,1.9363233E0,4.972411E0,3.0285625E1,1.0591882E0,1.9462828E2,9.504488E0,4.802189E0,1.1906656E0,2.4628931E1,5.656696E0,1.8316296E2,1.1465316E1,7.8643126E0,1.6401753E0,2.328707E1,1.3418609E0,2.2676506E0,3.389045E0,1.6832524E2,1.483773E1,7.3636446E0,4.1016717E0,6.165683E0,1.6986299E0,2.1973179E1,1.3138916E0],"tree_param":{"num_deleted":"0","num_feature":"813","num_nodes":"35","size_leaf_vector":"1"}},{"base_weights":[6.884855E-3,-1.0126469E-1,7.620812E-1,-1.2776366E-1,7.246243E-2,8.413476E-1,-1.43598495E-2,-1.5223303E-1,7.4257284E-2,8.808722E-1,-3.8593772E-3,-1.8157624E-1,5.9283566E-2,9.233231E-1,-3.5960467E-3,-2.1167648E-1,5.830253E-2,9.657751E-1,1.0508844E-2,-1.1701859E-2,7.511969E-2,5.0832313E-2,1.9311946E-3],"categories":[],"categories_nodes":[],"categories_segments":[],"categories_sizes":[],"default_left":[0,0,0,0,0,0,0,0,0,0,0,0,0,0,0,0,0,0,0,0,0,0,0],"id":36,"left_children":[1,3,5,7,-1,9,-1,11,-1,13,-1,15,-1,17,-1,19,-1,21,-1,-1,-1,-1,-1],"loss_changes":[1.9732042E1,8.870415E0,2.7586803E0,8.464952E0,0E0,1.098753E0,0E0,8.323765E0,0E0,1.1706543E0,0E0,8.48031E0,0E0,5.904808E-1,0E0,7.993705E0,0E0,1.1143093E0,0E0,0E0,0E0,0E0,0E0],"parents":[2147483647,0,0,1,1,2,2,3,3,5,5,7,7,9,9,11,11,13,13,15,15,17,17],"right_children":[2,4,6,8,-1,10,-1,12,-1,14,-1,16,-1,18,-1,20,-1,22,-1,-1,-1,-1,-1],"split_conditions":[1E0,1E0,1E0,1E0,7.246243E-2,1E0,-1.43598495E-2,1E0,7.4257284E-2,1E0,-3.8593772E-3,1E0,5.9283566E-2,1E0,-3.5960467E-3,1E0,5.830253E-2,1E0,1.0508844E-2,-1.1701859E-2,7.511969E-2,5.0832313E-2,1.9311946E-3],"split_indices":[44,177,371,50,0,430,0,127,0,353,0,144,0,333,0,27,0,382,0,0,0,0,0],"split_type":[0,0,0,0,0,0,0,0,0,0,0,0,0,0,0,0,0,0,0,0,0,0,0],"sum_hessian":[2.3964986E2,2.1038686E2,2.9263E1,2.0775385E2,2.633008E0,2.7391882E1,1.8711184E0,2.055412E2,2.2126405E0,2.6301146E1,1.0907358E0,2.0197572E2,3.5654895E0,2.5208912E1,1.0922331E0,1.9838751E2,3.5882058E0,2.345825E1,1.7506621E0,1.9668513E2,1.7023723E0,2.214658E1,1.3116702E0],"tree_param":{"num_deleted":"0","num_feature":"813","num_nodes":"23","size_leaf_vector":"1"}},{"base_weights":[1.059175E-2,-3.323581E-2,8.736444E-1,-2.2121063E-3,-5.6062084E-2,1.0505638E0,-1.17224045E-2,2.652455E-2,-5.94531E-2,1.2167008E0,-1.2190952E-2,6.3626416E-2,-9.438207E-1,1.343494E0,6.3395626E-3,1.0085937E-1,-7.639995E-1,-1.1301022E0,6.731275E-3,7.310563E-2,2.15563E-2,7.097808E-3,-3.4347396E-2,-2.1688447E-4,-6.1536826E-2,-6.2155165E-2,-1.1125218E-2],"categories":[],"categories_nodes":[],"categories_segments":[],"categories_sizes":[],"default_left":[0,0,0,0,0,0,0,0,0,0,0,0,0,0,0,0,0,0,0,0,0,0,0,0,0,0,0],"id":37,"left_children":[1,3,5,7,-1,9,-1,11,-1,13,-1,15,17,19,-1,21,23,25,-1,-1,-1,-1,-1,-1,-1,-1,-1],"loss_changes":[9.332082E0,7.9305053E0,2.5836668E0,7.8592286E0,0E0,2.5468102E0,0E0,8.162668E0,0E0,1.1342459E0,0E0,6.7858057E0,1.8299451E0,2.7356625E-1,0E0,6.871348E0,3.3591967E0,4.647045E-1,0E0,0E0,0E0,0E0,0E0,0E0,0E0,0E0,0E0],"parents":[2147483647,0,0,1,1,2,2,3,3,5,5,7,7,9,9,11,11,12,12,13,13,15,15,16,16,17,17],"right_children":[2,4,6,8,-1,10,-1,12,-1,14,-1,16,18,20,-1,22,24,26,-1,-1,-1,-1,-1,-1,-1,-1,-1],"split_conditions":[1E0,1E0,1E0,1E0,-5.6062084E-2,1E0,-1.17224045E-2,1E0,-5.94531E-2,1E0,-1.2190952E-2,1E0,1E0,1E0,6.3395626E-3,1E0,1E0,1E0,6.731275E-3,7.310563E-2,2.15563E-2,7.097808E-3,-3.4347396E-2,-2.1688447E-4,-6.1536826E-2,-6.2155165E-2,-1.1125218E-2],"split_indices":[136,161,704,125,0,420,0,46,0,265,0,126,607,621,0,162,741,380,0,0,0,0,0,0,0,0,0],"split_type":[0,0,0,0,0,0,0,0,0,0,0,0,0,0,0,0,0,0,0,0,0,0,0,0,0,0,0],"sum_hessian":[2.4494646E2,2.3402374E2,1.0922709E1,2.2850998E2,5.5137644E0,9.463649E0,1.4590608E0,2.2406252E2,4.447472E0,8.440328E0,1.0233209E0,2.1671083E2,7.3516703E0,7.3523374E0,1.0879902E0,2.0822157E2,8.4892645E0,6.228001E0,1.1236694E0,5.973203E0,1.3791342E0,1.9867717E2,9.544397E0,3.6149158E0,4.8743486E0,5.2097006E0,1.0183005E0],"tree_param":{"num_deleted":"0","num_feature":"813","num_nodes":"27","size_leaf_vector":"1"}},{"base_weights":[-3.7727964E-3,-8.104633E-2,5.195349E-1,-1.24921866E-1,5.2772958E-2,6.0712016E-1,-3.895765E-2,-1.765903E-1,6.522895E-1,7.1438175E-1,-2.4998838E-1,-2.0491076E-1,6.373398E-2,9.730784E-1,-3.3425674E-1,8.0620575E-1,-2.1792604E-2,-2.7880738E-2,6.5277526E-3,-2.2988418E-1,6.590889E-2,1.2456359E0,-1.8293858E-2,7.172203E-3,-4.0903896E-2,9.133371E-1,-1.5766134E-2,-1.2615762E-2,6.373572E-2,7.204482E-2,7.825639E-3,4.8664015E-2,-7.820709E-3],"categories":[],"categories_nodes":[],"categories_segments":[],"categories_sizes":[],"default_left":[0,0,0,0,0,0,0,0,0,0,0,0,0,0,0,0,0,0,0,0,0,0,0,0,0,0,0,0,0,0,0,0,0],"id":38,"left_children":[1,3,5,7,-1,9,-1,11,13,15,17,19,-1,21,23,25,-1,-1,-1,27,-1,29,-1,-1,-1,31,-1,-1,-1,-1,-1,-1,-1],"loss_changes":[9.86121E0,1.0725249E1,4.042074E0,8.365102E0,0E0,2.9326658E0,0E0,8.210914E0,4.4454846E0,3.1908646E0,5.495722E-1,7.5520725E0,0E0,4.134471E0,1.0277195E0,3.3215084E0,0E0,0E0,0E0,6.678627E0,0E0,1.6038961E0,0E0,0E0,0E0,1.6465111E0,0E0,0E0,0E0,0E0,0E0,0E0,0E0],"parents":[2147483647,0,0,1,1,2,2,3,3,5,5,7,7,8,8,9,9,10,10,11,11,13,13,14,14,15,15,19,19,21,21,25,25],"right_children":[2,4,6,8,-1,10,-1,12,14,16,18,20,-1,22,24,26,-1,-1,-1,28,-1,30,-1,-1,-1,32,-1,-1,-1,-1,-1,-1,-1],"split_conditions":[1E0,1E0,1E0,1E0,5.2772958E-2,1E0,-3.895765E-2,1E0,1E0,1E0,1E0,1E0,6.373398E-2,1E0,1E0,1E0,-2.1792604E-2,-2.7880738E-2,6.5277526E-3,1E0,6.590889E-2,1E0,-1.8293858E-2,7.172203E-3,-4.0903896E-2,1E0,-1.5766134E-2,-1.2615762E-2,6.373572E-2,7.204482E-2,7.825639E-3,4.8664015E-2,-7.820709E-3],"split_indices":[44,43,581,224,0,660,0,0,298,329,298,135,0,198,249,345,0,0,0,5,0,254,0,0,0,371,0,0,0,0,0,0,0],"split_type":[0,0,0,0,0,0,0,0,0,0,0,0,0,0,0,0,0,0,0,0,0,0,0,0,0,0,0,0,0,0,0,0,0],"sum_hessian":[2.4181973E2,2.1144249E2,3.0377245E1,2.0444002E2,7.002459E0,2.8956867E1,1.4203782E0,1.9242082E2,1.2019202E1,2.5884153E1,3.0727127E0,1.8958011E2,2.8407104E0,9.080278E0,2.9389243E0,2.424755E1,1.6366048E0,1.4418379E0,1.6308748E0,1.8735716E2,2.2229471E0,7.6024256E0,1.4778523E0,1.832814E0,1.1061103E0,2.2302763E1,1.944787E0,1.854251E2,1.9320723E0,6.17277E0,1.4296556E0,2.120474E1,1.0980213E0],"tree_param":{"num_deleted":"0","num_feature":"813","num_nodes":"33","size_leaf_vector":"1"}},{"base_weights":[-1.1656176E-2,2.8509166E-2,-5.2069064E-2,6.977354E-2,-8.580772E-1,1.050164E-1,-9.5788646E-1,-1.0526803E0,-5.834147E-4,1.5440945E-1,-5.119924E-1,-5.8336545E-2,-6.4723816E-4,-1.2079318E0,-9.56115E-3,9.444101E-2,7.615102E-1,-7.9576683E-1,5.2616514E-2,-6.58378E-2,-1.8241122E-2,7.5573637E-3,-3.127414E-2,4.5702036E-2,-2.0192856E-2,-5.028039E-2,1.398467E-2],"categories":[],"categories_nodes":[],"categories_segments":[],"categories_sizes":[],"default_left":[0,0,0,0,0,0,0,0,0,0,0,0,0,0,0,0,0,0,0,0,0,0,0,0,0,0,0],"id":39,"left_children":[1,3,-1,5,7,9,11,13,-1,15,17,-1,-1,19,-1,21,23,25,-1,-1,-1,-1,-1,-1,-1,-1,-1],"loss_changes":[9.52482E0,8.179112E0,0E0,7.8144693E0,1.6258245E0,6.382262E0,1.398057E0,8.489666E-1,0E0,6.927822E0,7.745353E0,0E0,0E0,1.3010311E-1,0E0,7.2845597E0,3.4163208E0,3.3823547E0,0E0,0E0,0E0,0E0,0E0,0E0,0E0,0E0,0E0],"parents":[2147483647,0,0,1,1,3,3,4,4,5,5,6,6,7,7,9,9,10,10,13,13,15,15,16,16,17,17],"right_children":[2,4,-1,6,8,10,12,14,-1,16,18,-1,-1,20,-1,22,24,26,-1,-1,-1,-1,-1,-1,-1,-1,-1],"split_conditions":[1E0,1E0,-5.2069064E-2,1E0,1E0,1E0,1E0,1E0,-5.834147E-4,1E0,1E0,-5.8336545E-2,-6.4723816E-4,1E0,-9.56115E-3,1E0,1E0,1E0,5.2616514E-2,-6.58378E-2,-1.8241122E-2,7.5573637E-3,-3.127414E-2,4.5702036E-2,-2.0192856E-2,-5.028039E-2,1.398467E-2],"split_indices":[57,162,0,49,724,517,420,728,0,655,169,0,0,324,0,581,362,723,0,0,0,0,0,0,0,0,0],"split_type":[0,0,0,0,0,0,0,0,0,0,0,0,0,0,0,0,0,0,0,0,0,0,0,0,0,0,0],"sum_hessian":[2.2857693E2,2.2093161E2,7.6453204E0,2.1198643E2,8.945179E0,2.0582559E2,6.1608324E0,7.0748544E0,1.8703245E0,1.9126418E2,1.4561418E1,4.853446E0,1.3073868E0,5.6537437E0,1.421111E0,1.7512152E2,1.6142666E1,1.2741382E1,1.8200358E0,4.5098495E0,1.1438942E0,1.6306725E2,1.2054274E1,1.4465053E1,1.6776136E0,1.0715546E1,2.0258367E0],"tree_param":{"num_deleted":"0","num_feature":"813","num_nodes":"27","size_leaf_vector":"1"}},{"base_weights":[-1.0922254E-2,-8.93442E-2,5.492798E-1,-1.3176809E-1,5.170485E-2,-2.9437054E-2,6.2526494E-1,-1.8620066E-1,6.016321E-1,7.1568495E-1,-3.151973E-1,-2.1000339E-1,7.6902196E-2,9.356011E-2,6.6535555E-2,8.247089E-1,-1.0923028E-1,1.34891225E-2,-3.585658E-2,-2.3529188E-1,7.234994E-2,-3.1053144E-1,5.9989538E-2,9.285924E-1,5.2681487E-2,-2.1657368E-2,1.97181E-2,-1.3208958E-2,5.6577057E-2,1.3294632E-2,-2.9291717E-2,5.0121367E-2,-8.414122E-3,-2.4439758E-2,3.5375204E-2],"categories":[],"categories_nodes":[],"categories_segments":[],"categories_sizes":[],"default_left":[0,0,0,0,0,0,0,0,0,0,0,0,0,0,0,0,0,0,0,0,0,0,0,0,0,0,0,0,0,0,0,0,0,0,0],"id":40,"left_children":[1,3,5,7,-1,-1,9,11,13,15,17,19,-1,21,-1,23,25,-1,-1,27,-1,29,-1,31,33,-1,-1,-1,-1,-1,-1,-1,-1,-1,-1],"loss_changes":[1.0416756E1,1.0043672E1,2.8861551E0,8.143956E0,0E0,0E0,2.5880508E0,8.041265E0,5.1123075E0,2.3970013E0,9.2964625E-1,8.150289E0,0E0,4.5776925E0,0E0,1.7775269E0,8.033072E-1,0E0,0E0,7.5812473E0,0E0,1.3752395E0,0E0,1.789444E0,1.6793948E0,0E0,0E0,0E0,0E0,0E0,0E0,0E0,0E0,0E0,0E0],"parents":[2147483647,0,0,1,1,2,2,3,3,6,6,7,7,8,8,9,9,10,10,11,11,13,13,15,15,16,16,19,19,21,21,23,23,24,24],"right_children":[2,4,6,8,-1,-1,10,12,14,16,18,20,-1,22,-1,24,26,-1,-1,28,-1,30,-1,32,34,-1,-1,-1,-1,-1,-1,-1,-1,-1,-1],"split_conditions":[1E0,1E0,1E0,1E0,5.170485E-2,-2.9437054E-2,1E0,1E0,1E0,1E0,1E0,1E0,7.6902196E-2,1E0,6.6535555E-2,1E0,1E0,1.34891225E-2,-3.585658E-2,1E0,7.234994E-2,1E0,5.9989538E-2,1E0,1E0,-2.1657368E-2,1.97181E-2,-1.3208958E-2,5.6577057E-2,1.3294632E-2,-2.9291717E-2,5.0121367E-2,-8.414122E-3,-2.4439758E-2,3.5375204E-2],"split_indices":[44,43,479,224,0,0,587,128,248,660,741,27,0,317,0,333,422,0,0,54,0,758,0,352,629,0,0,0,0,0,0,0,0,0,0],"split_type":[0,0,0,0,0,0,0,0,0,0,0,0,0,0,0,0,0,0,0,0,0,0,0,0,0,0,0,0,0,0,0,0,0,0,0],"sum_hessian":[2.3499306E2,2.0687361E2,2.811945E1,2.0019641E2,6.6771965E0,1.3376406E0,2.6781809E1,1.870591E2,1.3137313E1,2.4650787E1,2.1310225E0,1.853782E2,1.6808906E0,8.40704E0,4.730273E0,2.1773382E1,2.877404E0,1.0017922E0,1.1292303E0,1.8343668E2,1.941534E0,6.68455E0,1.7224898E0,1.9012302E1,2.7610798E0,1.8362129E0,1.0411911E0,1.804301E2,3.0065727E0,2.1716893E0,4.512861E0,1.78939E1,1.1184033E0,1.6501263E0,1.1109536E0],"tree_param":{"num_deleted":"0","num_feature":"813","num_nodes":"35","size_leaf_vector":"1"}},{"base_weights":[-1.019267E-2,-8.550995E-2,5.366957E-1,-1.7662238E-1,3.1212962E-1,2.6151004E-1,9.8396486E-1,-2.0266286E-1,5.4736968E-2,4.129522E-1,-5.1994067E-2,4.0108013E-1,-4.1349154E-2,5.2178647E-2,1.21021895E-2,-1.6466522E-1,-1.0948497E0,3.107271E-1,1.2287238E0,5.287127E-1,-3.1247104E-2,-9.294899E-2,-6.4970994E-1,-5.9831627E-2,-1.5002141E-2,4.871052E-1,-2.1280804E-1,2.0455213E-2,7.2520874E-2,8.101057E-1,3.4925513E-2,-1.8079141E-3,-4.231934E-2,-3.947261E-2,2.5495565E-2,3.008535E-2,-1.6562846E-2,-2.2566842E-2,4.0017202E-2,4.7380213E-2,-5.1771305E-3,-1.5589288E-2,2.3203613E-2],"categories":[],"categories_nodes":[],"categories_segments":[],"categories_sizes":[],"default_left":[0,0,0,0,0,0,0,0,0,0,0,0,0,0,0,0,0,0,0,0,0,0,0,0,0,0,0,0,0,0,0,0,0,0,0,0,0,0,0,0,0,0,0],"id":41,"left_children":[1,3,5,7,9,11,13,15,-1,17,-1,19,-1,-1,-1,21,23,25,27,29,-1,31,33,-1,-1,35,37,-1,-1,39,41,-1,-1,-1,-1,-1,-1,-1,-1,-1,-1,-1,-1],"loss_changes":[9.830689E0,7.651056E0,3.2988691E0,5.890201E0,5.8063946E0,3.2560768E0,2.1810818E-1,5.5361233E0,0E0,2.7390819E0,0E0,2.6528943E0,0E0,0E0,0E0,5.6065154E0,1.8386745E-1,3.2981768E0,1.02362156E-1,2.2386084E0,0E0,6.092063E0,3.7759705E0,0E0,0E0,2.6547418E0,2.6362474E0,0E0,0E0,1.3980098E0,1.1813635E0,0E0,0E0,0E0,0E0,0E0,0E0,0E0,0E0,0E0,0E0,0E0,0E0],"parents":[2147483647,0,0,1,1,2,2,3,3,4,4,5,5,6,6,7,7,9,9,11,11,15,15,16,16,17,17,18,18,19,19,21,21,22,22,25,25,26,26,29,29,30,30],"right_children":[2,4,6,8,10,12,14,16,-1,18,-1,20,-1,-1,-1,22,24,26,28,30,-1,32,34,-1,-1,36,38,-1,-1,40,42,-1,-1,-1,-1,-1,-1,-1,-1,-1,-1,-1,-1],"split_conditions":[1E0,1E0,1E0,1E0,1E0,1E0,1E0,1E0,5.4736968E-2,1E0,-5.1994067E-2,1E0,-4.1349154E-2,5.2178647E-2,1.21021895E-2,1E0,1E0,1E0,1E0,1E0,-3.1247104E-2,1E0,1E0,-5.9831627E-2,-1.5002141E-2,1E0,1E0,2.0455213E-2,7.2520874E-2,1E0,1E0,-1.8079141E-3,-4.231934E-2,-3.947261E-2,2.5495565E-2,3.008535E-2,-1.6562846E-2,-2.2566842E-2,4.0017202E-2,4.7380213E-2,-5.1771305E-3,-1.5589288E-2,2.3203613E-2],"split_indices":[44,456,277,54,570,616,763,46,0,640,0,329,0,0,0,192,324,709,318,746,0,627,616,0,0,561,635,0,0,557,649,0,0,0,0,0,0,0,0,0,0,0,0],"split_type":[0,0,0,0,0,0,0,0,0,0,0,0,0,0,0,0,0,0,0,0,0,0,0,0,0,0,0,0,0,0,0,0,0,0,0,0,0,0,0,0,0,0,0],"sum_hessian":[2.3655185E2,2.0865904E2,2.7892807E1,1.7021333E2,3.84457E1,1.8249405E1,9.643402E0,1.6762067E2,2.5926726E0,3.642404E1,2.0216613E0,1.6735104E1,1.5143018E0,8.549898E0,1.0935041E0,1.619096E2,5.711056E0,3.3595104E1,2.828936E0,1.5314718E1,1.4203857E0,1.4209221E2,1.98174E1,4.6145535E0,1.0965028E0,2.5181189E1,8.413916E0,1.2080472E0,1.6208891E0,9.347365E0,5.967352E0,1.331072E2,8.985022E0,1.797099E1,1.846411E0,2.2320248E1,2.860941E0,7.2593517E0,1.1545641E0,8.09235E0,1.2550154E0,3.4519598E0,2.5153923E0],"tree_param":{"num_deleted":"0","num_feature":"813","num_nodes":"43","size_leaf_vector":"1"}},{"base_weights":[3.2271426E-2,6.749109E-2,-5.5969696E-2,1.5082234E-1,-3.8337594E-1,2.0828277E-1,-6.743115E-1,-6.465802E-1,4.3386373E-1,2.3402187E-1,-5.0181337E-2,-8.295175E-1,7.530874E-3,-7.214895E-1,3.387276E-2,7.0136136E-1,-3.6131036E-2,2.820437E-1,-4.5104164E-1,6.9532963E-3,-9.45946E-1,-8.249496E-1,2.775245E-1,8.6557037E-1,-8.094912E-3,1.664146E-2,-2.8452128E-2,-4.201826E-2,-2.994281E-4,-5.259729E-2,-1.2715951E-2,-4.4368047E-2,8.511543E-3,3.7013296E-2,-1.6683726E-2,-9.290503E-3,5.3475596E-2],"categories":[],"categories_nodes":[],"categories_segments":[],"categories_sizes":[],"default_left":[0,0,0,0,0,0,0,0,0,0,0,0,0,0,0,0,0,0,0,0,0,0,0,0,0,0,0,0,0,0,0,0,0,0,0,0,0],"id":42,"left_children":[1,3,-1,5,7,9,11,13,15,17,-1,19,-1,21,-1,23,-1,25,27,-1,29,31,33,35,-1,-1,-1,-1,-1,-1,-1,-1,-1,-1,-1,-1,-1],"loss_changes":[9.804388E0,8.837525E0,0E0,9.525576E0,8.182252E0,6.031331E0,1.8051381E0,3.2844973E0,3.4603574E0,6.1399603E0,0E0,1.3944311E0,0E0,3.0364094E0,0E0,1.3112187E0,0E0,7.5983133E0,2.1361132E0,0E0,4.7477055E-1,1.695446E0,1.1795732E0,1.7208052E0,0E0,0E0,0E0,0E0,0E0,0E0,0E0,0E0,0E0,0E0,0E0,0E0,0E0],"parents":[2147483647,0,0,1,1,3,3,4,4,5,5,6,6,7,7,8,8,9,9,11,11,13,13,15,15,17,17,18,18,20,20,21,21,22,22,23,23],"right_children":[2,4,-1,6,8,10,12,14,16,18,-1,20,-1,22,-1,24,-1,26,28,-1,30,32,34,36,-1,-1,-1,-1,-1,-1,-1,-1,-1,-1,-1,-1,-1],"split_conditions":[1E0,1E0,-5.5969696E-2,1E0,1E0,1E0,1E0,1E0,1E0,1E0,-5.0181337E-2,1E0,7.530874E-3,1E0,3.387276E-2,1E0,-3.6131036E-2,1E0,1E0,6.9532963E-3,1E0,1E0,1E0,1E0,-8.094912E-3,1.664146E-2,-2.8452128E-2,-4.201826E-2,-2.994281E-4,-5.259729E-2,-1.2715951E-2,-4.4368047E-2,8.511543E-3,3.7013296E-2,-1.6683726E-2,-9.290503E-3,5.3475596E-2],"split_indices":[161,688,0,168,432,26,44,625,287,286,0,786,0,433,0,321,0,685,758,0,697,183,709,525,0,0,0,0,0,0,0,0,0,0,0,0,0],"split_type":[0,0,0,0,0,0,0,0,0,0,0,0,0,0,0,0,0,0,0,0,0,0,0,0,0,0,0,0,0,0,0,0,0,0,0,0,0],"sum_hessian":[2.3885536E2,2.3268103E2,6.1743402E0,1.9694606E2,3.5734962E1,1.84823E2,1.2123072E1,2.7187613E1,8.547352E0,1.817694E2,3.0536046E0,1.0198682E1,1.9243896E0,2.6162512E1,1.0251006E0,7.261329E0,1.2860229E0,1.7041208E2,1.1357307E1,1.073518E0,9.125164E0,2.3865213E1,2.2972984E0,6.098582E0,1.1627473E0,1.6139061E2,9.021469E0,5.5841603E0,5.773147E0,7.460746E0,1.6644187E0,2.2558811E1,1.3064018E0,1.1872536E0,1.1100447E0,1.0052284E0,5.0933533E0],"tree_param":{"num_deleted":"0","num_feature":"813","num_nodes":"37","size_leaf_vector":"1"}},{"base_weights":[1.0522003E-2,5.3961188E-2,-6.660017E-1,1.2425361E0,2.0564204E-2,-7.981182E-1,1.6296832E-2,6.804886E-2,1.6986994E-2,4.5005783E-2,-5.5557426E-2,-9.015923E-1,5.998369E-3,7.2369374E-2,-5.0371762E-2,-5.2128922E-2,6.3536623E-3,1.0185084E-1,-9.424229E-1,1.0950122E-2,-8.145139E-3,-5.7923164E-2,-1.8969445E-2],"categories":[],"categories_nodes":[],"categories_segments":[],"categories_sizes":[],"default_left":[0,0,0,0,0,0,0,0,0,0,0,0,0,0,0,0,0,0,0,0,0,0,0],"id":43,"left_children":[1,3,5,7,9,11,-1,-1,-1,13,-1,15,-1,17,-1,-1,-1,19,21,-1,-1,-1,-1],"loss_changes":[7.0949907E0,8.970766E0,2.1692648E0,1.9814205E-1,6.1757736E0,1.3569603E0,0E0,0E0,0E0,6.343481E0,0E0,1.8628721E0,0E0,6.4730434E0,0E0,0E0,0E0,6.4882817E0,3.043337E-1,0E0,0E0,0E0,0E0],"parents":[2147483647,0,0,1,1,2,2,3,3,4,4,5,5,9,9,11,11,13,13,17,17,18,18],"right_children":[2,4,6,8,10,12,-1,-1,-1,14,-1,16,-1,18,-1,-1,-1,20,22,-1,-1,-1,-1],"split_conditions":[1E0,1E0,1E0,1E0,1E0,1E0,1.6296832E-2,6.804886E-2,1.6986994E-2,1E0,-5.5557426E-2,1E0,5.998369E-3,1E0,-5.0371762E-2,-5.2128922E-2,6.3536623E-3,1E0,1E0,1.0950122E-2,-8.145139E-3,-5.7923164E-2,-1.8969445E-2],"split_indices":[168,513,411,591,179,328,0,0,0,161,0,560,0,140,0,0,0,709,452,0,0,0,0],"split_type":[0,0,0,0,0,0,0,0,0,0,0,0,0,0,0,0,0,0,0,0,0,0,0],"sum_hessian":[2.3920485E2,2.2563705E2,1.3567784E1,5.177253E0,2.2045981E2,1.2145515E1,1.4222689E0,4.1281533E0,1.0490994E0,2.1673912E2,3.7206793E0,1.09314375E1,1.2140781E0,2.1215433E2,4.5848007E0,9.601901E0,1.3295364E0,2.0703912E2,5.1152086E0,1.4364848E2,6.3390636E1,2.9324636E0,2.1827447E0],"tree_param":{"num_deleted":"0","num_feature":"813","num_nodes":"23","size_leaf_vector":"1"}},{"base_weights":[3.3802327E-2,-4.9512893E-2,6.482602E-1,-8.785818E-2,5.0956722E-2,7.3462296E-1,-1.7248929E-2,-5.544753E-2,-1.1248722E0,7.992955E-1,-1.468595E-2,1.5867945E-2,-5.1085573E-1,-6.1413437E-2,-1.8368421E-2,8.639184E-1,-7.352217E-4,4.8439197E-2,-5.474136E-2,-6.149883E-1,2.1965373E-2,9.483974E-1,8.89234E-3,4.904581E-3,-3.083682E-2,-3.5665344E-2,2.5724886E-2,5.039825E-2,7.771618E-3,1.0605436E-2,-1.0258295E-2],"categories":[],"categories_nodes":[],"categories_segments":[],"categories_sizes":[],"default_left":[0,0,0,0,0,0,0,0,0,0,0,0,0,0,0,0,0,0,0,0,0,0,0,0,0,0,0,0,0,0,0],"id":44,"left_children":[1,3,5,7,-1,9,-1,11,13,15,-1,17,19,-1,-1,21,-1,23,-1,25,-1,27,29,-1,-1,-1,-1,-1,-1,-1,-1],"loss_changes":[1.1922961E1,8.509099E0,2.6384764E0,6.635182E0,0E0,1.9572544E0,0E0,6.317977E0,1.772356E-2,1.3086433E0,0E0,6.165035E0,2.875835E0,0E0,0E0,1.641407E0,0E0,5.513112E0,0E0,3.0489073E0,0E0,8.247585E-1,1.7677094E-1,0E0,0E0,0E0,0E0,0E0,0E0,0E0,0E0],"parents":[2147483647,0,0,1,1,2,2,3,3,5,5,7,7,8,8,9,9,11,11,12,12,15,15,17,17,19,19,21,21,22,22],"right_children":[2,4,6,8,-1,10,-1,12,14,16,-1,18,20,-1,-1,22,-1,24,-1,26,-1,28,30,-1,-1,-1,-1,-1,-1,-1,-1],"split_conditions":[1E0,1E0,1E0,1E0,5.0956722E-2,1E0,-1.7248929E-2,1E0,1E0,1E0,-1.468595E-2,1E0,1E0,-6.1413437E-2,-1.8368421E-2,1E0,-7.352217E-4,1E0,-5.474136E-2,1E0,2.1965373E-2,1E0,1E0,4.904581E-3,-3.083682E-2,-3.5665344E-2,2.5724886E-2,5.039825E-2,7.771618E-3,1.0605436E-2,-1.0258295E-2],"split_indices":[44,43,345,180,0,353,0,192,408,329,0,125,599,0,0,287,0,665,0,265,0,292,437,0,0,0,0,0,0,0,0],"split_type":[0,0,0,0,0,0,0,0,0,0,0,0,0,0,0,0,0,0,0,0,0,0,0,0,0,0,0,0,0,0,0],"sum_hessian":[2.3127205E2,2.0446744E2,2.6804613E1,1.9827086E2,6.196585E0,2.4899925E1,1.9046881E0,1.9328348E2,4.9873786E0,2.3636177E1,1.2637477E0,1.6794844E2,2.5335035E1,3.8415523E0,1.1458263E0,2.1840916E1,1.7952615E0,1.6409279E2,3.8556502E0,2.3150612E1,2.1844227E0,1.9777626E1,2.0632882E0,1.5348811E2,1.0604677E1,2.1635748E1,1.514863E0,1.8143547E1,1.6340797E0,1.063121E0,1.0001674E0],"tree_param":{"num_deleted":"0","num_feature":"813","num_nodes":"31","size_leaf_vector":"1"}},{"base_weights":[1.1991449E-2,6.0102414E-2,-8.5234874E-1,9.2869475E-2,-8.540394E-1,-9.7218406E-1,1.1368669E-2,4.3526288E-2,9.332682E-1,-1.0385544E0,-3.2894638E-1,-1.3121781E-2,-1.0720608E0,8.137391E-2,-9.7114176E-1,1.1051557E0,-1.671851E-2,-6.10581E-2,-1.4122197E-2,1.0769401E-2,-3.3029992E-2,-6.073454E-2,-4.36518E-1,1.33159E-1,-5.361465E-1,-5.7101257E-2,-4.194879E-1,6.510051E-2,9.86744E-3,2.9022405E-3,-3.6456052E-2,8.627865E-3,-3.8733754E-2,-3.5467185E-2,1.997899E-2,9.245863E-3,-3.978348E-2],"categories":[],"categories_nodes":[],"categories_segments":[],"categories_sizes":[],"default_left":[0,0,0,0,0,0,0,0,0,0,0,0,0,0,0,0,0,0,0,0,0,0,0,0,0,0,0,0,0,0,0,0,0,0,0,0,0],"id":45,