{"learner":{"attributes":{"scikit_learn":"{\"_estimator_type\": \"classifier\"}"},"feature_names":[],"feature_types":[],"gradient_booster":{"model":{"gbtree_model_param":{"num_parallel_tree":"1","num_trees":"400"},"iteration_indptr":[0,1,2,3,4,5,6,7,8,9,10,11,12,13,14,15,16,17,18,19,20,21,22,23,24,25,26,27,28,29,30,31,32,33,34,35,36,37,38,39,40,41,42,43,44,45,46,47,48,49,50,51,52,53,54,55,56,57,58,59,60,61,62,63,64,65,66,67,68,69,70,71,72,73,74,75,76,77,78,79,80,81,82,83,84,85,86,87,88,89,90,91,92,93,94,95,96,97,98,99,100,101,102,103,104,105,106,107,108,109,110,111,112,113,114,115,116,117,118,119,120,121,122,123,124,125,126,127,128,129,130,131,132,133,134,135,136,137,138,139,140,141,142,143,144,145,146,147,148,149,150,151,152,153,154,155,156,157,158,159,160,161,162,163,164,165,166,167,168,169,170,171,172,173,174,175,176,177,178,179,180,181,182,183,184,185,186,187,188,189,190,191,192,193,194,195,196,197,198,199,200,201,202,203,204,205,206,207,208,209,210,211,212,213,214,215,216,217,218,219,220,221,222,223,224,225,226,227,228,229,230,231,232,233,234,235,236,237,238,239,240,241,242,243,244,245,246,247,248,249,250,251,252,253,254,255,256,257,258,259,260,261,262,263,264,265,266,267,268,269,270,271,272,273,274,275,276,277,278,279,280,281,282,283,284,285,286,287,288,289,290,291,292,293,294,295,296,297,298,299,300,301,302,303,304,305,306,307,308,309,310,311,312,313,314,315,316,317,318,319,320,321,322,323,324,325,326,327,328,329,330,331,332,333,334,335,336,337,338,339,340,341,342,343,344,345,346,347,348,349,350,351,352,353,354,355,356,357,358,359,360,361,362,363,364,365,366,367,368,369,370,371,372,373,374,375,376,377,378,379,380,381,382,383,384,385,386,387,388,389,390,391,392,393,394,395,396,397,398,399,400],"tree_info":[0,0,0,0,0,0,0,0,0,0,0,0,0,0,0,0,0,0,0,0,0,0,0,0,0,0,0,0,0,0,0,0,0,0,0,0,0,0,0,0,0,0,0,0,0,0,0,0,0,0,0,0,0,0,0,0,0,0,0,0,0,0,0,0,0,0,0,0,0,0,0,0,0,0,0,0,0,0,0,0,0,0,0,0,0,0,0,0,0,0,0,0,0,0,0,0,0,0,0,0,0,0,0,0,0,0,0,0,0,0,0,0,0,0,0,0,0,0,0,0,0,0,0,0,0,0,0,0,0,0,0,0,0,0,0,0,0,0,0,0,0,0,0,0,0,0,0,0,0,0,0,0,0,0,0,0,0,0,0,0,0,0,0,0,0,0,0,0,0,0,0,0,0,0,0,0,0,0,0,0,0,0,0,0,0,0,0,0,0,0,0,0,0,0,0,0,0,0,0,0,0,0,0,0,0,0,0,0,0,0,0,0,0,0,0,0,0,0,0,0,0,0,0,0,0,0,0,0,0,0,0,0,0,0,0,0,0,0,0,0,0,0,0,0,0,0,0,0,0,0,0,0,0,0,0,0,0,0,0,0,0,0,0,0,0,0,0,0,0,0,0,0,0,0,0,0,0,0,0,0,0,0,0,0,0,0,0,0,0,0,0,0,0,0,0,0,0,0,0,0,0,0,0,0,0,0,0,0,0,0,0,0,0,0,0,0,0,0,0,0,0,0,0,0,0,0,0,0,0,0,0,0,0,0,0,0,0,0,0,0,0,0,0,0,0,0,0,0,0,0,0,0,0,0,0,0,0,0,0,0,0,0,0,0,0,0,0,0,0,0,0,0,0,0,0,0,0,0,0,0,0,0,0,0,0,0,0,0,0,0,0,0,0,0,0,0,0,0,0,0],"trees":[{"base_weights":[2.284522E-2,-2.707179E-1,1.4412315E0,-4.209309E-1,9.6514806E-2,6.8764216E-1,1.7629011E0,-4.7042462E-1,8.37005E-2,-1.13020495E-1,1.4533929E0,1.8119167E0,2.199644E-2,-5.1268655E-1,8.041534E-2,1.9967356E-1,-4.338251E-2,8.1479125E-2,1.2954185E-2,9.329169E-2,2.199644E-2,-5.532095E-1,7.906269E-2,5.3014237E-1,-2.5188057E-2,-2.3466816E-2,-7.5438686E-2,-4.247575E-3,6.2022645E-2],"categories":[],"categories_nodes":[],"categories_segments":[],"categories_sizes":[],"default_left":[0,0,0,0,0,0,0,0,0,0,0,0,0,0,0,0,0,0,0,0,0,0,0,0,0,0,0,0,0],"id":0,"left_children":[1,3,5,7,-1,9,11,13,-1,15,17,19,-1,21,-1,23,-1,-1,-1,-1,-1,25,-1,27,-1,-1,-1,-1,-1],"loss_changes":[1.1643551E2,7.7433235E1,1.0410851E1,2.3366581E1,0E0,9.963957E0,1.3405533E0,1.958237E1,0E0,2.2359734E0,1.3121414E0,1.5068741E0,0E0,1.869564E1,0E0,1.8927857E0,0E0,0E0,0E0,0E0,0E0,1.5864132E1,0E0,2.3971179E0,0E0,0E0,0E0,0E0,0E0],"parents":[2147483647,0,0,1,1,2,2,3,3,5,5,6,6,7,7,9,9,10,10,11,11,13,13,15,15,21,21,23,23],"right_children":[2,4,6,8,-1,10,12,14,-1,16,18,20,-1,22,-1,24,-1,-1,-1,-1,-1,26,-1,28,-1,-1,-1,-1,-1],"split_conditions":[1E0,1E0,1E0,1E0,9.6514806E-2,1E0,1E0,1E0,8.37005E-2,1E0,1E0,1E0,2.199644E-2,1E0,8.041534E-2,1E0,-4.338251E-2,8.1479125E-2,1.2954185E-2,9.329169E-2,2.199644E-2,1E0,7.906269E-2,1E0,-2.5188057E-2,-2.3466816E-2,-7.5438686E-2,-4.247575E-3,6.2022645E-2],"split_indices":[44,43,452,54,0,298,587,53,0,677,557,788,0,56,0,190,0,0,0,0,0,168,0,758,0,0,0,0,0],"split_type":[0,0,0,0,0,0,0,0,0,0,0,0,0,0,0,0,0,0,0,0,0,0,0,0,0,0,0,0,0],"sum_hessian":[2.7769662E2,2.3074792E2,4.694871E1,2.167632E2,1.3984722E1,1.4983631E1,3.196508E1,2.1251784E2,4.2453623E0,7.741543E0,7.2420883E0,3.0466717E1,1.4983631E0,2.0902165E2,3.4961805E0,5.9934525E0,1.7480903E0,5.9934525E0,1.248636E0,2.8968353E1,1.4983631E0,2.057752E2,3.2464535E0,4.2453623E0,1.7480903E0,1.9054184E2,1.5233358E1,2.746999E0,1.4983631E0],"tree_param":{"num_deleted":"0","num_feature":"813","num_nodes":"29","size_leaf_vector":"1"}},{"base_weights":[-5.3554773E-3,-1.0579628E-1,9.1587864E-2,-2.2408015E-1,6.047367E-1,-1.6562708E-1,-8.448636E-2,7.655738E-1,-9.342789E-1,-2.0347188E-1,7.82571E-2,8.780871E-1,-4.2661216E-2,-6.0866233E-2,-8.634632E-3,-2.4176496E-1,7.19182E-2,9.8092043E-1,-3.79372E-2,-1.5304017E-2,3.564204E-2,5.351279E-2,-5.909549E-3],"categories":[],"categories_nodes":[],"categories_segments":[],"categories_sizes":[],"default_left":[0,0,0,0,0,0,0,0,0,0,0,0,0,0,0,0,0,0,0,0,0,0,0],"id":1,"left_children":[1,3,-1,5,7,9,-1,11,13,15,-1,17,-1,-1,-1,19,-1,21,-1,-1,-1,-1,-1],"loss_changes":[5.0711464E1,2.2031672E1,0E0,1.8917297E1,9.985711E0,1.4505455E1,0E0,7.0252056E0,6.507368E-1,1.3729422E1,0E0,6.25025E0,0E0,0E0,0E0,1.3040617E1,0E0,3.1913624E0,0E0,0E0,0E0,0E0,0E0],"parents":[2147483647,0,0,1,1,3,3,4,4,5,5,7,7,8,8,9,9,11,11,15,15,17,17],"right_children":[2,4,-1,6,8,10,-1,12,14,16,-1,18,-1,-1,-1,20,-1,22,-1,-1,-1,-1,-1],"split_conditions":[1E0,1E0,9.1587864E-2,1E0,1E0,1E0,-8.448636E-2,1E0,1E0,1E0,7.82571E-2,1E0,-4.2661216E-2,-6.0866233E-2,-8.634632E-3,1E0,7.19182E-2,1E0,-3.79372E-2,-1.5304017E-2,3.564204E-2,5.351279E-2,-5.909549E-3],"split_indices":[43,411,0,161,223,54,0,147,39,590,0,619,0,0,0,115,0,348,0,0,0,0,0],"split_type":[0,0,0,0,0,0,0,0,0,0,0,0,0,0,0,0,0,0,0,0,0,0,0],"sum_hessian":[2.7277722E2,2.595303E2,1.3246935E1,2.2307858E2,3.6451714E1,2.1559328E2,7.485305E0,3.345772E1,2.9939923E0,2.1184357E2,3.7497094E0,3.1711226E1,1.7464955E0,1.7464955E0,1.2474967E0,2.0784859E2,3.9949746E0,3.0213776E1,1.4974505E0,1.9536545E2,1.2483137E1,2.796689E1,2.2468843E0],"tree_param":{"num_deleted":"0","num_feature":"813","num_nodes":"23","size_leaf_vector":"1"}},{"base_weights":[4.5849388E-3,-2.7592167E-1,1.4291391E0,-3.3359075E-1,8.414247E-2,7.500529E-1,1.6794865E0,-3.7188706E-1,7.5722754E-2,-1.4674458E-1,1.1230732E0,1.726438E0,3.2296587E-2,-4.1356504E-1,7.070488E-2,-5.112143E-1,2.1086967E-2,1.3322438E0,-9.501221E-3,8.891799E-2,3.7394278E-2,-4.479504E-1,7.6115385E-2,-9.1973925E-3,-3.0551711E-2,7.3819056E-2,1.2921822E-2,-2.4017408E-2,7.453378E-2],"categories":[],"categories_nodes":[],"categories_segments":[],"categories_sizes":[],"default_left":[0,0,0,0,0,0,0,0,0,0,0,0,0,0,0,0,0,0,0,0,0,0,0,0,0,0,0,0,0],"id":2,"left_children":[1,3,5,7,-1,9,11,13,-1,15,17,19,-1,21,-1,23,-1,25,-1,-1,-1,27,-1,-1,-1,-1,-1,-1,-1],"loss_changes":[1.098072E2,2.6497229E1,6.42585E0,1.6407164E1,0E0,4.8427014E0,4.4853973E-1,1.697025E1,0E0,1.2499772E0,2.997429E0,2.0567322E-1,0E0,1.5052174E1,0E0,1.7437935E-3,0E0,9.71714E-1,0E0,0E0,0E0,1.4086811E1,0E0,0E0,0E0,0E0,0E0,0E0,0E0],"parents":[2147483647,0,0,1,1,2,2,3,3,5,5,6,6,7,7,9,9,10,10,11,11,13,13,15,15,17,17,21,21],"right_children":[2,4,6,8,-1,10,12,14,-1,16,18,20,-1,22,-1,24,-1,26,-1,-1,-1,28,-1,-1,-1,-1,-1,-1,-1],"split_conditions":[1E0,1E0,1E0,1E0,8.414247E-2,1E0,1E0,1E0,7.5722754E-2,1E0,1E0,1E0,3.2296587E-2,1E0,7.070488E-2,1E0,2.1086967E-2,1E0,-9.501221E-3,8.891799E-2,3.7394278E-2,1E0,7.6115385E-2,-9.1973925E-3,-3.0551711E-2,7.3819056E-2,1.2921822E-2,-2.4017408E-2,7.453378E-2],"split_indices":[44,144,452,54,0,544,616,590,0,245,420,318,0,169,0,591,0,677,0,0,0,127,0,0,0,0,0,0,0],"split_type":[0,0,0,0,0,0,0,0,0,0,0,0,0,0,0,0,0,0,0,0,0,0,0,0,0,0,0,0,0],"sum_hessian":[2.728081E2,2.2860098E2,4.420713E1,2.2286908E2,5.7318964E0,1.2983755E1,3.1223375E1,2.1912697E2,3.7421114E0,3.9922886E0,8.9914665E0,2.9225357E1,1.998018E0,2.1488092E2,4.2460537E0,2.4940376E0,1.4982511E0,7.7433968E0,1.2480695E0,2.6976645E1,2.248712E0,2.1188596E2,2.9949543E0,1.2473413E0,1.2466964E0,6.4964714E0,1.2469256E0,2.0914304E2,2.742918E0],"tree_param":{"num_deleted":"0","num_feature":"813","num_nodes":"29","size_leaf_vector":"1"}},{"base_weights":[-6.557927E-3,6.914714E-2,-1.0753622E0,1.18289895E-1,-1.4221766E0,-1.366572E0,3.6470056E-2,4.3119878E-2,1.041993E0,-2.406461E-2,-7.97262E-2,1.5009764E-2,-7.6155655E-2,-6.1319885E-3,8.344138E-2,1.26511E0,-2.9402563E-2,-5.926839E-2,7.969402E-2,1.3909026E0,-9.605464E-3,-8.047986E-3,2.6458785E-2,1.2287203E-2,7.35664E-2],"categories":[],"categories_nodes":[],"categories_segments":[],"categories_sizes":[],"default_left":[0,0,0,0,0,0,0,0,0,0,0,0,0,0,0,0,0,0,0,0,0,0,0,0,0],"id":3,"left_children":[1,3,5,7,9,11,-1,13,15,-1,-1,-1,-1,17,-1,19,-1,21,-1,23,-1,-1,-1,-1,-1],"loss_changes":[2.2778473E1,1.944109E1,1.0783216E1,1.769629E1,6.054058E-1,4.731497E0,0E0,1.9012562E1,7.7213955E0,0E0,0E0,0E0,0E0,1.9762896E1,0E0,3.4187374E0,0E0,1.3541329E1,0E0,1.107214E0,0E0,0E0,0E0,0E0,0E0],"parents":[2147483647,0,0,1,1,2,2,3,3,4,4,5,5,7,7,8,8,13,13,15,15,17,17,19,19],"right_children":[2,4,6,8,10,12,-1,14,16,-1,-1,-1,-1,18,-1,20,-1,22,-1,24,-1,-1,-1,-1,-1],"split_conditions":[1E0,1E0,1E0,1E0,1E0,1E0,3.6470056E-2,1E0,1E0,-2.406461E-2,-7.97262E-2,1.5009764E-2,-7.6155655E-2,1E0,8.344138E-2,1E0,-2.9402563E-2,1E0,7.969402E-2,1E0,-9.605464E-3,-8.047986E-3,2.6458785E-2,1.2287203E-2,7.35664E-2],"split_indices":[168,49,411,136,786,786,0,181,255,0,0,0,0,516,0,600,0,411,0,479,0,0,0,0,0],"split_type":[0,0,0,0,0,0,0,0,0,0,0,0,0,0,0,0,0,0,0,0,0,0,0,0,0],"sum_hessian":[2.7959595E2,2.6197516E2,1.7620802E1,2.5450914E2,7.466016E0,1.5381671E1,2.2391312E0,2.36324E2,1.8185125E1,1.7430218E0,5.722994E0,1.2418131E0,1.4139858E1,2.3034187E2,5.9821286E0,1.6192598E1,1.9925278E0,2.2387012E2,6.471768E0,1.494776E1,1.2448378E0,1.915023E2,3.23678E1,1.247036E0,1.3700724E1],"tree_param":{"num_deleted":"0","num_feature":"813","num_nodes":"25","size_leaf_vector":"1"}},{"base_weights":[-6.1222482E-3,-2.9340184E-1,1.369853E0,-4.221113E-1,8.626848E-2,7.3551035E-1,1.6101912E0,-3.4670317E-1,-1.3566307E0,9.6913457E-1,-2.0411294E-2,1.657215E0,2.3662599E-2,-2.8255376E-1,-8.1180476E-2,-1.4575768E0,-4.5482954E-3,1.1523051E0,-5.8867447E-3,8.536752E-2,2.5007809E-2,-2.2611508E-1,-7.6120876E-2,-7.781958E-2,-6.919158E-1,4.6824035E-1,7.567771E-2,-5.7290085E-3,-4.4341218E-2,-4.88992E-2,-4.826681E-3,4.617552E-2,-2.0115033E-2],"categories":[],"categories_nodes":[],"categories_segments":[],"categories_sizes":[],"default_left":[0,0,0,0,0,0,0,0,0,0,0,0,0,0,0,0,0,0,0,0,0,0,0,0,0,0,0,0,0,0,0,0,0],"id":4,"left_children":[1,3,5,7,-1,9,11,13,15,17,-1,19,-1,21,-1,23,-1,25,-1,-1,-1,27,-1,-1,29,31,-1,-1,-1,-1,-1,-1,-1],"loss_changes":[1.0933725E2,6.0180634E1,6.0994034E0,1.4744053E1,0E0,4.3952236E0,1.0231552E0,1.6015604E1,1.8831558E0,2.6691494E0,0E0,1.006134E0,0E0,1.3140941E1,0E0,2.3576736E-2,0E0,2.0054197E0,0E0,0E0,0E0,1.3567909E1,0E0,0E0,4.9540734E-1,2.4497285E0,0E0,0E0,0E0,0E0,0E0,0E0,0E0],"parents":[2147483647,0,0,1,1,2,2,3,3,5,5,6,6,7,7,8,8,9,9,11,11,13,13,15,15,17,17,21,21,24,24,25,25],"right_children":[2,4,6,8,-1,10,12,14,16,18,-1,20,-1,22,-1,24,-1,26,-1,-1,-1,28,-1,-1,30,32,-1,-1,-1,-1,-1,-1,-1],"split_conditions":[1E0,1E0,1E0,1E0,8.626848E-2,1E0,1E0,1E0,1E0,1E0,-2.0411294E-2,1E0,2.3662599E-2,1E0,-8.1180476E-2,1E0,-4.5482954E-3,1E0,-5.8867447E-3,8.536752E-2,2.5007809E-2,1E0,-7.6120876E-2,-7.781958E-2,1E0,1E0,7.567771E-2,-5.7290085E-3,-4.4341218E-2,-4.88992E-2,-4.826681E-3,4.617552E-2,-2.0115033E-2],"split_indices":[44,43,452,168,0,677,250,161,620,304,0,587,0,46,0,544,0,758,0,0,0,190,0,0,467,610,0,0,0,0,0,0,0],"split_type":[0,0,0,0,0,0,0,0,0,0,0,0,0,0,0,0,0,0,0,0,0,0,0,0,0,0,0,0,0,0,0,0,0],"sum_hessian":[2.745836E2,2.2780803E2,4.6775566E1,2.1489784E2,1.2910192E1,1.3968299E1,3.2807266E1,2.0012071E2,1.4777121E1,1.1725798E1,2.2425005E0,3.106482E1,1.7424482E0,1.917108E2,8.409917E0,1.3545165E1,1.2319558E0,9.983131E0,1.7426666E0,2.9318838E1,1.7459819E0,1.8449495E2,7.215852E0,1.1082177E1,2.4629874E0,4.2435923E0,5.7395387E0,1.5885236E2,2.5642588E1,1.2295836E0,1.2334039E0,2.7464335E0,1.497159E0],"tree_param":{"num_deleted":"0","num_feature":"813","num_nodes":"33","size_leaf_vector":"1"}},{"base_weights":[-1.714181E-2,-1.3064624E-1,6.596038E-1,-5.0492413E-2,-1.2664391E0,-9.747275E-1,8.762501E-1,-9.94398E-2,7.025868E-2,5.0273347E-3,-1.4141878E0,-1.4612068E-2,-6.516785E-2,9.844804E-1,-4.061376E-2,-1.4412688E-1,7.7027455E-2,-7.646506E-2,-4.879123E-3,1.0856253E0,-2.9577604E-2,-2.1754465E-1,8.7873745E-1,1.1759082E0,-3.359894E-2,-1.3131636E-2,7.677693E-2,5.320192E-2,-3.0988589E-2,6.319579E-2,-1.7883562E-2],"categories":[],"categories_nodes":[],"categories_segments":[],"categories_sizes":[],"default_left":[0,0,0,0,0,0,0,0,0,0,0,0,0,0,0,0,0,0,0,0,0,0,0,0,0,0,0,0,0,0,0],"id":5,"left_children":[1,3,5,7,9,11,13,15,-1,-1,17,-1,-1,19,-1,21,-1,-1,-1,23,-1,25,27,29,-1,-1,-1,-1,-1,-1,-1],"loss_changes":[2.171082E1,2.1960045E1,1.5229589E1,1.6314777E1,3.3546524E0,7.9109526E-1,7.4471893E0,1.6386328E1,0E0,0E0,2.0363312E0,0E0,0E0,6.1634483E0,0E0,1.6384018E1,0E0,0E0,0E0,6.0107956E0,0E0,1.6369095E1,4.7243376E0,4.7245827E0,0E0,0E0,0E0,0E0,0E0,0E0,0E0],"parents":[2147483647,0,0,1,1,2,2,3,3,4,4,5,5,6,6,7,7,10,10,13,13,15,15,19,19,21,21,22,22,23,23],"right_children":[2,4,6,8,10,12,14,16,-1,-1,18,-1,-1,20,-1,22,-1,-1,-1,24,-1,26,28,30,-1,-1,-1,-1,-1,-1,-1],"split_conditions":[1E0,1E0,1E0,1E0,1E0,1E0,1E0,1E0,7.025868E-2,5.0273347E-3,1E0,-1.4612068E-2,-6.516785E-2,1E0,-4.061376E-2,1E0,7.7027455E-2,-7.646506E-2,-4.879123E-3,1E0,-2.9577604E-2,1E0,1E0,1E0,-3.359894E-2,-1.3131636E-2,7.677693E-2,5.320192E-2,-3.0988589E-2,6.319579E-2,-1.7883562E-2],"split_indices":[411,168,203,516,786,231,147,181,0,0,295,0,0,109,0,136,0,0,0,600,0,144,600,15,0,0,0,0,0,0,0],"split_type":[0,0,0,0,0,0,0,0,0,0,0,0,0,0,0,0,0,0,0,0,0,0,0,0,0,0,0,0,0,0,0],"sum_hessian":[2.8052097E2,2.4092049E2,3.960047E1,2.2601488E2,1.4905601E1,4.2254505E0,3.537502E1,2.1956364E2,6.4512334E0,1.4850693E0,1.3420531E1,1.9873875E0,2.238063E0,3.3635994E1,1.7390262E0,2.1462752E2,4.93614E0,1.2192928E1,1.2276021E0,3.1899921E1,1.7360728E0,2.0098854E2,1.3638965E1,3.0656164E1,1.2437575E0,1.9677774E2,4.2107987E0,1.2396045E1,1.2429204E0,2.9158676E1,1.4974867E0],"tree_param":{"num_deleted":"0","num_feature":"813","num_nodes":"31","size_leaf_vector":"1"}},{"base_weights":[-7.7708135E-3,-8.624863E-2,8.1907794E-2,-1.7346103E-1,4.411474E-1,-1.1873046E-1,-1.1710814E0,-7.110556E-1,5.9851575E-1,-5.0239556E-2,-9.7776765E-1,-1.2823119E0,-6.6041276E-3,-5.9322562E-2,-4.407957E-3,6.986667E-1,-3.9416667E-2,-6.043238E-3,-5.821998E-2,-1.1301525E0,-1.4163349E-3,-5.958195E-3,-1.4259613E0,7.890244E-1,-2.7488125E-2,1.9314301E-3,-5.697642E-2,-6.393524E-2,-3.5139956E-3,-8.012027E-2,-8.275724E-3,4.3698456E-2,-3.262244E-2],"categories":[],"categories_nodes":[],"categories_segments":[],"categories_sizes":[],"default_left":[0,0,0,0,0,0,0,0,0,0,0,0,0,0,0,0,0,0,0,0,0,0,0,0,0,0,0,0,0,0,0,0,0],"id":6,"left_children":[1,3,-1,5,7,9,11,13,15,17,19,21,-1,-1,-1,23,-1,25,-1,27,-1,-1,29,31,-1,-1,-1,-1,-1,-1,-1,-1,-1],"loss_changes":[3.5574398E1,1.2163317E1,0E0,1.2212177E1,7.237929E0,1.2633588E1,1.177227E0,1.3676746E0,5.2174854E0,9.875602E0,2.2630892E0,1.5694942E0,0E0,0E0,0E0,4.028448E0,0E0,9.869411E0,0E0,2.0582771E0,0E0,0E0,1.7752419E0,4.2590294E0,0E0,0E0,0E0,0E0,0E0,0E0,0E0,0E0,0E0],"parents":[2147483647,0,0,1,1,3,3,4,4,5,5,6,6,7,7,8,8,9,9,10,10,11,11,15,15,17,17,19,19,22,22,23,23],"right_children":[2,4,-1,6,8,10,12,14,16,18,20,22,-1,-1,-1,24,-1,26,-1,28,-1,-1,30,32,-1,-1,-1,-1,-1,-1,-1,-1,-1],"split_conditions":[1E0,1E0,8.1907794E-2,1E0,1E0,1E0,1E0,1E0,1E0,1E0,1E0,1E0,-6.6041276E-3,-5.9322562E-2,-4.407957E-3,1E0,-3.9416667E-2,1E0,-5.821998E-2,1E0,-1.4163349E-3,-5.958195E-3,1E0,1E0,-2.7488125E-2,1.9314301E-3,-5.697642E-2,-6.393524E-2,-3.5139956E-3,-8.012027E-2,-8.275724E-3,4.3698456E-2,-3.262244E-2],"split_indices":[43,411,0,562,203,720,669,758,147,46,347,479,0,0,0,646,0,49,0,456,0,0,680,14,0,0,0,0,0,0,0,0,0],"split_type":[0,0,0,0,0,0,0,0,0,0,0,0,0,0,0,0,0,0,0,0,0,0,0,0,0,0,0,0,0,0,0,0,0],"sum_hessian":[2.7331647E2,2.617823E2,1.1534185E1,2.2521147E2,3.657081E1,2.1455951E2,1.065196E1,3.9718351E0,3.2598972E1,1.9969624E2,1.4863269E1,9.410351E0,1.2416097E0,1.7395073E0,2.232328E0,3.0866198E1,1.7327744E0,1.9304402E2,6.6522145E0,1.2643637E1,2.2196321E0,1.2355431E0,8.174808E0,2.912612E1,1.7400784E0,1.8665373E2,6.390299E0,1.0908258E1,1.7353783E0,6.9329906E0,1.2418168E0,2.7877048E1,1.2490717E0],"tree_param":{"num_deleted":"0","num_feature":"813","num_nodes":"33","size_leaf_vector":"1"}},{"base_weights":[1.6782576E-2,-2.3062894E-1,1.2586198E0,-3.525169E-1,7.983654E-2,1.3632239E0,1.2653942E-1,-3.9110425E-1,7.787277E-2,1.4173262E0,-1.1288722E-2,-1.6638933E-2,3.5930015E-2,-4.2804563E-1,7.644417E-2,1.4909942E0,5.2270107E-3,-4.6197093E-1,7.192888E-2,1.5680718E0,8.481465E-3,-2.4659296E-2,7.4954316E-2,8.193229E-2,5.1811407E-3],"categories":[],"categories_nodes":[],"categories_segments":[],"categories_sizes":[],"default_left":[0,0,0,0,0,0,0,0,0,0,0,0,0,0,0,0,0,0,0,0,0,0,0,0,0],"id":7,"left_children":[1,3,5,7,-1,9,11,13,-1,15,-1,-1,-1,17,-1,19,-1,21,-1,23,-1,-1,-1,-1,-1],"loss_changes":[8.475895E1,5.1812584E1,5.2545013E0,1.6567245E1,0E0,3.9177399E0,1.5930576E0,1.5764526E1,0E0,3.7714462E0,0E0,0E0,0E0,1.3950134E1,0E0,3.6424942E0,0E0,1.339901E1,0E0,3.5652924E0,0E0,0E0,0E0,0E0,0E0],"parents":[2147483647,0,0,1,1,2,2,3,3,5,5,6,6,7,7,9,9,13,13,15,15,17,17,19,19],"right_children":[2,4,6,8,-1,10,12,14,-1,16,-1,-1,-1,18,-1,20,-1,22,-1,24,-1,-1,-1,-1,-1],"split_conditions":[1E0,1E0,1E0,1E0,7.983654E-2,1E0,1E0,1E0,7.787277E-2,1E0,-1.1288722E-2,-1.6638933E-2,3.5930015E-2,1E0,7.644417E-2,1E0,5.2270107E-3,1E0,7.192888E-2,1E0,8.481465E-3,-2.4659296E-2,7.4954316E-2,8.193229E-2,5.1811407E-3],"split_indices":[44,43,343,127,0,241,318,56,0,371,0,0,0,144,0,420,0,164,0,603,0,0,0,0,0],"split_type":[0,0,0,0,0,0,0,0,0,0,0,0,0,0,0,0,0,0,0,0,0,0,0,0,0],"sum_hessian":[2.73923E2,2.2909468E2,4.4828304E1,2.1552585E2,1.3568846E1,4.0849625E1,3.9786785E0,2.1203726E2,3.4885778E0,3.960905E1,1.2405725E0,2.4871166E0,1.4915618E0,2.0879698E2,3.2402859E0,3.7375923E1,2.2331278E0,2.0580898E2,2.9880037E0,3.5139473E1,2.2364528E0,2.0332114E2,2.48784E0,3.3410423E1,1.7290487E0],"tree_param":{"num_deleted":"0","num_feature":"813","num_nodes":"25","size_leaf_vector":"1"}},{"base_weights":[4.0543564E-2,-2.0538327E-1,1.2547282E0,-3.184432E-1,7.6737575E-2,1.3392735E0,-2.898465E-2,-3.5550666E-1,8.0488965E-2,1.3931065E0,-1.4974943E-2,-3.9084792E-1,7.350095E-2,1.4423465E0,6.9790813E-3,-4.232713E-1,7.49936E-2,1.492723E0,1.9015225E-2,-2.2688417E-2,6.767287E-2,7.655415E-2,2.0750303E-2],"categories":[],"categories_nodes":[],"categories_segments":[],"categories_sizes":[],"default_left":[0,0,0,0,0,0,0,0,0,0,0,0,0,0,0,0,0,0,0,0,0,0,0],"id":8,"left_children":[1,3,5,7,-1,9,-1,11,-1,13,-1,15,-1,17,-1,19,-1,21,-1,-1,-1,-1,-1],"loss_changes":[8.188204E1,4.5379612E1,7.9388275E0,1.5943462E1,0E0,4.3385773E0,0E0,1.4242008E1,0E0,2.4659195E0,0E0,1.3423468E1,0E0,1.6511536E0,0E0,1.1769428E1,0E0,9.873276E-1,0E0,0E0,0E0,0E0,0E0],"parents":[2147483647,0,0,1,1,2,2,3,3,5,5,7,7,9,9,11,11,13,13,15,15,17,17],"right_children":[2,4,6,8,-1,10,-1,12,-1,14,-1,16,-1,18,-1,20,-1,22,-1,-1,-1,-1,-1],"split_conditions":[1E0,1E0,1E0,1E0,7.6737575E-2,1E0,-2.898465E-2,1E0,8.0488965E-2,1E0,-1.4974943E-2,1E0,7.350095E-2,1E0,6.9790813E-3,1E0,7.49936E-2,1E0,1.9015225E-2,-2.2688417E-2,6.767287E-2,7.655415E-2,2.0750303E-2],"split_indices":[44,43,353,0,0,695,0,56,0,382,0,53,0,347,0,144,0,348,0,0,0,0,0],"split_type":[0,0,0,0,0,0,0,0,0,0,0,0,0,0,0,0,0,0,0,0,0,0,0],"sum_hessian":[2.723563E2,2.2717418E2,4.518211E1,2.1408188E2,1.3092313E1,4.344952E1,1.7325904E0,2.1084473E2,3.2371383E0,4.2212757E1,1.2367637E0,2.0761137E2,3.2333534E0,4.047232E1,1.7404351E0,2.0487419E2,2.7371922E0,3.825235E1,2.2199724E0,2.0214897E2,2.7252214E0,3.6531387E1,1.72096E0],"tree_param":{"num_deleted":"0","num_feature":"813","num_nodes":"23","size_leaf_vector":"1"}},{"base_weights":[-1.2611897E-2,-2.7577066E-1,1.3334084E0,-3.1228313E-1,7.534394E-2,1.3945761E0,3.5642168E-1,-3.5066518E-1,6.718145E-2,1.446307E0,1.6454328E-2,3.8862463E-2,-1.582063E-2,-3.8668314E-1,6.987243E-2,1.523256E0,5.953797E-1,-4.1718182E-1,7.23565E-2,1.5655565E0,3.4011684E-2,2.1063712E-1,4.815096E-2,-2.2196954E-2,7.2599545E-2,8.043547E-2,2.5197173E-2,-4.8306626E-3,2.3094563E-2],"categories":[],"categories_nodes":[],"categories_segments":[],"categories_sizes":[],"default_left":[0,0,0,0,0,0,0,0,0,0,0,0,0,0,0,0,0,0,0,0,0,0,0,0,0,0,0,0,0],"id":9,"left_children":[1,3,5,7,-1,9,11,13,-1,15,-1,-1,-1,17,-1,19,21,23,-1,25,-1,27,-1,-1,-1,-1,-1,-1,-1],"loss_changes":[9.580599E1,1.5193741E1,2.1463547E0,1.4611975E1,0E0,1.7995605E0,1.3642368E0,1.4281635E1,0E0,1.6518402E0,0E0,0E0,0E0,1.260714E1,0E0,1.9012451E-1,4.8775136E-1,1.1241768E1,0E0,6.8943787E-1,0E0,3.276068E-1,0E0,0E0,0E0,0E0,0E0,0E0,0E0],"parents":[2147483647,0,0,1,1,2,2,3,3,5,5,6,6,7,7,9,9,13,13,15,15,16,16,17,17,19,19,21,21],"right_children":[2,4,6,8,-1,10,12,14,-1,16,-1,-1,-1,18,-1,20,22,24,-1,26,-1,28,-1,-1,-1,-1,-1,-1,-1],"split_conditions":[1E0,1E0,1E0,1E0,7.534394E-2,1E0,1E0,1E0,6.718145E-2,1E0,1.6454328E-2,3.8862463E-2,-1.582063E-2,1E0,6.987243E-2,1E0,1E0,1E0,7.23565E-2,1E0,3.4011684E-2,1E0,4.815096E-2,-2.2196954E-2,7.2599545E-2,8.043547E-2,2.5197173E-2,-4.8306626E-3,2.3094563E-2],"split_indices":[44,127,587,144,0,549,709,169,0,660,0,0,0,53,0,399,610,135,0,420,0,629,0,0,0,0,0,0,0],"split_type":[0,0,0,0,0,0,0,0,0,0,0,0,0,0,0,0,0,0,0,0,0,0,0,0,0,0,0,0,0],"sum_hessian":[2.6843448E2,2.2520085E2,4.3233624E1,2.214891E2,3.711748E0,4.028407E1,2.9495542E0,2.1724193E2,4.247173E0,3.8077927E1,2.2061431E0,1.7191293E0,1.2304249E0,2.1361934E2,3.6225896E0,3.4195522E1,3.8824012E0,2.1088457E2,2.7347784E0,3.1745543E1,2.4499812E0,2.6656678E0,1.2167335E0,2.0866008E2,2.2244768E0,3.001033E1,1.7352126E0,1.4760864E0,1.1895813E0],"tree_param":{"num_deleted":"0","num_feature":"813","num_nodes":"29","size_leaf_vector":"1"}},{"base_weights":[7.97704E-3,-2.2904047E-1,1.1772444E0,-3.469933E-1,7.518482E-2,1.2880721E0,-1.4712451E-1,-3.872301E-1,7.508594E-2,6.7971444E-1,1.5006465E0,-2.6174901E-2,2.358128E-2,-4.2831597E-1,7.3948994E-2,9.420378E-1,-3.9213605E-2,7.63399E-2,2.3566855E-2,-4.6157154E-1,7.408818E-2,1.1236222E0,-1.4949105E-2,-2.4401618E-2,7.358541E-2,6.6312574E-2,4.8197014E-3],"categories":[],"categories_nodes":[],"categories_segments":[],"categories_sizes":[],"default_left":[0,0,0,0,0,0,0,0,0,0,0,0,0,0,0,0,0,0,0,0,0,0,0,0,0,0,0],"id":10,"left_children":[1,3,5,7,-1,9,11,13,-1,15,17,-1,-1,19,-1,21,-1,-1,-1,23,-1,25,-1,-1,-1,-1,-1],"loss_changes":[7.529842E1,4.6698936E1,6.910694E0,1.6377357E1,0E0,4.457802E0,1.2793947E0,1.662944E1,0E0,5.6530943E0,1.0303497E-1,0E0,0E0,1.3699493E1,0E0,2.8837833E0,0E0,0E0,0E0,1.1059872E1,0E0,1.9688559E0,0E0,0E0,0E0,0E0,0E0],"parents":[2147483647,0,0,1,1,2,2,3,3,5,5,6,6,7,7,9,9,10,10,13,13,15,15,19,19,21,21],"right_children":[2,4,6,8,-1,10,12,14,-1,16,18,-1,-1,20,-1,22,-1,-1,-1,24,-1,26,-1,-1,-1,-1,-1],"split_conditions":[1E0,1E0,1E0,1E0,7.518482E-2,1E0,1E0,1E0,7.508594E-2,1E0,1E0,-2.6174901E-2,2.358128E-2,1E0,7.3948994E-2,1E0,-3.9213605E-2,7.63399E-2,2.3566855E-2,1E0,7.408818E-2,1E0,-1.4949105E-2,-2.4401618E-2,7.358541E-2,6.6312574E-2,4.8197014E-3],"split_indices":[44,43,343,53,0,452,318,54,0,677,134,0,0,0,0,647,0,0,0,177,0,763,0,0,0,0,0],"split_type":[0,0,0,0,0,0,0,0,0,0,0,0,0,0,0,0,0,0,0,0,0,0,0,0,0,0,0],"sum_hessian":[2.697283E2,2.2493646E2,4.479185E1,2.1134901E2,1.3587445E1,4.1358257E1,3.433591E0,2.0762073E2,3.7282772E0,1.1796342E1,2.9561918E1,2.2306645E0,1.2029264E0,2.0390218E2,3.718555E0,1.0306165E1,1.4901772E0,2.8358105E1,1.2038116E0,2.0115825E2,2.743932E0,9.073187E0,1.2329782E0,1.9917964E2,1.978608E0,7.335167E0,1.7380197E0],"tree_param":{"num_deleted":"0","num_feature":"813","num_nodes":"27","size_leaf_vector":"1"}},{"base_weights":[-1.8776791E-3,-3.8543027E-2,7.259696E-2,-9.537866E-2,8.285296E-1,-6.974575E-1,-6.008546E-3,1.004483E0,-2.0595562E-2,-7.920781E-1,2.4596533E-2,-1.1077451E-1,5.879679E-1,1.1986169E0,1.12229556E-1,-8.747139E-1,2.4214042E-2,-4.257268E-2,-8.990966E-1,6.776672E-1,-4.729268E-2,1.3365933E0,1.640961E-2,1.2012342E-3,8.004605E-3,-5.154565E-2,1.0388686E-2,3.2310182E-4,-5.3847827E-2,-5.4080028E-2,1.5128297E-2,3.805585E-2,-1.9462405E-2,7.780055E-2,1.9371143E-2],"categories":[],"categories_nodes":[],"categories_segments":[],"categories_sizes":[],"default_left":[0,0,0,0,0,0,0,0,0,0,0,0,0,0,0,0,0,0,0,0,0,0,0,0,0,0,0,0,0,0,0,0,0,0,0],"id":11,"left_children":[1,3,-1,5,7,9,11,13,-1,15,-1,17,19,21,23,25,-1,27,29,31,-1,33,-1,-1,-1,-1,-1,-1,-1,-1,-1,-1,-1,-1,-1],"loss_changes":[1.43441E1,1.30115795E1,0E0,1.3296034E1,3.9597845E0,3.98413E0,1.352146E1,2.380475E0,0E0,3.5845184E0,0E0,9.889969E0,5.123498E0,9.810791E-1,1.1765167E-2,5.033575E0,0E0,8.680501E0,3.5410166E0,3.0886393E0,0E0,1.4545135E0,0E0,0E0,0E0,0E0,0E0,0E0,0E0,0E0,0E0,0E0,0E0,0E0,0E0],"parents":[2147483647,0,0,1,1,3,3,4,4,5,5,6,6,7,7,9,9,11,11,12,12,13,13,14,14,15,15,17,17,18,18,19,19,21,21],"right_children":[2,4,-1,6,8,10,12,14,-1,16,-1,18,20,22,24,26,-1,28,30,32,-1,34,-1,-1,-1,-1,-1,-1,-1,-1,-1,-1,-1,-1,-1],"split_conditions":[1E0,1E0,7.259696E-2,1E0,1E0,1E0,1E0,1E0,-2.0595562E-2,1E0,2.4596533E-2,1E0,1E0,1E0,1E0,1E0,2.4214042E-2,1E0,1E0,1E0,-4.729268E-2,1E0,1.640961E-2,1.2012342E-3,8.004605E-3,-5.154565E-2,1.0388686E-2,3.2310182E-4,-5.3847827E-2,-5.4080028E-2,1.5128297E-2,3.805585E-2,-1.9462405E-2,7.780055E-2,1.9371143E-2],"split_indices":[181,136,0,203,255,295,411,572,0,552,0,254,147,429,277,198,0,46,324,600,0,249,0,0,0,0,0,0,0,0,0,0,0,0,0],"split_type":[0,0,0,0,0,0,0,0,0,0,0,0,0,0,0,0,0,0,0,0,0,0,0,0,0,0,0,0,0,0,0,0,0,0,0],"sum_hessian":[2.6704654E2,2.6142682E2,5.619712E0,2.4618E2,1.5246821E1,3.0939444E1,2.1524055E2,1.3519356E1,1.7274653E0,2.8968897E1,1.9705456E0,1.8365997E2,3.1580568E1,1.0821488E1,2.6978674E0,2.7502943E1,1.4659538E0,1.7000589E2,1.3654087E1,3.036309E1,1.2174783E0,8.878532E0,1.9429556E0,1.477312E0,1.2205553E0,2.4076443E1,3.4265006E0,1.6326033E2,6.7455635E0,1.1940519E1,1.7135676E0,2.842632E1,1.9367722E0,6.6921787E0,2.1863542E0],"tree_param":{"num_deleted":"0","num_feature":"813","num_nodes":"35","size_leaf_vector":"1"}},{"base_weights":[1.2455954E-2,6.280533E-2,-6.725956E-2,1.00285254E-1,-1.1810068E0,1.8227117E-1,-4.741614E-1,-8.959675E-3,-6.9171555E-2,2.407419E-1,-8.1905466E-1,-5.64193E-1,4.1801903E-2,3.609372E-1,-1.9199139E-1,-1.1462317E0,1.76134E-1,-6.936857E-1,5.617166E-1,2.1601928E-2,-3.0410308E-2,1.2077469E-3,-5.018699E-2,-6.30886E-2,-2.2810241E-2,1.6239773E-2,-4.229287E-3,-4.0173586E-2,1.0242405E-3,-1.2906327E-2,6.060044E-2],"categories":[],"categories_nodes":[],"categories_segments":[],"categories_sizes":[],"default_left":[0,0,0,0,0,0,0,0,0,0,0,0,0,0,0,0,0,0,0,0,0,0,0,0,0,0,0,0,0,0,0],"id":12,"left_children":[1,3,-1,5,7,9,11,-1,-1,13,15,17,-1,19,21,23,25,27,29,-1,-1,-1,-1,-1,-1,-1,-1,-1,-1,-1,-1],"loss_changes":[1.8440142E1,1.2233542E1,0E0,1.2011284E1,1.309577E0,1.3212391E1,4.23476E0,0E0,0E0,1.1033907E1,4.2692432E0,4.828782E0,0E0,1.1655174E1,8.179096E0,1.845007E-1,1.8086126E-1,2.1925507E0,2.2818089E0,0E0,0E0,0E0,0E0,0E0,0E0,0E0,0E0,0E0,0E0,0E0,0E0],"parents":[2147483647,0,0,1,1,3,3,4,4,5,5,6,6,9,9,10,10,11,11,13,13,14,14,15,15,16,16,17,17,18,18],"right_children":[2,4,-1,6,8,10,12,-1,-1,14,16,18,-1,20,22,24,26,28,30,-1,-1,-1,-1,-1,-1,-1,-1,-1,-1,-1,-1],"split_conditions":[1E0,1E0,-6.725956E-2,1E0,1E0,1E0,1E0,-8.959675E-3,-6.9171555E-2,1E0,1E0,1E0,4.1801903E-2,1E0,1E0,1E0,1E0,1E0,1E0,2.1601928E-2,-3.0410308E-2,1.2077469E-3,-5.018699E-2,-6.30886E-2,-2.2810241E-2,1.6239773E-2,-4.229287E-3,-4.0173586E-2,1.0242405E-3,-1.2906327E-2,6.060044E-2],"split_indices":[161,49,0,223,774,62,295,0,0,437,700,353,0,213,688,199,333,198,287,0,0,0,0,0,0,0,0,0,0,0,0],"split_type":[0,0,0,0,0,0,0,0,0,0,0,0,0,0,0,0,0,0,0,0,0,0,0,0,0,0,0,0,0,0,0],"sum_hessian":[2.675276E2,2.5888052E2,8.647043E0,2.5220033E2,6.680206E0,2.212989E2,3.0901423E1,1.4397931E0,5.2404127E0,2.0980716E2,1.14917555E1,2.9447306E1,1.454117E0,1.6432924E2,4.5477913E1,8.534266E0,2.9574885E0,2.6754156E1,2.69315E0,1.5361357E2,1.0715675E1,3.668101E1,8.796903E0,6.6004777E0,1.9337889E0,1.7269967E0,1.2304919E0,2.3080984E1,3.6731722E0,1.4580293E0,1.2351209E0],"tree_param":{"num_deleted":"0","num_feature":"813","num_nodes":"31","size_leaf_vector":"1"}},{"base_weights":[5.8883067E-2,-1.0096834E-2,7.177865E-2,-1.08437926E-1,6.237771E-1,-6.077827E-2,-6.672098E-2,-8.383287E-1,8.482131E-1,-1.1401107E-1,7.5415933E-1,-1.6336435E-2,-5.557186E-2,9.3768823E-1,-1.4457837E-2,-1.4072466E-1,7.327062E-2,9.683478E-1,-1.6446844E-2,1.0709693E0,-2.0326498E-1,-8.433423E-3,6.549623E-2,6.1612543E-2,2.7734175E-4,6.1553158E-2,6.3806805E-3,1.906158E-2,-2.9278118E-2],"categories":[],"categories_nodes":[],"categories_segments":[],"categories_sizes":[],"default_left":[0,0,0,0,0,0,0,0,0,0,0,0,0,0,0,0,0,0,0,0,0,0,0,0,0,0,0,0,0],"id":13,"left_children":[1,3,-1,5,7,9,-1,11,13,15,17,-1,-1,19,-1,21,-1,23,-1,25,27,-1,-1,-1,-1,-1,-1,-1,-1],"loss_changes":[2.558943E1,1.6116314E1,0E0,1.2991352E1,1.2106358E1,9.473928E0,0E0,3.5280824E-1,3.385376E0,8.813582E0,3.4272418E0,0E0,0E0,4.5676937E0,0E0,8.390043E0,0E0,2.9002914E0,0E0,3.7352962E0,1.0796249E0,0E0,0E0,0E0,0E0,0E0,0E0,0E0,0E0],"parents":[2147483647,0,0,1,1,3,3,4,4,5,5,7,7,8,8,9,9,10,10,13,13,15,15,17,17,19,19,20,20],"right_children":[2,4,-1,6,8,10,-1,12,14,16,18,-1,-1,20,-1,22,-1,24,-1,26,28,-1,-1,-1,-1,-1,-1,-1,-1],"split_conditions":[1E0,1E0,7.177865E-2,1E0,1E0,1E0,-6.672098E-2,1E0,1E0,1E0,1E0,-1.6336435E-2,-5.557186E-2,1E0,-1.4457837E-2,1E0,7.327062E-2,1E0,-1.6446844E-2,1E0,1E0,-8.433423E-3,6.549623E-2,6.1612543E-2,2.7734175E-4,6.1553158E-2,6.3806805E-3,1.906158E-2,-2.9278118E-2],"split_indices":[43,411,0,161,203,136,0,375,15,164,198,0,0,640,0,144,0,572,0,358,375,0,0,0,0,0,0,0,0],"split_type":[0,0,0,0,0,0,0,0,0,0,0,0,0,0,0,0,0,0,0,0,0,0,0,0,0,0,0,0,0],"sum_hessian":[2.6831207E2,2.5645493E2,1.1857167E1,2.22729E2,3.3725914E1,2.1540479E2,7.3242197E0,4.124069E0,2.9601845E1,2.0300436E2,1.2400414E1,2.199741E0,1.9243283E0,2.760571E1,1.9961343E0,2.0052371E2,2.4806569E0,1.0441495E1,1.95892E0,2.4773155E1,2.832554E0,1.9760106E2,2.9226546E0,7.9755435E0,2.4659514E0,2.0918215E1,3.8549418E0,1.1211735E0,1.7113806E0],"tree_param":{"num_deleted":"0","num_feature":"813","num_nodes":"29","size_leaf_vector":"1"}},{"base_weights":[4.4689034E-3,-6.7006975E-2,6.980204E-2,-9.89941E-2,6.833861E-2,-6.0760412E-2,-6.390921E-2,-1.8817475E-2,-1.225675E0,1.2396814E-1,-3.6215794E-1,-7.012578E-2,-5.416039E-3,8.158636E-3,-5.5693716E-2,-2.3507979E-2,3.6486756E-2],"categories":[],"categories_nodes":[],"categories_segments":[],"categories_sizes":[],"default_left":[0,0,0,0,0,0,0,0,0,0,0,0,0,0,0,0,0],"id":14,"left_children":[1,3,-1,5,-1,7,-1,9,11,13,15,-1,-1,-1,-1,-1,-1],"loss_changes":[2.6434341E1,1.1731363E1,0E0,1.1115037E1,0E0,1.17772045E1,0E0,1.1523113E1,1.5034933E0,8.242876E0,8.482977E0,0E0,0E0,0E0,0E0,0E0,0E0],"parents":[2147483647,0,0,1,1,3,3,5,5,7,7,8,8,9,9,10,10],"right_children":[2,4,-1,6,-1,8,-1,10,12,14,16,-1,-1,-1,-1,-1,-1],"split_conditions":[1E0,1E0,6.980204E-2,1E0,6.833861E-2,1E0,-6.390921E-2,1E0,1E0,1E0,1E0,-7.012578E-2,-5.416039E-3,8.158636E-3,-5.5693716E-2,-2.3507979E-2,3.6486756E-2],"split_indices":[43,181,0,161,0,180,0,709,688,49,191,0,0,0,0,0,0],"split_type":[0,0,0,0,0,0,0,0,0,0,0,0,0,0,0,0,0],"sum_hessian":[2.6382794E2,2.5184422E2,1.198373E1,2.4725891E2,4.5853066E0,2.4051215E2,6.7467628E0,2.3313426E2,7.377883E0,1.6510902E2,6.8025246E1,6.1494207E0,1.2284622E0,1.6088179E2,4.227222E0,6.24205E1,5.6047435E0],"tree_param":{"num_deleted":"0","num_feature":"813","num_nodes":"17","size_leaf_vector":"1"}},{"base_weights":[1.7920885E-2,-1.8810356E-1,1.0827103E0,-2.7811274E-1,6.802627E-2,1.1731598E0,-1.2383932E-1,-3.1306314E-1,7.1720146E-2,1.22659E0,-1.5312232E-2,3.3595864E-2,-4.383728E-2,-3.7790465E-1,6.536047E-1,1.2827274E0,-1.5375091E-3,-4.0698382E-1,7.509438E-2,1.1360328E0,-7.0126915E-1,1.3243641E0,-3.073757E-4,-2.1822395E-2,7.3503904E-2,7.693898E-2,-3.591835E-4,-4.277054E-2,-9.049085E-3,6.815209E-2,6.1310497E-3],"categories":[],"categories_nodes":[],"categories_segments":[],"categories_sizes":[],"default_left":[0,0,0,0,0,0,0,0,0,0,0,0,0,0,0,0,0,0,0,0,0,0,0,0,0,0,0,0,0,0,0],"id":15,"left_children":[1,3,5,7,-1,9,11,13,-1,15,-1,-1,-1,17,19,21,-1,23,-1,25,27,29,-1,-1,-1,-1,-1,-1,-1,-1,-1],"loss_changes":[5.8747845E1,3.1665733E1,4.883045E0,1.3195301E1,0E0,3.5754662E0,2.9449093E0,1.3379774E1,0E0,2.8112488E0,0E0,0E0,0E0,1.137891E1,9.644829E0,2.0267258E0,0E0,1.1413502E1,0E0,4.7830095E0,1.798346E-1,1.5267334E0,0E0,0E0,0E0,0E0,0E0,0E0,0E0,0E0,0E0],"parents":[2147483647,0,0,1,1,2,2,3,3,5,5,6,6,7,7,9,9,13,13,14,14,15,15,17,17,19,19,20,20,21,21],"right_children":[2,4,6,8,-1,10,12,14,-1,16,-1,-1,-1,18,20,22,-1,24,-1,26,28,30,-1,-1,-1,-1,-1,-1,-1,-1,-1],"split_conditions":[1E0,1E0,1E0,1E0,6.802627E-2,1E0,1E0,1E0,7.1720146E-2,1E0,-1.5312232E-2,3.3595864E-2,-4.383728E-2,1E0,1E0,1E0,-1.5375091E-3,1E0,7.509438E-2,1E0,1E0,1E0,-3.073757E-4,-2.1822395E-2,7.3503904E-2,7.693898E-2,-3.591835E-4,-4.277054E-2,-9.049085E-3,6.815209E-2,6.1310497E-3],"split_indices":[44,43,587,127,0,564,741,224,0,603,0,0,0,27,298,788,0,177,0,741,741,400,0,0,0,0,0,0,0,0,0],"split_type":[0,0,0,0,0,0,0,0,0,0,0,0,0,0,0,0,0,0,0,0,0,0,0,0,0,0,0,0,0,0,0],"sum_hessian":[2.6587094E2,2.234578E2,4.241316E1,2.1195877E2,1.14990225E1,3.948111E1,2.9320488E0,2.0852031E2,3.4384594E0,3.8269844E1,1.2112644E0,1.4777567E0,1.454292E0,1.9598334E2,1.2536976E1,3.6614887E1,1.6549584E0,1.9376933E2,2.2139919E0,9.364199E0,3.1727765E0,3.5442394E1,1.1724935E0,1.9153038E2,2.2389522E0,6.668815E0,2.695384E0,1.950735E0,1.2220414E0,3.4207226E1,1.2351693E0],"tree_param":{"num_deleted":"0","num_feature":"813","num_nodes":"31","size_leaf_vector":"1"}},{"base_weights":[-1.4725075E-2,-2.2546197E-1,9.871818E-1,-2.598236E-1,6.82973E-2,1.0783325E0,-1.723064E-1,-2.9203996E-1,7.0947036E-2,4.37161E-1,1.2371677E0,-3.2199457E-2,2.6850004E-2,-3.2569343E-1,6.818627E-2,7.6524794E-1,-4.4395678E-2,1.2808061E0,6.8501406E-3,-3.575172E-1,6.1994016E-2,9.905014E-1,-1.1512137E-2,1.3293314E0,6.1459923E-3,-2.0871839E-2,2.8104817E-2,5.3210277E-2,1.5112731E-2,7.011598E-2,1.6128542E-2],"categories":[],"categories_nodes":[],"categories_segments":[],"categories_sizes":[],"default_left":[0,0,0,0,0,0,0,0,0,0,0,0,0,0,0,0,0,0,0,0,0,0,0,0,0,0,0,0,0,0,0],"id":16,"left_children":[1,3,5,7,-1,9,11,13,-1,15,17,-1,-1,19,-1,21,-1,23,-1,25,-1,27,-1,29,-1,-1,-1,-1,-1,-1,-1],"loss_changes":[5.578464E1,1.2288817E1,5.038765E0,1.2013408E1,0E0,3.808651E0,1.7539711E0,1.2215778E1,0E0,5.038153E0,1.4416199E0,0E0,0E0,1.0799101E1,0E0,2.1505122E0,0E0,1.6501999E0,0E0,1.1502594E1,0E0,4.255438E-2,0E0,1.8166046E0,0E0,0E0,0E0,0E0,0E0,0E0,0E0],"parents":[2147483647,0,0,1,1,2,2,3,3,5,5,6,6,7,7,9,9,10,10,13,13,15,15,17,17,19,19,21,21,23,23],"right_children":[2,4,6,8,-1,10,12,14,-1,16,18,-1,-1,20,-1,22,-1,24,-1,26,-1,28,-1,30,-1,-1,-1,-1,-1,-1,-1],"split_conditions":[1E0,1E0,1E0,1E0,6.82973E-2,1E0,1E0,1E0,7.0947036E-2,1E0,1E0,-3.2199457E-2,2.6850004E-2,1E0,6.818627E-2,1E0,-4.4395678E-2,1E0,6.8501406E-3,1E0,6.1994016E-2,1E0,-1.1512137E-2,1E0,6.1459923E-3,-2.0871839E-2,2.8104817E-2,5.3210277E-2,1.5112731E-2,7.011598E-2,1.6128542E-2],"split_indices":[44,127,400,56,0,544,338,53,0,304,347,0,0,144,0,660,0,659,0,136,0,273,0,348,0,0,0,0,0,0,0],"split_type":[0,0,0,0,0,0,0,0,0,0,0,0,0,0,0,0,0,0,0,0,0,0,0,0,0,0,0,0,0,0,0],"sum_hessian":[2.6215433E2,2.1723665E2,4.491768E1,2.1346426E2,3.772379E0,4.1708817E1,3.2088623E0,2.1025539E2,3.2088733E0,9.025952E0,3.2682865E1,1.9825618E0,1.2263005E0,2.0685437E2,3.4010217E0,7.5732994E0,1.4526532E0,3.1278019E1,1.4048467E0,2.0348962E2,3.3647428E0,6.17995E0,1.3933492E0,2.9877817E1,1.4002014E0,1.9155452E2,1.1935102E1,5.0887423E0,1.0912077E0,2.7491808E1,2.38601E0],"tree_param":{"num_deleted":"0","num_feature":"813","num_nodes":"31","size_leaf_vector":"1"}},{"base_weights":[-3.5720997E-2,-1.00302E-1,6.6461526E-2,-5.7816595E-2,-6.4122096E-2,-9.089257E-2,6.756046E-2,-5.001499E-2,-1.1107599E0,2.5583668E-2,-5.618805E-1,-1.2674025E0,-1.1959292E-2,-2.9581768E-2,6.081957E-3,-3.5016783E-2,4.4864346E-3,-6.828321E-2,-1.943855E-2],"categories":[],"categories_nodes":[],"categories_segments":[],"categories_sizes":[],"default_left":[0,0,0,0,0,0,0,0,0,0,0,0,0,0,0,0,0,0,0],"id":17,"left_children":[1,3,-1,5,-1,7,-1,9,11,13,15,17,-1,-1,-1,-1,-1,-1,-1],"loss_changes":[2.3380306E1,1.2619231E1,0E0,1.15417595E1,0E0,9.963867E0,0E0,8.996523E0,9.548693E-1,1.2119414E1,2.7616472E0,1.2332916E-1,0E0,0E0,0E0,0E0,0E0,0E0,0E0],"parents":[2147483647,0,0,1,1,3,3,5,5,7,7,8,8,9,9,10,10,11,11],"right_children":[2,4,-1,6,-1,8,-1,10,12,14,16,18,-1,-1,-1,-1,-1,-1,-1],"split_conditions":[1E0,1E0,6.6461526E-2,1E0,-6.4122096E-2,1E0,6.756046E-2,1E0,1E0,1E0,1E0,1E0,-1.1959292E-2,-2.9581768E-2,6.081957E-3,-3.5016783E-2,4.4864346E-3,-6.828321E-2,-1.943855E-2],"split_indices":[43,161,0,181,0,46,0,192,728,203,258,602,0,0,0,0,0,0,0],"split_type":[0,0,0,0,0,0,0,0,0,0,0,0,0,0,0,0,0,0,0],"sum_hessian":[2.6272095E2,2.5173683E2,1.0984104E1,2.4401595E2,7.7208805E0,2.3933325E2,4.682701E0,2.3111876E2,8.214492E0,2.0220468E2,2.891408E1,6.578098E0,1.6363944E0,2.6535767E1,1.7566891E2,2.3785349E1,5.1287303E0,5.4178815E0,1.1602161E0],"tree_param":{"num_deleted":"0","num_feature":"813","num_nodes":"19","size_leaf_vector":"1"}},{"base_weights":[2.167374E-2,-1.5231216E-1,9.439347E-1,-2.2999547E-1,6.50483E-2,1.0372425E0,-2.6715545E-2,-2.7506584E-1,7.170446E-2,1.1175269E0,-7.508258E-2,-3.3135885E-1,7.351651E-1,1.1712807E0,-6.694717E-3,-1.9697662E-2,1.2263885E-2,-3.6420202E-1,6.880737E-2,9.503936E-1,-2.875006E-2,1.228637E0,1.8731027E-4,-1.987343E-2,6.738557E-2,5.923718E-2,-1.2625906E-2,6.3507125E-2,2.073134E-3],"categories":[],"categories_nodes":[],"categories_segments":[],"categories_sizes":[],"default_left":[0,0,0,0,0,0,0,0,0,0,0,0,0,0,0,0,0,0,0,0,0,0,0,0,0,0,0,0,0],"id":18,"left_children":[1,3,5,7,-1,9,-1,11,-1,13,15,17,19,21,-1,-1,-1,23,-1,25,-1,27,-1,-1,-1,-1,-1,-1,-1],"loss_changes":[4.271454E1,2.5594393E1,6.3812027E0,1.6410097E1,0E0,3.662899E0,0E0,1.2114833E1,0E0,2.675518E0,4.6795294E-1,1.1628487E1,3.7410126E0,2.4063377E0,0E0,0E0,0E0,1.1667271E1,0E0,3.1484222E0,0E0,1.6381187E0,0E0,0E0,0E0,0E0,0E0,0E0,0E0],"parents":[2147483647,0,0,1,1,2,2,3,3,5,5,7,7,9,9,10,10,11,11,12,12,13,13,17,17,19,19,21,21],"right_children":[2,4,6,8,-1,10,-1,12,-1,14,16,18,20,22,-1,-1,-1,24,-1,26,-1,28,-1,-1,-1,-1,-1,-1,-1],"split_conditions":[1E0,1E0,1E0,1E0,6.50483E-2,1E0,-2.6715545E-2,1E0,7.170446E-2,1E0,1E0,1E0,1E0,1E0,-6.694717E-3,-1.9697662E-2,1.2263885E-2,1E0,6.880737E-2,1E0,-2.875006E-2,1E0,1.8731027E-4,-1.987343E-2,6.738557E-2,5.923718E-2,-1.2625906E-2,6.3507125E-2,2.073134E-3],"split_indices":[44,43,353,54,0,347,0,313,0,241,456,169,657,382,0,0,0,127,0,328,0,564,0,0,0,0,0,0,0],"split_type":[0,0,0,0,0,0,0,0,0,0,0,0,0,0,0,0,0,0,0,0,0,0,0,0,0,0,0,0,0],"sum_hessian":[2.6430386E2,2.2305841E2,4.1245453E1,2.1253912E2,1.0519295E1,3.9077206E1,2.1682496E0,2.0774716E2,4.791957E0,3.6442234E1,2.6349711E0,1.9741843E2,1.03287325E1,3.5002758E1,1.4394765E0,1.2054282E0,1.4295428E0,1.9446469E2,2.953743E0,9.107235E0,1.2214972E0,3.3313847E1,1.6889114E0,1.91511E2,2.9536896E0,7.6349134E0,1.4723215E0,3.2120964E1,1.1928837E0],"tree_param":{"num_deleted":"0","num_feature":"813","num_nodes":"29","size_leaf_vector":"1"}},{"base_weights":[2.3327686E-2,-1.3906057E-1,9.4349265E-1,-2.0835909E-1,6.3328534E-2,1.0195647E0,-1.32591E-2,-2.5295088E-1,7.044141E-2,5.482406E-1,1.1672611E0,-2.8268838E-1,7.39504E-2,9.465395E-2,8.902164E-1,1.2197164E0,1.5224868E-2,-3.1511623E-1,6.915554E-2,4.7782603E-1,-3.6872286E-2,5.3471472E-2,4.049E-3,1.2753272E0,4.1881824E-1,-1.7233035E-2,7.575652E-2,4.1361284E-2,-8.041274E-3,6.549836E-2,1.2770216E-2,3.807004E-2,-5.9059313E-3],"categories":[],"categories_nodes":[],"categories_segments":[],"categories_sizes":[],"default_left":[0,0,0,0,0,0,0,0,0,0,0,0,0,0,0,0,0,0,0,0,0,0,0,0,0,0,0,0,0,0,0,0,0],"id":19,"left_children":[1,3,5,7,-1,9,-1,11,-1,13,15,17,-1,19,21,23,-1,25,-1,27,-1,-1,-1,29,31,-1,-1,-1,-1,-1,-1,-1,-1],"loss_changes":[3.9869972E1,2.2368214E1,3.950222E0,1.6013706E1,0E0,1.9954872E0,0E0,1.1344347E1,0E0,1.6093743E0,8.930588E-1,1.1747349E1,0E0,2.2055676E0,7.9895115E-1,6.2412643E-1,0E0,1.16731415E1,0E0,1.1565033E0,0E0,0E0,0E0,5.0728226E-1,6.7441565E-1,0E0,0E0,0E0,0E0,0E0,0E0,0E0,0E0],"parents":[2147483647,0,0,1,1,2,2,3,3,5,5,7,7,9,9,10,10,11,11,13,13,14,14,15,15,17,17,19,19,23,23,24,24],"right_children":[2,4,6,8,-1,10,-1,12,-1,14,16,18,-1,20,22,24,-1,26,-1,28,-1,-1,-1,30,32,-1,-1,-1,-1,-1,-1,-1,-1],"split_conditions":[1E0,1E0,1E0,1E0,6.3328534E-2,1E0,-1.32591E-2,1E0,7.044141E-2,1E0,1E0,1E0,7.39504E-2,1E0,1E0,1E0,1.5224868E-2,1E0,6.915554E-2,1E0,-3.6872286E-2,5.3471472E-2,4.049E-3,1E0,1E0,-1.7233035E-2,7.575652E-2,4.1361284E-2,-8.041274E-3,6.549836E-2,1.2770216E-2,3.807004E-2,-5.9059313E-3],"split_indices":[44,43,353,54,0,452,0,0,0,758,684,56,0,610,647,665,0,27,0,422,0,0,0,720,640,0,0,0,0,0,0,0,0],"split_type":[0,0,0,0,0,0,0,0,0,0,0,0,0,0,0,0,0,0,0,0,0,0,0,0,0,0,0,0,0,0,0,0,0],"sum_hessian":[2.6494635E2,2.2592465E2,3.9021706E1,2.1612149E2,9.803159E0,3.6858356E1,2.1633494E0,2.1114308E2,4.978404E0,9.918542E0,2.6939816E1,2.0840164E2,2.7414482E0,4.8123574E0,5.1061845E0,2.5005756E1,1.9340584E0,2.0521754E2,3.1841025E0,3.5865517E0,1.225806E0,3.917163E0,1.1890215E0,2.2828289E1,2.1774678E0,2.0275626E2,2.4612737E0,2.1274023E0,1.4591492E0,2.1803398E1,1.0248921E0,1.0741079E0,1.10336E0],"tree_param":{"num_deleted":"0","num_feature":"813","num_nodes":"33","size_leaf_vector":"1"}},{"base_weights":[-4.750313E-3,-1.7177507E-1,9.6670675E-1,-2.4781485E-1,6.276271E-2,1.0554175E0,-3.9987814E-2,-2.8995365E-1,6.847658E-2,1.1065118E0,4.9294704E-3,-3.187545E-1,7.719999E-2,1.1811686E0,2.5064674E-1,-3.4766385E-1,7.519652E-2,1.2444035E0,1.1720698E-3,-8.2329465E-3,3.766026E-2,-1.8739177E-2,7.474818E-2,6.476421E-2,3.85226E-3],"categories":[],"categories_nodes":[],"categories_segments":[],"categories_sizes":[],"default_left":[0,0,0,0,0,0,0,0,0,0,0,0,0,0,0,0,0,0,0,0,0,0,0,0,0],"id":20,"left_children":[1,3,5,7,-1,9,-1,11,-1,13,-1,15,-1,17,19,21,-1,23,-1,-1,-1,-1,-1,-1,-1],"loss_changes":[4.340969E1,2.5080015E1,6.9948006E0,1.5223755E1,0E0,1.7391243E0,0E0,1.1734804E1,0E0,1.9908142E0,0E0,1.1608797E1,0E0,2.361065E0,9.882849E-1,1.0950148E1,0E0,1.7378807E0,0E0,0E0,0E0,0E0,0E0,0E0,0E0],"parents":[2147483647,0,0,1,1,2,2,3,3,5,5,7,7,9,9,11,11,13,13,14,14,15,15,17,17],"right_children":[2,4,6,8,-1,10,-1,12,-1,14,-1,16,-1,18,20,22,-1,24,-1,-1,-1,-1,-1,-1,-1],"split_conditions":[1E0,1E0,1E0,1E0,6.276271E-2,1E0,-3.9987814E-2,1E0,6.847658E-2,1E0,4.9294704E-3,1E0,7.719999E-2,1E0,1E0,1E0,7.519652E-2,1E0,1.1720698E-3,-8.2329465E-3,3.766026E-2,-1.8739177E-2,7.474818E-2,6.476421E-2,3.85226E-3],"split_indices":[44,43,353,54,0,333,0,135,0,543,0,164,0,420,245,5,0,162,0,0,0,0,0,0,0],"split_type":[0,0,0,0,0,0,0,0,0,0,0,0,0,0,0,0,0,0,0,0,0,0,0,0,0],"sum_hessian":[2.655126E2,2.272621E2,3.82505E1,2.1654951E2,1.0712578E1,3.680471E1,1.4457881E0,2.1185063E2,4.698892E0,3.4790474E1,2.0142372E0,2.0938853E2,2.4620957E0,3.1649605E1,3.140868E0,2.0691592E2,2.4726095E0,2.993945E1,1.7101564E0,2.0878572E0,1.0530107E0,2.0469977E2,2.2161546E0,2.8583998E1,1.3554515E0],"tree_param":{"num_deleted":"0","num_feature":"813","num_nodes":"25","size_leaf_vector":"1"}},{"base_weights":[2.3329018E-2,-1.5861972E-1,9.452317E-1,-2.290185E-1,6.117189E-2,3.306882E-1,1.2366856E0,-2.665621E-1,6.534711E-2,-2.3738159E-1,8.9707756E-1,1.288277E0,4.5809028E-1,-3.0127117E-1,7.3145494E-2,-6.3328403E-1,3.5452518E-1,5.165052E-2,3.938993E-3,1.3175144E0,1.56036215E-2,4.010483E-2,-6.389367E-3,-3.3370152E-1,6.644847E-2,-8.836841E-1,6.25031E-3,3.537433E-2,-1.3812224E-2,6.742241E-2,2.4122069E-2,-1.8184865E-2,7.3386066E-2,-5.1483154E-2,-1.4580145E-2],"categories":[],"categories_nodes":[],"categories_segments":[],"categories_sizes":[],"default_left":[0,0,0,0,0,0,0,0,0,0,0,0,0,0,0,0,0,0,0,0,0,0,0,0,0,0,0,0,0,0,0,0,0,0,0],"id":21,"left_children":[1,3,5,7,-1,9,11,13,-1,15,17,19,21,23,-1,25,27,-1,-1,29,-1,-1,-1,31,-1,33,-1,-1,-1,-1,-1,-1,-1,-1,-1],"loss_changes":[4.408103E1,2.1645073E1,7.3489075E0,1.2445881E1,0E0,5.1352463E0,5.753288E-1,1.2783317E1,0E0,2.1996768E0,7.940116E-1,3.4975433E-1,7.786591E-1,1.1144032E1,0E0,1.1375966E0,1.0902698E0,0E0,0E0,1.007843E-2,0E0,0E0,0E0,1.1300194E1,0E0,6.19421E-2,0E0,0E0,0E0,0E0,0E0,0E0,0E0,0E0,0E0],"parents":[2147483647,0,0,1,1,2,2,3,3,5,5,6,6,7,7,9,9,10,10,11,11,12,12,13,13,15,15,16,16,19,19,23,23,25,25],"right_children":[2,4,6,8,-1,10,12,14,-1,16,18,20,22,24,-1,26,28,-1,-1,30,-1,-1,-1,32,-1,34,-1,-1,-1,-1,-1,-1,-1,-1,-1],"split_conditions":[1E0,1E0,1E0,1E0,6.117189E-2,1E0,1E0,1E0,6.534711E-2,1E0,1E0,1E0,1E0,1E0,7.3145494E-2,1E0,1E0,5.165052E-2,3.938993E-3,1E0,1.56036215E-2,4.010483E-2,-6.389367E-3,1E0,6.644847E-2,1E0,6.25031E-3,3.537433E-2,-1.3812224E-2,6.742241E-2,2.4122069E-2,-1.8184865E-2,7.3386066E-2,-5.1483154E-2,-1.4580145E-2],"split_indices":[44,43,452,54,0,298,660,0,0,245,347,348,191,56,0,639,709,0,0,287,0,0,0,27,0,746,0,0,0,0,0,0,0,0,0],"split_type":[0,0,0,0,0,0,0,0,0,0,0,0,0,0,0,0,0,0,0,0,0,0,0,0,0,0,0,0,0,0,0,0,0,0,0],"sum_hessian":[2.6090146E2,2.1858833E2,4.2313133E1,2.0878748E2,9.800855E0,1.4298575E1,2.8014555E1,2.0461258E2,4.1749086E0,7.428711E0,6.869865E0,2.5659676E1,2.3548808E0,2.0139651E2,3.2160594E0,4.409482E0,3.019229E0,5.6662226E0,1.2036426E0,2.457405E1,1.0856245E0,1.2511809E0,1.1036998E0,1.9824808E2,3.1484387E0,3.1905463E0,1.2189357E0,1.857948E0,1.1612809E0,2.310346E1,1.4705896E0,1.9578612E2,2.4619603E0,1.9666158E0,1.2239306E0],"tree_param":{"num_deleted":"0","num_feature":"813","num_nodes":"35","size_leaf_vector":"1"}},{"base_weights":[2.4842508E-2,-1.2944996E-1,8.4167916E-1,-2.0600681E-1,6.080082E-2,9.421126E-1,-3.362217E-1,-2.4047226E-1,6.256004E-2,9.9676156E-1,-2.0350656E-2,-3.553813E-2,5.1786504E-3,-2.7013046E-1,7.556363E-2,1.052681E0,2.5568345E-1,-3.0216667E-1,6.853434E-2,1.0941113E0,-3.2059776E-4,2.3933006E-2,-9.936948E-4,-1.674567E-2,6.447246E-2,5.7389945E-2,1.09085655E-2],"categories":[],"categories_nodes":[],"categories_segments":[],"categories_sizes":[],"default_left":[0,0,0,0,0,0,0,0,0,0,0,0,0,0,0,0,0,0,0,0,0,0,0,0,0,0,0],"id":22,"left_children":[1,3,5,7,-1,9,11,13,-1,15,-1,-1,-1,17,-1,19,21,23,-1,25,-1,-1,-1,-1,-1,-1,-1],"loss_changes":[3.2011383E1,2.2270807E1,5.090248E0,1.050252E1,0E0,3.1663284E0,7.1720684E-1,1.07611E1,0E0,1.2341232E0,0E0,0E0,0E0,1.0759174E1,0E0,1.4729843E0,2.4705073E-1,1.0535477E1,0E0,1.2618637E0,0E0,0E0,0E0,0E0,0E0,0E0,0E0],"parents":[2147483647,0,0,1,1,2,2,3,3,5,5,6,6,7,7,9,9,13,13,15,15,16,16,17,17,19,19],"right_children":[2,4,6,8,-1,10,12,14,-1,16,-1,-1,-1,18,-1,20,22,24,-1,26,-1,-1,-1,-1,-1,-1,-1],"split_conditions":[1E0,1E0,1E0,1E0,6.080082E-2,1E0,1E0,1E0,6.256004E-2,1E0,-2.0350656E-2,-3.553813E-2,5.1786504E-3,1E0,7.556363E-2,1E0,1E0,1E0,6.853434E-2,1E0,-3.2059776E-4,2.3933006E-2,-9.936948E-4,-1.674567E-2,6.447246E-2,5.7389945E-2,1.09085655E-2],"split_indices":[44,43,400,54,0,241,758,5,0,420,0,0,0,0,0,272,544,56,0,347,0,0,0,0,0,0,0],"split_type":[0,0,0,0,0,0,0,0,0,0,0,0,0,0,0,0,0,0,0,0,0,0,0,0,0,0,0],"sum_hessian":[2.5213011E2,2.1277963E2,3.935047E1,2.0212561E2,1.0654031E1,3.6443317E1,2.9071565E0,1.9827113E2,3.8544738E0,3.527559E1,1.1677256E0,1.2373083E0,1.6698482E0,1.9580186E2,2.4692628E0,3.2409595E1,2.8659968E0,1.9285236E2,2.9495113E0,3.115768E1,1.2519132E0,1.1767375E0,1.6892593E0,1.8973816E2,3.1141934E0,2.9065832E1,2.0918489E0],"tree_param":{"num_deleted":"0","num_feature":"813","num_nodes":"27","size_leaf_vector":"1"}},{"base_weights":[1.1963801E-2,5.2784916E-2,-1.2248733E0,-5.100004E-2,3.8982552E-1,-6.578617E-2,-1.6852384E-2,6.940271E-2,-4.5603862E-1,4.596242E-1,-5.6363877E-2,1.3804558E-1,-1.0304766E0,-3.0336955E-1,-6.304421E-2,5.222586E-1,-5.226172E-2,2.028696E-1,-7.7016443E-1,-1.2419249E0,1.1803647E-2,-1.0331723E-1,-9.8156774E-1,3.9319333E-1,1.173444E0,1.3030121E-2,-4.196207E-2,-5.174477E-2,5.4491083E-3,-7.0246644E-2,-6.578439E-3,-1.0625067E-2,5.6756217E-2,-5.5183966E-2,-1.0067562E-2,2.2269433E-2,-4.5688976E-2,6.7316584E-2,1.636939E-2],"categories":[],"categories_nodes":[],"categories_segments":[],"categories_sizes":[],"default_left":[0,0,0,0,0,0,0,0,0,0,0,0,0,0,0,0,0,0,0,0,0,0,0,0,0,0,0,0,0,0,0,0,0,0,0,0,0,0,0],"id":23,"left_children":[1,3,5,7,9,-1,-1,11,13,15,-1,17,19,21,-1,23,-1,25,27,29,-1,31,33,35,37,-1,-1,-1,-1,-1,-1,-1,-1,-1,-1,-1,-1,-1,-1],"loss_changes":[1.3313124E1,8.938934E0,2.3609543E-1,9.581925E0,6.8870783E0,0E0,0E0,1.1604915E1,5.1476183E0,6.032591E0,0E0,8.621635E0,2.7133493E0,5.2098684E0,0E0,4.2915125E0,0E0,8.340904E0,2.3907657E0,1.2457104E0,0E0,4.479977E0,6.161289E-1,3.7292671E0,8.5381985E-1,0E0,0E0,0E0,0E0,0E0,0E0,0E0,0E0,0E0,0E0,0E0,0E0,0E0,0E0],"parents":[2147483647,0,0,1,1,2,2,3,3,4,4,7,7,8,8,9,9,11,11,12,12,13,13,15,15,17,17,18,18,19,19,21,21,22,22,23,23,24,24],"right_children":[2,4,6,8,10,-1,-1,12,14,16,-1,18,20,22,-1,24,-1,26,28,30,-1,32,34,36,38,-1,-1,-1,-1,-1,-1,-1,-1,-1,-1,-1,-1,-1,-1],"split_conditions":[1E0,1E0,1E0,1E0,1E0,-6.578617E-2,-1.6852384E-2,1E0,1E0,1E0,-5.6363877E-2,1E0,1E0,1E0,-6.304421E-2,1E0,-5.226172E-2,1E0,1E0,1E0,1.1803647E-2,1E0,1E0,1E0,1E0,1.3030121E-2,-4.196207E-2,-5.174477E-2,5.4491083E-3,-7.0246644E-2,-6.578439E-3,-1.0625067E-2,5.6756217E-2,-5.5183966E-2,-1.0067562E-2,2.2269433E-2,-4.5688976E-2,6.7316584E-2,1.636939E-2],"split_indices":[46,277,328,437,2,0,0,619,704,673,0,62,400,688,0,115,0,213,700,778,0,213,601,205,697,0,0,0,0,0,0,0,0,0,0,0,0,0,0],"split_type":[0,0,0,0,0,0,0,0,0,0,0,0,0,0,0,0,0,0,0,0,0,0,0,0,0,0,0,0,0,0,0,0,0,0,0,0,0,0,0],"sum_hessian":[2.614027E2,2.5397763E2,7.425066E0,1.9483176E2,5.914588E1,6.2985797E0,1.1264862E0,1.5082562E2,4.4006138E1,5.7210773E1,1.935108E0,1.4278874E2,8.036878E0,3.8147053E1,5.859086E0,5.555159E1,1.6591855E0,1.3400096E2,8.78777E0,6.9037504E0,1.1331272E0,3.034758E1,7.7994723E0,4.7701035E1,7.8505545E0,1.27677574E2,6.323392E0,6.617831E0,2.1699386E0,5.788638E0,1.1151123E0,2.8650124E1,1.6974547E0,6.3854976E0,1.4139745E0,4.6503105E1,1.1979283E0,6.0275507E0,1.823004E0],"tree_param":{"num_deleted":"0","num_feature":"813","num_nodes":"39","size_leaf_vector":"1"}},{"base_weights":[1.07756145E-2,-1.4572002E-1,8.6824113E-1,-1.03675604E-1,-6.321172E-2,9.819248E-1,-2.795978E-1,1.1273926E-2,-4.9454358E-1,1.0177773E0,6.852199E-5,-4.242736E-2,2.4121104E-2,5.021134E-2,-1.0652766E0,-2.3319653E-1,-9.568197E-1,1.0530924E0,-6.434948E-5,2.1957215E-2,7.065308E-2,-6.506135E-2,-1.0288528E-2,-3.3355463E-1,6.3102484E-2,-1.0807765E0,2.434226E-3,1.124876E0,3.1939602E-1,3.374707E-3,-3.6332086E-2,-2.1361805E-2,2.7436698E-2,-6.0727205E-2,6.0410867E-3,5.8710385E-2,7.1894415E-3,-1.248195E-2,4.1644234E-2],"categories":[],"categories_nodes":[],"categories_segments":[],"categories_sizes":[],"default_left":[0,0,0,0,0,0,0,0,0,0,0,0,0,0,0,0,0,0,0,0,0,0,0,0,0,0,0,0,0,0,0,0,0,0,0,0,0,0,0],"id":24,"left_children":[1,3,5,7,-1,9,11,13,15,17,-1,-1,-1,19,21,23,25,27,-1,29,-1,-1,-1,31,-1,33,-1,35,37,-1,-1,-1,-1,-1,-1,-1,-1,-1,-1],"loss_changes":[3.4642017E1,1.01383705E1,5.4735985E0,9.510544E0,0E0,1.2808456E0,2.30346E0,6.947006E0,5.587824E0,1.2676315E0,0E0,0E0,0E0,6.1171207E0,9.0553045E-1,5.230243E0,2.1775942E0,1.4318504E0,0E0,5.4159827E0,0E0,0E0,0E0,2.7821884E0,0E0,2.5933018E0,0E0,1.311245E0,1.5015544E0,0E0,0E0,0E0,0E0,0E0,0E0,0E0,0E0,0E0,0E0],"parents":[2147483647,0,0,1,1,2,2,3,3,5,5,6,6,7,7,8,8,9,9,13,13,14,14,15,15,16,16,17,17,19,19,23,23,25,25,27,27,28,28],"right_children":[2,4,6,8,-1,10,12,14,16,18,-1,-1,-1,20,22,24,26,28,-1,30,-1,-1,-1,32,-1,34,-1,36,38,-1,-1,-1,-1,-1,-1,-1,-1,-1,-1],"split_conditions":[1E0,1E0,1E0,1E0,-6.321172E-2,1E0,1E0,1E0,1E0,1E0,6.852199E-5,-4.242736E-2,2.4121104E-2,1E0,1E0,1E0,1E0,1E0,-6.434948E-5,1E0,7.065308E-2,-6.506135E-2,-1.0288528E-2,1E0,6.3102484E-2,1E0,2.434226E-3,1E0,1E0,3.374707E-3,-3.6332086E-2,-2.1361805E-2,2.7436698E-2,-6.0727205E-2,6.0410867E-3,5.8710385E-2,7.1894415E-3,-1.248195E-2,4.1644234E-2],"split_indices":[44,161,343,437,0,584,380,133,741,382,0,0,0,5,248,21,637,616,0,619,0,0,0,561,0,385,0,193,432,0,0,0,0,0,0,0,0,0,0],"split_type":[0,0,0,0,0,0,0,0,0,0,0,0,0,0,0,0,0,0,0,0,0,0,0,0,0,0,0,0,0,0,0,0,0,0,0,0,0,0,0],"sum_hessian":[2.562144E2,2.1737196E2,3.8842403E1,2.1055019E2,6.82179E0,3.547359E1,3.3688118E0,1.6345207E2,4.7098114E1,3.418568E1,1.2879096E0,1.8637352E0,1.5050766E0,1.5866666E2,4.785405E0,3.1049042E1,1.604907E1,3.3008404E1,1.1772776E0,1.5643953E2,2.227137E0,3.351446E0,1.4339595E0,2.982422E1,1.2248216E0,1.4221065E1,1.8280067E0,2.9581078E1,3.427326E0,1.4832672E2,8.112806E0,2.7427708E1,2.3965137E0,1.2786802E1,1.4342622E0,2.7977453E1,1.6036245E0,1.8694674E0,1.5578585E0],"tree_param":{"num_deleted":"0","num_feature":"813","num_nodes":"39","size_leaf_vector":"1"}},{"base_weights":[4.727126E-2,-7.9588816E-2,7.488785E-1,-1.4420648E-1,5.9226554E-2,3.9872825E-1,1.1133413E0,-1.8255799E-1,6.374085E-2,-3.971665E-1,7.1213144E-1,1.196155E0,1.5876602E-2,-2.0805745E-1,7.4201055E-2,-6.377985E-1,1.1100286E-2,8.5430914E-1,-9.705181E-3,6.193508E-2,1.7563438E-2,-2.3663856E-1,6.634987E-2,-9.2955685E-1,-7.6328404E-5,9.7063196E-1,4.944399E-3,-1.4715604E-2,2.9154157E-2,-6.2717095E-2,-5.1200883E-3,5.3285725E-2,1.0029956E-2],"categories":[],"categories_nodes":[],"categories_segments":[],"categories_sizes":[],"default_left":[0,0,0,0,0,0,0,0,0,0,0,0,0,0,0,0,0,0,0,0,0,0,0,0,0,0,0,0,0,0,0,0,0],"id":25,"left_children":[1,3,5,7,-1,9,11,13,-1,15,17,19,-1,21,-1,23,-1,25,-1,-1,-1,27,-1,29,-1,31,-1,-1,-1,-1,-1,-1,-1],"loss_changes":[2.3188797E1,1.8220932E1,4.64641E0,1.1722174E1,0E0,5.7457886E0,8.7146187E-1,9.08173E0,0E0,1.159153E0,2.236597E0,1.7006683E-1,0E0,9.27318E0,0E0,9.5951724E-1,0E0,1.1410246E0,0E0,0E0,0E0,9.6892605E0,0E0,8.24548E-1,0E0,6.71072E-1,0E0,0E0,0E0,0E0,0E0,0E0,0E0],"parents":[2147483647,0,0,1,1,2,2,3,3,5,5,6,6,7,7,9,9,10,10,11,11,13,13,15,15,17,17,21,21,23,23,25,25],"right_children":[2,4,6,8,-1,10,12,14,-1,16,18,20,-1,22,-1,24,-1,26,-1,-1,-1,28,-1,30,-1,32,-1,-1,-1,-1,-1,-1,-1],"split_conditions":[1E0,1E0,1E0,1E0,5.9226554E-2,1E0,1E0,1E0,6.374085E-2,1E0,1E0,1E0,1.5876602E-2,1E0,7.4201055E-2,1E0,1.1100286E-2,1E0,-9.705181E-3,6.193508E-2,1.7563438E-2,1E0,6.634987E-2,1E0,-7.6328404E-5,1E0,4.944399E-3,-1.4715604E-2,2.9154157E-2,-6.2717095E-2,-5.1200883E-3,5.3285725E-2,1.0029956E-2],"split_indices":[44,43,432,54,0,544,684,177,0,357,677,292,0,169,0,437,0,190,0,0,0,224,0,572,0,664,0,0,0,0,0,0,0],"split_type":[0,0,0,0,0,0,0,0,0,0,0,0,0,0,0,0,0,0,0,0,0,0,0,0,0,0,0,0,0,0,0,0,0],"sum_hessian":[2.5886124E2,2.199736E2,3.888764E1,2.1011894E2,9.854669E0,2.0901228E1,1.7986412E1,2.0543797E2,4.680957E0,5.829587E0,1.5071641E1,1.5835472E1,2.1509404E0,2.0320403E2,2.2339609E0,4.176407E0,1.6531802E0,1.307727E1,1.9943718E0,1.4632495E1,1.2029772E0,2.0032011E2,2.8839073E0,2.5473795E0,1.6290274E0,1.1085405E1,1.9918642E0,1.8775137E2,1.2568739E1,1.4583147E0,1.0890648E0,9.525255E0,1.5601498E0],"tree_param":{"num_deleted":"0","num_feature":"813","num_nodes":"33","size_leaf_vector":"1"}},{"base_weights":[1.5565639E-2,-1.3554633E-1,8.562177E-1,-1.9553758E-1,5.7570655E-2,9.2256457E-1,-3.217804E-2,-1.3401143E-1,-9.986725E-1,9.7911096E-1,-2.2544881E-2,-1.8024279E-1,7.07135E-2,-1.1054652E0,6.953647E-3,1.0648551E0,1.6680118E-1,-2.1116902E-1,6.405943E-2,-3.5651064E-1,-6.3985646E-2,6.638395E-1,1.2272054E0,-4.4925424E-1,4.424326E-2,-1.19836945E-2,6.272747E-2,-3.9433375E-2,4.9504037E-3,4.0809523E-2,-1.2531976E-2,6.301575E-2,1.47757605E-2,-5.763704E-3,-2.8432263E-2],"categories":[],"categories_nodes":[],"categories_segments":[],"categories_sizes":[],"default_left":[0,0,0,0,0,0,0,0,0,0,0,0,0,0,0,0,0,0,0,0,0,0,0,0,0,0,0,0,0,0,0,0,0,0,0],"id":26,"left_children":[1,3,5,7,-1,9,-1,11,13,15,-1,17,-1,19,-1,21,23,25,-1,27,-1,29,31,33,-1,-1,-1,-1,-1,-1,-1,-1,-1,-1,-1],"loss_changes":[3.1915287E1,1.6673618E1,4.4025726E0,9.966931E0,0E0,3.3202648E0,0E0,1.3928073E1,1.902194E0,2.3239975E0,0E0,8.693832E0,0E0,1.2751808E0,0E0,1.2883224E0,2.4390416E0,7.961751E0,0E0,8.439009E-1,0E0,1.8049583E0,3.0049896E-1,5.9941173E-2,0E0,0E0,0E0,0E0,0E0,0E0,0E0,0E0,0E0,0E0,0E0],"parents":[2147483647,0,0,1,1,2,2,3,3,5,5,7,7,8,8,9,9,11,11,13,13,15,15,16,16,17,17,19,19,21,21,22,22,23,23],"right_children":[2,4,6,8,-1,10,-1,12,14,16,-1,18,-1,20,-1,22,24,26,-1,28,-1,30,32,34,-1,-1,-1,-1,-1,-1,-1,-1,-1,-1,-1],"split_conditions":[1E0,1E0,1E0,1E0,5.7570655E-2,1E0,-3.217804E-2,1E0,1E0,1E0,-2.2544881E-2,1E0,7.07135E-2,1E0,6.953647E-3,1E0,1E0,1E0,6.405943E-2,1E0,-6.3985646E-2,1E0,1E0,1E0,4.424326E-2,-1.19836945E-2,6.272747E-2,-3.9433375E-2,4.9504037E-3,4.0809523E-2,-1.2531976E-2,6.301575E-2,1.47757605E-2,-5.763704E-3,-2.8432263E-2],"split_indices":[44,43,353,168,0,270,0,516,256,543,0,127,0,774,0,452,572,53,0,231,0,557,292,746,0,0,0,0,0,0,0,0,0,0,0],"split_type":[0,0,0,0,0,0,0,0,0,0,0,0,0,0,0,0,0,0,0,0,0,0,0,0,0,0,0,0,0,0,0,0,0,0,0],"sum_hessian":[2.4932341E2,2.1204575E2,3.7277664E1,2.0341182E2,8.633923E0,3.6067005E1,1.2106587E0,1.900216E2,1.3390217E1,3.4916588E1,1.1504174E0,1.8537007E2,4.6515255E0,1.2267152E1,1.123065E0,3.1301617E1,3.6149712E0,1.8236642E2,3.0036607E0,2.890246E0,9.376905E0,1.0486999E1,2.081462E1,2.147177E0,1.4677942E0,1.79708E2,2.6584277E0,1.107851E0,1.782395E0,9.0815115E0,1.4054874E0,1.9759695E1,1.0549238E0,1.083039E0,1.0641378E0],"tree_param":{"num_deleted":"0","num_feature":"813","num_nodes":"35","size_leaf_vector":"1"}},{"base_weights":[-4.790944E-3,-1.2724206E-1,7.219882E-1,-1.614624E-1,6.1582077E-2,8.334818E-1,-7.049263E-2,-1.9022717E-1,6.3947365E-2,9.109452E-1,-1.883026E-2,-6.2301576E-1,4.3357264E-2,-2.184083E-1,6.732399E-2,1.0163302E0,-1.6417213E-1,-4.542632E-2,-1.5065306E-3,-2.4485442E-1,7.292986E-2,1.0707272E0,-1.05935475E-2,-1.308571E-2,1.1499212E-3,-1.4986898E-2,2.3322668E-2,5.647948E-2,-6.6918135E-3],"categories":[],"categories_nodes":[],"categories_segments":[],"categories_sizes":[],"default_left":[0,0,0,0,0,0,0,0,0,0,0,0,0,0,0,0,0,0,0,0,0,0,0,0,0,0,0,0,0],"id":27,"left_children":[1,3,5,7,-1,9,11,13,-1,15,-1,17,-1,19,-1,21,23,-1,-1,25,-1,27,-1,-1,-1,-1,-1,-1,-1],"loss_changes":[2.2727081E1,1.0360319E1,3.3123703E0,9.111429E0,0E0,3.3764057E0,3.3708305E0,9.419358E0,0E0,3.645832E0,0E0,6.5307844E-1,0E0,9.572299E0,0E0,2.1044674E0,7.17818E-2,0E0,0E0,8.158897E0,0E0,2.0710182E0,0E0,0E0,0E0,0E0,0E0,0E0,0E0],"parents":[2147483647,0,0,1,1,2,2,3,3,5,5,6,6,7,7,9,9,11,11,13,13,15,15,16,16,19,19,21,21],"right_children":[2,4,6,8,-1,10,12,14,-1,16,-1,18,-1,20,-1,22,24,-1,-1,26,-1,28,-1,-1,-1,-1,-1,-1,-1],"split_conditions":[1E0,1E0,1E0,1E0,6.1582077E-2,1E0,1E0,1E0,6.3947365E-2,1E0,-1.883026E-2,1E0,4.3357264E-2,1E0,6.732399E-2,1E0,1E0,-4.542632E-2,-1.5065306E-3,1E0,7.292986E-2,1E0,-1.05935475E-2,-1.308571E-2,1.1499212E-3,-1.4986898E-2,2.3322668E-2,5.647948E-2,-6.6918135E-3],"split_indices":[44,144,543,53,0,382,572,0,0,587,0,452,0,135,0,584,437,0,0,191,0,333,0,0,0,0,0,0,0],"split_type":[0,0,0,0,0,0,0,0,0,0,0,0,0,0,0,0,0,0,0,0,0,0,0,0,0,0,0,0,0],"sum_hessian":[2.5334277E2,2.1751907E2,3.58237E1,2.1303545E2,4.4836245E0,3.1359953E1,4.4637475E0,2.0971541E2,3.320049E0,2.9705564E1,1.6543876E0,3.0198085E0,1.443939E0,2.0678119E2,2.9342175E0,2.7103508E1,2.6020572E0,1.6789227E0,1.3408858E0,2.0441164E2,2.3695467E0,2.6076782E1,1.0267256E0,1.4487761E0,1.1532811E0,1.9030646E2,1.4105178E1,2.492122E1,1.1555607E0],"tree_param":{"num_deleted":"0","num_feature":"813","num_nodes":"29","size_leaf_vector":"1"}},{"base_weights":[2.685963E-2,-2.2443844E-2,5.7470866E-2,9.095476E-2,-4.0900993E-1,1.3474314E-1,-5.1752444E-2,-2.4981225E-1,-1.0391203E0,1.8138939E-1,-6.5770876E-1,-6.1036285E-2,-1.0953859E0,-1.1358968E0,-1.578191E-2,2.6217923E-1,-3.2742694E-1,-9.744197E-1,1.7635804E-1,4.054326E-2,-5.5618025E-2,-5.9632458E-2,-1.4289418E-2,-6.29076E-2,-2.1300796E-2,1.7194808E-2,-1.5807755E-2,-2.217313E-2,3.4131743E-2,-8.471034E-3,-5.803598E-2,2.3997527E-2,-8.395994E-3,7.0689316E-3,-4.4294268E-2],"categories":[],"categories_nodes":[],"categories_segments":[],"categories_sizes":[],"default_left":[0,0,0,0,0,0,0,0,0,0,0,0,0,0,0,0,0,0,0,0,0,0,0,0,0,0,0,0,0,0,0,0,0,0,0],"id":28,"left_children":[1,3,-1,5,7,9,-1,11,13,15,17,19,21,23,-1,25,27,29,31,33,-1,-1,-1,-1,-1,-1,-1,-1,-1,-1,-1,-1,-1,-1,-1],"loss_changes":[1.36581545E1,1.0423249E1,0E0,9.212177E0,5.14931E0,6.6992626E0,0E0,7.014339E0,3.8075924E-1,7.0286007E0,2.8429265E0,4.031087E0,2.9204464E-1,2.388668E-1,0E0,7.023141E0,3.0672052E0,9.2544174E-1,4.5996273E-1,3.394897E0,0E0,0E0,0E0,0E0,0E0,0E0,0E0,0E0,0E0,0E0,0E0,0E0,0E0,0E0,0E0],"parents":[2147483647,0,0,1,1,3,3,4,4,5,5,7,7,8,8,9,9,10,10,11,11,12,12,13,13,15,15,16,16,17,17,18,18,19,19],"right_children":[2,4,-1,6,8,10,-1,12,14,16,18,20,22,24,-1,26,28,30,32,34,-1,-1,-1,-1,-1,-1,-1,-1,-1,-1,-1,-1,-1,-1,-1],"split_conditions":[1E0,1E0,5.7470866E-2,1E0,1E0,1E0,-5.1752444E-2,1E0,1E0,1E0,1E0,1E0,1E0,1E0,-1.578191E-2,1E0,1E0,1E0,1E0,1E0,-5.5618025E-2,-5.9632458E-2,-1.4289418E-2,-6.29076E-2,-2.1300796E-2,1.7194808E-2,-1.5807755E-2,-2.217313E-2,3.4131743E-2,-8.471034E-3,-5.803598E-2,2.3997527E-2,-8.395994E-3,7.0689316E-3,-4.4294268E-2],"split_indices":[43,437,0,161,688,62,0,704,684,359,666,600,277,420,0,223,778,544,244,304,0,0,0,0,0,0,0,0,0,0,0,0,0,0,0],"split_type":[0,0,0,0,0,0,0,0,0,0,0,0,0,0,0,0,0,0,0,0,0,0,0,0,0,0,0,0,0,0,0,0,0,0,0],"sum_hessian":[2.4531154E2,2.3592937E2,9.382167E0,1.8300874E2,5.292064E1,1.7700562E2,6.0031157E0,4.3361732E1,9.558904E0,1.6789395E2,9.1116705E0,3.632442E1,7.0373135E0,7.92833E0,1.6305735E0,1.4530685E2,2.2587091E1,6.4820414E0,2.629629E0,3.400069E1,2.32373E0,5.8601503E0,1.1771632E0,6.104651E0,1.8236793E0,1.27672485E2,1.763437E1,2.076282E1,1.8242726E0,1.5770468E0,4.9049945E0,1.18797E0,1.441659E0,3.1427425E1,2.5732646E0],"tree_param":{"num_deleted":"0","num_feature":"813","num_nodes":"35","size_leaf_vector":"1"}},{"base_weights":[4.085098E-2,-9.431131E-2,8.4935427E-1,-1.4762166E-1,5.5735707E-2,9.355973E-1,-2.4315873E-1,-8.7236255E-2,-9.648309E-1,1.0109661E0,-1.0787388E-2,-1.8082669E-2,-1.274843E-3,-1.2885393E-1,6.108555E-2,2.6652101E-2,-1.140231E0,1.0845629E0,2.1983592E-1,-8.450382E-2,-5.988271E-2,-1.253629E0,-9.867342E-3,1.1754346E0,4.8034567E-1,-8.81733E-3,2.61481E-2,-5.9448374E-3,5.9405286E-2,-6.664238E-2,-1.1807262E-2,6.1918873E-2,2.133689E-2,-1.3200471E-2,4.6120815E-2],"categories":[],"categories_nodes":[],"categories_segments":[],"categories_sizes":[],"default_left":[0,0,0,0,0,0,0,0,0,0,0,0,0,0,0,0,0,0,0,0,0,0,0,0,0,0,0,0,0,0,0,0,0,0,0],"id":29,"left_children":[1,3,5,7,-1,9,11,13,15,17,-1,-1,-1,19,-1,-1,21,23,25,27,-1,29,-1,31,33,-1,-1,-1,-1,-1,-1,-1,-1,-1,-1],"loss_changes":[2.7283678E1,1.3969295E1,3.5964336E0,1.00823555E1,0E0,3.1116982E0,7.8722194E-2,1.066804E1,4.3060207E0,1.5940628E0,0E0,0E0,0E0,8.805602E0,0E0,0E0,1.1339531E0,1.0024033E0,5.645336E-1,8.08491E0,0E0,5.997448E-1,0E0,6.0809326E-1,2.0277395E0,0E0,0E0,0E0,0E0,0E0,0E0,0E0,0E0,0E0,0E0],"parents":[2147483647,0,0,1,1,2,2,3,3,5,5,6,6,7,7,8,8,9,9,13,13,16,16,17,17,18,18,19,19,21,21,23,23,24,24],"right_children":[2,4,6,8,-1,10,12,14,16,18,-1,-1,-1,20,-1,-1,22,24,26,28,-1,30,-1,32,34,-1,-1,-1,-1,-1,-1,-1,-1,-1,-1],"split_conditions":[1E0,1E0,1E0,1E0,5.5735707E-2,1E0,1E0,1E0,1E0,1E0,-1.0787388E-2,-1.8082669E-2,-1.274843E-3,1E0,6.108555E-2,2.6652101E-2,1E0,1E0,1E0,1E0,-5.988271E-2,1E0,-9.867342E-3,1E0,1E0,-8.81733E-3,2.61481E-2,-5.9448374E-3,5.9405286E-2,-6.664238E-2,-1.1807262E-2,6.1918873E-2,2.133689E-2,-1.3200471E-2,4.6120815E-2],"split_indices":[44,43,343,168,0,382,417,516,786,347,0,0,0,161,0,0,347,677,610,54,0,660,0,647,432,0,0,0,0,0,0,0,0,0,0],"split_type":[0,0,0,0,0,0,0,0,0,0,0,0,0,0,0,0,0,0,0,0,0,0,0,0,0,0,0,0,0,0,0,0,0,0,0],"sum_hessian":[2.4793654E2,2.1318114E2,3.47554E1,2.05019E2,8.162136E0,3.234566E1,2.409741E0,1.9194267E2,1.3076322E1,3.0472794E1,1.8728693E0,1.1319647E0,1.2777764E0,1.8690173E2,5.040939E0,1.1569818E0,1.191934E1,2.7539925E1,2.9328692E0,1.8049127E2,6.410463E0,1.0345542E1,1.5737978E0,2.3117733E1,4.4221916E0,1.4525899E0,1.4802793E0,1.7662448E2,3.866795E0,9.310692E0,1.0348502E0,2.072162E1,2.3961117E0,1.7978219E0,2.6243696E0],"tree_param":{"num_deleted":"0","num_feature":"813","num_nodes":"35","size_leaf_vector":"1"}},{"base_weights":[5.9179417E-3,-4.795456E-2,8.535337E-1,5.003945E-3,-7.573459E-1,1.029602E0,-1.0184456E-2,-3.0601848E-2,1.1834166E0,-9.085847E-1,2.9677035E-2,1.1652886E0,-1.1242391E-2,5.717005E-3,-1.04446E0,2.0802261E-2,6.903917E-2,-1.1385458E0,-1.1757472E-1,1.7325317E-2,-1.8514115E-2,1.2983153E0,1.0752897E-2,4.0843803E-2,-5.4839056E-2,-5.847786E-2,-2.1122906E-2,-1.2116362E0,-1.2218501E-2,-3.9290927E-2,3.809091E-2,6.864404E-2,1.696653E-2,-2.3886226E-2,6.1332765E-3,-6.476628E-2,-1.4099735E-2],"categories":[],"categories_nodes":[],"categories_segments":[],"categories_sizes":[],"default_left":[0,0,0,0,0,0,0,0,0,0,0,0,0,0,0,0,0,0,0,0,0,0,0,0,0,0,0,0,0,0,0,0,0,0,0,0,0],"id":30,"left_children":[1,3,5,7,9,11,-1,13,15,17,19,21,-1,23,25,-1,-1,27,29,-1,-1,31,-1,33,-1,-1,-1,35,-1,-1,-1,-1,-1,-1,-1,-1,-1],"loss_changes":[1.14140415E1,8.837152E0,2.9901829E0,9.258137E0,1.9719248E0,2.4696417E0,0E0,7.897565E0,4.056387E-1,2.3651047E0,5.847807E-1,1.2206821E0,0E0,8.096153E0,8.3052635E-2,0E0,0E0,3.9201355E-1,3.072348E0,0E0,0E0,2.6423073E-1,0E0,8.648323E0,0E0,0E0,0E0,3.7230682E-1,0E0,0E0,0E0,0E0,0E0,0E0,0E0,0E0,0E0],"parents":[2147483647,0,0,1,1,2,2,3,3,4,4,5,5,7,7,8,8,9,9,10,10,11,11,13,13,14,14,17,17,18,18,21,21,23,23,27,27],"right_children":[2,4,6,8,10,12,-1,14,16,18,20,22,-1,24,26,-1,-1,28,30,-1,-1,32,-1,34,-1,-1,-1,36,-1,-1,-1,-1,-1,-1,-1,-1,-1],"split_conditions":[1E0,1E0,1E0,1E0,1E0,1E0,-1.0184456E-2,1E0,1E0,1E0,1E0,1E0,-1.1242391E-2,1E0,1E0,2.0802261E-2,6.903917E-2,1E0,1E0,1.7325317E-2,-1.8514115E-2,1E0,1.0752897E-2,1E0,-5.4839056E-2,-5.847786E-2,-2.1122906E-2,1E0,-1.2218501E-2,-3.9290927E-2,3.809091E-2,6.864404E-2,1.696653E-2,-2.3886226E-2,6.1332765E-3,-6.476628E-2,-1.4099735E-2],"split_indices":[136,168,287,516,724,619,0,161,758,432,689,314,0,46,432,0,0,723,758,0,0,742,0,203,0,0,0,659,0,0,0,0,0,0,0,0,0],"split_type":[0,0,0,0,0,0,0,0,0,0,0,0,0,0,0,0,0,0,0,0,0,0,0,0,0,0,0,0,0,0,0,0,0,0,0,0,0],"sum_hessian":[2.4806522E2,2.34128E2,1.3937212E1,2.1878769E2,1.5340307E1,1.1969889E1,1.9673228E0,2.1331636E2,5.4713326E0,1.2738036E1,2.6022708E0,1.0865687E1,1.1042018E0,2.068991E2,6.417265E0,1.7551619E0,3.7161705E0,9.528555E0,3.2094822E0,1.5266082E0,1.0756626E0,9.210022E0,1.6556654E0,2.0144383E2,5.455268E0,4.6098247E0,1.8074405E0,8.480336E0,1.0482179E0,1.884144E0,1.3253381E0,8.145104E0,1.0649174E0,2.6793545E1,1.7465028E2,7.4190845E0,1.061252E0],"tree_param":{"num_deleted":"0","num_feature":"813","num_nodes":"37","size_leaf_vector":"1"}},{"base_weights":[3.9263614E-2,-7.874426E-3,7.3709834E-1,-3.5599034E-2,6.334074E-2,8.8922286E-1,-2.9215371E-2,-5.8069825E-2,6.89329E-2,1.1834764E0,-1.5970396E-1,-8.2018085E-2,6.3515745E-2,1.3548771E0,-8.857151E-3,-3.6850743E-2,3.1292167E-2,-5.4315105E-2,-6.477039E-2,7.189068E-2,1.6389212E-2,-5.3522736E-3,2.8115211E-2],"categories":[],"categories_nodes":[],"categories_segments":[],"categories_sizes":[],"default_left":[0,0,0,0,0,0,0,0,0,0,0,0,0,0,0,0,0,0,0,0,0,0,0],"id":31,"left_children":[1,3,5,7,-1,9,-1,11,-1,13,15,17,-1,19,-1,-1,-1,21,-1,-1,-1,-1,-1],"loss_changes":[8.236466E0,8.363158E0,3.7042713E0,7.4316998E0,0E0,4.696456E0,0E0,7.3788958E0,0E0,2.9273872E0,2.3117266E0,7.511874E0,0E0,4.1033745E-1,0E0,0E0,0E0,7.2645454E0,0E0,0E0,0E0,0E0,0E0],"parents":[2147483647,0,0,1,1,2,2,3,3,5,5,7,7,9,9,10,10,11,11,13,13,17,17],"right_children":[2,4,6,8,-1,10,-1,12,-1,14,16,18,-1,20,-1,-1,-1,22,-1,-1,-1,-1,-1],"split_conditions":[1E0,1E0,1E0,1E0,6.334074E-2,1E0,-2.9215371E-2,1E0,6.89329E-2,1E0,1E0,1E0,6.3515745E-2,1E0,-8.857151E-3,-3.6850743E-2,3.1292167E-2,1E0,-6.477039E-2,7.189068E-2,1.6389212E-2,-5.3522736E-3,2.8115211E-2],"split_indices":[136,590,391,177,0,572,0,53,0,600,432,125,0,335,0,0,0,191,0,0,0,0,0],"split_type":[0,0,0,0,0,0,0,0,0,0,0,0,0,0,0,0,0,0,0,0,0,0,0],"sum_hessian":[2.4921349E2,2.343707E2,1.4842792E1,2.3033301E2,4.0376925E0,1.3603746E1,1.2390449E0,2.2767448E2,2.658526E0,1.0523372E1,3.0803757E0,2.2456427E2,3.1102116E0,9.349776E0,1.173595E0,1.8111298E0,1.2692457E0,2.2057312E2,3.9911568E0,8.281193E0,1.0685836E0,2.03958E2,1.6615124E1],"tree_param":{"num_deleted":"0","num_feature":"813","num_nodes":"23","size_leaf_vector":"1"}},{"base_weights":[2.7104273E-2,-8.712189E-2,7.142981E-1,-1.4344358E-1,5.5413652E-2,7.833541E-1,-3.109244E-2,-1.7540373E-1,6.7153044E-2,2.4353614E-1,9.540077E-1,-2.3188873E-1,6.935944E-1,4.3251577E-1,-3.150091E-2,1.0109558E0,-6.0056583E-3,-2.5559884E-1,6.765225E-2,9.1588295E-1,-2.979376E-2,-1.2347314E-1,4.9404792E-2,1.0663483E0,2.1155549E-3,-1.4126432E-2,5.977409E-2,5.8256306E-2,-1.47487065E-2,1.1567441E-2,-3.4921464E-2,5.6337982E-2,6.321691E-3],"categories":[],"categories_nodes":[],"categories_segments":[],"categories_sizes":[],"default_left":[0,0,0,0,0,0,0,0,0,0,0,0,0,0,0,0,0,0,0,0,0,0,0,0,0,0,0,0,0,0,0,0,0],"id":32,"left_children":[1,3,5,7,-1,9,-1,11,-1,13,15,17,19,21,-1,23,-1,25,-1,27,-1,29,-1,31,-1,-1,-1,-1,-1,-1,-1,-1,-1],"loss_changes":[1.9292204E1,1.4361933E1,3.7189312E0,9.848967E0,0E0,2.8765163E0,0E0,9.927584E0,0E0,1.8323323E0,1.6689072E0,7.394905E0,4.0984645E0,2.7047386E0,0E0,1.2496395E0,0E0,7.592716E0,0E0,3.6532726E0,0E0,1.195482E0,0E0,1.1512623E0,0E0,0E0,0E0,0E0,0E0,0E0,0E0,0E0,0E0],"parents":[2147483647,0,0,1,1,2,2,3,3,5,5,7,7,9,9,10,10,11,11,12,12,13,13,15,15,17,17,19,19,21,21,23,23],"right_children":[2,4,6,8,-1,10,-1,12,-1,14,16,18,20,22,-1,24,-1,26,-1,28,-1,30,-1,32,-1,-1,-1,-1,-1,-1,-1,-1,-1],"split_conditions":[1E0,1E0,1E0,1E0,5.5413652E-2,1E0,-3.109244E-2,1E0,6.7153044E-2,1E0,1E0,1E0,1E0,1E0,-3.150091E-2,1E0,-6.0056583E-3,1E0,6.765225E-2,1E0,-2.979376E-2,1E0,4.9404792E-2,1E0,2.1155549E-3,-1.4126432E-2,5.977409E-2,5.8256306E-2,-1.47487065E-2,1.1567441E-2,-3.4921464E-2,5.6337982E-2,6.321691E-3],"split_indices":[44,43,581,0,0,544,0,313,0,359,193,164,190,452,0,788,0,169,0,684,0,647,0,659,0,0,0,0,0,0,0,0,0],"split_type":[0,0,0,0,0,0,0,0,0,0,0,0,0,0,0,0,0,0,0,0,0,0,0,0,0,0,0,0,0,0,0,0,0],"sum_hessian":[2.4398183E2,2.0995592E2,3.4025898E1,2.0134924E2,8.606678E0,3.274715E1,1.2787471E0,1.9797475E2,3.3744946E0,8.448765E0,2.4298386E1,1.8658017E2,1.1394583E1,7.361171E0,1.087594E0,2.3130833E1,1.1675521E0,1.846565E2,1.9236724E0,9.966247E0,1.4283359E0,4.067968E0,3.2932029E0,2.1784222E1,1.346611E0,1.8208263E2,2.5738735E0,8.296301E0,1.6699454E0,2.8851082E0,1.1828594E0,2.0281853E1,1.5023689E0],"tree_param":{"num_deleted":"0","num_feature":"813","num_nodes":"33","size_leaf_vector":"1"}},{"base_weights":[5.1137496E-2,-4.6388943E-2,6.6465706E-1,-9.578045E-2,5.4286905E-2,7.299071E-1,-2.500239E-2,-1.2397764E-1,6.4858586E-2,7.8194016E-1,-1.802656E-2,-1.5031002E-1,7.104933E-2,8.736377E-1,-6.048152E-2,-1.7545804E-1,6.73004E-2,9.232558E-1,-7.813245E-3,2.6416173E-2,-3.663812E-2,-9.860125E-3,7.3781766E-2,4.8557814E-2,-5.801797E-3],"categories":[],"categories_nodes":[],"categories_segments":[],"categories_sizes":[],"default_left":[0,0,0,0,0,0,0,0,0,0,0,0,0,0,0,0,0,0,0,0,0,0,0,0,0],"id":33,"left_children":[1,3,5,7,-1,9,-1,11,-1,13,-1,15,-1,17,19,21,-1,23,-1,-1,-1,-1,-1,-1,-1],"loss_changes":[1.4704207E1,1.198824E1,2.9261827E0,8.195642E0,0E0,2.1157055E0,0E0,8.407889E0,0E0,2.4601574E0,0E0,7.722516E0,0E0,1.5837612E0,1.9682901E0,7.347396E0,0E0,1.4577675E0,0E0,0E0,0E0,0E0,0E0,0E0,0E0],"parents":[2147483647,0,0,1,1,2,2,3,3,5,5,7,7,9,9,11,11,13,13,14,14,15,15,17,17],"right_children":[2,4,6,8,-1,10,-1,12,-1,14,-1,16,-1,18,20,22,-1,24,-1,-1,-1,-1,-1,-1,-1],"split_conditions":[1E0,1E0,1E0,1E0,5.4286905E-2,1E0,-2.500239E-2,1E0,6.4858586E-2,1E0,-1.802656E-2,1E0,7.104933E-2,1E0,1E0,1E0,6.73004E-2,1E0,-7.813245E-3,2.6416173E-2,-3.663812E-2,-9.860125E-3,7.3781766E-2,4.8557814E-2,-5.801797E-3],"split_indices":[44,43,353,590,0,382,0,5,0,543,0,164,0,603,746,121,0,81,0,0,0,0,0,0,0],"split_type":[0,0,0,0,0,0,0,0,0,0,0,0,0,0,0,0,0,0,0,0,0,0,0,0,0],"sum_hessian":[2.442332E2,2.11532E2,3.270121E1,2.0356636E2,7.965627E0,3.1319893E1,1.3813179E0,2.004203E2,3.1460629E0,3.0163477E1,1.1564155E0,1.9794916E2,2.4711378E0,2.7169071E1,2.9944053E0,1.9554544E2,2.4037151E0,2.6019089E1,1.1499834E0,1.7104615E0,1.2839439E0,1.9387276E2,1.672689E0,2.4935389E1,1.0837001E0],"tree_param":{"num_deleted":"0","num_feature":"813","num_nodes":"25","size_leaf_vector":"1"}},{"base_weights":[1.66039E-2,-9.2563264E-2,6.9459766E-1,-3.6813468E-2,-9.3999547E-1,1.887212E-1,9.8843044E-1,-7.997159E-2,1.1785929E0,-1.0580508E0,9.625698E-3,-4.218932E-3,7.387661E-1,1.0575254E0,4.431345E-3,-3.64437E-2,-1.0765254E0,6.79357E-2,9.492665E-3,-1.1774244E0,-1.4598975E-2,-4.459161E-1,3.2797673E-1,4.263585E-2,1.1229188E-2,1.133261E0,9.857974E-3,-8.856116E-2,8.521419E-1,-6.1969336E-2,-1.3046903E-2,-6.314321E-2,-1.0620866E-2,-6.8796694E-1,7.0533315E-3,6.317278E-1,-3.1620506E-2,5.917902E-2,1.296813E-2,-7.385131E-3,4.054127E-2,5.640972E-3,7.70917E-2,-5.815939E-2,-1.2132337E-3,4.362832E-2,3.8762786E-3],"categories":[],"categories_nodes":[],"categories_segments":[],"categories_sizes":[],"default_left":[0,0,0,0,0,0,0,0,0,0,0,0,0,0,0,0,0,0,0,0,0,0,0,0,0,0,0,0,0,0,0,0,0,0,0,0,0,0,0,0,0,0,0,0,0,0,0],"id":34,"left_children":[1,3,5,7,9,11,13,15,17,19,-1,21,23,25,-1,27,29,-1,-1,31,-1,33,35,-1,-1,37,-1,39,41,-1,-1,-1,-1,43,-1,45,-1,-1,-1,-1,-1,-1,-1,-1,-1,-1,-1],"loss_changes":[1.8176977E1,9.965162E0,4.875677E0,1.056615E1,1.945015E0,1.4622457E0,1.2309799E0,8.364267E0,9.725599E-1,7.4890804E-1,0E0,1.7856618E0,1.8020988E-2,1.0599747E0,0E0,8.719623E0,7.488537E-1,0E0,0E0,5.569067E-1,0E0,8.3868253E-1,2.427875E0,0E0,0E0,4.798088E-1,0E0,9.546266E0,5.1470795E0,0E0,0E0,0E0,0E0,1.1911232E0,0E0,7.041893E-1,0E0,0E0,0E0,0E0,0E0,0E0,0E0,0E0,0E0,0E0,0E0],"parents":[2147483647,0,0,1,1,2,2,3,3,4,4,5,5,6,6,7,7,8,8,9,9,11,11,12,12,13,13,15,15,16,16,19,19,21,21,22,22,25,25,27,27,28,28,33,33,35,35],"right_children":[2,4,6,8,10,12,14,16,18,20,-1,22,24,26,-1,28,30,-1,-1,32,-1,34,36,-1,-1,38,-1,40,42,-1,-1,-1,-1,44,-1,46,-1,-1,-1,-1,-1,-1,-1,-1,-1,-1,-1],"split_conditions":[1E0,1E0,1E0,1E0,1E0,1E0,1E0,1E0,1E0,1E0,9.625698E-3,1E0,1E0,1E0,4.431345E-3,1E0,1E0,6.79357E-2,9.492665E-3,1E0,-1.4598975E-2,1E0,1E0,4.263585E-2,1.1229188E-2,1E0,9.857974E-3,1E0,1E0,-6.1969336E-2,-1.3046903E-2,-6.314321E-2,-1.0620866E-2,1E0,7.0533315E-3,1E0,-3.1620506E-2,5.917902E-2,1.296813E-2,-7.385131E-3,4.054127E-2,5.640972E-3,7.70917E-2,-5.815939E-2,-1.2132337E-3,4.362832E-2,3.8762786E-3],"split_indices":[44,168,452,516,293,429,192,57,170,544,0,758,610,250,0,215,268,0,0,328,0,420,616,0,0,711,0,313,249,0,0,0,0,338,0,660,0,0,0,0,0,0,0,0,0,0,0],"split_type":[0,0,0,0,0,0,0,0,0,0,0,0,0,0,0,0,0,0,0,0,0,0,0,0,0,0,0,0,0,0,0,0,0,0,0,0,0,0,0,0,0,0,0,0,0,0,0],"sum_hessian":[2.4371754E2,2.1066138E2,3.3056168E1,1.9863713E2,1.2024247E1,1.274906E1,2.030711E1,1.9272772E2,5.909407E0,1.094868E1,1.0755678E0,1.0172993E1,2.5760672E0,1.8696165E1,1.6109436E0,1.8565517E2,7.072553E0,4.6822433E0,1.2271639E0,9.008031E0,1.9406486E0,4.2198396E0,5.9531527E0,1.569784E0,1.0062833E0,1.6892025E1,1.8041413E0,1.7621983E2,9.435338E0,5.4622035E0,1.6103495E0,7.991797E0,1.0162344E0,2.8659737E0,1.3538657E0,4.7826967E0,1.1704559E0,1.5637257E1,1.2547677E0,1.6613123E2,1.0088609E1,5.115406E0,4.3199325E0,1.2315739E0,1.6343999E0,2.933456E0,1.849241E0],"tree_param":{"num_deleted":"0","num_feature":"813","num_nodes":"47","size_leaf_vector":"1"}},{"base_weights":[1.02798315E-2,4.2135693E-2,-9.9885607E-1,-2.525363E-2,4.9785814E-1,-5.9652235E-2,-6.820572E-3,2.5425967E-2,-8.212151E-1,6.09311E-1,-1.8330319E-2,-6.9148914E-4,6.2947534E-2,-9.121964E-1,-1.7672088E-3,7.1187097E-1,-3.2392412E-1,-2.9695923E-2,5.8608603E-2,-1.0430906E0,-3.1132644E-4,8.048077E-1,-2.672935E-2,-4.466841E-2,1.8149583E-2,-2.7411897E-3,5.633532E-2,-5.689698E-2,-1.4634785E-2,4.5630943E-2,-2.0118384E-2],"categories":[],"categories_nodes":[],"categories_segments":[],"categories_sizes":[],"default_left":[0,0,0,0,0,0,0,0,0,0,0,0,0,0,0,0,0,0,0,0,0,0,0,0,0,0,0,0,0,0,0],"id":35,"left_children":[1,3,5,7,9,-1,-1,11,13,15,-1,17,-1,19,-1,21,23,25,-1,27,-1,29,-1,-1,-1,-1,-1,-1,-1,-1,-1],"loss_changes":[8.07908E0,7.4850464E0,1.1253357E0,8.610018E0,3.248036E0,0E0,0E0,6.4811716E0,8.812065E-1,2.9281359E0,0E0,6.7696433E0,0E0,1.3465357E0,0E0,3.4080534E0,1.6847041E0,5.7040844E0,0E0,3.7605953E-1,0E0,3.5325594E0,0E0,0E0,0E0,0E0,0E0,0E0,0E0,0E0,0E0],"parents":[2147483647,0,0,1,1,2,2,3,3,4,4,7,7,8,8,9,9,11,11,13,13,15,15,16,16,17,17,19,19,21,21],"right_children":[2,4,6,8,10,-1,-1,12,14,16,-1,18,-1,20,-1,22,24,26,-1,28,-1,30,-1,-1,-1,-1,-1,-1,-1,-1,-1],"split_conditions":[1E0,1E0,1E0,1E0,1E0,-5.9652235E-2,-6.820572E-3,1E0,1E0,1E0,-1.8330319E-2,1E0,6.2947534E-2,1E0,-1.7672088E-3,1E0,1E0,1E0,5.8608603E-2,1E0,-3.1132644E-4,1E0,-2.672935E-2,-4.466841E-2,1.8149583E-2,-2.7411897E-3,5.633532E-2,-5.689698E-2,-1.4634785E-2,4.5630943E-2,-2.0118384E-2],"split_indices":[49,724,343,168,308,0,0,127,669,563,0,181,0,544,0,254,432,54,0,196,0,183,0,0,0,0,0,0,0,0,0],"split_type":[0,0,0,0,0,0,0,0,0,0,0,0,0,0,0,0,0,0,0,0,0,0,0,0,0,0,0,0,0,0,0],"sum_hessian":[2.4900835E2,2.4231726E2,6.691096E0,2.1192389E2,3.0393366E1,5.1485224E0,1.5425736E0,2.0014832E2,1.1775571E1,2.7183796E1,3.2095695E0,1.9697716E2,3.1711636E0,1.0409682E1,1.3658887E0,2.4705889E1,2.4779084E0,1.9317471E2,3.8024504E0,8.963314E0,1.4463687E0,2.3321356E1,1.3845316E0,1.1904726E0,1.2874358E0,1.8999875E2,3.1759584E0,7.498996E0,1.4643182E0,2.163332E1,1.6880373E0],"tree_param":{"num_deleted":"0","num_feature":"813","num_nodes":"31","size_leaf_vector":"1"}},{"base_weights":[2.006528E-2,-8.892484E-2,6.5845287E-1,-1.1948185E-1,6.956562E-2,7.556986E-1,-3.2058853E-1,-1.5368392E-1,6.1492767E-2,8.31477E-1,-3.0709157E-2,1.9765066E-2,-4.308148E-2,-1.8166554E-1,6.028672E-2,3.1528908E-1,9.70575E-1,-2.0312512E-1,7.0789985E-2,-2.433791E-2,5.1139563E-1,1.0157624E0,6.3067893E-3,-1.1242095E-2,6.891028E-2,3.7896603E-2,-4.3316367E-3,5.39786E-2,1.3131186E-2],"categories":[],"categories_nodes":[],"categories_segments":[],"categories_sizes":[],"default_left":[0,0,0,0,0,0,0,0,0,0,0,0,0,0,0,0,0,0,0,0,0,0,0,0,0,0,0,0,0],"id":36,"left_children":[1,3,5,7,-1,9,11,13,-1,15,-1,-1,-1,17,-1,19,21,23,-1,-1,25,27,-1,-1,-1,-1,-1,-1,-1],"loss_changes":[1.6590748E1,9.386143E0,3.5525618E0,9.448377E0,0E0,3.8247871E0,1.8293431E0,7.696118E0,0E0,1.8966141E0,0E0,0E0,0E0,6.9199E0,0E0,1.5061133E0,7.7560997E-1,6.895858E0,0E0,0E0,1.0844798E0,7.900429E-1,0E0,0E0,0E0,0E0,0E0,0E0,0E0],"parents":[2147483647,0,0,1,1,2,2,3,3,5,5,6,6,7,7,9,9,13,13,15,15,16,16,17,17,20,20,21,21],"right_children":[2,4,6,8,-1,10,12,14,-1,16,-1,-1,-1,18,-1,20,22,24,-1,-1,26,28,-1,-1,-1,-1,-1,-1,-1],"split_conditions":[1E0,1E0,1E0,1E0,6.956562E-2,1E0,1E0,1E0,6.1492767E-2,1E0,-3.0709157E-2,1.9765066E-2,-4.308148E-2,1E0,6.028672E-2,1E0,1E0,1E0,7.0789985E-2,-2.433791E-2,1E0,1E0,6.3067893E-3,-1.1242095E-2,6.891028E-2,3.7896603E-2,-4.3316367E-3,5.39786E-2,1.3131186E-2],"split_indices":[44,164,587,144,0,581,709,127,0,544,0,0,0,93,0,479,400,27,0,0,417,250,0,0,0,0,0,0,0],"split_type":[0,0,0,0,0,0,0,0,0,0,0,0,0,0,0,0,0,0,0,0,0,0,0,0,0,0,0,0,0],"sum_hessian":[2.3660686E2,2.0283766E2,3.37692E1,1.9963579E2,3.2018633E0,3.0925564E1,2.843637E0,1.9556485E2,4.0709395E0,2.9676943E1,1.248622E0,1.3399814E0,1.5036554E0,1.9246951E2,3.0953362E0,6.992964E0,2.2683977E1,1.9077953E2,1.6899946E0,1.0827132E0,5.9102507E0,2.1339195E1,1.3447826E0,1.890412E2,1.7383323E0,3.9956603E0,1.9145905E0,1.9272875E1,2.0663216E0],"tree_param":{"num_deleted":"0","num_feature":"813","num_nodes":"29","size_leaf_vector":"1"}},{"base_weights":[-2.564382E-2,2.5790347E-2,-7.8712803E-1,-1.0243729E-2,1.1789609E0,2.3083309E-2,-9.228874E-1,2.5344046E-2,-5.1763024E-2,6.832662E-2,2.1162773E-2,-5.4833025E-2,9.946136E-3,6.244958E-2,-9.8605317E-1,1.0101932E-1,-9.8515904E-1,-5.9493434E-2,-1.1329851E-2,1.997951E-3,3.340939E-2,-8.3598087E-4,-5.9578914E-2],"categories":[],"categories_nodes":[],"categories_segments":[],"categories_sizes":[],"default_left":[0,0,0,0,0,0,0,0,0,0,0,0,0,0,0,0,0,0,0,0,0,0,0],"id":37,"left_children":[1,3,5,7,9,-1,11,13,-1,-1,-1,-1,-1,15,17,19,21,-1,-1,-1,-1,-1,-1],"loss_changes":[9.5223055E0,9.495607E0,3.0338097E0,8.135344E0,4.0308285E-1,0E0,2.9876528E0,8.160885E0,0E0,0E0,0E0,0E0,0E0,8.54925E0,9.218135E-1,6.989704E0,1.483118E0,0E0,0E0,0E0,0E0,0E0,0E0],"parents":[2147483647,0,0,1,1,2,2,3,3,4,4,6,6,7,7,13,13,14,14,15,15,16,16],"right_children":[2,4,6,8,10,-1,12,14,-1,-1,-1,-1,-1,16,18,20,22,-1,-1,-1,-1,-1,-1],"split_conditions":[1E0,1E0,1E0,1E0,1E0,2.3083309E-2,1E0,1E0,-5.1763024E-2,6.832662E-2,2.1162773E-2,-5.4833025E-2,9.946136E-3,1E0,1E0,1E0,1E0,-5.9493434E-2,-1.1329851E-2,1.997951E-3,3.340939E-2,-8.3598087E-4,-5.9578914E-2],"split_indices":[168,516,786,161,746,0,411,46,0,0,0,0,0,49,197,196,786,0,0,0,0,0,0],"split_type":[0,0,0,0,0,0,0,0,0,0,0,0,0,0,0,0,0,0,0,0,0,0,0],"sum_hessian":[2.4160664E2,2.2722495E2,1.4381693E1,2.2130089E2,5.924055E0,1.1747781E0,1.3206915E1,2.1481786E2,6.483032E0,4.098493E0,1.8255624E0,1.1454919E1,1.7519958E0,2.0812071E2,6.697153E0,2.0160191E2,6.5187936E0,4.8333006E0,1.8638526E0,1.8297375E2,1.862816E1,1.3352615E0,5.183532E0],"tree_param":{"num_deleted":"0","num_feature":"813","num_nodes":"23","size_leaf_vector":"1"}},{"base_weights":[2.348309E-2,-7.410958E-2,6.5489393E-1,-1.1900463E-1,5.2985337E-2,7.7566993E-1,-1.3956116E-1,-1.4531566E-1,7.207008E-2,8.7865204E-1,-8.009514E-2,-3.431329E-2,4.022664E-2,-1.7440914E-1,6.173675E-2,9.4478637E-1,-3.5596571E-3,-3.5961367E-2,3.55048E-2,-2.0106868E-1,6.0002964E-2,9.9610335E-1,1.5022585E-2,-1.127943E-2,6.1306786E-2,5.305874E-2,1.6647484E-2],"categories":[],"categories_nodes":[],"categories_segments":[],"categories_sizes":[],"default_left":[0,0,0,0,0,0,0,0,0,0,0,0,0,0,0,0,0,0,0,0,0,0,0,0,0,0,0],"id":38,"left_children":[1,3,5,7,-1,9,11,13,-1,15,17,-1,-1,19,-1,21,-1,-1,-1,23,-1,25,-1,-1,-1,-1,-1],"loss_changes":[1.4841933E1,1.0756144E1,3.2017365E0,8.493523E0,0E0,2.5501518E0,3.185474E0,8.218859E0,0E0,1.650219E0,2.4999955E0,0E0,0E0,7.4268756E0,0E0,4.8202324E-1,0E0,0E0,0E0,7.0384574E0,0E0,5.724735E-1,0E0,0E0,0E0,0E0,0E0],"parents":[2147483647,0,0,1,1,2,2,3,3,5,5,6,6,7,7,9,9,10,10,13,13,15,15,19,19,21,21],"right_children":[2,4,6,8,-1,10,12,14,-1,16,18,-1,-1,20,-1,22,-1,-1,-1,24,-1,26,-1,-1,-1,-1,-1],"split_conditions":[1E0,1E0,1E0,1E0,5.2985337E-2,1E0,1E0,1E0,7.207008E-2,1E0,1E0,-3.431329E-2,4.022664E-2,1E0,6.173675E-2,1E0,-3.5596571E-3,-3.5961367E-2,3.55048E-2,1E0,6.0002964E-2,1E0,1.5022585E-2,-1.127943E-2,6.1306786E-2,5.305874E-2,1.6647484E-2],"split_indices":[44,43,543,135,0,616,572,53,0,400,277,0,0,127,0,399,0,0,0,0,0,599,0,0,0,0,0],"split_type":[0,0,0,0,0,0,0,0,0,0,0,0,0,0,0,0,0,0,0,0,0,0,0,0,0,0,0],"sum_hessian":[2.3907047E2,2.0783026E2,3.1240208E1,2.0077531E2,7.054942E0,2.7138205E1,4.102003E0,1.9833789E2,2.4374316E0,2.4199331E1,2.9388738E0,2.7706656E0,1.3313376E0,1.9509854E2,3.23934E0,2.2629076E1,1.5702558E0,1.6743838E0,1.2644901E0,1.9222383E2,2.874712E0,2.0454102E1,2.1749742E0,1.8980486E2,2.4189835E0,1.807984E1,2.374263E0],"tree_param":{"num_deleted":"0","num_feature":"813","num_nodes":"27","size_leaf_vector":"1"}},{"base_weights":[1.8802766E-2,5.5557016E-2,-8.6271644E-1,8.456524E-2,-9.030752E-1,-1.006235E0,3.19166E-3,1.1480584E-1,-7.906799E-1,-5.6176405E-2,2.8317359E-3,-5.5038995E-1,-6.099071E-2,1.4922313E-1,-6.999361E-1,-9.8052233E-1,-4.6532173E-4,-1.8113847E-1,-4.249702E-2,2.2471128E-1,-3.4535187E-1,-8.451709E-1,7.2146663E-3,-5.434699E-2,-1.5907558E-2,2.6628869E-3,-1.6776724E-2,1.3889174E-2,-2.5464663E-2,-5.4673846E-3,-5.4857124E-2,-5.06453E-2,1.070973E-3],"categories":[],"categories_nodes":[],"categories_segments":[],"categories_sizes":[],"default_left":[0,0,0,0,0,0,0,0,0,0,0,0,0,0,0,0,0,0,0,0,0,0,0,0,0,0,0,0,0,0,0,0,0],"id":39,"left_children":[1,3,5,7,9,11,-1,13,15,-1,-1,17,-1,19,21,23,-1,25,-1,27,29,31,-1,-1,-1,-1,-1,-1,-1,-1,-1,-1,-1],"loss_changes":[7.3946886E0,6.155754E0,1.2791696E0,5.7314E0,1.4402609E0,1.0464764E-1,0E0,5.9052625E0,1.0654492E0,0E0,0E0,3.2887912E-1,0E0,7.5186505E0,1.1715417E0,6.432438E-2,0E0,1.3461787E-1,0E0,6.9010115E0,4.6326594E0,1.1045551E0,0E0,0E0,0E0,0E0,0E0,0E0,0E0,0E0,0E0,0E0,0E0],"parents":[2147483647,0,0,1,1,2,2,3,3,4,4,5,5,7,7,8,8,11,11,13,13,14,14,15,15,17,17,19,19,20,20,21,21],"right_children":[2,4,6,8,10,12,-1,14,16,-1,-1,18,-1,20,22,24,-1,26,-1,28,30,32,-1,-1,-1,-1,-1,-1,-1,-1,-1,-1,-1],"split_conditions":[1E0,1E0,1E0,1E0,1E0,1E0,3.19166E-3,1E0,1E0,-5.6176405E-2,2.8317359E-3,1E0,-6.099071E-2,1E0,1E0,1E0,-4.6532173E-4,1E0,-4.249702E-2,1E0,1E0,1E0,7.2146663E-3,-5.434699E-2,-1.5907558E-2,2.6628869E-3,-1.6776724E-2,1.3889174E-2,-2.5464663E-2,-5.4673846E-3,-5.4857124E-2,-5.06453E-2,1.070973E-3],"split_indices":[31,55,557,46,298,239,0,57,728,0,0,688,0,704,328,343,0,401,0,62,401,763,0,0,0,0,0,0,0,0,0,0,0],"split_type":[0,0,0,0,0,0,0,0,0,0,0,0,0,0,0,0,0,0,0,0,0,0,0,0,0,0,0,0,0,0,0,0,0],"sum_hessian":[2.2575478E2,2.1761832E2,8.136449E0,2.121116E2,5.5067134E0,6.970713E0,1.1657363E0,2.0586751E2,6.2441006E0,4.339257E0,1.1674566E0,3.3652322E0,3.6054807E0,1.9830722E2,7.560282E0,4.8185225E0,1.4255782E0,2.225989E0,1.1392431E0,1.7252065E2,2.5786585E1,6.4496226E0,1.1106596E0,3.5992746E0,1.2192477E0,1.1441127E0,1.0818764E0,1.614673E2,1.1053346E1,2.0497427E1,5.289159E0,5.262237E0,1.1873857E0],"tree_param":{"num_deleted":"0","num_feature":"813","num_nodes":"33","size_leaf_vector":"1"}},{"base_weights":[5.2012846E-2,-5.0983857E-2,7.127271E-1,-9.655817E-2,5.264742E-2,7.949289E-1,-3.1782947E-2,-1.22837044E-1,7.034654E-2,9.207175E-1,-7.056219E-2,-1.7329516E-1,5.4392314E-1,1.0455849E0,2.0243256E-1,2.1244917E-2,-3.0587832E-2,-2.0232557E-1,5.4851234E-2,4.207624E-2,6.329319E-2,1.1171569E0,-9.6061E-4,-1.3012435E-1,2.6047612E-2,-1.1199974E-2,7.221027E-2,-2.1035805E-2,6.482932E-2,5.9358586E-2,7.853604E-3,1.4865761E-2,-2.5677813E-2],"categories":[],"categories_nodes":[],"categories_segments":[],"categories_sizes":[],"default_left":[0,0,0,0,0,0,0,0,0,0,0,0,0,0,0,0,0,0,0,0,0,0,0,0,0,0,0,0,0,0,0,0,0],"id":40,"left_children":[1,3,5,7,-1,9,-1,11,-1,13,15,17,19,21,23,-1,-1,25,-1,27,-1,29,-1,31,-1,-1,-1,-1,-1,-1,-1,-1,-1],"loss_changes":[1.5936557E1,1.0318443E1,4.0053577E0,7.914308E0,0E0,3.3536263E0,0E0,6.6039715E0,0E0,2.160246E0,1.5368195E0,6.8834696E0,4.966169E0,1.7200966E0,6.14002E-1,0E0,0E0,6.6559567E0,0E0,5.891049E0,0E0,1.218565E0,0E0,6.972803E-1,0E0,0E0,0E0,0E0,0E0,0E0,0E0,0E0,0E0],"parents":[2147483647,0,0,1,1,2,2,3,3,5,5,7,7,9,9,10,10,11,11,12,12,13,13,14,14,17,17,19,19,21,21,23,23],"right_children":[2,4,6,8,-1,10,-1,12,-1,14,16,18,20,22,24,-1,-1,26,-1,28,-1,30,-1,32,-1,-1,-1,-1,-1,-1,-1,-1,-1],"split_conditions":[1E0,1E0,1E0,1E0,5.264742E-2,1E0,-3.1782947E-2,1E0,7.034654E-2,1E0,1E0,1E0,1E0,1E0,1E0,2.1244917E-2,-3.0587832E-2,1E0,5.4851234E-2,1E0,6.329319E-2,1E0,-9.6061E-4,1E0,2.6047612E-2,-1.1199974E-2,7.221027E-2,-2.1035805E-2,6.482932E-2,5.9358586E-2,7.853604E-3,1.4865761E-2,-2.5677813E-2],"split_indices":[44,43,241,27,0,543,0,224,0,647,591,54,248,659,277,0,0,50,0,317,0,362,0,665,0,0,0,0,0,0,0,0,0],"split_type":[0,0,0,0,0,0,0,0,0,0,0,0,0,0,0,0,0,0,0,0,0,0,0,0,0,0,0,0,0,0,0,0,0],"sum_hessian":[2.3265016E2,2.0207254E2,3.0577625E1,1.9493735E2,7.1351867E0,2.9207504E1,1.3701208E0,1.9249118E2,2.4461768E0,2.5445503E1,3.762001E0,1.7963696E2,1.2854211E1,2.1288942E1,4.1565614E0,2.0761683E0,1.6858329E0,1.7644542E2,3.1915498E0,8.207302E0,4.6469088E0,1.9902023E1,1.386919E0,2.3228326E0,1.8337287E0,1.750057E2,1.4397106E0,6.4810586E0,1.7262437E0,1.8328852E1,1.5731708E0,1.2045864E0,1.1182461E0],"tree_param":{"num_deleted":"0","num_feature":"813","num_nodes":"33","size_leaf_vector":"1"}},{"base_weights":[2.097069E-2,-6.338066E-2,5.829923E-1,-1.17470674E-1,6.592705E-1,6.667975E-1,-3.0660061E-2,-1.449356E-1,6.547261E-2,8.777967E-1,-5.803246E-2,7.699778E-1,-1.1946894E-1,-1.693982E-1,6.699756E-2,1.113186E0,1.746901E-1,-2.3781653E-2,2.18123E-2,8.5019445E-1,8.985504E-2,1.0944212E-2,-2.1574434E-2,-1.959058E-1,5.6577053E-2,1.220924E0,1.3632193E-2,-2.7486265E-2,4.178692E-2,9.075019E-1,-3.469897E-4,1.9170936E-2,-1.591804E-2,-1.1003105E-2,5.451286E-2,6.915181E-2,2.4358017E-2,4.8216697E-2,7.0647434E-3],"categories":[],"categories_nodes":[],"categories_segments":[],"categories_sizes":[],"default_left":[0,0,0,0,0,0,0,0,0,0,0,0,0,0,0,0,0,0,0,0,0,0,0,0,0,0,0,0,0,0,0,0,0,0,0,0,0,0,0],"id":41,"left_children":[1,3,5,7,9,11,-1,13,-1,15,17,19,21,23,-1,25,27,-1,-1,29,31,-1,-1,33,-1,35,-1,-1,-1,37,-1,-1,-1,-1,-1,-1,-1,-1,-1],"loss_changes":[1.12028675E1,8.117767E0,3.4999857E0,7.723008E0,2.3199477E0,2.4686127E0,0E0,7.11013E0,0E0,1.6520996E0,1.0988051E0,1.3437824E0,5.4461443E-1,6.6809673E0,0E0,4.0722752E-1,2.3675191E0,0E0,0E0,1.1442432E0,5.8517385E-1,0E0,0E0,5.9696712E0,0E0,1.5374565E-1,0E0,0E0,0E0,8.096428E-1,0E0,0E0,0E0,0E0,0E0,0E0,0E0,0E0,0E0],"parents":[2147483647,0,0,1,1,2,2,3,3,4,4,5,5,7,7,9,9,10,10,11,11,12,12,13,13,15,15,16,16,19,19,20,20,23,23,25,25,29,29],"right_children":[2,4,6,8,10,12,-1,14,-1,16,18,20,22,24,-1,26,28,-1,-1,30,32,-1,-1,34,-1,36,-1,-1,-1,38,-1,-1,-1,-1,-1,-1,-1,-1,-1],"split_conditions":[1E0,1E0,1E0,1E0,1E0,1E0,-3.0660061E-2,1E0,6.547261E-2,1E0,1E0,1E0,1E0,1E0,6.699756E-2,1E0,1E0,-2.3781653E-2,2.18123E-2,1E0,1E0,1.0944212E-2,-2.1574434E-2,1E0,5.6577053E-2,1E0,1.3632193E-2,-2.7486265E-2,4.178692E-2,1E0,-3.469897E-4,1.9170936E-2,-1.591804E-2,-1.1003105E-2,5.451286E-2,6.915181E-2,2.4358017E-2,4.8216697E-2,7.0647434E-3],"split_indices":[44,191,353,164,318,543,0,135,0,304,338,304,746,53,0,338,338,0,0,307,338,0,0,172,0,324,0,0,0,589,0,0,0,0,0,0,0,0,0],"split_type":[0,0,0,0,0,0,0,0,0,0,0,0,0,0,0,0,0,0,0,0,0,0,0,0,0,0,0,0,0,0,0,0,0,0,0,0,0,0,0],"sum_hessian":[2.3453168E2,2.0469685E2,2.9834822E1,1.9122148E2,1.347537E1,2.829504E1,1.5397806E0,1.8849188E2,2.7295992E0,1.01572275E1,3.3181424E0,2.5030987E1,3.2640536E0,1.8630849E2,2.183402E0,7.172684E0,2.9845433E0,1.819026E0,1.4991164E0,2.2166513E1,2.864474E0,1.7091496E0,1.554904E0,1.8342056E2,2.887918E0,5.9566374E0,1.2160468E0,1.5043703E0,1.4801731E0,2.0722271E1,1.444241E0,1.7015613E0,1.1629128E0,1.8085275E2,2.5678158E0,4.154026E0,1.8026115E0,1.9050644E1,1.6716273E0],"tree_param":{"num_deleted":"0","num_feature":"813","num_nodes":"39","size_leaf_vector":"1"}},{"base_weights":[-3.167899E-5,-1.0146561E-1,6.563743E-1,-1.3011244E-1,5.6480657E-2,7.529511E-1,-2.7085263E-2,-9.811637E-2,-6.426784E-2,8.344422E-1,-1.240543E-1,-6.2539116E-2,-5.575039E-2,5.5413306E-1,5.5164505E-2,-1.5065505E-2,6.9369636E-3,-2.854219E-2,-5.4439604E-2,6.6999733E-1,-1.9629046E-2,1.1002561E-3,-3.8387205E-2,3.9979056E-2,-1.3611226E-2],"categories":[],"categories_nodes":[],"categories_segments":[],"categories_sizes":[],"default_left":[0,0,0,0,0,0,0,0,0,0,0,0,0,0,0,0,0,0,0,0,0,0,0,0,0],"id":42,"left_children":[1,3,5,7,-1,9,-1,11,-1,13,15,17,-1,19,-1,-1,-1,21,-1,23,-1,-1,-1,-1,-1],"loss_changes":[1.5844334E1,7.415985E0,4.09326E0,7.352517E0,0E0,2.239952E0,0E0,7.0919585E0,0E0,1.4596424E0,2.0074552E-1,6.678992E0,0E0,1.9591675E0,0E0,0E0,0E0,7.0109553E0,0E0,1.9448876E0,0E0,0E0,0E0,0E0,0E0],"parents":[2147483647,0,0,1,1,2,2,3,3,5,5,7,7,9,9,10,10,11,11,13,13,17,17,19,19],"right_children":[2,4,6,8,-1,10,-1,12,-1,14,16,18,-1,20,-1,-1,-1,22,-1,24,-1,-1,-1,-1,-1],"split_conditions":[1E0,1E0,1E0,1E0,5.6480657E-2,1E0,-2.7085263E-2,1E0,-6.426784E-2,1E0,1E0,1E0,-5.575039E-2,1E0,5.5164505E-2,-1.5065505E-2,6.9369636E-3,1E0,-5.4439604E-2,1E0,-1.9629046E-2,1.1002561E-3,-3.8387205E-2,3.9979056E-2,-1.3611226E-2],"split_indices":[44,54,353,133,0,736,0,59,0,432,432,161,0,616,0,0,0,168,0,329,0,0,0,0,0],"split_type":[0,0,0,0,0,0,0,0,0,0,0,0,0,0,0,0,0,0,0,0,0,0,0,0,0],"sum_hessian":[2.3596754E2,2.0511647E2,3.0851078E1,2.0132599E2,3.7904851E0,2.8893515E1,1.9575623E0,1.9695595E2,4.370034E0,2.6481401E1,2.4121134E0,1.9132375E2,5.632208E0,1.4462984E1,1.2018417E1,1.3529651E0,1.0591484E0,1.861838E2,5.139942E0,1.3146351E1,1.3166335E0,1.7517538E2,1.1008424E1,1.1690011E1,1.4563396E0],"tree_param":{"num_deleted":"0","num_feature":"813","num_nodes":"25","size_leaf_vector":"1"}},{"base_weights":[5.4600883E-2,9.086364E-2,-5.1140297E-2,1.37207E-1,-6.4986455E-1,2.3784547E-1,-2.1469562E-1,-7.4911946E-1,1.5112682E-2,2.649531E-1,-5.8188338E-2,-7.390052E-2,-1.0200938E0,-8.4387517E-1,7.444495E-3,3.0971417E-1,-4.4015732E-1,1.3688698E-1,-7.9711175E-1,-5.893398E-2,-1.7341062E-2,-9.493593E-1,-4.157483E-4,1.683969E-2,-4.6597373E-2,-3.640993E-2,1.9247755E-2,1.235552E-2,-3.975552E-2,-5.044892E-2,1.0236832E-2,-5.4153737E-2,-2.7174517E-4],"categories":[],"categories_nodes":[],"categories_segments":[],"categories_sizes":[],"default_left":[0,0,0,0,0,0,0,0,0,0,0,0,0,0,0,0,0,0,0,0,0,0,0,0,0,0,0,0,0,0,0,0,0],"id":43,"left_children":[1,3,-1,5,7,9,11,13,-1,15,-1,17,19,21,-1,23,25,27,29,-1,-1,31,-1,-1,-1,-1,-1,-1,-1,-1,-1,-1,-1],"loss_changes":[9.317804E0,7.9620214E0,0E0,7.724239E0,1.5190492E0,6.7277336E0,5.4479866E0,1.2041287E0,0E0,5.3933687E0,0E0,6.593899E0,3.5674143E-1,1.0158043E0,0E0,5.599848E0,2.7414956E0,3.6678612E0,2.2754235E0,0E0,0E0,1.2946444E0,0E0,0E0,0E0,0E0,0E0,0E0,0E0,0E0,0E0,0E0,0E0],"parents":[2147483647,0,0,1,1,3,3,4,4,5,5,6,6,7,7,9,9,11,11,12,12,13,13,15,15,16,16,17,17,18,18,21,21],"right_children":[2,4,-1,6,8,10,12,14,-1,16,-1,18,20,22,-1,24,26,28,30,-1,-1,32,-1,-1,-1,-1,-1,-1,-1,-1,-1,-1,-1],"split_conditions":[1E0,1E0,-5.1140297E-2,1E0,1E0,1E0,1E0,1E0,1.5112682E-2,1E0,-5.8188338E-2,1E0,1E0,1E0,7.444495E-3,1E0,1E0,1E0,1E0,-5.893398E-2,-1.7341062E-2,1E0,-4.157483E-4,1.683969E-2,-4.6597373E-2,-3.640993E-2,1.9247755E-2,1.235552E-2,-3.975552E-2,-5.044892E-2,1.0236832E-2,-5.4153737E-2,-2.7174517E-4],"split_indices":[161,168,0,437,256,179,704,347,0,62,0,688,591,362,0,26,666,562,684,0,0,191,0,0,0,0,0,0,0,0,0,0,0],"split_type":[0,0,0,0,0,0,0,0,0,0,0,0,0,0,0,0,0,0,0,0,0,0,0,0,0,0,0,0,0,0,0,0,0],"sum_hessian":[2.351129E2,2.2834312E2,6.769779E0,2.156649E2,1.2678224E1,1.6795624E2,4.7708652E1,1.1674416E1,1.0038086E0,1.6556512E2,2.3911176E0,4.153883E1,6.169824E0,1.0614665E1,1.0597503E0,1.5620955E2,9.355572E0,3.2791985E1,8.746844E0,4.386042E0,1.7837819E0,9.303911E0,1.3107538E0,1.5358867E2,2.620889E0,7.0217733E0,2.333799E0,2.9981104E1,2.8108807E0,7.214117E0,1.5327271E0,8.020341E0,1.2835702E0],"tree_param":{"num_deleted":"0","num_feature":"813","num_nodes":"33","size_leaf_vector":"1"}},{"base_weights":[4.7132917E-2,8.388289E-2,-9.995869E-1,7.196367E-3,5.8712846E-1,-5.7956524E-2,-3.2617939E-3,-3.636962E-2,5.1800836E-2,5.73885E-2,7.679014E-1,-8.62523E-2,7.6875514E-1,-3.310704E-1,4.1570228E-2,8.254124E-1,-8.70258E-3,-1.1487838E-1,7.096278E-2,9.948118E-1,-2.8608967E-2,-4.8354617E-1,7.449036E-3,9.1717273E-1,1.6123706E-1,-7.328549E-3,6.439267E-2,6.28381E-2,-9.935334E-3,-9.81827E-3,-3.9198533E-2,4.9770333E-2,5.2376837E-3,2.4356283E-2,-1.6579228E-2],"categories":[],"categories_nodes":[],"categories_segments":[],"categories_sizes":[],"default_left":[0,0,0,0,0,0,0,0,0,0,0,0,0,0,0,0,0,0,0,0,0,0,0,0,0,0,0,0,0,0,0,0,0,0,0],"id":44,"left_children":[1,3,5,7,9,-1,-1,11,-1,13,15,17,19,21,-1,23,-1,25,-1,27,-1,29,-1,31,33,-1,-1,-1,-1,-1,-1,-1,-1,-1,-1],"loss_changes":[8.8835E0,8.560231E0,1.0925894E0,8.714644E0,2.7649555E0,0E0,0E0,7.564131E0,0E0,2.844175E0,1.3240471E0,7.7781487E0,3.9014106E0,5.40789E-1,0E0,1.1142645E0,0E0,7.9386306E0,0E0,3.3048859E0,0E0,2.8570223E-1,0E0,1.0386696E0,7.601241E-1,0E0,0E0,0E0,0E0,0E0,0E0,0E0,0E0,0E0,0E0],"parents":[2147483647,0,0,1,1,2,2,3,3,4,4,7,7,9,9,10,10,11,11,12,12,13,13,15,15,17,17,19,19,21,21,23,23,24,24],"right_children":[2,4,6,8,10,-1,-1,12,-1,14,16,18,20,22,-1,24,-1,26,-1,28,-1,30,-1,32,34,-1,-1,-1,-1,-1,-1,-1,-1,-1,-1],"split_conditions":[1E0,1E0,1E0,1E0,1E0,-5.7956524E-2,-3.2617939E-3,1E0,5.1800836E-2,1E0,1E0,1E0,1E0,1E0,4.1570228E-2,1E0,-8.70258E-3,1E0,7.096278E-2,1E0,-2.8608967E-2,1E0,7.449036E-3,1E0,1E0,-7.328549E-3,6.439267E-2,6.28381E-2,-9.935334E-3,-9.81827E-3,-3.9198533E-2,4.9770333E-2,5.2376837E-3,2.4356283E-2,-1.6579228E-2],"split_indices":[123,44,680,43,544,0,0,313,0,432,371,172,635,362,0,684,0,590,0,338,0,196,0,307,432,0,0,0,0,0,0,0,0,0,0],"split_type":[0,0,0,0,0,0,0,0,0,0,0,0,0,0,0,0,0,0,0,0,0,0,0,0,0,0,0,0,0,0,0,0,0,0,0],"sum_hessian":[2.2775888E2,2.2092224E2,6.836643E0,1.9258907E2,2.8333176E1,5.6340394E0,1.2026038E0,1.8569054E2,6.8985233E0,7.543894E0,2.0789282E1,1.756978E2,9.9927435E0,5.404022E0,2.1398716E0,1.9709631E1,1.0796504E0,1.7332584E2,2.3719635E0,8.772058E0,1.2206856E0,4.095813E0,1.3082094E0,1.698247E1,2.7271626E0,1.7037204E2,2.953789E0,7.1498413E0,1.6222163E0,2.9395113E0,1.1563016E0,1.5285296E1,1.6971724E0,1.6485693E0,1.0785933E0],"tree_param":{"num_deleted":"0","num_feature":"813","num_nodes":"35","size_leaf_vector":"1"}},{"base_weights":[1.366822E-2,-1.225814E-2,6.1080646E-2,-6.0773097E-2,6.006777E-1,-3.026173E-2,-5.390012E-2,7.143977E-1,-1.2097001E-2,1.6151328E-3,-9.216218E-1,4.3590277E-1,6.069396E-2,-2.2116771E-2,5.7406474E-2,2.1073401E-3,-5.687908E-2,6.700816E-1,-1.1096327E-1,-2.2787892E-3,5.5893183E-2,1.8376281E-2,5.9595782E-2,-4.1364487E-2,2.4277424E-2],"categories":[],"categories_nodes":[],"categories_segments":[],"categories_sizes":[],"default_left":[0,0,0,0,0,0,0,0,0,0,0,0,0,0,0,0,0,0,0,0,0,0,0,0,0],"id":45,"left_children":[1,3,-1,5,7,9,-1,11,-1,13,15,17,-1,19,-1,-1,-1,21,23,-1,-1,-1,-1,-1,-1],"loss_changes":[7.241555E0,6.783515E0,0E0,6.5211368E0,1.776299E0,5.8558283E0,0E0,1.5569654E0,0E0,5.465096E0,1.5289769E0,1.5072205E0,0E0,5.3152685E0,0E0,0E0,0E0,8.212302E-1,2.2017174E0,0E0,0E0,0E0,0E0,0E0,0E0],"parents":[2147483647,0,0,1,1,3,3,4,4,5,5,7,7,9,9,10,10,11,11,13,13,17,17,18,18],"right_children":[2,4,-1,6,8,10,-1,12,-1,14,16,18,-1,20,-1,-1,-1,22,24,-1,-1,-1,-1,-1,-1],"split_conditions":[1E0,1E0,6.1080646E-2,1E0,1E0,1E0,-5.390012E-2,1E0,-1.2097001E-2,1E0,1E0,1E0,6.069396E-2,1E0,5.7406474E-2,2.1073401E-3,-5.687908E-2,1E0,1E0,-2.2787892E-3,5.5893183E-2,1.8376281E-2,5.9595782E-2,-4.1364487E-2,2.4277424E-2],"split_indices":[181,191,0,126,62,49,0,669,0,144,786,298,0,53,0,0,0,224,709,0,0,0,0,0,0],"split_type":[0,0,0,0,0,0,0,0,0,0,0,0,0,0,0,0,0,0,0,0,0,0,0,0,0],"sum_hessian":[2.2975133E2,2.258928E2,3.8585305E0,2.1015918E2,1.5733622E1,2.0503888E2,5.120306E0,1.3996779E1,1.7368419E0,1.9892316E2,6.115712E0,1.0188634E1,3.808146E0,1.9584995E2,3.073223E0,1.2668688E0,4.8488436E0,6.9760423E0,3.2125912E0,1.9284158E2,3.0083575E0,5.494603E0,1.4814395E0,1.2839133E0,1.9286778E0],"tree_param":{"num_deleted":"0","num_feature":"813","num_nodes":"25","size_leaf_vector":"1"}},{"base_weights":[4.6367743E-3,4.1173376E-2,-1.0691335E0,7.413721E-2,-5.2032616E-2,-5.767254E-2,-1.6573323E-2,1.08097166E-1,-9.763706E-1,1.5603724E-1,-6.2142587E-1,-5.739679E-2,-8.79149E-3,1.9607818E-1,-6.216156E-1,-7.554289E-1,6.94137E-3,1.1483569E-2,-3.9427426E-2,-4.404792E-2,3.0498454E-2,-4.2196408E-2,1.7858256E-3],"categories":[],"categories_nodes":[],"categories_segments":[],"categories_sizes":[],"default_left":[0,0,0,0,0,0,0,0,0,0,0,0,0,0,0,0,0,0,0,0,0,0,0],"id":46,"left_children":[1,3,5,7,-1,-1,-1,9,11,13,15,-1,-1,17,19,21,-1,-1,-1,-1,-1,-1,-1],"loss_changes":[9.188133E0,8.149811E0,9.702587E-2,7.975892E0,0E0,0E0,0E0,7.6023655E0,7.6068354E-1,6.417032E0,1.4734387E0,0E0,0E0,6.565909E0,3.7759912E0,8.406334E-1,0E0,0E0,0E0,0E0,0E0,0E0,0E0],"parents":[2147483647,0,0,1,1,2,2,3,3,7,7,8,8,9,9,10,10,13,13,14,14,15,15],"right_children":[2,4,6,8,-1,-1,-1,10,12,14,16,-1,-1,18,20,22,-1,-1,-1,-1,-1,-1,-1],"split_conditions":[1E0,1E0,1E0,1E0,-5.2032616E-2,-5.767254E-2,-1.6573323E-2,1E0,1E0,1E0,1E0,-5.739679E-2,-8.79149E-3,1E0,1E0,1E0,6.94137E-3,1.1483569E-2,-3.9427426E-2,-4.404792E-2,3.0498454E-2,-4.2196408E-2,1.7858256E-3],"split_indices":[49,161,401,180,0,0,0,168,298,562,667,0,0,133,273,411,0,0,0,0,0,0,0],"split_type":[0,0,0,0,0,0,0,0,0,0,0,0,0,0,0,0,0,0,0,0,0,0,0],"sum_hessian":[2.320784E2,2.2537146E2,6.706937E0,2.1961125E2,5.760208E0,5.513126E0,1.1938112E0,2.1360316E2,6.008087E0,2.0116956E2,1.2433599E1,4.590368E0,1.4177194E0,1.9202989E2,9.139663E0,1.0575837E1,1.8577626E0,1.8643588E2,5.59402E0,7.7850165E0,1.3546462E0,9.451819E0,1.1240175E0],"tree_param":{"num_deleted":"0","num_feature":"813","num_nodes":"23","size_leaf_vector":"1"}},{"base_weights":[-1.4873802E-2,-4.837522E-2,5.0587375E-2,-7.04431E-2,6.959347E-2,-9.204483E-2,6.663182E-2,-1.11855075E-1,7.094607E-2,-1.360109E-1,5.7360392E-2,-7.9337405E-3,6.311439E-2],"categories":[],"categories_nodes":[],"categories_segments":[],"categories_sizes":[],"default_left":[0,0,0,0,0,0,0,0,0,0,0,0,0],"id":47,"left_children":[1,3,-1,5,-1,7,-1,9,-1,11,-1,-1,-1],"loss_changes":[8.005522E0,7.2487745E0,0E0,6.8676567E0,0E0,6.7469554E0,0E0,6.791725E0,0E0,7.0128202E0,0E0,0E0,0E0],"parents":[2147483647,0,0,1,1,3,3,5,5,7,7,9,9],"right_children":[2,4,-1,6,-1,8,-1,10,-1,12,-1,-1,-1],"split_conditions":[1E0,1E0,5.0587375E-2,1E0,6.959347E-2,1E0,6.663182E-2,1E0,7.094607E-2,1E0,5.7360392E-2,-7.9337405E-3,6.311439E-2],"split_indices":[43,135,0,5,0,103,0,590,0,164,0,0,0],"split_type":[0,0,0,0,0,0,0,0,0,0,